4
25 401 
-1.1958548 -0.029239647 -0.0019157695 0.042918835 -0.062914446 0.028606981 0.10534688 0.10762668 -0.082685076 -0.032842886 -0.27037126 -0.24258102 -0.13645066 0.052043915 0.2621304 0.20824698 0.24095158 0.17770173 0.101577625 0.11610282 0.15197673 0.012693888 3.1795262E-4 -0.06046854 0.07888411 -7.324478E-4 0.047774367 0.06681425 0.13325596 -0.12208757 -0.3647524 -0.46620035 -0.32970306 -0.05896651 -0.021937996 -0.020051427 0.16701694 0.124235764 0.005151001 0.21386282 0.07078972 -0.026069777 -0.017356496 0.08041866 -0.06629442 0.12590954 0.23238415 0.15719065 0.026893232 -0.35047767 -0.580927 -0.44522384 -0.44052368 -0.12607041 -0.17854029 -0.020639164 -0.04776604 0.053101335 0.06483981 0.12814845 0.099613294 0.08292644 0.07198311 -0.034492332 -0.018445596 0.12896179 0.22428896 0.32518196 0.18232033 -0.28020275 -0.55952936 -0.47181278 -0.23816472 -0.106267646 0.02374532 0.12803583 0.06284768 0.15749528 0.023699535 0.23207402 0.120323665 0.015196984 -0.14400573 -0.07821831 0.049861986 0.08725988 0.29407567 0.4418506 0.043555614 -0.5035158 -0.63723075 -0.56043637 -0.21218856 -0.0267336 0.07044505 -0.054851107 -0.034899246 0.07857044 0.042116553 -0.027054582 0.052290577 0.024869833 -0.13764518 0.034378998 -0.01804964 -0.0508788 0.29486844 0.39393598 -0.017081428 -0.5839583 -0.63635397 -0.38954145 -0.13912934 0.011252589 0.08527099 0.048314262 0.13211979 0.02221314 -0.11138838 0.03832044 -0.09870085 -0.072305046 -0.119737886 -0.016526 -0.042135816 0.18408264 0.43183187 0.47219548 -0.1396827 -0.63354164 -0.48883286 -0.22744775 0.03212698 0.14405584 0.037712395 0.15656045 0.03316273 0.0814624 -0.025326284 0.113709405 -0.09644417 -0.024613744 -0.12833738 -0.113384455 -0.11731319 0.13160822 0.5552423 0.23994681 -0.26639947 -0.7402793 -0.2601742 0.02284824 0.28090575 0.10759321 0.123603724 0.079599895 -0.033896178 0.03789042 -0.051364228 -0.010684052 -0.120188475 -0.012105329 -0.11512173 -0.11714874 -0.19346868 0.1138949 0.35543606 0.07897422 -0.54485655 -0.7329406 -0.3002511 0.1903478 0.07427825 0.18331808 0.2595655 0.05392311 -0.19463885 -0.011810403 0.014655991 -0.06650732 -0.033349603 0.08609471 -0.041509047 0.007141779 -0.11163164 0.12566595 0.25673166 -0.4268252 -0.82495725 -0.55450374 -0.05988795 0.13403974 0.22145888 -0.074242674 0.11498175 0.17641883 0.09222244 -0.049852554 -0.011012075 -0.068414815 -0.01071451 0.061494086 5.2766764E-4 0.03290255 0.082994565 0.058792107 -0.06036839 -0.5437943 -0.37121034 -0.11626408 -0.030784864 -0.022814618 -0.05192051 0.12546165 0.099375695 0.0917868 -0.09517441 -0.03332714 0.017949998 0.038838282 -0.14500897 -0.007464344 -0.0060058446 0.26908478 0.18327086 0.031400573 -0.26335466 -0.20583129 0.011601898 -0.076358356 -0.03504453 -0.068624824 -0.041871972 0.07027007 0.14357425 0.10359453 0.14910764 -0.05411442 -0.068095796 -0.06957867 -0.01956427 0.07752635 0.12861028 0.24192953 0.07322794 -0.03076691 -0.08700105 -0.01148815 0.18463574 0.06372032 0.12851846 0.063608855 0.088789 0.09877772 0.011128787 0.10780182 0.1308969 0.028108064 -0.07267406 -0.112641186 0.09369267 -0.07282683 -0.10628237 0.12160394 -0.09841969 0.07076661 -0.04776227 0.012021412 0.08864205 0.0072231777 0.045081202 0.06028646 0.037127122 0.21785448 -0.02815794 -0.032973498 -0.031143192 -0.1697269 0.019583924 0.028834509 -0.03051749 -0.014381308 0.028563326 0.0023939435 -0.09967893 0.05302639 -0.0888696 0.040902544 0.102048285 0.047113545 0.07046359 0.0033904458 -0.11477928 0.09518088 -0.05413319 -0.04940629 -0.13993345 0.023652388 0.05381605 0.039660405 0.15227214 -0.027108338 0.019151624 -0.10050875 0.07349549 0.16186726 -0.08470831 0.057107035 0.009923465 0.13249819 -0.045555755 -8.7420567E-4 -0.08968831 0.02388719 -0.079633325 -0.081281826 -0.15495652 -0.10024074 0.13742082 0.15381183 0.11393638 -0.003190676 0.033412404 -0.0431381 -0.08982036 -0.027702758 -0.09988858 -0.06871736 0.1895894 0.14853339 -0.031613823 -0.002959684 -0.152645 -0.13227329 -0.09179863 -0.2688189 -0.22950268 -0.008175072 -0.017146979 0.055701107 -0.08727353 -0.072498016 -0.05907265 -0.06325752 0.052682545 0.046394847 0.082614586 0.016237337 -0.004124795 0.11075116 -0.08142838 0.03371262 -0.07156314 -0.01663092 -0.12802324 -0.151056 -0.20104726 -0.03227056 0.072451055 0.08187453 -0.0592535 -0.17695585 -0.045620363 -0.11004155 -0.005733201 0.103483304 0.1308663 -0.07945949 -0.04092283 -0.050342157 -0.054496028 -0.11413238 -0.13445297 -0.020725273 0.031956162 -0.06323389 -0.06965145 0.0054920847 0.0778188 0.05718002 0.055780023 -0.08522726 -0.0830765 -0.21335742 -0.30987504 -0.28621075 -0.117891796 -0.2259039 -0.113622054 -0.16572632 -0.059399717 -0.085687764 0.038932934 0.18671952 0.17803022 0.19729146 0.1943711 0.22229882 0.21379486 0.02972248 0.09213348 
0.23955639 -0.026655892 -0.020771421 -0.12803236 -0.14862469 0.009801085 -0.009221168 0.06400631 0.1776869 0.24303047 0.2622324 0.07834006 -0.072325654 -0.113932475 -0.13995026 -0.30257183 -0.36676717 -0.24240328 -0.2345091 -0.12767601 -0.06605998 -0.08935783 -0.06429446 -0.10755263 -0.051533792 0.02416107 0.06411104 0.20101014 0.35019946 0.33325058 0.20329262 0.07098896 0.0011254529 -0.07009129 -0.049011674 -0.0095054805 -0.12404536 -0.27152476 -0.1900434 -0.116834626 -0.064534955 -0.08390702 -0.049545046 -0.012983434 -0.022422833 -0.0075753247 0.19784696 0.3255488 0.34123465 0.4481365 0.2594043 0.104569934 0.057746023 0.091576606 -0.095300056 -0.11959358 -0.13292423 -0.18152197 -0.15163547 -0.011942016 -0.1159156 -0.02104778 -0.14873223 -0.06913453 0.024434004 0.023796428 0.25612053 0.4731322 0.5092297 0.43779957 0.22405337 -0.05208941 -0.0068162535 0.18930449 0.088480026 -0.091088146 -0.17544734 -0.0916499 -0.111063674 -0.036585405 -0.07401439 -0.047905847 -0.10674195 -0.12448674 -0.10168945 0.1328378 0.23619072 0.3284927 0.44029325 0.33762446 0.029479602 -0.046561956 0.0055699246 0.18571523 0.19012995 0.027796602 -0.03707457 -0.22844152 -0.10762793 -0.03487291 0.04459217 -0.054165743 -0.09155879 -0.15816219 -0.0608835 0.049106177 0.1826994 0.3423763 0.5197335 0.2267597 -0.10529641 -0.18826984 -0.22733043 0.018397655 0.1681575 0.16131037 -0.145045 -0.21448228 -0.054142967 -0.08318799 -0.08322771 -0.20417203 -0.18307541 -0.03431866 -0.029258529 0.03953059 0.2002508 0.39974773 0.43855742 0.044699077 -0.26200262 -0.44483498 -0.33995306 -0.023099953 0.18472984 0.08290202 -0.11005068 -0.26935682 -0.08136102 0.12119166 -0.12672062 -0.16927259 -0.012990724 -0.08937113 -0.07445226 0.111088105 0.4457706 0.4298929 0.373894 -0.14009283 -0.3511518 -0.23296095 -0.23107886 0.098569795 0.099407144 -0.04689834 -0.23988579 -0.2487636 -0.1444554 0.09591074 -0.08855285 -0.061841603 0.17041035 -0.049442045 -0.11038472 0.08071081 0.4531374 0.4481953 0.17917913 -0.18335852 -0.36841878 -0.19203946 -0.017230658 0.120904244 0.2041231 0.052826334 -0.31930888 -0.16636947 -0.045264307 0.1912664 0.051026516 0.012881775 0.08170452 -0.046960432 -0.13719764 0.0105321845 0.26186177 0.2794944 0.12375715 -0.20655887 -0.34218466 -0.09287599 0.06185182 0.027557688 0.2266049 -0.04295444 -0.27196994 -0.24621935 -0.021599395 0.16564055 0.10381529 0.072663546 0.15029126 0.010000301 -0.27071056 -0.061364662 0.15807049 0.26165652 0.16538036 -0.18969204 -0.20992076 0.053049784 0.0041106874 0.086077675 0.22408615 0.04870653 -0.23695938 -0.30026513 0.019787602 0.29787546 0.06293126 -0.05900934 0.1406656 -0.08792924 -0.19569814 -0.0877423 0.046245635 0.24581042 0.2878135 -0.011301534 0.030441819 -0.012652621 0.019766029 0.15916334 0.099033356 -0.0806502 -0.3029599 -0.24585615 0.13610682 0.1748365 0.17984942 0.09783786 0.0056330813 -0.04520595 -0.096508116 -0.06509567 0.14650786 0.102760196 0.11369902 0.015929261 0.13301805 0.20422566 0.09196322 0.0872336 0.021154275 -0.27498454 -0.3237257 -0.1608162 0.036376618 0.17866996 0.30238298 0.03938964 0.09663166 -0.036102388 -0.17428781 0.07255463 0.16164528 0.016049832 0.15790798 0.16137722 0.11205526 0.13754861 -0.026686205 -0.01560894 -0.1573247 -0.28287804 -0.34919435 -0.2774814 0.06636718 0.28047258 0.31987205 -0.12248767 -0.068294235 -0.11883259 -0.050360464 0.18056466 0.21560282 0.20997462 0.33871815 0.05756131 0.07117334 -0.11240061 -0.07752165 -0.05536266 -0.045182586 -0.30849656 -0.28040636 -0.08715189 0.012300379 0.13838676 0.33077225 0.047118068 -0.028544065 -0.07826463 0.11285869 0.12111751 0.1255048 0.2933194 0.16627523 0.17003864 0.1376228 0.03466871 -0.010156757 -0.1714769 -0.12023652 -0.26501182 -0.20671834 -0.16515538 0.011479369 0.1046705 0.30328992 0.08653609 -0.07987376 -0.016867183 0.11228413 0.023446586 0.15834737 0.017964985 0.21254155 0.12002374 0.11969911 0.028344113 0.02599847 -0.061054192 -0.09252476 -0.1793963 -0.2605932 -0.18160608 0.008457825 0.041578565 0.13506025 0.0142964935 0.062029157 0.054590855 0.18610482 0.18593137 0.21563275 0.062666506 0.11118755 0.18551931 0.0791993 -0.007864166 -0.088815175 -0.08861154 -0.14939003 -0.2068108 -0.2852259 -0.13073254 -0.14643517 0.029848425 0.078461684 0.06830191 0.0913316 0.14468066 0.15325682 0.04168028 0.011096649 0.024556512 0.1666667 0.26720038 0.1935715 -0.02981489 0.095637366 -0.032424502 -0.16423829 -0.27738133 -0.3053013 -0.13286322 -0.12582792 -9.0827025E-4 -0.020708457 0.025060348 0.028826673 0.13791762 -0.04678555 0.0021221712 0.03148017 -0.11582852 0.08570218 0.20078158 0.10579237 0.031104574 -0.15402056 -0.24499218 -0.21179461 -0.14191177 -0.11647451 -0.041744057 0.048328344 -0.040927313 0.05932325 
-0.26831204 0.093388654 -0.0060593756 0.09711466 0.12392076 0.12544255 0.14521974 0.14366797 0.1264847 0.14272025 0.15898027 -0.051800616 -0.031659473 0.031523418 -0.0073921625 -0.111871235 -0.059042584 -0.07846857 -0.15126911 -0.17168951 -0.083959445 -0.018634718 0.018716611 0.020895274 -0.048662946 -0.06665877 0.06351065 0.03453319 0.08863922 3.8359637E-4 0.13230112 -0.12412697 -0.016288863 -0.10072624 0.00545548 -0.19437279 -0.19102715 -0.28756475 -0.22547653 -0.22182775 -0.07084057 0.017173355 0.15523191 0.14130338 -0.011886673 -0.105792545 -0.049282406 -0.0037902768 0.06027286 0.06384181 0.0035347145 -0.07505735 0.019686954 0.12660626 0.18279666 -0.16226904 -0.20933259 -0.23617369 -0.39491206 -0.28917348 -0.20392136 -0.015446252 0.15837084 0.09518167 0.02855017 -0.042217147 -0.051876508 -0.030932281 0.056218732 0.19856742 -0.0133854905 -0.07393024 -0.20815745 0.16037846 0.1431459 -0.013225984 -0.11076435 -0.20681754 -0.41673595 -0.48622543 -0.20896031 0.14866826 0.057746153 0.00769457 -0.2125978 -0.17516644 0.015933065 -0.010639514 0.046365563 0.21398076 -0.07648421 -0.12978289 -0.19783574 0.07927966 0.057989787 0.055820934 -0.20944259 -0.25036326 -0.4110609 -0.29681894 -0.23051135 0.07504997 0.0716822 0.08735408 -0.12022757 -0.20278499 -0.029180283 -0.060746934 0.2514334 0.29295722 0.0806028 -0.09579207 -0.22878788 -0.018587623 0.046392743 -0.026329393 -0.23393027 -0.31515753 -0.3418703 -0.18019545 -0.2870762 0.008467766 0.0081367055 0.061843652 -0.09858636 -0.012727366 0.20368098 0.2401546 0.32429063 0.10976225 -0.11239342 -0.09844636 -0.15167785 -0.06752802 -0.085559525 -0.08671538 -0.35729092 -0.24590911 -0.17037122 -0.109115526 -0.106894135 0.16279735 0.11246024 0.010488018 -0.0031035328 -0.07439407 0.13119856 0.22147973 0.36186388 -0.031401344 -0.1369232 -0.21144944 -0.106048055 -0.037816025 -0.047063198 -0.13837916 -0.33293784 -0.31122223 -0.17088106 -0.07093803 0.06609917 0.14884304 -0.06402082 -0.09121144 0.0814468 0.040559597 0.2664995 0.19353758 0.12521264 -0.05235139 -0.15867265 -0.1531061 -0.039801333 -0.0041989707 -0.10424645 -0.33447576 -0.32184738 -0.32114232 0.07268193 0.07295608 0.05335905 0.045931716 -0.04138579 -0.15249705 0.12591983 0.20055272 0.35985327 0.61652 0.38691917 0.06084219 0.14255275 -0.065481044 0.018331815 -0.118851036 -0.11041243 -0.21880202 -0.1826992 0.027344145 3.7112407E-4 -0.027744517 -6.188009E-4 -0.102526784 -0.07232498 -0.04402784 0.12692685 0.14178737 0.5943999 0.62997127 0.32607615 0.32448685 0.279328 0.05707419 0.045975674 -0.048065916 0.029294584 0.073015876 0.033055797 0.096495114 -0.050882503 -0.10485588 -0.1910582 -0.22418639 0.0021547033 -0.08531768 0.19651899 0.24564043 0.42267454 0.24998137 0.21456775 0.0025822294 0.054349855 0.09505012 0.15439138 -0.012227266 0.027872927 0.011245398 -0.12714125 -0.13417828 -0.01130198 -0.099826634 -0.18911386 -0.34885415 -0.39778623 0.06352069 0.3416101 0.1340433 0.14449835 -0.081825905 -0.30711547 -0.02339101 0.036954537 0.046496682 0.09953395 0.08205866 0.0908431 -0.06595397 -0.1757642 -0.07067902 -0.059621427 -0.14746484 -0.32636943 -0.5472054 -0.5850722 -0.13758355 0.16066284 -0.05322398 -0.059941996 -0.2277227 -0.2988943 0.0041390127 -0.049737155 -0.16264904 0.22617017 0.06314408 0.022516709 0.018127088 -0.011211436 -0.15325457 -0.08830045 -0.121896684 -0.042970695 -0.44094568 -0.6024343 -0.13758253 -0.22100136 -0.16984276 -0.2497035 -0.3107539 -0.12926981 -0.121151775 0.11081531 -0.041033186 0.10640824 0.096917205 -0.04799824 -0.07737422 -0.1311592 -0.12890367 -0.13811104 -0.26534688 -0.2377947 -0.3420895 -0.5341952 -0.40564474 -0.28394395 -0.2299866 -0.2170193 -0.23603863 -0.09208416 -0.0074489214 0.00818381 0.16782007 0.088107996 0.10391536 0.10207867 0.035834104 -0.043431588 -0.1799781 -0.19419406 -0.20659082 -0.19758391 -0.13821742 -0.49792224 -0.43441862 -0.28717518 -0.11624014 -0.17149915 -0.073074214 0.11857227 -0.042626332 0.0666807 0.108882755 0.22144167 0.1554431 0.022957394 -0.07686729 -0.031185977 -0.1579979 -0.22885768 -0.11688946 -0.2906844 -0.05657788 -0.30219188 -0.35233474 -0.303669 -0.16759661 -0.11476129 0.001836889 0.02884869 -0.0037447622 0.017742608 0.11169578 0.09112352 0.1054871 0.011801303 -0.0050382297 -0.006327212 -0.023021823 -0.16705908 -0.1971925 -0.17341462 -0.11191726 -0.15934204 -0.47353756 -0.37600338 -0.31436318 -0.19449455 -0.22351748 0.0412868 -0.016033744 0.013622138 0.07817952 0.093540624 0.20407265 0.1764056 0.14078948 0.07174215 -0.08997402 -0.16278766 -0.06237805 0.020442814 -0.05753558 -0.13382795 -0.33420655 -0.33289075 -0.32902902 -0.34544548 -0.36684775 -0.18451703 -0.16956858 -0.043946285 0.106688015 0.025668997 0.11470924 0.078033134 -0.01628037 -0.11848487 -0.041914698 0.02741125 -0.10691305 -0.08686535 
-0.55857867 0.044700034 0.15194936 0.2026158 0.12141173 0.12874389 0.072572865 0.054534882 0.07611937 0.07762235 0.13302515 0.028398015 -0.06936376 0.1416587 0.12427111 0.2580965 0.24668258 0.056685574 0.020184524 0.014085316 0.13478637 0.08060036 0.1637521 0.063647754 0.074397035 -0.0021798674 -0.09770984 -0.045630634 0.01132264 -0.02561141 0.12524351 -0.04859947 -0.13092282 0.0022140166 0.1981773 0.032784853 0.15279177 0.02823628 0.08488075 0.03970898 0.28657886 0.05373497 0.08591708 0.03170248 -0.048399188 -0.085523896 -0.10685588 0.015026324 -0.056379337 -0.09243079 -0.11445149 -0.17149718 -0.18823265 -0.04442575 -0.044552606 0.05037878 -0.028670384 0.22396275 0.08193557 0.03804243 0.24669398 0.08608917 0.08899348 -0.045561247 -0.04952025 -0.18228857 0.020629095 -0.049933374 0.08386505 0.09309275 -0.0950272 -0.30222672 -0.33651215 -0.11383067 -0.17442371 -0.017220648 0.058281332 0.13737243 0.20708154 0.018898489 0.20452917 0.17341727 -0.027961332 -0.09493039 -0.24653745 -0.16437307 -0.08023842 -0.1070801 -0.07574428 -0.12322413 -0.11978656 -0.1748934 -0.27919874 -0.3887754 -0.27803987 0.03726647 0.044423115 0.3809144 0.19602555 0.009017168 -0.10275864 0.0540866 -0.15122822 -0.036021106 -0.14656529 -0.14377205 -0.069259465 -0.0123585975 -0.11476519 -0.09312817 -0.09801543 -0.24911542 -0.380909 -0.40996835 -0.50812864 -0.09495124 -0.059371334 0.19652523 0.011370814 -0.08473942 -0.12115561 0.002522154 -0.1120492 -0.02761018 0.024682788 -0.015203879 -0.13851722 -0.14606087 -0.042083938 -0.20986138 -0.22914231 -0.2680414 -0.2496561 -0.43845904 -0.63614196 -0.19176763 0.07761342 0.24181843 0.2160123 0.029013727 0.005348737 0.01296515 -0.06314527 0.10859816 0.06427748 -0.04825231 -0.08746753 -0.124306835 -0.034201648 -0.024071064 -0.32193613 -0.22213425 -0.03598216 -0.40881583 -0.7098839 -0.29877675 -0.019671576 0.07827585 0.038587026 -0.12163889 -0.15174785 0.04552244 -0.12950489 -0.008629938 0.08047128 0.09973234 3.1956355E-5 -0.122946456 -0.13245608 0.039676882 -0.033144265 0.13817492 0.11940347 -0.2908196 -0.53462213 -0.3857352 -0.11376652 -0.07257209 -0.031172363 -0.15546267 -0.2108015 -0.037021913 -0.036505923 0.030539455 -0.056279115 -0.03887954 0.061269797 0.069181114 0.10581562 0.2363857 0.32078016 0.09397783 0.03841972 -0.1202392 -0.43891066 -0.32486075 -0.0050372113 -0.069097586 -0.16849099 -0.2001058 -0.18046519 0.0458886 -0.09182258 0.0059911422 0.03537078 0.032527793 0.06637463 0.22513409 0.45021698 0.6131535 0.46160835 0.19171984 -0.006753745 -0.031053828 -0.22689979 -0.21646336 -0.078626454 -0.015754592 -0.13728231 0.051241323 -0.2242703 0.15886913 -0.006500811 -0.00604198 0.0083050495 0.007381507 -0.067129165 0.036667544 0.39654148 0.347669 0.23820674 0.084607825 0.15569079 -0.08431779 -0.16678162 -0.07896159 -0.26522058 -0.108889975 0.045725275 -0.03289201 0.017289793 0.04539827 -0.10822712 0.018997757 0.07186789 -0.1740463 -0.24463464 0.0028171563 0.13477911 0.34224463 0.25254095 0.14082353 0.08526528 -0.10281394 -0.28342322 -0.3084753 0.014116845 0.063773334 0.032094892 -0.06886593 -0.196992 0.027752468 -0.10435776 0.16101095 0.12922268 -0.11559393 -0.018989226 0.03628866 0.2473318 0.22543058 0.21254714 0.08471969 0.104482174 0.09900635 -0.058343083 0.044505384 0.1517815 0.06709704 -0.1262557 0.044874147 -0.05177652 0.2984698 2.2775079E-4 0.112222455 -0.07584385 -0.058319967 -0.18012501 -0.106168956 0.3393363 0.28559774 0.16251212 -0.02226066 0.105390266 0.0902789 0.18808745 0.108977154 0.1511013 0.12418462 -0.02542565 -0.03583266 -0.0026588042 0.22791068 -0.0068178833 -0.12681308 0.0042755245 -0.2209654 -0.1405621 0.05682506 0.066832386 -0.08950139 -0.0876972 -0.07915151 0.19225897 0.13789082 0.1234518 0.09192928 0.16897258 0.052776232 0.073072195 0.0512812 -0.10739475 0.17211999 -0.05572673 -0.06657849 -0.13036287 -0.25285077 0.019666117 0.19468279 0.3225367 -0.07973303 -0.16889046 0.007301027 0.18729416 0.10478463 0.027218837 0.16662222 0.08939947 -0.003908022 0.009019435 -0.1700637 -0.22514217 0.22938797 0.050096523 -0.0016466317 -0.20013697 -0.21150695 -0.09963338 0.10626111 0.11176921 -0.21161269 -0.19442306 0.15958159 0.34673283 0.18249257 0.06439875 0.05565966 0.0018871083 -0.050920337 -0.018886395 -0.15392941 -0.2771456 0.11587889 0.02537144 -0.10284843 -0.19842944 -0.14184012 0.048854146 0.10861887 0.08862418 -0.118927404 -0.17029794 -0.05667186 0.1305641 0.12095209 0.08382321 -0.030904392 -0.12067186 -0.24627411 -0.1902468 -0.15245628 -0.19803992 0.02656429 0.12370368 -0.21479195 -0.3384691 -0.42484105 -0.2258639 -0.004721402 0.092569046 -0.102085985 -0.25269482 -0.19886704 -0.060199298 -0.07759276 -0.17066799 -0.26733387 -0.2762982 -0.32204485 -0.23891644 -0.12364678 0.0041817077 
-0.63075745 -0.02615396 0.030111762 0.0030359572 -9.915705E-4 -0.054406255 -0.01881487 0.019731438 0.03550516 0.015274619 0.03814318 0.016350213 -0.006712444 0.06190659 0.020621454 -0.093196794 -0.06667808 0.051335666 -0.05401642 0.035365444 -0.019948523 -0.053104963 -0.022445861 -0.076476805 -0.023225503 -0.013629569 -0.015073823 -0.018097239 -0.07219326 -0.06553642 0.015364999 0.016595323 -0.08894077 -0.12604104 -0.08776194 -0.13027155 -0.149439 -0.07706616 0.09803439 0.23536763 0.2011802 -0.025928056 -0.007918541 -0.063824385 -0.14734761 -0.16128977 -0.15021935 -0.14917848 -0.017556848 0.024190947 -0.055941865 0.029542377 -0.09181677 -0.1620499 -0.26144445 -0.32036713 -0.15172371 0.032341346 0.09732226 0.270346 0.21863292 -0.11214049 -0.09893799 -0.22468509 -0.3297574 -0.2755376 -0.04807366 -0.05454365 -0.17055108 0.004676102 -0.05489633 -0.026568858 -0.07847395 -0.17633742 -0.22115022 -0.3034319 -0.09892031 -0.07156046 0.014392882 0.09476397 0.09597671 -0.08727685 -0.3156647 -0.2805564 -0.3489264 -0.28482807 -0.22219889 -0.21679343 -0.20272128 -0.06406537 -0.11810548 -0.099216275 -0.037438728 -0.16886804 -0.13954845 -0.03008932 -0.055658378 -0.07161629 0.08413914 0.0734336 0.07796568 -0.21208869 -0.34584925 -0.34220502 -0.28482836 -0.23785426 -0.21384092 -0.24667151 -0.116805606 -0.20982605 -0.08426338 -0.1275248 -0.14303498 0.070711076 -0.0047466913 0.09982812 -0.063486435 -0.13840844 -0.15651965 -0.06388795 0.12787294 -0.14846191 -0.38163972 -0.33149606 -0.2321113 -0.2537485 -0.2685236 -0.23456661 -0.17715143 -0.23904322 -0.1802909 -0.15528524 -0.1544573 0.1328285 0.14909148 0.03882671 0.0069258926 0.07478535 0.032005537 -0.08643358 0.09607711 -0.16535671 -0.20479521 -0.17188345 -0.14917213 -0.18605609 -0.124825075 -0.294695 -0.21352115 -0.1696474 0.012390958 0.039074194 0.009495693 0.18088706 0.07721322 0.10672139 0.09508882 0.18040895 0.03011075 -0.18589427 0.10460728 -0.10487946 -0.1570461 -0.017921286 0.04251827 -0.024105238 -0.1250136 -0.111566864 0.112027034 0.28079715 0.21620543 0.1523399 0.031930745 -0.044469982 -0.011071433 0.036254715 0.11333816 0.13600865 -0.11937522 -0.1288764 0.0336233 0.023466337 -0.055469666 -0.09966789 0.110693425 0.04043947 0.14732218 0.1800495 0.36104587 0.27338955 0.27338403 0.043004707 0.090626664 0.18988854 0.07618028 0.15838847 -0.039477512 -0.09780798 -0.18150264 -0.119783804 -0.08891501 -0.030074269 0.09283406 -0.07289382 -0.039324902 0.10943041 0.1533499 0.33762363 0.3186335 0.3898487 0.36510947 0.2163855 0.27163634 0.12681012 0.07633925 -0.04555542 -0.11976926 0.050238684 -0.021417756 -0.026446423 -0.35622126 0.15419301 -0.029838465 -0.07883427 -0.23275915 -0.03689952 0.18620159 0.29800108 0.1341331 0.12028762 0.045064088 0.09568184 -0.0072633703 -0.24720632 -0.42229205 -0.4090517 -0.19416875 -0.10264145 0.06072497 0.016407445 -0.05790037 -0.04797215 -0.16632682 -0.22511928 -0.11574047 -0.21727341 0.007094691 0.11971397 -0.074496105 -0.046838313 0.011614206 0.059029512 -0.09402756 -0.2903025 -0.48929977 -0.57417136 -0.21469966 9.420981E-4 -0.033304855 0.045332976 0.045737237 -0.04879157 -0.19592796 -0.14377292 -0.048649274 0.008592621 -0.0026956294 -0.10585794 -0.17924422 -0.08097081 -0.058743596 -0.28211808 -0.35050404 -0.4972759 -0.55542225 -0.34345976 -0.26575464 -0.07353337 -0.18499225 0.10170191 0.16398689 -0.044736225 -0.08920993 -0.08042806 0.026620172 -0.0020620588 0.09378534 -0.20678128 -0.15540594 -0.08027983 -0.21332693 -0.23740384 -0.35191858 -0.31091633 -0.17870149 -0.123824954 -0.20774078 -0.13507006 -0.17273967 0.11023799 0.103480645 0.008773426 -0.027203064 -0.09089031 0.13353516 0.06562042 -0.13667251 -0.18023041 -0.22946402 -0.18334359 -0.16821103 -0.15259682 -0.26858222 -0.23634012 -0.050000925 -0.09833833 -0.063801326 -0.09204551 -0.13732097 -0.13916121 0.035783768 0.08680459 -0.073008895 0.061662313 0.114273086 -0.033845812 -0.1132106 -0.29772568 -0.18503425 -0.23770952 -0.01492608 -0.104898036 -0.15186422 -0.21002653 -0.16195798 -0.012650088 -0.05014197 -0.23616911 -0.19635361 -0.14694366 -0.18162379 0.075033545 0.095155604 0.1521747 0.13828355 0.04252276 -0.18748662 -0.2320353 -0.30435896 -0.16865145 -0.021736758 -0.07705317 -0.14886081 -0.14435828 -0.112749 -0.061121948 -0.2688189 -0.2316756 -0.11899634 -0.19147335 -0.117097124 0.19696 0.20383464 0.15689807 0.09538357 -0.11855204 -0.119885415 -0.2522671 -0.15515192 -0.11791198 -0.103875175 -0.1234877 -0.029894639 -0.08008501 -0.19488272 -0.15434706 -0.11091788 -0.14998312 -0.06806289 -0.03971716 -0.0148675935 0.05744013 0.197872 0.17942381 0.035506066 -0.14996584 -0.26224563 -0.25797385 -0.11395392 -0.038396712 -0.13796245 -0.020889191 -0.07290334 -0.15668026 -0.07686868 -0.11394084 -0.081200995 -0.08407374 -0.057171963 -0.08993371 0.035522312 
0.69664264 0.0499323 -0.0053442656 0.04654355 -0.047696505 -0.12179939 -0.27950498 -0.22926666 -0.13888803 0.02548383 -0.014175526 0.060617093 0.104551375 0.22600968 0.03700436 0.21598531 0.17775233 0.1245413 0.20244704 0.064717695 -0.022427322 0.06311139 0.03815085 -0.03321984 -0.15352099 -0.12871954 -0.18515825 -0.050804958 -0.04743215 0.043831047 0.016455133 0.06401397 0.23920459 0.2083337 0.18028733 0.2075674 0.16193084 0.25731727 0.17777468 0.044775475 -0.2225441 0.0873665 0.06285575 -0.06229052 -0.10506223 -0.15894347 -0.0922542 -0.07868866 0.11954334 0.12800796 -0.04419831 0.12494842 0.06504949 0.33803868 0.44179535 0.34063804 0.283466 0.31109768 0.26520985 0.030185683 -0.36873683 0.035943337 0.07394679 -0.09158036 -0.29839724 -0.39202714 -0.23208511 -0.087289885 0.022689488 -0.0659835 0.06423436 0.007010851 0.22345687 0.25978717 0.39974332 0.2706346 0.2838914 0.30639797 0.18049689 -0.14608994 -0.27565458 0.1125339 -0.024997225 -0.18590209 -0.22512552 -0.37630954 -0.23434699 -0.05238041 -0.020861825 -0.05675462 0.091177955 0.2877048 0.36773908 0.3792277 0.21084058 0.16665779 0.21710686 0.19870166 -0.024514643 -0.11694956 0.117150106 0.18039612 0.089199275 -0.15924111 -0.3239363 -0.26588476 -0.26062387 -0.07226317 -0.10380379 0.10465105 0.23321526 0.2948641 0.45972875 0.23991196 0.08491783 -0.007169607 0.122976094 0.19164819 0.025253315 -0.041546695 0.20507397 0.25458878 0.17115292 -0.07270904 -0.24352436 -0.16680984 -0.105574995 -0.04888617 -0.06301006 0.18896572 0.34343028 0.45748386 0.30898058 0.08163227 -0.10295689 -0.13003135 0.034745503 -0.026353246 -0.14943236 0.005842682 0.0277642 0.17336303 0.30928823 -0.001482548 -0.024579685 -0.13267201 0.042984594 0.02082665 0.24993427 0.3183443 0.57760173 0.34981713 0.0972201 -0.09396433 -0.061311815 -0.10262999 -0.15476021 -0.113729596 0.057999793 0.11352303 0.044088006 0.24352804 0.24917442 -0.054100905 0.10220852 0.10777966 0.17357482 0.32480586 0.41888484 0.41339943 0.5533367 0.15021273 0.068484984 -0.010057151 -0.16400208 -0.33974424 -0.14799686 -0.19766724 0.014400303 0.06121866 0.09421561 0.2802875 0.4172543 0.22558483 0.144262 0.22168317 0.2468398 0.11652755 0.30142766 0.5353887 0.3053548 0.22712538 -0.014319051 -0.040907677 -0.19989075 -0.16422507 -0.12640688 -0.04394345 -0.04239402 0.035983074 0.049768828 0.25068808 0.35004112 0.26438686 0.090797484 0.06362474 0.03987865 0.106004976 0.047102798 0.1855294 0.14562994 0.062359504 -0.09076152 0.086914204 -0.018993067 -0.011067427 0.1554402 0.071882404 0.11247445 -0.09401129 0.038996663 0.06621024 0.26074 0.21316709 0.113203034 -0.19594842 -0.2667492 -0.38757288 -0.31823477 -0.18701294 0.06864429 -0.029904233 -0.14876716 -0.07224455 0.106587775 0.3667456 0.118130125 0.26473936 0.22715735 0.014806662 -0.01787886 -0.05129542 0.2692385 0.029584162 -0.24499166 -0.2285838 -0.49506155 -0.5225135 -0.14938167 -0.11389201 0.055955682 -0.087696776 -0.07281385 0.032451518 0.056835663 0.2074322 0.18223876 0.35830456 0.411024 0.20750776 0.07499096 -0.084923275 0.18520963 -0.16878103 -0.2666417 -0.32789493 -0.31551862 -0.30130917 -0.13412085 -0.022170728 0.06676343 0.022632256 -0.114448935 -0.123457104 0.0970557 0.08029454 0.26260254 0.51723933 0.459674 0.30062357 0.2464143 -0.065838784 0.09592175 0.021330534 -0.15025084 -0.283214 -0.14829911 0.055614255 -0.14975546 -0.04951533 0.060379103 -0.10014949 -0.26689455 -0.0078602405 0.04279399 0.1454185 0.45602083 0.6370576 0.5854544 0.55069345 0.3647556 -0.073441565 0.08617181 0.102109015 -0.1750954 -0.1804177 0.0055007283 -0.03696584 0.028527418 0.14062041 0.08933297 -0.3110128 -0.101631984 -0.0659569 0.09586082 0.26599175 0.30248326 0.56100714 0.6278263 0.48798242 0.46194038 -0.16277738 0.24332754 0.06770205 -0.066901416 -0.1411322 0.092985176 -0.04736117 -0.005113695 0.02360101 0.05666807 -0.016398827 -0.07475035 -0.16427374 -0.032251254 0.119134724 0.31693637 0.37142548 0.30390984 0.42534837 0.3640886 -0.09037836 0.058851764 -0.014209432 -0.16962056 -0.0041262372 -0.19718292 -0.09301425 -0.029236408 0.04328993 0.12568513 -0.006450476 -0.09368963 -0.15556268 0.114040114 0.3463305 0.43365803 0.43300226 0.2605334 0.1982542 0.25809178 -0.1101774 0.08129973 0.07730168 0.040925376 -0.109905586 -0.20057312 -0.06005657 0.0860647 0.13488545 0.018115079 -0.03041765 -0.12520036 0.0053952406 0.17376295 0.33139628 0.28886437 0.21954276 0.13098018 0.24284951 0.22256483 0.037297055 -0.009076498 0.20903917 0.021475017 0.18207759 0.13303578 0.25337672 0.15014249 0.24028426 0.19968143 0.10922216 -0.01405001 0.07454303 0.06657108 0.3114065 0.19504209 0.2570789 0.05610795 0.10206714 0.119313926 
-0.050607413 -0.047731925 0.039827876 -1.6063238E-4 -0.14167814 -0.12014858 0.04738027 8.2439044E-4 0.013399958 -0.09565016 -0.04029403 0.122041225 0.13908504 0.06639161 0.16851702 0.04227586 -0.047880318 0.017887123 -0.09354107 -0.030110717 -0.061431356 -0.051957507 -0.08353252 -0.058799114 -0.13924886 0.04059159 0.0475641 0.013172764 0.022904623 -0.015253858 0.09393598 0.40176928 0.5454126 0.4304579 0.29351872 0.16706757 0.13890219 0.11141216 -0.07956429 -0.109760724 0.064280525 0.0027549595 -0.11319038 -0.05091095 -0.020280154 -0.133806 -0.039559983 0.11831609 0.082138635 0.03792262 0.058961507 0.36927 0.67559564 0.6880871 0.4179749 -0.04662255 0.026164655 -0.049372964 -0.15381733 -0.02779861 0.0648761 0.013812002 -0.09094617 -0.039198667 -0.07985562 -0.08431872 0.012298305 0.089071624 -0.098699845 -0.079393215 -0.1421926 0.21941303 0.6275149 0.7893298 0.45772296 0.16559353 0.013077447 -0.045703996 -0.16850759 -0.028578242 0.036522996 0.043788552 0.08656153 -0.076863 -0.14225784 0.08493155 0.059635684 0.055246826 -0.21884297 -0.24588469 -0.31248257 -0.1109346 0.4441523 0.79630846 0.5965914 0.30287173 0.09051879 -0.21250063 -0.11915704 -0.10533402 -0.038651995 0.09782233 0.08787098 -0.024844378 -0.15554015 -0.16883631 -0.08586327 -0.0055745505 -0.25119883 -0.421903 -0.3463339 -0.24588619 0.027493015 0.57937497 0.8029415 0.4494237 0.0637612 -0.10257096 -0.06704406 -0.1578731 -0.22353284 0.11127669 0.18219347 -0.07686769 -0.018846633 -0.050543223 -0.103968985 -0.23575674 -0.22174174 -0.1958063 -0.1149887 -0.07684789 -0.044967595 0.19851896 0.6846035 0.5175626 0.08946247 -0.16513678 -0.28448635 -0.03472682 -0.21443638 0.0020467956 0.04532576 -0.03473806 -0.08596288 -0.04403098 -0.16029674 -0.2747445 -0.3808809 -0.18775839 -0.25402147 -0.26716906 -0.30057108 -0.035991456 0.50460535 0.49873373 0.3637622 -0.114749365 -0.07216909 -0.068494655 -0.07803874 -0.015179471 -0.14487177 -0.014128907 0.028068893 -0.0534188 0.009770788 -0.24012856 -0.35187235 -0.09825136 -0.3298414 -0.3776301 -0.23704988 -0.20282575 0.3049498 0.62771046 0.5357084 0.18500958 0.11938659 0.0051406748 -0.21971165 0.06862086 -0.0790452 -0.015510082 0.09364865 0.08911654 0.06644054 -0.07062829 -0.23262079 -0.20091493 -0.3861739 -0.35709393 -0.39815316 -0.19459555 0.068663545 0.318199 0.32281044 0.036220875 0.1519008 0.1543333 -0.2563043 0.055252977 -0.082706995 0.07424282 0.10586106 0.15059935 0.11274699 -0.09726869 -0.41768667 -0.43460464 -0.4127606 -0.31307042 -0.38485348 -0.38887492 0.08347613 0.27573287 0.24217942 0.18133871 0.11119147 0.05771805 -0.09266059 0.03471248 0.041329402 -0.010853836 -0.08044761 0.082164474 0.15193453 -0.05549794 -0.23678784 -0.15977955 -0.29855752 -0.36560714 -0.30640712 -0.1328736 0.024886303 0.33823466 0.09103798 0.25551096 0.09822959 0.31280166 -0.020947047 -0.08480631 -0.10278719 0.09282917 -0.09173215 0.17281927 0.08680454 -0.07039272 0.016343478 0.021265484 -0.07047908 -0.2632359 -0.18203434 -0.08852193 0.23063363 0.30478257 -0.089498825 0.16449004 0.26205203 0.19995783 0.021336403 0.19064625 0.017348085 0.055361755 0.039448086 0.23655348 -0.06803819 0.118231125 -0.14874418 -0.02303729 -0.04245477 -0.106310986 0.21595632 0.20009564 0.47346085 0.26729903 0.056621972 -0.016653847 0.21676607 -0.032307826 0.026348302 -0.06925737 0.11589512 0.15576926 0.16698089 0.029907322 0.04416259 0.005345872 -0.10950613 -0.03723275 -0.043062553 -0.0426802 0.07662491 0.3630859 0.29660565 0.27518848 0.06759229 0.1470632 0.14908212 0.13431418 0.29277745 0.03217363 0.11329935 0.019796645 0.06247175 0.065639235 0.11979823 -0.09864001 -0.036977287 -0.06764994 -0.25073686 -0.034675524 0.08664663 0.4796391 0.2339007 0.21285754 -0.028697146 0.10345802 0.11724633 0.09895408 0.265208 0.037634153 -0.040232703 0.051828876 0.054490868 0.08967311 -0.09057758 -0.1802018 -0.10892058 -0.2482666 -0.34617966 0.13070989 0.23939437 0.39485 0.25960112 -0.09856744 0.04833995 0.0982738 0.06353185 0.32834098 0.24317707 0.026771137 0.16334721 0.024390604 0.057936106 -0.08525375 -0.20910063 -0.18893889 -0.041167166 -0.1852515 -0.16223237 0.04267191 0.27138823 0.08906442 0.034824997 -0.02298358 -0.012617439 0.008861138 -0.044296224 0.327816 0.2763942 0.09026588 -0.017900854 0.13012235 -0.062133826 -0.0069017895 -0.12975314 -0.10910988 -0.18203959 -0.041159555 0.045718946 0.3127233 0.1524863 0.057432756 0.08688424 0.0072325733 -8.1529893E-4 -0.12605566 0.047143184 0.15023686 0.11031595 0.09531431 -0.015077633 -0.25859362 -0.23067631 -0.34174827 -0.37097704 -0.25111791 -0.3057303 -0.15124798 0.20119764 0.40117788 0.23022798 0.07714298 -0.042122986 0.061798133 0.009657749 0.12029177 0.16855073 0.1268578 0.15519792 
-0.49840236 -0.04581168 -0.059152644 0.0865479 0.0889476 0.07839036 0.10128958 0.079274856 -0.05472118 0.0225342 -0.050743725 -0.098984346 -0.13142684 0.020856313 0.20048687 0.12144514 0.22112478 0.13886994 0.11869204 -0.1239059 0.13829531 0.036840923 0.055909123 0.10098351 0.062375423 -0.009922771 -0.053557802 -0.116560645 -0.14054781 0.064872235 0.18836002 0.14954121 0.17094672 -0.011834855 0.07279517 0.025012197 0.169371 0.12553997 -0.09141432 -0.15491438 0.13892183 0.012378153 -0.022377508 0.076470666 -0.07373097 -0.12148095 -0.14817497 -0.033460025 -0.05799576 0.04987932 0.25225312 0.066750154 0.005831134 -0.1377324 0.04208902 -0.019731428 0.03377424 0.10522187 -0.008853822 -0.15893812 0.011371522 -0.032734156 0.13840751 -0.0071970546 -0.02444899 -0.096217655 -0.22463025 -0.0167278 0.05075438 0.21481816 0.11961326 0.07187684 0.0025554497 -0.11922655 -0.10722654 0.07144585 0.1458974 0.06162138 -0.09174628 -0.13246468 0.13262364 0.10484825 0.13075887 -0.09408941 -0.34379894 -0.40252262 -0.22695455 -0.16112655 0.16776866 0.22609898 0.15743154 0.10705346 -0.37433407 -0.26503366 -0.202997 0.17368756 0.33650497 0.27002487 0.07686233 0.00778756 -0.15165845 0.1355352 0.005660941 -0.22255215 -0.2511537 -0.41567826 -0.44730628 -0.10480576 0.19880974 0.23395297 0.30608103 0.0129206795 -0.2710504 -0.35442138 -0.1501511 0.13789544 0.30202287 0.2603309 0.08962596 0.13389176 -0.078267746 0.1575126 0.007165822 -0.07218289 -0.21447943 -0.3827081 -0.2731336 -0.018425377 0.20042637 0.2585439 0.16046937 -0.21447828 -0.33608434 -0.34057745 -0.17934951 0.26296598 0.31826648 0.2680418 0.14072092 -0.1287698 -0.07566871 0.19672446 0.122305185 0.09515074 -0.16418786 -0.23836662 -0.15751338 0.09206141 0.27882525 0.21994753 0.047041275 -0.11337888 -0.21269651 -0.33362827 -0.2714954 0.12039778 0.28802645 0.13421203 0.01599653 -0.18810576 0.032501224 0.16516164 0.032938592 -0.061282843 -0.14883482 -0.20979644 -0.05394354 0.04616654 0.25272503 0.31428814 0.060519543 -0.11218681 -0.18174577 -0.46209607 -0.2537 0.05335302 0.3586319 0.074187174 -0.06358731 -0.040666398 -0.1449268 0.12473096 0.15684766 0.08341763 -0.28242472 -0.33585864 0.113952704 0.34332362 0.420879 0.33650237 -0.019258028 -0.22198465 -0.34626672 -0.3693742 -0.46277606 -0.0914905 0.101412684 0.23746288 0.023592845 -0.070931815 -0.07915908 0.08711038 0.12130557 0.043025415 0.038242877 -0.2245764 0.12547192 0.26894918 0.35300443 -0.09610075 -0.23350103 -0.39071265 -0.49551064 -0.33478448 -0.39268783 -0.24380642 0.036368996 0.15582263 0.015832944 -0.082115225 -0.061819103 0.2491172 0.18069312 -0.09116106 -0.15548877 0.031489734 0.22211014 0.2571368 0.16563432 -0.20567912 -0.4683699 -0.295534 -0.19016309 -0.20751025 -0.24819988 -0.055802774 -0.17602883 -0.16557352 -0.017060114 0.07722642 0.048024774 0.05861567 0.35066864 -0.028399475 -0.20928943 0.16739368 0.4236128 0.3833426 -0.09087272 -0.16242102 -0.12525012 -0.35588524 -0.32755005 -0.26926336 0.04817389 -0.025407983 -0.1353401 -0.24499692 -0.11485825 0.012995154 0.028433556 0.15379387 0.11363294 -0.056190286 -0.12260624 0.07487666 0.46890953 0.23909351 0.012012782 -0.18763354 -0.2469918 -0.12952389 -0.18497364 -0.02115037 0.08737703 -0.02094295 -0.02512137 0.05785332 -0.11352303 0.003773207 0.2012226 0.051132496 0.11804688 0.05343352 -0.193944 0.06277468 0.32093814 0.31346127 0.20145604 -0.1332122 -0.19983807 -0.19182758 -0.063066974 0.004306965 -0.10969115 -0.1294692 -0.1531788 -0.31644368 -0.10909767 0.04559099 0.060171444 -0.061261073 -0.062388457 -0.07228324 0.0029934342 0.14416412 0.18817773 0.23913951 0.298812 0.033631485 -0.29365233 -0.17443134 -0.15266852 -0.019465864 -0.17637566 -0.13130367 -0.069715425 -0.17057477 -0.1638435 -0.062438972 -0.22894473 -0.11536788 -0.2698671 -0.21818724 0.0630849 0.25376537 0.19092104 0.30212852 0.3916036 0.17003162 -0.20045194 -0.11185174 0.04553664 0.04014565 -0.11389521 -0.08056202 -0.12391101 -0.1575686 -0.12906167 -0.08176695 -0.26783285 -0.20818816 -0.2339113 -0.044606034 -0.008737421 0.23112695 0.15188226 0.39837348 0.3215931 0.08466914 -0.066507466 0.041718423 -0.03981606 -0.15475771 -0.14199519 0.059663482 -0.10079187 -0.107220724 -0.0033375926 -0.019043483 -0.20736875 -0.16615666 -0.17268229 -0.04049054 0.0030894536 0.2508357 0.17831628 0.16247322 0.1935273 0.16611959 0.0778037 0.16722618 0.017387802 -0.03144519 -0.03281733 0.10220152 0.029535333 0.050222155 0.009144776 9.0512465E-4 -0.1643443 -0.23315737 -0.1339188 -0.043908022 0.06678002 0.09981965 0.1395782 0.27923024 0.052963927 -0.08370623 -0.114370584 0.05039021 0.1393163 0.004086749 0.053486634 0.012217638 -0.04567581 -0.024356827 -0.03905267 -0.020298973 -0.034658775 
0.75896496 -0.0011618831 -0.052077323 0.09746608 0.030962912 0.007067165 0.062309157 0.13091893 0.07879716 0.22831802 0.28942564 0.29777548 0.06871026 0.07083844 0.109140985 0.07804289 -0.078621864 -0.0120843295 -0.15607995 -0.13078307 0.042433403 0.052173104 0.08629035 0.040982105 0.03507058 0.10495823 0.0068238163 0.101102374 0.18277346 0.30999085 0.19019091 -0.1343342 -0.19039805 -0.096771196 -0.10409886 -0.07916284 0.0011931328 -0.11127382 -0.2759049 -0.33218572 -0.11701241 0.062168866 0.018158872 0.085493 0.016887767 0.08923969 0.19358627 0.29566646 0.22075179 0.24177979 0.025460782 -0.12960616 6.3084764E-4 0.016023735 0.0064380127 0.15266965 0.015972571 -0.11257266 -0.099637784 -0.24905391 -0.16480412 -0.014307474 -0.043538313 0.09753284 0.09354052 0.015561101 0.13920204 0.18990609 0.08833359 0.20298176 0.15746835 -0.09421159 -0.14101489 -0.2419053 0.034231685 -0.09937038 -0.19207509 -0.28082836 -0.19591247 -0.2826736 -0.23174413 0.06813805 0.09988874 0.12582576 0.22247656 0.06639522 0.21912503 0.056163073 0.006306089 -0.0079598855 0.08165598 0.008616602 -0.07008754 -0.16715886 0.07104944 -0.040661562 -0.21170388 -0.24700981 -0.11085298 -0.48159033 -0.19026148 -0.020190205 0.15115014 0.23989037 0.07185808 -0.034701414 0.1761152 0.065990806 0.012948432 0.031766087 -0.1275194 0.03104169 -0.16661464 -0.14991231 -0.1731347 -0.113661945 -0.45072344 -0.36659655 -0.3391376 -0.47880182 -0.23030582 0.05960788 0.13957639 0.11231156 -0.027296668 -0.10803709 -0.02635672 -0.021472856 0.20611706 0.10166509 -0.070357874 -0.15085587 -0.24616271 -0.3161678 -0.27525046 -0.32894528 -0.4508675 -0.6117039 -0.3730105 -0.5046348 -0.29862884 0.072464295 -0.043846637 0.05724464 0.047285676 -0.059470635 0.14271103 -0.07460674 0.08154867 0.17648657 -0.08934582 -0.2792702 -0.22167756 -0.27749455 -0.30651882 -0.27604577 -0.39495075 -0.54544616 -0.49275875 -0.26932144 -0.24467963 0.092627436 0.0051090163 0.046709385 0.1416 0.15587431 0.058263518 0.01585714 0.23878361 0.01014033 0.031207373 -0.121529445 -0.2190341 -0.1619344 -0.26914337 -0.2578511 -0.26054227 -0.17358392 -0.14607912 -0.24961162 -0.09917153 0.040828 -0.038736016 0.054763407 -0.03946506 0.12105316 0.07922287 0.06890621 0.15362687 0.10129242 0.083933786 0.12889567 0.13175374 0.078629814 0.063628495 0.23238017 0.27778172 0.48280224 0.35355347 0.049226537 0.10996428 0.062318742 -0.20247315 -0.07836828 -0.13673523 -0.087302625 -0.09224219 0.0807474 0.43604642 0.43697616 0.24382626 0.29646564 0.17654675 0.34856623 0.352725 0.56461126 0.48800582 0.43409684 0.48092294 0.29488927 0.27805427 0.06073082 -0.12842754 -0.32120743 -0.20917511 -0.30029076 -0.13009864 0.28398764 0.5055936 0.503982 0.44830716 0.29059222 0.15275888 0.12551935 0.19273135 0.34273186 0.39517617 0.17766576 0.17106749 -0.011043593 0.28156632 -0.010274545 -0.12594165 -0.30974704 -0.21458042 -0.24208885 -0.23778704 0.21331552 0.43365598 0.32976305 0.15297908 0.2248195 0.04003644 0.033855848 0.090997465 0.19723438 0.21537535 0.24331805 0.0024168685 0.14982517 0.2182933 -0.10412604 -0.11270963 -0.011391611 -0.15916193 -0.24355534 -0.09568766 -0.026091402 0.3979412 0.17672944 0.09328526 0.10443651 0.10528977 -0.16267811 0.037700668 0.15588735 0.101915486 0.1217284 0.10014573 0.13925907 0.2198239 0.19210227 -0.13419463 -0.048128605 -0.16625632 -0.076023795 -0.13875343 -0.12061575 0.122000165 0.070692755 0.14452706 0.07525648 0.089463174 -0.006324721 0.16697559 0.11906308 0.09179448 0.11515458 -0.10206018 0.022854058 0.09686247 0.24367122 0.008486936 0.056229286 -0.0029905005 0.07261012 -0.28386685 -0.05046084 -0.029958926 0.22795048 0.21015069 0.17091678 0.062599175 -0.014598436 0.1792254 0.103840835 0.059217542 0.088738926 -0.024842123 0.0044193524 0.12794971 -0.031826865 0.047251936 0.108533286 0.24281576 0.08503304 0.048332117 0.014364943 0.04261461 0.041428704 0.14468014 -0.06364412 -0.015842708 0.011191639 0.04816864 0.088905685 0.011411366 -0.053806312 -0.006794084 -0.09977767 0.14234574 0.02419896 -0.04937446 0.029516833 0.071309134 0.20859759 0.060680915 0.040537428 -0.031791624 -0.10701276 -0.004241591 0.045143027 -0.056900572 0.014866979 -0.00367478 0.027842125 0.037297137 -0.07434109 -0.018322736 -0.10215595 0.047884874 0.0076592313 0.059672605 0.06808111 0.028187238 0.09322972 0.086083196 -0.046099372 -0.049417485 -0.30825487 -0.2659275 -0.20300697 0.049214523 0.17223577 -0.0040144087 2.4908938E-4 0.02028274 0.06990304 -0.080815665 -0.08463718 0.002690361 0.103654146 0.14629503 0.31971446 0.31198645 0.23223464 0.10264697 0.047821507 -0.18733917 -0.37900454 -0.5181738 -0.2747156 0.008506402 -0.07804423 0.015373521 -0.11622186 -0.1364246 -0.20161423 -3.7084392E-4 0.017380998 0.033141255 
-0.88077414 -0.023767797 -0.043425992 0.07888473 -0.102353334 -0.053423107 -0.19801702 -0.10610327 -0.1713084 -0.15036744 -0.11227432 0.13381487 0.08928127 -0.025710858 0.1494838 0.17021288 0.07206849 -0.06768495 -0.076459974 -9.349219E-5 -0.06183386 0.09322612 0.10369703 0.035827454 0.07759968 0.043559384 -0.13869694 -0.287186 -0.24133696 -0.1781113 -0.13273087 0.26682898 0.17350605 0.13294779 0.2758191 0.21393386 0.25026804 -0.059255015 -0.1031261 -0.03054097 -0.015331487 -0.011307206 0.092066504 0.09713841 -0.010135738 -0.07073011 -0.30177626 -0.41628096 -0.37851608 -0.17386413 0.09177048 0.10415345 0.20630401 0.2914108 0.20299646 0.13336118 0.16991067 -0.133513 -0.21425973 -0.101345964 -0.18145719 0.03457437 0.0710853 0.12236158 -0.09600494 -0.052349333 -0.3690661 -0.4553554 -0.39958906 -0.08855678 0.13535278 0.22324766 0.31515044 0.23288569 0.15563896 0.09683956 -0.031134738 0.07214717 -0.19579922 -0.14014308 -0.080872275 0.062875286 0.036748458 0.14145748 -0.016894724 -0.16741744 -0.28858858 -0.19385836 -0.21577264 0.029491572 0.17813191 0.10945662 0.25265226 0.10197019 0.21022326 0.037760966 -0.0506213 -0.093114 -0.063435555 -0.18915957 -0.1815668 0.21273914 0.22955433 0.051725306 -0.03236011 0.010399902 -0.08679386 -0.20824625 -0.14585188 0.021395598 0.22599477 0.27741075 0.25637022 0.12486877 0.02459748 0.016246907 -0.15485556 -0.25143048 -0.15122738 -0.23097989 -0.35835075 0.19743145 0.1521311 -0.083150946 -0.24632943 0.044436764 -0.13361336 -0.25793567 -0.050799634 0.2647031 0.29284433 0.24032311 0.09189007 -0.036636733 -0.18938203 -0.27490923 -0.27286294 -0.2940348 -0.32330683 -0.2498092 -0.5322945 0.031241175 -0.035502795 -0.31780198 -0.24174239 -0.16943179 -0.14327358 -0.16314892 -0.22518222 0.33882064 0.5731403 0.37177435 0.08781475 -0.11804587 -0.2589624 -0.32345897 -0.2329556 -0.5360575 -0.319821 -0.3480481 -0.46823445 0.018722404 0.009477795 -0.49454406 -0.38617787 -0.5361332 -0.17147484 -0.21199636 -0.14490722 0.13460357 0.4358069 0.4033221 0.12394617 -0.036158778 -0.370226 -0.07419122 -0.22182171 -0.37950635 -0.27273193 -0.35904083 -0.5072991 -0.15863878 -0.2997777 -0.45127523 -0.5678034 -0.50208133 -0.47125173 -0.5974291 -0.5251588 -0.16383006 0.0034112732 0.039357413 0.1962884 -0.05379482 -0.07573783 -0.018346477 -0.01834792 -0.37042156 -0.15692455 -0.42649665 -0.37779334 -0.18700877 -0.06299693 -0.53225255 -0.58118874 -0.492951 -0.63947695 -0.6636149 -0.31262577 -0.27597848 -0.30071852 -0.006904293 0.36322296 0.49784088 0.43896744 0.29456204 -0.06095886 -0.07171826 -0.32650766 -0.29454613 -0.32466093 -0.13695794 0.04710735 -0.3356033 -0.526553 -0.17986818 -0.21838838 0.0857411 -0.04721764 -0.04405375 0.04816738 0.07162432 0.21638851 0.63952243 0.4660417 0.107115574 0.13308136 0.018147705 -0.31148195 -0.15681759 -0.1770909 -0.06948502 0.08822937 -0.06065414 -0.22131653 -0.08244141 0.046373803 0.11710414 0.1753576 0.20509222 0.07322999 0.06476701 0.2365789 0.44436875 0.44200027 0.3283485 0.15543352 0.044570297 -0.2715402 -0.2743029 -0.13254903 -3.5661567E-4 0.100197285 0.008675235 -0.036069877 0.0359569 -0.01740935 0.09890716 -0.21246111 -0.16606079 0.16306672 0.25578123 0.22026213 0.3534633 0.3394795 0.22380513 0.06214928 -0.074879564 -0.23322375 -0.14987768 -0.17089094 -0.08470785 0.084218144 0.10060909 0.039234936 -0.12856464 -0.11581452 -0.049997967 -0.21356344 -0.03361357 0.0462266 0.14940521 0.16034758 0.29624006 0.25466472 0.12815624 0.033547457 -0.08536724 -0.09504396 0.025877465 -0.17966938 -0.059401717 0.05129526 0.0450903 0.046085484 -0.08560106 0.0031830906 -0.10971111 -0.101889424 -0.029503822 0.12740086 0.27838132 0.24971597 0.24905027 0.09083693 0.0023900864 -0.14780147 -0.3314587 -0.17822161 -0.03751153 -0.042755213 0.13934341 0.10325185 0.10700794 0.029341584 -0.25369942 -0.17326277 -0.0106263785 -0.0037787815 0.02174528 0.17390561 0.22987372 0.17420806 0.3183419 0.29716992 0.07840271 -0.14946291 -0.13074687 -0.1497709 -0.027211571 -0.064257964 0.04046876 0.022563433 0.101606205 -0.07044203 -0.2226483 -0.19912384 -0.15594912 -0.10958572 0.12913366 0.12166095 0.043551527 0.11825744 0.320388 0.2544215 -0.006611886 -0.05809363 -0.14026928 -0.12539552 0.02681651 -0.067294486 -0.0032320728 0.07843194 0.016786529 -0.013869837 -0.13757339 -0.3020004 -0.24740478 -0.15428144 -0.14376959 0.11946388 0.1987733 0.18539803 0.26738283 0.20981687 -0.042202022 -0.12106622 -0.21975222 -0.084624946 -0.063130066 -0.07902174 0.014705927 -0.0032045855 0.09670986 -0.22679101 -0.43464264 -0.55913556 -0.43897998 -0.20370091 -0.14368154 0.21639898 0.14174029 0.12792262 0.29352334 0.24546637 0.27112678 0.03824046 -0.030530859 -0.15245168 -0.105285935 -0.19066557 
-0.14467162 -0.011871625 0.015702348 -0.024534816 -0.060454946 0.0603548 0.13676217 0.0148672955 -0.10763175 0.10418093 0.11229777 0.113919385 0.035791956 -0.07640344 -0.03940218 -0.2063073 -0.1775655 -0.21787687 -0.08513706 -0.1372876 -0.066899076 0.002191812 -0.014144419 -0.004058333 0.07111252 0.11179387 0.09877268 -0.11178932 -0.06825307 -0.21400551 0.018733734 -0.0016591294 -0.07183105 0.08875925 -0.027938316 0.04411105 -0.09528944 -0.20503049 -0.14769217 -0.091385774 -0.056930006 -0.08281439 -0.018799229 -0.05301695 0.036787186 -0.039825145 -0.02324254 -0.16167247 -0.2345965 -0.15129855 -0.06902853 -0.0248597 0.04503488 0.067259535 -0.0923566 -0.12108131 -0.14982693 -0.12795766 -0.28845894 -0.24890734 -0.046062157 -0.14103475 -0.12663524 -0.021841409 0.10094087 0.051794384 -0.16774383 -0.21921925 -0.07009506 -0.05566724 0.06142741 0.09749695 -0.0046007684 0.014267944 -0.0563389 -0.107320465 -0.1844256 -0.20864229 -0.23201278 -0.19787142 0.1334917 -0.04567104 -0.024790082 -0.019837042 -0.036640238 0.08299391 -0.007177525 -0.20326322 0.06404344 0.19671607 0.053223737 0.1801367 0.08310179 0.14670919 0.011360045 -0.15565303 -0.33294404 -0.33348593 -0.19441473 0.078278884 -0.05019845 -0.21075766 -0.010363879 -0.04573487 0.11171468 0.053329445 -0.071329586 -0.093256086 0.074312806 0.097833246 0.18559667 0.22760026 0.08974112 -0.022226807 -0.040606957 -0.09778686 -0.38806167 -0.31124985 -0.110199675 -0.044510186 -0.055108957 -0.11625366 -0.040510155 -0.0035559132 0.06492706 -0.058066014 -0.0043164766 -0.15562296 0.09792527 0.14566977 0.17097615 0.049942654 0.12772124 0.0058037876 -0.11921493 -0.16711134 -0.44222438 -0.51304424 -0.11470323 0.098305255 -0.0369992 -0.27603295 -0.05630021 0.06868832 0.02274927 -0.044782646 -0.077991575 -0.055038597 0.07402386 0.3502855 0.11198414 0.0755765 0.092437826 -0.10370239 -0.04013261 -0.16974398 -0.3332904 -0.3267113 -0.21865962 0.005704676 -0.050095335 -0.17043386 -0.012260863 0.074567206 0.025222786 0.03165126 0.23028517 0.17285702 0.2448943 0.2312034 -0.013650349 -0.047792222 -0.19684997 -0.05610213 -0.074711904 -0.15237729 -0.3110018 -0.28836367 -0.15117848 -0.039553903 -0.20346248 -0.3053169 -0.12462399 -0.08654599 0.073676996 9.7065466E-4 0.051675446 0.013178296 -0.15486324 -0.2357221 -0.22283311 -0.27409407 -0.33559337 -0.21820182 0.04593373 -0.025911262 -0.17476195 -0.30285323 -0.33461523 -0.1491416 -0.14848869 -0.3505663 -0.10670021 0.090815574 0.111830905 0.19639866 -0.025135534 -0.16280688 -0.20345815 -0.19223395 0.12518013 -0.044078145 -0.24204676 -0.10382575 0.0974882 0.19582802 -0.088188335 -0.16755469 -0.25586477 -0.0821009 -0.23137298 -0.3764759 -0.19380525 -0.09332666 0.038383994 0.1066206 -0.012010348 0.14653058 0.29942396 0.26498732 0.23248295 0.07157496 0.1529837 0.0898571 0.32273564 0.1461631 -0.06924838 -0.26266465 -0.26522803 -0.21203703 -0.20763017 -0.33397618 -0.25623056 -0.03664885 0.0064852014 0.036189187 0.06786491 0.28582615 0.2360794 0.24436006 0.17648946 0.33086234 0.1587344 0.24690239 0.22707345 0.0056550624 -0.13627192 -0.25226027 -0.26017085 -0.118530415 -0.22058475 -0.18987909 -0.1983559 -0.05936233 7.143746E-4 0.014186666 0.19451433 0.115763165 0.27943417 0.21541649 0.22903816 0.25644836 0.4185254 0.3450946 0.011645024 -0.07284817 -0.12694912 -0.26069298 -0.33250752 -0.11697233 -0.089917846 -0.0617725 -0.27400875 -0.27144846 -0.17089094 0.1383534 0.23202239 0.10223344 0.12507261 0.043813184 0.12635238 0.19892225 0.10880718 0.16194046 -0.034049224 -0.06430736 -0.28029162 -0.28405002 -0.20168065 -0.0601585 -0.058434214 -0.11953226 -0.31166166 -0.1365056 -0.17475559 -0.022021033 0.12599568 0.13636087 -0.013065195 0.020201143 -0.047193866 0.19273968 0.015499999 -0.10883536 -0.18362685 -0.005355707 -0.023387315 -0.145413 -0.10703354 -0.12140993 -0.04601731 -0.036974594 -0.17681284 -0.26914424 -0.099280894 0.03503151 0.071700595 -0.09064005 -0.060192786 -0.0983666 0.015059894 -0.023713 0.035481066 -0.11677147 -0.14829409 -0.08157961 -0.27186692 -0.26188618 -0.19145042 -0.06029261 -0.032927006 0.1286775 -0.11157414 0.017745916 0.073143326 0.0027793506 0.017897205 -0.04157715 -0.09057647 -0.2054739 -0.06972786 -0.1402209 -0.0647456 -0.06505727 -0.28461626 -0.3459449 -0.3080546 -0.33765322 -0.11606898 0.03455475 0.13266528 0.08789367 -0.017195335 -0.02106388 0.0046950667 -0.0074577634 -0.014187107 0.045638688 -0.15317501 -0.17126395 -0.08878888 -0.16734624 -0.1528832 -0.25502598 -0.29546103 -0.38406813 -0.29906985 -0.26580292 -0.048310734 -0.16323037 0.033283096 -0.033391442 0.04925283 0.14786495 0.18287455 0.11149885 -0.09266751 -0.20638858 -0.29477566 -0.26216042 -0.27143723 -0.20070294 -0.27839893 -0.32093757 -0.2554691 -0.2738863 -0.31303295 -0.21073402 -0.16736208 0.041917622 -0.03738436 
0.00546884 -0.064740166 0.07769432 0.067341015 0.32319054 0.21282111 0.34778938 0.1499353 0.022169702 -0.22673292 -0.19584239 -0.12717868 -0.15973951 -0.11759501 0.053884104 0.13150412 0.055040453 0.26115832 0.06792761 0.028088633 0.16878575 0.0055358913 0.115873754 0.22061205 0.31529433 0.15616718 0.20620948 0.21419662 -0.12057485 -0.1919231 -0.21739638 -0.22800672 -0.10783269 -0.14643873 -0.12345672 -0.06243193 -0.06610489 0.14051625 -0.012102008 0.072463885 0.28614798 0.033494733 0.121665165 0.25422686 0.31801704 0.067697294 0.13596678 0.11878954 0.018943265 -0.3253135 -0.22488002 -0.27588344 -0.17278726 -0.30512547 -0.2190517 -0.2063768 -0.10690776 0.05032485 0.124589175 0.114742234 0.46436203 -0.033207428 0.22482376 0.2643716 0.34344402 0.20901462 0.09820804 0.0060461476 -0.21860649 -0.3087747 -0.27784738 -0.1776373 -0.02213185 -0.02924936 -0.28642654 -0.45619786 -0.22053514 -0.020668913 0.0021231691 -0.002157622 0.5035135 0.0030444716 0.1878022 0.33151317 0.28916347 0.25046465 0.32482138 0.014583779 -0.23730883 -0.14102882 -0.13545224 0.05875654 -0.061395947 -0.23606077 -0.23982227 -0.5806758 -0.22879352 -0.081215754 0.17862555 0.28377277 0.19502234 -0.048823528 0.04261378 0.17915447 0.20867518 0.20495448 0.15960006 -0.018019782 -0.27765235 -0.24842139 -0.20706828 -0.036681384 -0.039658196 -0.087209396 -0.28361863 -0.5135433 -0.5131838 -0.019829936 0.16467296 0.42288005 0.3379247 0.08961316 0.21047312 0.26545438 0.22095469 0.11490861 0.24327795 -0.013911592 -0.2591497 -0.17962787 -0.06244703 -0.015502396 -0.11332901 -0.043532003 -0.23449218 -0.2566656 -0.4230497 -0.054269925 0.3169142 0.098624274 0.39876178 0.15601042 -0.07874784 0.17624103 0.22455373 0.19477904 0.33653656 0.2217175 -0.17795594 -0.3397173 -0.11160383 -0.26335812 -0.1771425 -0.3310145 -0.26559266 -0.42891884 -0.3384825 0.08691928 0.386401 0.20132227 0.3708853 0.0730192 -0.1403078 0.2538538 0.24964325 0.28271583 0.35704985 0.15524507 -0.2815893 -0.16491368 -0.18998875 -0.26245373 -0.15780795 -0.057986744 -0.3012529 -0.5165229 -0.16447328 0.21065184 0.2895222 0.17540722 0.115879074 -0.0576033 0.091464825 0.26228523 0.10987757 0.05671899 0.31371072 0.40272343 -0.20349927 -0.36635625 -0.4528789 -0.1990788 -0.33600387 -0.049719706 -0.44076878 -0.4632369 -0.10948794 0.37187436 0.20199159 0.07051667 0.07860796 -0.10633798 -0.0076539963 0.1825345 0.08940356 0.25148106 0.4824814 0.282649 -0.39312574 -0.49104127 -0.32859948 -0.23193346 -0.26712728 -0.2236373 -0.416822 -0.19687845 0.15768504 0.2720846 0.30687523 0.011447151 0.06451702 0.026214434 -0.026400018 -0.010989175 -0.065175354 0.18848506 0.40354228 0.19579089 -0.1272874 -0.26385847 -0.356446 -0.1085036 -0.0999464 -0.23746479 -0.16839889 0.04435937 0.0044118785 0.19706652 0.10602402 0.17960922 0.047452737 -0.078111246 0.118230075 0.00711803 0.13481753 0.13858278 0.31556162 0.08470336 -0.08016879 -0.14886194 -0.21642116 -0.25491577 -0.28851888 -0.43290618 -0.13696526 0.17567267 -0.09332822 0.09844701 0.16518617 0.17943506 -0.17265873 0.031219391 -0.14044575 0.08446555 0.20635156 0.10893164 0.05385705 0.09367718 0.1504541 -0.123109475 -0.15902029 -0.3475214 -0.24141802 -0.14823723 0.22116886 0.16879505 0.028765425 0.018785104 0.0018559761 0.14715168 -0.039766267 0.22396193 0.021904925 0.048722647 0.22828409 0.13925742 0.15110788 0.10763001 0.034943778 -0.020437099 0.08288021 -0.07330394 -0.09001502 -0.09865602 0.12898593 0.12922865 0.037605315 -0.14683446 -0.004588653 -0.037837196 -0.01058929 0.031022744 -0.10752357 0.040741816 0.08874192 0.08480143 -0.15532418 -0.20664605 -0.071269475 -0.22186302 -0.12516676 0.02016009 -0.019176729 0.20480612 0.14732307 0.043749053 0.008003028 -0.12867008 0.090450995 -0.033697065 -0.3672505 0.0019866733 -0.08733398 0.1961322 0.16108249 0.0646075 -0.024407217 -0.08637434 -0.120264225 -0.056362845 -0.09641117 0.16332573 0.22024383 0.3051955 0.07630608 0.04130332 -0.06363222 -0.16680656 -0.07168267 -0.09479099 -0.45629153 0.025697097 -0.12084556 0.13039245 0.072266735 -0.05038994 -0.05339005 0.034719024 -0.14018649 -0.23813468 -0.26108688 0.20195149 0.33663404 0.2181196 0.20984784 0.21044378 0.04984712 -0.06116152 0.07212147 -0.17589189 -0.41039184 -0.09352931 0.04237362 0.008256308 0.09253496 0.04473479 0.053576108 0.0317525 -0.108637236 -0.14412172 -0.029245563 0.11122158 0.20134643 0.17130327 0.050458312 0.06788542 -0.06961057 0.12217778 0.017384462 0.029909052 -0.18086724 0.042849578 0.11240979 -0.055156637 0.06294119 0.16610086 0.0018634538 0.024318827 -0.21583307 -0.18111387 -0.091415405 0.1717024 0.27079457 0.21271297 0.19196215 -0.050585132 -0.017081542 0.13484226 -0.052241497 -0.11571936 -0.10298103 
0.38502932 0.06113392 0.029052705 0.023882281 0.10867324 0.22467433 0.078401476 0.034704264 -0.050392393 -0.050842788 -0.009807315 0.020178877 -0.11694289 -0.074147336 -0.09380994 0.03327865 -0.096126236 -0.07777231 0.060942348 0.0106596965 0.13676289 0.054944072 0.1583131 0.04759713 0.13514084 0.055283405 0.104208335 0.03187496 -0.018579692 0.0047738096 -0.090941 -0.20712298 -0.28098994 -0.17278533 0.02662926 0.07889809 0.03571668 -0.015211485 0.026525173 0.034862276 0.046643496 0.08357944 0.20800444 0.03264751 0.086287156 0.058199022 0.09642302 -0.017569413 -0.21275067 -0.19455834 -0.11503928 -0.06936954 -0.16906463 -0.002727633 0.09158162 0.12567534 0.04255019 0.1771458 0.06035392 0.06991864 0.033169053 0.0803115 0.037092566 0.06581577 -0.0025147593 0.04479434 -0.040102176 -0.01536246 -0.026106091 -0.10207052 -0.08423227 -0.08089148 -0.10978605 0.06476962 0.15270266 0.10648372 -0.02674858 0.21700242 0.088026755 0.08990687 0.13789663 0.184444 -0.030639332 0.026140437 0.007070073 -0.10103187 -0.12653378 -0.20435593 -0.11559188 -0.14623837 0.0131522 -0.13396944 0.01057622 0.05076124 0.116700396 0.014705074 -0.03126852 8.5999427E-4 -0.01235508 0.11958435 0.012147187 0.027425827 0.0379879 0.035010405 0.009161685 -0.08705939 -0.09295056 -0.28252926 -0.14681926 -0.014345541 -0.07436049 -0.08320667 0.13002805 0.14451176 0.094340764 0.08503774 0.01240558 -0.028002353 0.1237542 0.17087011 0.07007693 0.0723299 -0.09262123 -0.038298417 -0.1771342 -0.047643103 -0.26634243 -0.34080213 -0.07620606 -0.05281212 0.03615879 -0.1114745 -0.004541947 0.09652071 0.024253799 0.08210011 0.2033955 0.02084716 -0.0843057 0.23166855 -0.08818446 0.09148799 -0.10574772 0.047859903 -0.14281784 -0.26188424 -0.4411066 -0.3127528 -0.05669804 -0.110584006 0.10129978 0.057172842 0.121853225 0.077353776 -0.08408924 0.15449683 0.043221444 -0.14544944 -0.09536462 0.06607259 -0.026329683 0.040054444 -0.09558871 -0.12957424 -0.13972312 -0.27108315 -0.29612944 -0.2054395 0.08937989 0.0033187605 0.04150386 0.061573442 0.005980796 0.004636083 0.15267749 0.31154776 0.24777219 0.092537686 -0.05917598 -0.07454645 -0.19608214 -0.06542717 -0.04342358 -0.09966508 -0.05011583 -0.09457436 -0.057772916 0.17679219 0.194668 0.1879722 0.2086386 0.07136008 0.13341504 0.12464824 0.44174775 0.62951547 0.60893404 0.14914823 -0.051943935 -0.21470772 -0.21604224 0.07635055 -0.0186789 -0.17434126 -0.19279122 -0.10934773 0.38284582 0.5237315 0.39574832 0.23760058 0.236157 0.20866728 0.3324678 0.38992596 0.4938788 0.6660376 0.552347 0.25644413 -0.21013035 -0.16182162 -0.2892079 -0.17956312 0.003810639 -0.051536374 -0.07713483 0.06480384 0.4010278 0.59639394 0.3026059 0.32150954 0.3721708 0.4036202 0.47889045 0.4138152 0.41689038 0.47993985 0.32321644 -0.057470012 -0.11461959 -0.26565737 -0.21319208 -0.1527483 -0.040591463 -0.10702423 -0.12355584 0.01840062 0.4252418 0.37734258 0.16404225 0.26421756 0.41805843 0.36429092 0.21320267 0.29589608 0.27054477 0.13911994 -0.10430765 -0.19654885 -0.11870122 -0.20160502 -0.20257354 -0.1909342 -0.11724344 0.09478024 -0.1765905 -0.011052674 0.3310784 0.4473003 0.15675697 0.1282058 0.26699913 0.32351437 0.2184606 0.14270712 0.14063963 0.046624664 -0.15253375 -0.172254 -0.0022368089 -0.07531558 -0.1336844 -0.16968268 -0.17021163 -0.047145158 -0.11181375 0.058990475 0.3982302 0.34289408 0.11565565 -0.05908584 0.09474231 0.18105887 0.13312115 0.14759588 0.017362999 -0.008451098 -0.14082107 0.005575053 -0.10979244 -0.13782768 -0.07347788 -0.0943368 -0.078653745 -0.25235334 -0.1915664 0.027148409 0.4121398 0.44357735 0.17427735 0.016490096 0.06379831 0.11625435 0.102550335 0.014028902 -0.028486539 -0.13252677 -0.07395121 -0.07607462 -0.09297504 -0.11364109 -0.030856103 -0.14255853 -0.08450375 -0.19231333 -0.2813892 0.12946373 0.36502343 0.31345224 0.28688028 0.08354722 0.12731108 0.02376285 -0.013737512 0.093799606 0.03405007 -0.10085744 -0.122817464 -0.04408391 -0.0062695174 -0.016714074 -0.12690507 -0.1354157 -0.18496266 -0.13522744 -0.07002233 0.055266388 0.35705602 0.2996647 0.16941252 0.2785761 0.16229117 0.14808989 0.11048575 0.035848822 -0.070431694 -0.2535067 -0.19636811 -0.06854538 -0.15602127 -0.0867433 0.006621591 -0.03491427 -0.24304947 -0.15453853 -0.056281015 0.16524415 0.21373796 0.17450103 0.25725174 0.24102895 0.07640802 -0.07634761 -0.10809684 -0.19236183 -0.22858691 -0.13908595 -0.18067107 -0.07127387 -0.08159841 -0.053861886 0.033115014 -0.053526837 -0.26239085 -0.24038842 -0.034275386 0.08087099 0.07997266 0.10611923 0.13023633 -0.1252614 -0.08966149 -0.27731967 -0.28379995 -0.204707 -0.031680524 -0.09910334 -0.0037457426 -0.07705889 -0.08133761 0.002766625 -0.055614196 
0.5339449 -0.029833881 -0.04656429 -0.11613069 -0.13872531 -0.22698931 -0.052207276 0.009376727 0.041840445 0.020984981 0.01887286 0.038851734 -0.1143131 -0.08060219 -0.03635078 -0.03083859 -0.023765273 -0.072503686 -0.050452147 -0.03923672 0.096415125 0.00994788 -0.15312576 -0.16335186 -0.21114501 -0.25917938 -0.23056482 -0.19291317 -0.077231 -0.036460396 -0.013738395 0.0088590365 -0.113516234 -0.09242357 0.1029504 0.077975646 -0.018230729 -0.110789165 -0.052392505 0.034722604 -0.023049885 -0.13323377 -0.18208404 -0.31961283 -0.27750435 -0.3961016 -0.1377509 -0.04382819 -0.08203119 0.010027247 0.12375134 -0.04667825 -0.17976151 -0.068878025 0.14346866 0.38525277 0.15274207 -0.03551099 -0.017057877 -0.16173807 -0.004499571 -0.14543863 -0.36839518 -0.37311915 -0.26459336 -0.23326781 -0.278405 0.057941955 0.0370765 0.017181715 0.05497749 0.07390076 -0.06331993 -0.2010984 -0.0015285247 0.14673391 0.19209279 -0.027515024 -0.09339855 -0.025003396 0.011948969 -0.32116038 -0.18520568 -0.30418533 -0.045552522 -0.04673154 -0.10251264 0.07246041 -0.021362754 -0.08016441 0.031124962 0.14299947 0.080011785 -0.30055666 -0.19908674 -0.11697015 0.12878731 0.123867154 0.14016882 -0.040781952 0.01532005 -0.18632664 -0.10669739 0.009678212 0.14786275 0.19309163 0.089672856 0.19542323 -0.08820159 -0.16696472 0.010224009 0.13368669 0.07900892 -0.27012432 -0.2074642 -0.07103941 0.042051926 -0.058157995 0.077289544 0.021590367 0.086063184 -0.2244355 -0.0054627894 0.09126838 0.25334805 0.016257273 0.054409657 0.25089005 -0.004097944 0.07904615 -0.095843546 0.21175918 0.10386134 -0.116179645 -0.18225633 -0.20992897 -0.031821184 0.02544434 0.07236259 -0.0069824536 0.10325185 -0.011180313 0.04495679 -0.04264977 0.09588387 0.22813746 0.28987738 0.1215459 -0.02200296 -0.052110415 0.017843824 -0.08362208 0.002189649 -0.09276585 -0.08321012 -0.25356475 0.042268384 0.10157911 0.012420738 0.11547877 0.17631942 -0.091489024 -0.10251339 -0.1368717 -0.08446081 -0.01128623 -0.015637768 0.114544876 -0.047871597 0.06636579 0.08725981 0.11580034 0.124488845 -0.07575796 -0.07045693 -0.058053847 -0.15586038 0.044543978 -0.012009239 0.12103427 -0.024775703 -0.14304483 -0.16250229 -0.1173342 -0.07026665 -0.050002918 -0.035723217 -0.045091864 -0.18941148 0.11379094 -0.010988554 -0.06319835 -0.15032633 -0.06441449 -0.028768605 -0.043216325 -0.059832316 0.014264659 -0.10092231 0.03779888 -0.09425734 -0.2446215 -0.01956579 0.042989794 0.09496543 0.09713826 0.0014795859 -0.11918062 -0.27802062 -0.21254179 -0.068171114 0.012084885 0.008932733 -0.10337457 -0.059805084 -0.00806239 0.031847686 -0.04336618 -0.022677295 -0.09150204 0.11030037 -0.11952903 -0.10123417 -0.105782315 0.0520182 0.20482208 -0.036742926 -0.075681046 -0.19999576 -0.1938952 -0.13791046 -0.021686021 -0.07472122 -0.15711388 -0.21334022 -0.014524251 0.0024578676 -0.10583001 -0.052972652 0.039008047 -0.106447995 -0.1292 -0.0320633 -0.15405852 0.036246095 0.06500123 -0.01772931 -0.19617525 -0.23226811 -0.485959 -0.2987677 -0.011032216 0.0396921 -0.22226717 -0.040375706 0.12606537 -0.088675804 -0.113602035 -0.17701608 0.09720973 -0.030016178 -0.14340806 0.015642112 -0.21828161 0.19751862 0.15388396 -0.031918183 -0.27056652 -0.438131 -0.486019 -0.09047947 -0.0088792825 -0.008818128 0.0076366137 0.08949236 -0.10813243 -0.16164938 -0.13004708 -0.095874265 -0.0027433322 -0.08250033 -0.2558828 -0.1336955 -0.073206715 0.09451019 0.1674224 0.112403914 -0.2211763 -0.6790852 -0.539857 -0.09041148 0.16832396 0.102684796 -0.10797443 0.054661542 -0.061557893 -0.06231799 -0.04380896 0.10484777 -0.01001776 -0.072082415 -0.06237033 -0.0019178188 0.107154876 0.045323603 0.2468545 0.13757719 -0.166032 -0.7978626 -0.6983377 -0.09631506 0.052286405 0.060527183 -0.016525919 -0.08735283 -0.04097541 -0.0498767 -0.019007284 0.05713153 0.13233387 -0.09331789 -0.1315416 0.08136723 0.035333015 0.097436555 0.28077558 0.12924665 -0.059737828 -0.7909672 -0.8312563 -0.4516622 -0.048139323 -0.016814625 -0.011108652 -0.059963934 -0.017872583 0.041751564 0.041207053 0.089448236 0.028065642 -0.016538125 0.15604202 0.083228774 0.06773717 0.16488166 0.24564287 0.18145539 0.1293441 -0.57454634 -0.9062169 -0.63528216 -0.29837865 -0.18691155 -0.18493916 -0.13597724 -0.12262743 -0.058887985 0.024580073 0.10453995 0.018491266 0.029801166 0.10776637 0.25233632 0.21398932 0.10602613 0.10728031 0.08854606 0.101875104 -0.5491226 -0.8424626 -0.5047386 -0.20898706 -0.34305906 -0.22480756 -0.28272212 -0.28406906 0.0020509947 0.09118175 0.16382575 0.043902628 0.021051824 0.18126647 0.26270756 0.4895825 0.47919005 0.4472503 0.56482774 0.21117172 -0.352867 -0.6894099 -0.51509964 -0.2162279 -0.24718516 -0.22514285 -0.11403506 -0.07884831 -0.11824527 0.095958814 0.060411252 -0.045359563 0.05523706 
-0.3180711 -0.062557854 -0.0059191547 -0.044272084 0.06411794 0.18562086 0.03642145 0.13631098 0.10210439 0.04221349 0.1357451 0.20578775 0.057758193 0.059031803 -0.07617192 -0.17359708 -0.13136037 -0.08548185 -0.15553749 -0.07367106 -0.1787394 -0.07992744 -0.017305795 0.05094619 0.006674463 0.02694686 0.010240427 -0.047178134 0.029249024 -0.07744844 0.11592302 0.07674072 -0.18908358 -0.044085443 -0.07032641 0.06386981 -0.13594256 -0.2382634 -0.14061403 -0.0476758 -0.046300475 -0.046477284 0.004887245 -0.03301399 0.07118493 0.04755437 -0.013911506 -0.033628363 -0.0053945226 -0.09949103 -0.021779966 -0.027571464 -0.01954157 -0.044972382 -0.09748637 -0.120526485 -0.1298399 -0.24907991 -0.13707753 -0.13128276 0.04648659 -0.15384902 -0.08316931 0.07390963 0.037187263 -0.030181043 -0.01828425 0.012982004 -0.038889658 0.015548598 0.08934344 0.08952319 -0.018945213 0.071488895 -0.0073920274 -0.12792164 0.041465793 -0.09422228 -0.07291789 -0.021135634 0.10767627 -0.13827729 -0.045866907 0.10321774 -0.13223937 -0.002049779 -0.03551425 -0.08107745 0.009131235 0.11384666 0.035820942 0.030999025 0.0023598254 -0.01119315 0.019856226 -0.1128588 -0.05725921 -0.06554343 0.10122679 0.044050246 0.058443956 -0.026450757 0.1946812 -0.08169206 0.035071217 0.073006876 0.11090153 0.105935626 0.026137434 -0.054929003 -0.063529 0.06998268 -0.13140452 -0.10798439 -0.10441122 -0.118709184 -0.20480192 -0.124331705 0.063286 -0.029143248 -0.18362528 -0.093875006 0.075987875 0.043739382 0.05533212 0.04478973 0.13688472 0.12930068 0.12832522 0.003282069 0.06883146 0.014933509 0.0024791923 -0.112992786 -0.2143183 -0.19814685 -0.16448884 -0.25042304 0.03278758 0.10548083 -0.14431354 -0.24401838 0.058048457 0.06797005 -0.109215036 -0.10926809 -0.031259228 0.06310585 0.04049055 0.12671007 -0.03535412 -0.12851489 -0.15934968 -0.15555163 -0.19556744 -0.23927121 -0.42599398 -0.30265126 -0.12830041 0.09084061 -0.18167394 -0.3669544 0.014615423 -0.002296134 -0.008711014 -0.015376304 0.18469122 0.12766969 0.08661365 0.021943543 -0.24576911 -0.20770276 -0.32447225 -0.08436139 0.041661188 -0.20627062 -0.43820414 -0.29905427 -0.16665879 0.039892267 -0.27138725 -0.48242307 -0.16082972 -0.009576639 -0.07970981 0.0334014 0.04483707 -0.088495836 -0.27472782 -0.5191393 -0.5126289 -0.086586185 -0.14005165 -0.07829077 -0.0304381 -0.18683265 -0.40587565 -0.2664037 -0.11343534 -0.13717207 -0.18548785 -0.5278384 -0.22313036 -0.09646313 -0.12195825 -0.08288644 -0.27981994 -0.64750594 -0.639375 -0.4447546 -0.15351343 0.03139953 -0.14914325 -0.11994389 -0.06798593 -0.08500316 -0.24720961 -0.2275498 -0.26712132 -0.089149326 -0.13346867 -0.5623087 -0.09428711 -0.16731389 -0.29278937 -0.30410126 -0.37306687 -0.52297246 -0.18664165 0.0041791 0.034949593 0.032347463 0.10735237 0.13973314 0.16150565 0.03058618 -0.14149699 -0.15685344 -0.18978906 0.05697233 -0.13431959 -0.33706018 -0.115257405 -0.07548561 -0.029689768 -0.2470155 -0.21655098 0.06362108 0.111170694 0.1534449 0.17456354 0.30355194 0.17345625 0.23147623 0.06879167 0.07624093 -0.021799875 -0.08959187 -0.043499585 -0.08753222 -0.24192335 -0.21858008 -0.21049663 -0.08103418 -0.012293874 0.00866098 0.14110549 0.28814882 0.40334412 0.39603844 0.32549846 0.36598843 0.430607 0.2117379 -0.031370714 -0.01679116 0.03682303 -0.062244598 -0.029035728 -0.10075715 -0.23088318 -0.0735268 -0.047847755 -0.014195656 0.012814275 0.23161979 0.17537515 0.21175386 0.2972186 0.22507063 0.19679768 0.33752474 0.19734639 0.12862113 0.13462728 0.044650108 -0.16485891 -0.16182409 0.040395316 -0.07239859 -0.048450314 0.012513034 -0.08243747 0.053571355 0.11956348 0.16394548 0.17742004 0.26796982 0.18316798 0.18814063 0.29403156 0.46309513 0.25800166 -0.05220189 -0.05606472 -0.022089547 -0.1252164 -0.20262316 -0.087309636 -0.032627143 -0.008551716 0.15029009 -0.06461962 0.14241995 0.256833 0.10646589 0.23160455 0.094467655 0.18448143 0.16772716 0.29756138 0.30868754 0.1968477 3.283717E-4 -0.12562025 -0.043074228 -0.23902132 -0.26468837 -0.11218707 0.027276207 -0.035254534 0.1273852 0.004440408 0.17146136 0.23730907 0.17354104 0.06365939 0.07435863 0.039618783 0.11597759 0.17301081 0.028981525 0.024172107 -0.026404437 -0.1408545 -0.19508035 -0.29293704 -0.11720396 0.026603417 -0.019228484 0.017418217 0.19776514 0.14627872 0.08882054 0.18153559 0.2702718 0.14231211 0.08891331 -0.08634071 -0.059390686 -0.045026407 -0.048707478 -0.13016294 -0.07268051 -0.3253521 -0.38361484 -0.3374335 -0.16767241 -0.07586496 -0.09637647 0.068539076 0.18149085 0.19190694 0.116498895 0.22288005 0.02483272 -0.07941288 -0.21146402 -0.4334514 -0.267075 -0.36370343 -0.32520017 -0.2688871 -0.3533516 -0.28929654 -0.3326435 -0.20405354 -0.13182668 -0.1338645 -0.090292014 -0.008026324 
-0.79541236 0.082402244 -0.007855727 0.008096067 0.08833845 0.2059265 0.18930277 0.2652122 0.07100009 -0.0037529587 -0.015812527 0.0020191805 -0.009912322 -0.031680234 -0.026398119 -0.022027586 -0.044338536 -0.13025908 -0.11360914 -0.19621414 -0.016968343 -0.016584035 0.040643394 0.10348491 0.054493316 0.1082891 0.2693088 0.21247146 0.004640688 0.06988809 0.016295906 0.05821328 0.11653291 -0.012126053 0.06745993 0.12492522 0.13883334 0.014889368 0.02006522 -0.16044648 -0.14402844 0.009186134 -0.12928501 5.446591E-4 0.12742227 0.23591068 0.22868644 0.060756683 0.22431272 0.16807725 0.1831349 0.07680215 -0.029035334 -0.052828882 -0.09903042 -0.07786057 0.16332543 0.03192486 -0.12997092 -0.05264788 -0.00827261 -0.1753002 0.016267205 -0.019717906 0.08375784 0.19504197 0.08946952 0.053289205 0.20865443 0.19389603 0.12086885 0.13673891 0.042659156 0.097102165 -0.0364274 0.013761755 0.09342801 0.044100735 -0.055030677 -0.04156521 0.033836987 -0.17283933 -0.092922695 -0.024257801 -0.06855398 0.12658717 0.05801795 -0.018067267 -0.079321474 0.26504335 0.22296175 0.08303068 0.06176003 0.114868276 1.1506145E-4 0.06928042 -0.09562204 -0.21373326 -0.14511141 -0.015584471 0.0964218 -0.17901905 -0.15923417 -0.16745469 0.027959574 0.19041826 0.102678955 -0.028923541 0.116969794 0.12456959 0.31269422 0.23537521 0.080899104 -0.118859805 -0.0948773 -0.23400934 -0.24540667 -0.20888892 -0.0065328153 0.15856844 0.015632302 -0.13060258 -0.16600676 -0.12489716 0.08317065 0.2679123 0.21521266 0.15982416 0.11412446 0.301297 0.3815244 0.29151317 0.03347577 -0.31009346 -0.34672824 -0.4986796 -0.3133201 0.021739986 0.21772648 0.08903404 0.08251098 -0.11717112 -0.17881379 0.011582789 0.11253573 0.11824576 0.22276615 0.26714826 0.17416576 0.3614986 0.08462404 -0.14184168 -0.574848 -0.83910495 -0.6961268 -0.44715756 -0.29995063 0.009568766 0.3294078 -0.0081875855 -0.1401089 -0.09653073 -0.09490618 0.09288914 0.06119172 0.15195669 0.1803783 0.27099997 0.21436015 0.1058973 -0.38568386 -0.61483276 -0.7393012 -0.96344674 -0.5622842 -0.39874443 -0.3008857 -0.0131055545 -0.0088841785 -0.1207525 -0.091045044 -0.008320762 -0.014856425 -0.13924867 -0.1939852 -0.084297955 0.0768356 0.07315925 -0.21173081 -0.35975417 -0.87669075 -0.78730065 -0.6588817 -0.55263984 -0.13442639 -0.105946176 -0.19585037 -0.0035342914 -0.037897162 0.11512276 -0.08655656 -0.047112126 -0.18943745 -0.3562892 -0.31028974 -0.20542122 -0.15079898 -0.3294806 -0.4607435 -0.5825648 -0.5975749 -0.32998 -0.10981247 -0.05359326 0.1708483 0.20812988 0.016746271 0.036358673 -0.025413448 -0.023989726 0.08788793 -0.063632235 -0.21985619 -0.42882207 -0.4357299 -0.23043862 -0.34104657 -0.3469 -0.37382933 -0.1946472 -0.121235065 0.07897365 -0.091398954 0.04397902 0.019293588 0.10618922 0.07927804 0.0869401 -0.0014306456 0.16560122 0.10137659 -0.16701262 -0.09463033 -0.27519715 -0.17002344 -0.24349064 -0.038062043 -0.08567072 -0.14821318 0.16643228 -0.0053626294 0.025141168 -0.22110604 -0.08804309 -0.025393492 -0.008439071 0.08848015 -0.19571811 0.017572146 0.11401288 -0.012418628 -0.05933175 -0.06897907 -0.10155917 0.10824198 0.098428756 0.18944564 0.19237705 0.19478974 0.27046368 0.091265805 -0.110324964 -0.10042353 -0.0368796 -0.028279748 0.1911721 0.13544595 -0.022785364 0.023187257 0.014999752 -0.0063941437 -0.075968415 0.08673436 0.083321065 0.16197309 0.12174938 0.23530129 0.066004656 0.22296396 0.15252914 -0.12605727 -0.02459186 -0.14264481 -0.017874986 0.046185706 0.2397167 -2.9266858E-4 -0.079095684 -0.16001746 -0.029395925 -0.11469432 -0.049314637 0.096247956 0.13242528 0.020533953 0.074546225 0.2343662 0.25241455 0.13012902 -0.08278765 -0.28191987 -0.16256629 -0.25567627 -0.063433915 -0.0073484583 0.06040293 0.16135523 -0.014762602 -0.22858481 -0.07882038 -0.17323896 0.05225894 0.18050033 0.090700224 -0.036414772 0.06387067 0.1369162 0.16876428 0.15780655 0.038133554 -0.11293002 -0.16009817 -0.11739014 0.018769093 0.023683744 0.09621164 0.07604896 -0.09359537 -0.20386809 -0.29017892 -0.30166438 0.0014238872 0.17883407 0.19937178 0.057670686 0.07830796 0.1888943 0.14071609 0.22411352 -0.015118327 -0.07987951 -0.03826186 -0.020954315 0.08236644 0.10299831 0.1811762 0.18057632 -0.12023148 -0.1341191 -0.12133366 -0.2962495 0.084846444 0.003075138 0.14033446 0.18690929 0.098623015 0.21179825 0.2420835 0.25830168 0.29109862 0.3198794 0.09630475 0.17348543 0.002769703 0.13821381 -0.011374028 -0.027063916 -0.18068077 -0.19849786 -0.2275612 -0.16318725 0.016721074 -0.03574582 0.06939602 5.843289E-4 0.25001502 0.16043906 0.21668513 0.15719551 0.33562115 0.19658329 0.22178727 0.1552068 0.06582719 0.023980578 -0.1437415 -0.24277127 -0.1514747 -0.23208329 -0.112089515 -0.06774685 
0.38399068 0.021260135 -0.04128524 0.016189868 -0.020946031 0.038871173 0.05236803 0.024683425 0.09361488 -0.02766578 -0.08854517 -0.17168379 -0.051198978 -0.01435251 -0.0015004061 0.062067643 0.18438591 0.03647447 0.22723222 0.19296645 0.19632605 -0.021372491 0.0395413 0.0028307682 -0.0163665 -0.012446023 0.01888756 0.13728319 0.051670637 -0.07189792 -0.06548098 -0.14555098 -0.18198398 0.027964707 0.17318058 0.08631581 0.14118013 0.13619642 0.13624756 0.15195483 0.007598952 -0.01503006 0.056683037 -0.04143175 -0.020591637 0.033150055 0.048913628 0.17269002 -0.038105648 -0.14827566 -0.10927674 -0.117697895 -0.08534072 -0.081263654 0.2266178 0.26669526 0.14917861 0.23422539 0.21998097 0.07434685 0.02327756 0.046286497 4.0839222E-5 -0.04117492 0.072836466 0.06958278 0.07061787 0.08220598 -0.112427615 -0.051022433 -0.053374033 -0.11657223 -0.100442335 -0.05034977 -7.5724034E-5 0.14028816 0.18737122 0.37303534 0.25804934 0.061971378 -0.0079961 -0.006378483 0.06510902 -0.06409931 0.014279997 -0.16163398 -0.111605115 -0.067137904 -0.11470027 7.965472E-4 0.049276058 -0.060852986 -0.19715649 -0.121005684 -0.13462208 0.01711224 0.1686487 0.36523905 0.08941746 0.046633963 0.035645124 0.0315926 0.012188843 -0.0328078 -0.06870701 -0.06854431 0.020658912 0.06830526 -0.1004752 0.11066352 0.0698648 -0.184794 -0.098580934 0.0130903805 -0.09395394 -0.14056152 0.18990485 0.22219035 0.12245941 0.14492917 0.17445429 0.045428347 0.03435059 0.090993986 0.017732888 0.04742405 -0.008686989 0.02864453 -0.050617572 0.06631269 -0.22673966 -0.27547288 -0.30509102 -0.08834158 0.03488802 -0.06611188 -0.09133685 0.07617719 0.015032115 -0.006912546 -0.08156302 0.08471277 0.011838138 0.062027812 -0.009065897 0.1462958 0.07740021 0.13730994 0.021831242 -0.062867925 -0.22323672 -0.29734674 -0.21351811 0.041445646 0.052285448 -0.08532238 -0.2500173 0.0081575485 0.06874518 0.21485873 0.17447148 0.18957266 -0.0774782 0.17444097 0.013661295 0.1463225 0.07132573 0.088178895 0.061730057 -0.14109883 -0.19641432 -0.040575784 0.08716802 0.2811352 0.14415263 -0.050676066 -0.2632052 -0.1693625 -0.028235752 0.16460043 0.3562322 0.16117845 -0.16049789 0.11175451 -0.040162608 0.17316501 0.12514533 0.020717138 0.12629516 0.040898185 0.1840155 0.17547525 0.35495803 0.31479388 0.12652744 0.018858206 0.023242814 -0.18284836 0.049083766 0.081484005 0.41958708 0.16788518 -0.058678243 -0.09261682 0.0017812918 -0.07581105 -0.09104506 0.02782771 0.13915296 0.1894356 0.04616364 0.085093535 0.06044686 0.13266332 -0.024223367 -0.09340648 -0.02968233 -0.2410167 -0.0012448586 0.14065178 0.31691974 0.251688 -0.036154676 0.02242913 -0.005787181 -0.16370524 -0.25153252 -0.29360452 -0.22180197 -0.20160899 -0.121014565 -0.1882781 -0.21543957 -0.1045231 -0.0938298 -0.056392647 -0.018602632 -0.08297647 0.06972826 0.05587364 0.46762562 0.19474138 0.23501562 0.07815806 -0.040832825 -0.0067289197 -0.12455618 -0.12260086 -0.1619285 -0.22380129 -0.23212358 -0.13736418 -0.062913015 -0.19869973 -0.08653025 -0.060793605 0.032998674 0.0053905332 0.018477436 0.19776276 0.41226253 -0.005448856 0.16824418 -0.06698356 -0.2534458 -0.10867326 0.030177549 -0.07226067 -0.25388405 -0.2546476 -0.20619613 -0.028413035 -0.12760429 -0.10896694 -0.15592055 -0.17288102 0.045273893 0.14006203 0.19958584 0.21040343 0.31934893 0.17502719 0.23551068 0.09250058 -0.10603762 2.2244688E-4 0.06253767 -0.02406436 -0.03817575 -0.18185759 -0.09416972 -0.1352369 -0.1733412 -0.24548769 -0.25837013 -0.16050647 0.15126629 0.22180057 0.19838247 0.24900734 0.36496514 -0.037188113 0.1942624 0.048178084 0.04234231 0.12676327 0.07608381 0.08306182 -0.07898862 -0.1628746 -0.21715611 -0.20195748 -0.23007308 -0.1498013 0.018708067 -0.0019626445 0.091625124 0.0796407 0.30065942 0.40513867 0.23017098 -0.062355462 0.23084308 0.24759199 0.0178064 0.12778874 0.17656839 0.1894655 -0.27994493 -0.49098468 -0.4072128 -0.5540182 -0.61054987 -0.35178542 -0.014618941 0.13357791 0.14203174 0.22883108 0.3482915 0.27209914 0.17825356 -0.06109667 0.058580596 0.13919586 0.18795434 0.22794352 0.35205737 0.032905262 -0.32018015 -0.37467808 -0.5263203 -0.6330166 -0.508189 -0.21076207 -0.0044590635 0.14228639 0.28203022 0.32686624 0.329309 0.15862143 0.025767958 -0.10070914 0.0026284517 0.10606644 0.29863214 0.34084618 0.33743864 0.3497902 0.044099946 -0.20877354 -0.3443092 -0.47863817 -0.4432357 -0.077811725 0.13645111 0.38658068 0.39296922 0.38307115 0.25612614 0.11869041 0.016817063 -0.08096943 -0.08063567 0.090902545 0.31592047 0.40218633 0.5634436 0.55781674 0.30737752 0.036130708 -0.027943652 -0.18409948 -0.12014072 0.15856403 0.24092379 0.29508036 0.4454142 0.2756928 0.21370393 0.053906262 0.05703549 
0.10670249 -0.06719526 0.04962829 0.036833663 0.0031291146 0.054197997 0.1070334 0.102403715 0.08575631 0.05324266 0.11223308 0.07152131 -0.02939869 0.08412397 0.012553975 -0.08545113 0.005150002 -0.110987365 0.03480513 -0.120955765 -0.021327905 0.040007032 0.088360995 0.059711445 0.06624314 -0.050701473 0.06916087 0.13403891 0.11017349 0.032859698 0.17722204 0.1374103 -0.03787897 -0.035888106 0.052560467 0.019436538 -0.06199352 -0.034336433 -0.010003501 -0.10846039 -0.011539929 -0.0744877 0.11894359 0.108135365 0.07243298 0.050541777 0.18031415 0.20961997 0.08007246 0.30062324 0.22210298 0.08508779 0.05693463 -0.0846936 -0.04209201 0.14673437 0.18081267 0.1452394 0.07685758 -0.07625828 0.034813013 -0.077276275 -0.0347914 0.07416868 0.13169374 0.20133218 0.09491378 0.084395975 -0.040001836 0.07467789 0.07492193 0.04534227 0.11219636 0.009469103 0.016711434 -0.066085085 0.07198388 0.14640355 0.12079343 -0.121009566 -9.097903E-4 -0.06373063 -0.003092014 0.16035615 0.12834561 0.22780298 0.2114705 0.015796646 0.048909366 0.16617624 0.07396483 0.02917809 0.029250992 0.012202553 -0.03996444 -0.13751842 0.11661585 -0.04218822 0.002667767 -0.08632579 0.12686229 -0.18160841 -0.18439692 0.08695426 0.23973869 0.29651 0.1120257 0.19655663 0.14302823 0.17780848 0.15602507 -0.031731613 0.03569799 -0.038317747 -0.10206254 0.12838843 -0.16844663 -0.16862075 -0.26784375 -0.088095725 0.09353621 -0.16479613 -0.11450938 0.16431163 0.16989268 0.08234014 0.19203633 -0.02994983 0.15606764 0.24061862 0.22300631 0.13173287 -0.02019421 -0.20720594 -0.19635083 -0.0107735805 -0.1963515 -0.32969248 -0.3215161 -0.21009488 0.1900153 0.00951533 0.122813284 0.18824135 -0.08282326 0.15901667 0.11308225 0.07149181 0.30587912 0.23893346 0.24291952 0.18177351 -0.083835185 -0.27343756 -0.1144193 -0.08811292 -0.381936 -0.33656916 -0.20961143 0.21218257 0.28388956 -0.17260909 0.009599132 0.3165308 0.32188165 0.2604315 0.08973782 0.16639793 0.31397262 0.40843818 0.35396403 0.092189625 -9.74611E-5 -0.030860133 -0.0021019583 -0.22091562 -0.24231142 -0.35904074 -0.29435152 0.038152955 0.44182777 -0.028454233 0.055414483 0.38290277 0.32227877 0.17705806 0.2293722 0.21279474 0.35314345 0.2934191 -0.057466894 -0.061888743 -0.1801066 0.016814705 -0.12993462 -0.14870791 -0.13526118 -0.0917667 -0.2998343 0.045523677 0.58617544 -0.06653004 -0.17541093 0.17176083 0.22364637 0.024930803 0.012059503 0.043692436 0.1707714 0.022759343 -0.26882407 -0.2754654 -0.31463116 -0.30642307 -0.27488807 -0.26437265 -0.15575245 -0.31439778 -0.20653898 0.11670721 0.6545521 -0.013262556 -0.17441726 0.042336762 0.15669551 -0.01819555 0.030929103 0.029747428 0.23488504 0.17434162 0.06293176 -0.17747836 -0.121517755 -0.27345276 -0.22429897 -0.16453509 -0.25508025 -0.16629626 -0.13242443 0.13597606 0.57321477 0.091902055 0.1970621 0.21327618 0.15131532 0.097064935 0.19188851 0.15012549 0.034175165 0.06948098 0.047700293 0.11284844 0.060460165 -0.08939366 -0.08707135 -0.23306152 -0.2968027 -0.13804498 0.03826016 0.35198975 0.48517385 0.1571623 0.026880203 0.4190775 0.16115758 0.30690533 0.27373478 -0.06048523 0.004689323 0.034366947 0.15824483 0.1948242 0.087893695 -0.071103394 0.020080168 -0.26799032 -0.3341261 -0.23058069 -0.108565286 0.16278774 0.5337985 -0.028361524 0.11345119 0.3017135 0.38882017 0.49559584 0.40861264 0.22355369 0.06257777 -0.09194778 0.05258724 0.26115546 0.22964495 0.13031891 -0.11438333 -0.05188133 -0.27820712 -0.29994833 -0.25979075 0.03936791 0.29095894 0.030040678 -0.007663073 0.40287614 0.3918196 0.3903032 0.25677216 0.35249022 -0.051861674 0.08731251 -0.08411639 0.18066892 0.040153306 -0.10305088 -0.06691317 -0.037503287 -0.06611425 -0.13837138 -0.18777505 0.061124235 0.2555318 -6.201298E-4 0.07877966 0.45052913 0.3989719 0.33237296 0.22978386 0.100840345 0.044144966 0.034949567 -0.0035647515 -0.020017346 -0.0765833 -0.025228655 -0.008539271 -0.02585721 -0.18329567 -0.28654426 -0.16153261 -0.07124558 0.11148348 0.1353003 0.22828934 0.3267907 0.40468538 0.2846829 0.253701 0.15354426 -0.11882897 -0.13318759 -0.19822858 -0.11428853 -0.091727346 0.0010987807 0.005587405 -0.072036564 -0.22608002 -0.29528996 -0.025694802 -0.11783552 0.09533126 0.090728894 0.29483482 0.35426036 0.49392092 0.42115667 0.2621455 0.2243643 0.011596644 -0.14871716 -0.20132293 -0.20985119 -0.14608131 -0.080804996 0.10772534 -0.004963045 -0.15338737 -0.1892896 -0.03212162 -0.033657953 0.008537614 0.17295568 0.210364 0.31903905 0.56422675 0.61313635 0.5176925 0.30119255 0.0042997813 -0.16328362 -0.3183592 -0.23490462 -0.18011868 -0.15282002 0.00618838 -0.37140507 -0.46605298 -0.22219652 -0.116492234 0.13489787 -0.0044267173 
0.7447446 -0.0692814 -0.041472055 -0.091897674 -0.14615285 -0.22955596 -0.26761726 -0.2333014 -0.24190396 -0.0914681 0.1240045 0.04004334 0.03851634 0.07182619 -0.04728157 -0.22176434 -0.1407155 -0.18182853 -0.13648915 -0.099149965 -0.13933189 -0.030899698 -0.06359914 -0.1615308 -0.1010986 -0.32380646 -0.26663432 -0.17612623 0.016529717 0.0791076 0.06345852 -0.0460117 0.15917365 0.11110397 0.05130585 -0.011044056 0.047999278 0.07975572 -0.16021091 -0.20371857 -0.27519724 0.061936565 -0.07343458 -0.20287432 -0.26069555 -0.26625535 -0.089276835 0.010395981 0.081558734 0.12466871 0.14292869 0.08994364 0.16605157 0.11477691 0.22945376 0.07090878 -0.010729658 0.095014915 0.08027024 -0.16314428 -0.35993502 0.026137393 -0.19345637 -0.29103565 -0.2953971 -0.27191347 -0.13995318 -0.018617399 0.12452577 0.021842267 0.0952984 0.14502606 0.24110398 0.22011872 0.1363007 0.10230189 -0.09578692 0.020068454 0.18439843 0.025272913 -0.13105607 -0.16431765 -0.27357343 -0.23362336 -0.11560521 -0.10265673 -0.0014732844 0.09215905 0.06455447 -0.023322009 0.24189055 0.033231888 0.17202543 0.18716304 0.20412056 0.10212271 0.055343874 -0.036018357 -0.11589487 -0.04993062 0.22771674 -0.101194926 -0.22927101 -0.16923831 -0.20484135 0.0445866 0.072699055 0.08482136 0.07027461 0.010918099 0.011958528 0.09928135 0.012008889 0.12725145 0.10852467 0.20086643 0.1624773 0.13944657 -0.02685535 -0.1393708 -0.0028173919 -0.16071698 -0.13058162 -0.26473066 0.0015590839 -0.1039243 0.18057574 0.16403893 0.0837309 0.056531295 0.002817422 0.09178705 -0.008991119 0.09917344 0.19366585 0.2341413 0.15463161 0.16665618 0.13230847 -0.14603731 0.09177257 -0.09318036 -0.00717101 -0.12673561 0.021797275 0.10069501 0.24482039 0.2885227 0.14937213 -0.013323943 -0.034320965 0.018344684 -0.025762463 0.08152453 0.24532679 0.11191764 -0.014000227 -0.06256712 0.07374029 0.20353979 0.12365303 -0.23793447 -0.106103875 -0.103024475 0.09773536 0.09943112 0.085230455 0.1568393 0.028726742 -0.06856658 0.022650037 0.020823263 0.086791255 -0.0076831053 -0.080060594 -0.2788516 -0.084708124 -0.048414577 0.3247298 0.2112754 0.07059421 -0.157475 -0.097020455 -0.06560537 0.16164026 0.13124563 -0.07338517 0.03131258 0.24355574 0.19920248 0.25483844 0.09315673 -0.14801714 -0.18733378 -0.30885273 -0.39241534 -0.29631025 0.11914486 0.23261175 0.31728646 0.1951308 -0.1893657 -0.1024131 -0.01593784 0.050976478 -0.033304706 -0.16877456 0.06878748 0.12700123 4.6971213E-4 -0.15756732 -0.21982381 -0.19411573 -0.27635586 -0.19198358 -0.31606436 -0.12986185 -0.1143684 0.053959686 0.06279837 0.034005478 -0.121669225 -0.16034596 0.15336296 0.34316275 -0.065593936 -0.09570443 -0.1899988 -0.2171945 -0.19034058 -0.071316205 -0.1877003 -0.2416618 -0.14012566 -0.14123076 0.07387026 -0.13065447 -0.027092313 0.06539841 -0.11161864 0.01166634 -0.1439975 -0.25462186 0.05502295 0.28050548 0.22126488 0.036301676 -0.09992079 -0.015239148 -0.2099062 -0.16191536 -0.12948641 -0.24762249 -0.2045347 -0.04892861 0.026997868 0.02069213 0.016097885 -0.09383277 -0.11577408 0.009515245 -0.011912673 0.015330674 0.029532071 0.11838938 -0.031094112 0.12849176 0.0141042955 0.028092805 0.044964675 -0.16988409 -0.030955927 -0.09165231 -0.1289429 -0.13267061 -0.070937715 -0.038820613 0.039011024 -0.06364519 -0.22572067 0.05009775 0.08237805 -0.05861041 -0.05612073 -0.0348684 -0.0046909777 -0.108226344 0.014880716 -0.14223173 0.035346754 -0.07259505 -0.15047412 -0.0655809 -0.22173363 -0.2782386 -0.29030955 -0.12479928 -0.19828473 -0.17421022 -0.29674542 -0.04575045 0.08433362 0.110212326 0.009000366 -0.13439557 -0.18851496 0.0023262124 -0.2302218 -1.5353803E-4 0.21895005 0.14052357 -0.15251888 -0.02733463 -0.14950147 -0.32933888 -0.2512489 -0.32088122 -0.14193648 -0.25840354 -0.25368863 -0.0583082 0.03265408 0.102004014 0.001645466 -0.18399718 -0.10616591 -0.01847033 -0.006086835 0.1830589 0.15006332 0.11520234 -0.062898 0.04633207 -0.14547932 -0.11707108 -0.13958575 -0.30203918 -0.23602758 -0.15310724 -0.14307822 0.011952627 0.0694456 0.045669258 -0.1946064 -0.19432727 -0.0077008135 -0.011988697 -0.099707 0.013208683 0.16445002 0.11099417 0.053339362 -0.016491275 -0.19015835 -0.2862776 -0.31275618 -0.15599965 -0.12751387 -0.17986855 -0.0958898 0.10340019 0.010703712 -0.07932314 -0.09427007 -0.13186283 -0.25993064 -0.130335 0.020958047 0.11507629 0.1794364 0.09334333 0.12702699 -0.05892581 -0.018794531 -0.1591554 -0.1265006 -0.08237306 -0.05406497 -0.09114911 0.0035597726 0.11765379 -0.043633033 -0.10265861 0.059751652 0.121016234 0.24957003 0.35455307 0.36446154 0.51367813 0.3598849 0.20369868 0.1183326 0.04311223 -0.11677654 -0.14379117 -0.1879296 -0.08594025 -0.07973624 -0.07020399 0.022355575 0.09181767 
0.79646385 0.0012723492 -0.13861622 -0.03605358 -0.23633358 -0.34356028 -0.12468399 -0.048706204 0.24256551 0.37894413 0.34291962 0.07301322 -0.037759613 -0.20024122 -0.36218175 -0.33295366 -0.14980215 -0.27682832 -0.15634045 -0.066179186 -0.14588064 -0.07331007 -0.005368033 -0.15881187 -0.12796606 -0.07118321 -0.06563225 0.09523145 0.49281183 0.7643635 0.60447925 0.3209923 -0.02955388 -0.22118132 -0.089416005 -0.06453254 -0.07552697 -0.14185466 -0.11345768 -0.13180862 -0.11873785 0.0122855855 -0.11932738 -0.14609666 -0.067282215 -0.0069217333 0.037387695 0.2755826 0.6954779 0.9990558 0.58481157 0.07769233 -0.111184195 -0.2302682 0.004505732 -0.04039839 0.01625649 -0.15896842 0.07119551 -0.038398474 -0.104828276 -0.13176115 -0.2184688 -0.054468364 -0.01208542 -0.06982728 -0.029790906 0.4207858 0.9428908 0.97723806 0.28128994 -0.15800971 -0.13774914 -0.15615241 -0.06793032 0.0026733384 -0.07971925 0.030428296 -0.0079803 -0.018251397 -0.1460161 -0.3023032 -0.23936717 0.022819778 -0.058035165 0.04605723 0.0085326675 0.6807232 1.218219 0.7895594 -0.011429441 -0.28845006 -0.11541649 0.03353814 -0.06747298 0.11198595 0.044257086 0.16470538 0.06946283 -0.036532335 0.09541968 -0.33345476 -0.024112089 -0.23012136 -0.15174411 -0.10182525 -0.011623091 1.0206006 1.3260108 0.37346527 -0.14877318 -0.33585966 -0.10071512 -0.14760046 0.061930664 0.0767222 0.005230166 -0.08392076 0.15228674 0.009280672 0.0135185085 -0.39046115 -0.12160528 -0.27195102 -0.2696144 -0.39196348 0.2674014 1.2031525 0.9058018 0.016249506 -0.37716344 -0.15224361 0.05741409 0.048423253 0.09257546 0.07227543 0.058028486 -0.049445797 0.06474041 0.1222482 0.048168376 -0.26566914 -0.07924173 -0.20514855 -0.35385495 -0.16389163 0.6094489 1.2269158 0.3555661 -0.17027128 -0.19917457 -0.11016862 -0.060662024 0.1200113 0.1632272 0.13225359 0.13266684 0.0395902 0.09573643 0.009978623 0.04555026 -0.35681203 -0.1566648 -0.28869185 -0.31604323 -0.08863279 0.5883957 0.939678 0.1455451 -0.28285974 -0.1319398 -0.10387394 0.13167934 -0.14961465 -0.03539425 0.048743993 0.22863965 0.005947263 0.0844478 0.06075708 0.03859688 -0.33734214 -0.08391371 -0.38070554 -0.2652129 -0.09912239 0.46656695 0.7101109 0.20489079 0.078553185 -0.2835171 -0.12596576 -0.17720574 -0.022573354 -0.020606626 -0.035183392 -0.15757433 -0.008660707 -0.031738844 0.14221013 0.009394649 -0.10951444 0.054307733 -0.10984573 -0.17454755 -0.12863718 0.19436641 0.37092012 -0.020030783 -0.008670447 -0.16444097 -0.09586902 -0.15267824 -0.1495178 0.045357615 -0.040908672 -0.017553382 -0.1389794 0.066090934 0.11242296 0.13321269 -0.26343572 -0.07454609 -0.17353879 -0.10304537 -0.04868264 0.020488404 0.2635864 0.1486709 0.017309746 0.058787603 0.0018050757 -0.008534068 0.15255456 0.061902035 -0.019685067 -0.050354324 0.060702227 0.18341115 0.06375836 0.01724278 -0.19848143 -0.082762174 -0.14610758 -0.023244549 -0.08271844 -0.08896388 -0.12541313 0.18307 0.012761549 -0.011140067 -0.014239161 -0.14709151 0.053303998 0.16228803 0.038620103 -0.14843702 -0.05542755 0.034744833 0.1821126 0.09101249 -0.13906156 -0.006857192 -0.038882595 -0.042580344 -0.20328046 -0.12626828 -0.1609417 0.028641885 0.14359726 0.15504071 0.087667204 0.17087555 0.08361598 0.11194872 -0.14002927 -0.088337265 0.09198376 0.079922535 0.020854266 0.11156168 -0.16708633 -0.025035292 -0.16019101 0.09136847 -0.051661134 -0.10744104 -0.053807244 -0.07079716 0.06318791 0.12178499 0.06852397 0.065591805 0.04223092 0.041377403 -0.05783765 -0.15293044 -0.11657606 0.021358421 0.10184779 0.03461279 0.02011983 0.044744104 0.07124973 0.0065754075 -0.0745054 -0.015936391 0.059251625 0.017424544 0.0024693792 0.11227929 0.001514644 0.12031208 0.0025632412 -0.013977292 -0.17451534 -0.1786449 -0.037865907 -0.053244036 -0.05760819 -0.019593524 0.110379755 0.20812193 -0.005887505 0.050355915 -0.16113795 0.07615391 0.0067366776 -0.05825676 -0.016688578 0.040243845 0.027817197 0.11787866 -0.016274638 0.06487603 -0.030808253 -0.1018362 -0.015715795 0.17285293 -0.117819615 0.14954393 0.002368707 0.065469526 0.056370575 0.03756573 0.03340452 -0.01718006 0.13600531 0.07265579 0.09880474 -0.025875462 -0.104072034 -0.102430984 0.084773235 0.014789632 -0.044090394 -0.029847141 -0.025303047 0.036119353 -0.10358515 0.13920881 0.2288325 0.145771 0.08419906 0.002495422 0.12241097 0.0703725 0.19626136 0.2682179 0.21209839 0.15247719 0.077103175 0.067158654 0.078205295 0.09991959 -0.09733383 -0.16982348 -0.08695476 -0.07462423 0.018411957 -0.03488668 0.18670747 0.23190156 0.31280833 0.37909645 0.59763885 0.42757487 0.48705506 0.21462584 0.19307475 0.049967237 -0.013120938 -0.1897731 -0.15164007 -0.037687223 -0.11093123 -0.24042563 -0.025693176 -0.025081903 -0.020180399 -0.09550724 
-0.4963825 -0.048384346 0.06011955 -0.059950378 -0.030861787 0.08648274 0.01268442 0.07026031 0.15496059 0.06376689 0.02033906 -0.06711991 -0.019751776 -0.040261302 -0.16462208 -0.062279925 -0.027511248 -0.10115673 -0.021665871 0.07286844 0.020708878 -0.013318885 -0.0123698525 -0.006097573 -0.049761076 -0.020114182 0.07940054 0.15600395 0.064791 -0.0069799297 0.025793519 -0.031831753 -0.20147477 -0.19398849 -0.1352962 -0.11390218 -0.16067827 -0.167966 -0.022654576 0.06570952 -0.01608996 -0.012358777 0.014282702 -0.031372726 -0.005801877 -0.018162843 -0.027493564 0.1612381 0.113089114 -0.012426989 0.06420869 -0.16547891 -0.18871154 -0.08242205 -0.3146152 -0.22106925 -0.23054078 -0.12591423 0.12520652 -0.0017640492 -0.010066796 0.030142676 -0.011216432 -0.017515784 -0.101257615 -0.0014883385 0.19220261 0.061015464 0.031991385 0.09532137 -0.03107081 -0.077421114 -0.21352227 -0.143392 -0.15872115 -0.21329775 -0.131219 -0.04759556 0.12202243 0.049698487 0.009563091 -0.09803703 -0.18654782 0.0034557742 -0.095164105 0.008856902 0.09244187 0.02994214 0.030625623 0.017313927 0.010388948 0.031367682 -0.113622025 -0.19439416 -0.120433494 -0.084792845 0.027537014 0.13881205 0.08538645 0.06428825 -0.19036865 -0.09340567 -0.09291082 -0.08591223 -0.11943953 -0.17073314 -0.05582632 -0.012158898 -0.034830302 0.025153348 -0.08858492 -0.061700545 -0.18747722 -0.007703997 0.05192849 0.024091827 0.055996507 0.101308994 0.12432903 0.12947261 -0.031169174 -0.013852853 0.0156066455 0.09101468 -0.16849807 -0.14673856 -0.112237014 -0.107081465 0.030908039 -0.13091299 -0.16592261 -0.2959294 -0.19626665 -0.022809697 0.0115266405 0.017842574 -0.0054538604 0.10209143 0.19995227 0.0077385064 0.008021545 0.001888105 -0.10486919 -0.12656458 -0.2653003 -0.13038684 -0.020626897 0.10694043 0.031254202 -0.13236508 -0.2910722 -0.3744794 -0.13841268 -0.10707858 -0.13950717 -0.02967729 0.050618794 0.20999323 -0.035428584 -0.010056541 -0.10798419 -0.011711577 -0.011207149 -0.08256329 -0.19630516 -0.21842568 0.05563675 0.28739342 0.21577732 0.05345481 -0.093645126 -0.14993285 -0.24927437 -0.4208285 -0.122850075 9.625928E-5 0.14572488 0.04921038 -7.229469E-4 -0.23927988 -0.061160274 0.17788407 0.03322407 -0.10705092 -0.24670516 -0.07817605 0.09636148 0.21925713 0.21428104 0.16467124 -0.07634751 -0.103814885 -0.09970888 -0.31501988 -0.0912642 0.04987608 0.24881007 0.12498222 -0.043011308 -0.16168556 -0.23298474 0.05271488 0.17217685 -0.18944104 -0.13023755 -0.06073682 0.2891299 0.4516324 0.3957085 0.118870966 -0.11225326 -0.14167881 -0.03915686 0.034766205 0.05899924 0.06585298 -0.045479108 0.10345432 0.069966055 0.1256989 -0.23161529 0.20608419 0.20266879 -0.15008779 -0.11954879 0.09355084 0.35656577 0.41374364 0.24060415 0.040548768 -0.16209897 -0.20077354 -0.16233636 -0.10049076 -0.06258585 -0.05426375 0.26635543 0.171371 0.104465134 0.14041574 -0.08695252 0.15942842 0.044707015 -0.0161078 -0.051732507 0.07228261 0.37404332 0.18531214 -0.053263564 -0.0644068 -0.11394864 -0.055023514 -0.037419423 -0.16923238 -0.09821143 -0.14062451 0.25223812 0.35580742 0.21503979 0.14928631 0.17959729 0.10657217 0.11846386 0.0585525 0.051018123 0.25243917 0.17235057 0.079540215 -0.14367104 -0.16814929 -0.20357347 -0.23954023 -0.32469 -0.30933136 -0.2600754 -0.14377736 0.19127537 0.1922397 0.29307178 0.40230122 0.46798465 0.070583604 0.10678256 0.12590058 0.13077597 0.0069177714 0.034706533 -0.098772116 -0.21969923 -0.23811398 -0.34034115 -0.25014225 -0.37085527 -0.30783194 -0.23631085 -0.07671069 0.0076714517 0.186914 0.2460169 0.38151494 0.350426 0.14934741 0.16392079 0.03827606 0.054761954 -0.05889942 -0.31373283 -0.2553952 -0.31285194 -0.13541658 -0.14806849 -0.1669296 -0.23921034 -0.1865463 -0.14211345 -0.11805025 -0.12065426 -0.0090817455 0.06628471 0.39634183 0.35139278 0.26296622 0.18727233 0.07897707 -0.04986856 -0.24351321 -0.21753927 -0.29999137 -0.20977345 -0.06503941 -0.10398804 -0.13695163 -0.13387309 -0.1140406 -0.12806302 -0.040184967 -0.078640684 -0.012745951 0.043025453 0.2039598 0.06411415 0.27057213 0.2598234 -0.005062346 -0.055157907 -0.22633377 -0.28566855 -0.31194544 -0.17525466 -0.04104592 -0.071651675 -0.08364282 -0.07936998 -0.01707286 -0.051389918 -0.14929141 -0.17787875 -0.160336 0.096556075 -0.031558234 0.03598705 0.14775309 0.15274487 -0.071341254 -0.16364247 -0.29544514 -0.3331832 -0.3972297 -0.1989007 -0.16765235 -0.070434116 0.017590765 -0.10740553 -0.17582561 -0.20164724 -0.22511266 -0.15926622 -0.105379835 0.049627032 -0.07012414 -0.0029358838 0.064375706 0.05679125 -0.1290606 -0.2786174 -0.32800338 -0.3765857 -0.21190596 -0.1023189 -0.0016938486 -0.045873333 -0.08869891 -0.1226383 -0.15834643 -0.09868208 -0.1432689 -0.1252897 -0.0053562773 -0.057096764 -0.09465776 -0.03691071 
