3
25 401 
-0.8840103 -0.08684677 -0.059791233 -0.06330345 -0.1292844 -0.039563816 -0.069145314 0.120555624 -0.05597797 0.05497502 -0.040736277 -0.106631696 -0.122442864 -0.035741705 0.02392449 -0.002184292 -0.06928273 0.010720364 -0.021419888 -0.026660834 -0.09459506 -0.092280865 -0.11432744 0.024111902 -0.12287698 -0.17508435 -0.047659867 0.20890947 0.27524784 0.28968903 0.12804897 -0.011526469 -0.0032191493 -0.34849337 -0.3237834 -0.14380798 0.022141643 0.16868319 0.19034521 0.24468918 0.22327927 -0.09100605 -0.05153311 -0.088153034 0.10104408 0.0739067 0.2900482 0.23939268 0.49303856 0.29721987 0.10572735 -0.045861367 -0.29933622 -0.18415748 -0.46106526 -0.27079538 -0.028294494 0.08195159 0.261606 0.32024065 0.13730615 0.038893867 -0.014804959 0.024428371 0.4204173 0.38747406 0.33798382 0.29882458 0.32442623 0.05234037 -0.30317777 -0.21401723 -0.24385908 -0.26408273 -0.34832796 -0.18907605 -0.059839334 0.06119007 0.34740445 0.19366755 0.30484378 0.056361243 -0.2131145 -0.12903647 0.13424945 0.37468714 0.19328846 0.37500522 0.18198195 -0.091101296 -0.20466897 -0.11505153 -0.46027693 -0.41803837 -0.5029761 -0.14766693 0.104648046 -0.15282987 0.26489928 0.22507444 0.45527092 0.037434224 -0.18983337 -0.014099181 0.2095854 0.4929436 0.68076354 0.5189293 0.11918565 -0.23244956 -0.3309143 -0.32189488 -0.39678556 -0.210516 0.03911727 -0.17014086 -0.17175953 -0.08648985 0.16020262 0.29210642 0.15780848 -0.06996998 -0.18508883 0.0424982 0.50799525 0.45750886 0.2834023 0.31688264 0.08381613 -0.039163098 -0.33350295 0.0019525229 -0.16004352 -0.10167764 0.17469503 0.18059006 -0.17832409 0.15504377 0.0691326 -0.04370715 0.3288328 0.059902273 -0.2646107 0.10727553 0.3813194 0.31221133 0.13263296 0.27416474 0.28894913 -0.26661617 -0.6200801 -0.48388556 -0.33442715 -0.11935427 0.15267836 0.024266427 -0.08415684 -0.25776523 -0.1575662 -0.17736502 0.4856559 -0.14020677 -0.1695064 0.3084715 0.81030893 0.60768795 0.5484104 0.23809841 0.10963437 -0.43551457 -0.6187452 -0.47173446 -0.027951 -0.22778039 -0.25742698 -0.3469467 -0.5909826 -0.2940563 0.13255952 0.18464793 0.22070281 0.032924045 0.0028405802 0.25693715 0.6518396 0.5785181 0.5113717 0.6130852 0.19953571 -0.70858186 -0.5090957 -0.26343587 -0.22770129 -0.31964827 -0.32140929 -0.5058728 -0.5442442 -0.22335422 -0.08830278 -0.11103972 0.26004982 0.0093454225 -0.16473725 0.35462627 0.47198144 0.8456346 0.9287247 0.64157975 -0.15829048 -0.36008358 -0.13860704 -0.12558912 -0.38450766 -0.7987726 -0.13991985 -0.51225126 -0.5096991 -0.12253735 0.123565175 0.044109415 0.1388121 -0.04815066 0.091307364 0.3101175 0.80039555 0.6509135 0.6572458 0.09830482 -0.076209836 -0.11935489 0.13857844 -0.20906942 -0.39847296 -0.17800671 0.21438685 -0.07240244 -0.50940794 -0.30480874 0.30795917 -0.17219457 -0.27001584 0.034999575 -0.13628267 0.4510988 0.78608096 0.6278718 -0.14928351 0.051760122 0.15405205 0.09407236 -0.08784392 -0.2952678 -0.123875834 -0.06307469 -0.54810643 -0.06908294 -0.26365712 -0.162416 -0.1274526 -0.1992698 0.21349274 0.046736065 -0.17268066 0.42836928 0.39155486 0.5152899 0.11427288 0.0048585897 0.2983659 0.36484402 -0.32314074 -0.08014537 0.28644186 -0.28752518 -0.36619696 0.013986905 -0.0018515344 -0.06571586 -0.0612666 -0.24144481 -0.0019017726 -0.042350028 -0.17585444 0.09287206 0.20455699 0.50683504 -0.007449821 0.18221155 0.44877398 0.26750064 -0.08794358 -0.09549416 0.11863304 -0.2393479 -0.0100167515 0.07405773 -0.05303435 0.03194224 -0.3171451 -0.5680087 -0.07263031 0.07856746 -0.114318095 0.37786472 0.32761315 0.36581862 0.09712982 0.17515385 0.22480415 0.3761892 -0.060671512 -0.1721274 -0.12718722 -0.46217215 -0.16514176 0.012308152 0.40180355 0.14919868 -0.22070397 -0.30092055 -0.08949766 -0.051812008 -0.16823928 0.07477624 0.3543303 0.13341081 0.20353183 0.2501837 0.60678273 0.23536316 -0.14438733 -0.33807185 -0.20496805 -0.45955202 -0.18987109 -0.032882582 -0.16315837 -0.19499695 -0.3003842 -0.1704467 -0.10653485 0.0754928 -0.094945155 -0.13590154 0.19573712 -0.008648763 0.06260266 0.116752476 0.27011505 0.09461496 0.060796104 -0.21751311 -0.118639074 -0.23820134 0.02400916 0.06594876 -0.033489037 -0.10127328 -0.20053944 -0.040800374 0.021114325 -0.11964799 -0.26845658 -0.22537035 -0.19654043 -0.19289178 -0.0023954327 0.22510569 0.14504297 0.1557693 0.26872623 0.0643834 -0.20471978 -0.31710854 -0.11163129 -0.03638583 0.075385064 -0.061790854 -0.031973366 0.08928575 0.12981242 0.009890758 -0.23627546 -0.16912155 -0.2667567 -0.10213967 0.20819317 0.2924576 0.37203127 0.45432395 0.31973153 0.096189 -0.027526284 -0.07797667 -0.1682053 -0.21343388 0.1009717 0.03715946 0.17237297 0.04638469 0.08913028 
-0.05961012 -0.083030805 0.027207693 -0.09166919 -0.11281878 -0.06919481 0.064598374 0.050875645 -0.11642634 -0.068957955 0.012951826 -0.008552344 -0.050621606 0.0036440794 0.05674065 0.14450207 0.072855935 0.07744266 -0.028576512 0.12910038 0.035266634 -0.10505019 -0.022953467 0.021825042 -0.09844706 -0.0875459 -0.2365055 -0.2277456 -0.13007247 -0.13761394 -0.13582937 -0.2676707 -0.17299777 -0.12762769 -0.080215186 0.16778962 0.24934334 0.24401596 0.097831294 -0.04895251 0.048001252 -0.04214808 0.03272579 0.029269954 -0.040940553 -0.107296 -0.0031827164 0.15836865 -0.017589884 -0.08983476 -0.11439313 -0.26004037 -0.35227552 -0.4126024 -0.050461013 0.15471844 0.13620201 0.18785651 0.20359845 -0.11025045 -0.1156922 -0.079135336 0.07056082 -0.014255767 -0.054307934 -0.076428086 0.09692848 0.07479222 -0.022078572 -0.034386486 0.12325675 -0.037993856 -0.23142594 -0.50064933 -0.04892923 0.13440944 0.035291687 0.16586371 0.078961 -0.05268773 0.058679473 0.032043327 -0.10476461 -0.008526711 0.054693967 -0.06850424 0.14265971 -0.17293932 -0.1684648 -0.16514146 0.20879188 -0.11937635 -0.124097124 -0.44528237 -0.056828763 -0.24875125 -0.026318053 0.23941703 0.2333537 -0.02105508 0.03347919 -0.0919839 0.0023170633 -0.030372528 -0.12265923 0.08510025 0.071715444 -0.15105468 -0.03276258 -0.041383743 -0.14281768 -0.034039743 -0.043777417 -0.17133293 -0.3795144 -0.12786017 -0.09332385 0.02388548 -0.13866195 -0.17342325 0.008710694 0.064291246 -0.005983566 0.15906867 -0.111469485 0.10579705 0.17237452 0.13539867 -0.053792633 0.07610702 -0.13123143 -0.082191005 0.07965363 -0.14506407 -0.24623859 -0.16609594 -0.17344633 -0.20567808 -0.12844296 -0.024492316 -0.127788 -0.06296715 0.048854772 0.10368969 0.04486872 0.22722413 0.077685274 -0.049916 0.09578742 0.036504034 -0.01679876 -0.049938686 -0.06503485 -0.07964965 0.052884404 0.08602003 -0.11345266 -0.025022466 -0.22932208 0.056030225 -0.049566828 -0.059472367 0.1878849 0.10617799 0.069585726 0.23298812 0.040176164 -0.07746746 0.19735263 0.06683986 0.122096665 0.027187819 0.2526499 0.44354707 0.18102373 0.053864863 0.08738965 0.061506193 -0.075389445 -0.1736088 -0.14644432 0.14828444 0.17364599 0.044734627 -0.13704196 0.03839004 0.13516559 -0.0033057793 0.09335059 0.386296 0.3432717 0.1849006 0.65901566 0.6473884 0.1694542 0.18824649 0.3340425 0.30687502 0.055528715 -0.106946565 0.036987692 0.1355324 0.20894349 0.03409724 -0.02655585 0.30910802 0.17445578 0.27898195 0.29154506 0.49671686 0.756031 0.6313531 0.56646836 0.32902864 -0.19635096 0.07682854 0.5134919 0.24696302 0.084522896 -0.009222228 0.12850676 0.164473 0.05157388 -0.078755505 0.17423737 0.2961412 0.29382727 0.20471871 0.57999814 0.5942529 0.73643994 0.33401617 -0.014545422 -0.32807142 -0.1846432 0.12562044 0.34362742 0.04058462 0.094665796 0.095623806 -0.022845324 0.13080029 0.23155218 -0.09522406 0.2540023 0.17421313 0.10593733 -0.0086555565 0.25140733 0.115170695 0.09100378 -0.013425599 -0.10766946 -0.18328094 -0.041387703 0.19017932 0.2066538 0.16431038 0.15795915 0.09822547 0.0813352 -0.0435544 -0.005208637 -0.11767757 0.008643224 -0.20601419 -0.28087407 -0.57647675 -0.17075697 -0.20465033 -0.2663846 -0.15108581 -0.030235227 -0.3243288 -0.21637249 0.024798006 0.013454736 0.14151412 0.32071877 0.2546481 0.023821726 0.044779036 -0.0650242 -0.14278214 -0.27341798 -0.4543075 -0.5079729 -0.36102712 -0.3228961 -0.1516541 0.07655378 -0.02125246 -0.10833067 -0.34626362 -0.25623617 -0.2329502 0.11797548 0.12699234 0.15981305 0.16406119 -0.00770203 0.15712874 -1.19141725E-4 -0.27677646 -0.30116487 -0.20366113 -0.13411127 -0.013732867 -0.25991133 -0.008112928 0.06635722 -0.23518272 -0.0010307962 -0.28385463 -0.26535705 -0.053761926 0.3503733 0.21513854 0.18379839 0.18986331 0.07124956 -0.0071446155 -0.00878414 -0.015841816 -0.11945829 0.0074325423 -0.088609494 -0.06771719 -0.1932357 -0.071059704 0.051291 -0.20991531 -0.16214794 -0.2457169 -0.13177994 -0.052767504 0.20233679 0.09447912 0.003726447 0.044324342 0.089156 0.06755524 -0.07818331 -0.24107827 -0.038580813 0.003829993 0.12387923 -0.19886674 -0.4334971 -0.23418672 -0.07301955 -0.09470231 -0.114432015 -0.12860863 -0.2006263 -0.0806473 0.06116023 0.03825122 -0.023981806 -0.011307252 0.05708053 0.10750728 -0.11536593 -0.03483529 0.23583955 -0.041263033 -0.12836033 -0.34864593 -0.38669816 -0.15617867 -0.2958958 -0.18609399 -0.1931213 -0.24499242 -0.27247542 -0.040843412 0.31061664 0.11155058 0.16204703 -0.03415482 0.04503985 -0.003800625 0.08003964 0.06392661 0.26799437 0.21964768 -0.12279802 -0.18130425 -0.27894443 -0.340001 -0.36914924 -0.20707943 -0.1356915 -0.0643715 -0.10990358 -0.03476499 0.16498858 0.11757017 0.14905469 -0.022370778 0.07860311 
-0.33108968 0.049424812 0.03182634 0.040567566 -0.014404298 0.10483411 0.12594076 0.035834074 -0.083858304 0.11703002 0.020898238 0.050874192 -0.12948088 -0.005098192 0.046498686 0.046282332 -0.07517627 0.08135758 -0.071214855 -0.10526958 0.07010046 0.09399096 -0.06881382 -0.021038624 -0.0037776583 0.015653292 -0.046254534 -5.5641914E-4 -0.036572345 -0.105813086 0.02580172 -0.022999415 0.011436728 -0.03540146 0.08322071 -0.03831183 0.1598593 0.07767485 0.00928345 0.090482734 0.32564157 0.08630721 0.048477635 0.1054287 0.06572125 0.08180782 0.0011893994 -0.12162718 0.07046989 0.15683864 0.07237786 0.11836615 -0.11955265 -0.010247796 0.0064085573 -0.035542946 -0.09601448 0.051359102 -0.035732295 0.06607361 0.22334991 -0.017120682 0.22089197 -0.011072858 0.21676551 0.14489454 -0.11370045 -0.14399081 0.05580078 -0.106654085 0.009457808 -0.15035897 -0.21249194 -0.03755888 -0.10133378 -0.08999497 0.120037735 0.005192882 -0.27203986 -0.38219517 0.20688719 0.052108377 -0.010433124 0.11981676 0.050374504 0.08873322 -0.020811016 -0.07172725 0.051699564 0.10116966 -0.13837737 -0.13273805 -0.32378024 -0.115807176 -0.25288835 -0.21342103 -0.04982748 -0.16162579 0.01862547 -0.07232142 0.34158275 -0.060671523 -0.04791869 0.16315182 0.2428864 -0.03732686 0.07413713 -0.15069805 0.04955733 -0.1197751 0.17040223 -0.08694874 -0.15902403 0.07458735 -0.09935236 -0.10154883 -0.3070744 -0.1736881 -0.0879493 -0.02759182 -0.08677642 0.021653177 0.15987094 0.34108466 0.26689598 -0.03632238 -0.04176668 0.0061551323 0.088385805 -0.11380472 -0.009016978 -0.09501212 -0.06472498 -0.0042021107 -0.106169924 -0.08748546 -0.19388328 -0.17911102 -0.11322978 -0.14264594 0.05491985 0.067156136 0.3243865 0.2977316 0.25588754 0.013565979 -0.10741844 0.12573862 -4.6100107E-4 -0.34282443 -0.3540171 -0.13805941 -0.29611763 -0.43609968 -0.46778217 -0.14250739 -0.360906 -0.28461593 -0.20422302 -0.15861155 0.026117735 0.057026327 0.45449772 0.28846252 0.45610338 0.34601435 0.34617615 -0.115346156 0.08625751 -0.21425767 -0.35617632 -0.33063498 -0.06442131 -0.27801406 -0.3121029 -0.51101243 -0.371079 -0.3075366 -0.13682774 -0.07285634 -0.19558011 0.07209693 0.036871687 0.17729393 0.52944 0.4159824 0.26764703 0.24602938 0.21077855 -0.31048068 -0.25025424 -0.16495174 -0.16714604 -0.35092258 -0.2713432 -0.31598526 -0.32760775 -0.32793352 -0.1371307 -0.12696178 -0.030205084 0.0649427 -0.18495624 0.2614044 0.63976836 0.4556307 0.47371876 0.122208044 0.19930364 -0.20421125 -0.1947801 -0.25296834 -0.44305903 -0.72203684 -0.392449 -0.19873594 -0.117070876 -0.023305839 -0.14006522 0.03974164 -0.004688686 0.020551931 -0.27780706 0.23633203 0.81485367 0.31630945 0.72355855 0.20779082 0.17609687 -0.11160904 -0.15764154 -0.20887823 -0.46635017 -0.24737166 0.06995597 -0.2185284 -0.5030811 -0.4698104 -0.112513065 0.014769486 -0.112741545 0.040817983 -0.3839951 0.1900845 0.4145519 0.5424632 0.6145363 0.3259168 0.14644064 0.053933833 -0.047765944 -0.21512304 0.1950716 -0.0076250224 -0.27441078 -0.20107101 -0.19460633 -0.33011338 -0.37332743 -0.07069656 -0.009581988 0.054330885 -0.53907746 0.296082 0.6510203 0.5442125 0.509813 0.36184695 0.4416937 0.4912075 -0.055996757 -0.29699135 0.056207076 -0.018068612 -0.018442122 0.07040583 0.0073392475 -0.21604127 -0.36714715 -0.062988244 -0.034826204 -0.044419307 -0.4117382 0.1672022 0.12152218 0.12712698 0.31646344 0.6083142 0.40031165 0.116206124 -0.14403814 -0.04327525 -0.08698848 0.0034681878 0.20177147 0.20246458 -0.15418354 -0.31376806 -0.3969665 -0.3553285 -0.12692465 0.08601875 -0.13618699 0.04716709 0.30214503 0.14586373 0.18010509 0.26256922 0.22217181 0.3222897 -0.002961075 0.07558828 0.08324294 -0.2871207 0.13205497 0.2583388 0.09234632 -0.12343276 -0.01025027 -0.077516295 -0.20807964 0.0222757 -0.3907688 -0.09564789 0.28525025 0.5322593 0.39687282 0.33990738 0.66459054 0.2884708 0.18332772 0.23109365 0.08458258 -0.08631864 0.049984157 0.01836235 -0.17379549 -0.17690092 -0.111473136 -0.10511459 -0.18620959 -0.012441869 -0.2342996 -0.29078665 -0.12145403 0.159836 0.26259017 0.35455927 0.4619229 0.21931657 0.02720945 0.030828698 0.09508247 -0.06422118 -0.21265134 -0.05717356 -0.08700015 -0.22700645 -0.18666242 -0.14100514 -0.12947719 -0.0023246016 -0.21208756 -0.3101797 -0.05130344 -0.09797214 0.033168327 0.3221816 0.28826421 0.13561456 -0.055986322 -0.18421271 -0.02663906 -0.04733657 -0.23904549 -0.25994855 -0.28777647 -0.3338527 -0.14251512 -0.15392056 0.018721433 -0.071487516 -0.15716498 -0.21810575 -0.16187368 -0.0025686321 -0.048344262 0.1265214 0.26302117 0.12881272 -0.08347688 -0.11986762 -0.031254843 -0.2173081 -0.36738783 -0.3261929 -0.28363279 -0.28886247 -0.16077904 0.0052452306 0.09753562 
-0.020850627 -0.0017970459 0.10829876 0.024131356 0.07545495 -0.06904421 -0.10820172 -0.056051128 -0.14049563 -0.022216687 0.02040631 -0.07575553 0.05979537 -0.012086346 0.10912348 0.12655969 0.13500243 -0.014869006 0.062052738 0.09768206 0.034746148 0.038966935 0.14950721 -0.018980144 0.0021196408 0.11692163 -0.13562767 -0.10352324 -0.14455996 -0.14758797 -0.007045336 0.021718264 0.15097103 0.30121955 0.3235602 0.07574862 0.13829027 -0.11780966 0.04886543 0.20686015 -0.050520983 -0.06512923 0.18886268 -0.029657764 -0.017077949 -0.035653554 -0.1482653 -0.17897445 -0.17256138 -0.13533266 -0.01636263 -0.0032610646 0.19004871 0.41152778 0.3895121 0.022086477 0.13261834 0.009604566 0.22988181 0.17942539 0.14207692 0.03793595 -0.084519684 -0.05208429 -0.001550585 -0.2802408 -0.14237434 -0.27008083 -0.21892959 -0.2393323 -0.2693666 -0.24359009 0.15776022 0.17325017 0.19144048 0.34673914 0.14757626 -0.0020268476 0.33344916 0.43067747 -0.021843607 -0.13694903 -0.075307466 -0.002875641 -0.18035907 -0.09218026 -0.09197643 -0.14152978 -0.112104006 -0.16880491 -0.44176564 -0.1310427 0.10992293 0.16422315 0.17954944 0.36488187 0.24521832 0.042513188 0.103215866 0.25487188 -0.135938 0.08398473 0.13329029 -0.12275393 -0.19188029 -0.26985624 -0.20658652 -0.09138336 -0.358736 -0.24764362 -0.4207042 -0.23797545 0.19061291 0.06359057 0.303742 0.46952847 0.5531195 0.018050756 0.2846201 0.079908654 -0.020520804 0.0624719 -0.025055412 -0.22020511 -0.26441726 -0.12327843 -0.1984913 -0.4621327 -0.47579136 -0.28442428 -0.1415157 -0.056046735 -0.1657787 -0.002827887 0.30554911 0.33146814 0.54075664 0.41689137 0.37634107 0.24176824 -0.022528952 0.06446841 -0.16863042 -0.1635712 -0.06016403 -0.37770855 -0.42133814 -0.42967218 -0.2910485 -0.42591897 -0.27159956 -0.07666183 0.025589079 0.11077955 0.34688085 0.2204911 0.4835696 0.25901282 0.50119174 -0.032900684 -0.3925835 -0.119775325 0.1461848 -0.12410205 -0.09855511 -0.70694965 -0.3428339 -0.21740189 -0.42136458 -0.58231616 -0.35482562 -0.079625815 -0.14031288 0.28039056 0.39868242 0.353059 0.36715242 0.40579075 0.2076821 -0.05800227 -0.34279847 -0.05469145 0.39084205 0.017243646 -0.058501936 0.036757234 0.06571316 -0.12865467 -0.45318165 -0.511555 -0.18762894 0.03819073 0.14545669 -0.06844337 0.288691 0.3487485 0.32315186 0.458565 -0.09929043 -0.16781862 0.038701117 -0.05336934 0.17511338 0.15606415 0.19808002 0.29745042 0.2634696 0.22975287 -0.23068471 -0.3163117 -0.21176545 0.027773928 0.15307032 0.07826468 0.14736311 0.3384124 0.5551123 0.3776082 0.019499466 0.114537425 -0.07186736 0.121724 0.3798997 -0.014009212 0.009165077 0.07768154 0.20425248 0.13565576 -0.12320762 -0.18628316 -0.18516691 0.092986055 0.19055748 -0.10500822 -0.2961774 0.07199823 0.12305981 0.4014575 0.1152844 0.30078927 -0.008438503 -0.024728416 0.13711084 -0.0044854484 -0.12384495 -0.17792538 -0.064116515 -0.19327018 -0.03524541 -0.30682173 -0.3708779 -0.4264185 -0.22095692 -0.40459096 -0.36848927 -0.13541912 -0.035446715 0.092822656 0.14953065 0.12055434 0.085038684 -0.13926144 0.32562414 -0.35786965 -0.418097 -0.06631827 -0.23463145 -0.24670216 -0.41316825 -0.5295504 -0.26293305 -0.35330734 -0.3462439 -0.45382714 -0.4229651 0.05232205 0.28718993 0.07971664 -0.029692248 0.065106705 0.20282759 -0.119841 0.3303276 0.06811981 -0.15827252 -0.07236854 -0.17764431 -0.3409882 -0.4730692 0.06386794 -0.072380334 -0.36592835 -0.20173503 -0.23425889 -0.05913027 0.23279746 0.28781757 0.31324106 0.12878402 0.10777037 0.28327233 -0.1300769 0.23920643 0.19241077 -0.17832564 -0.2185302 -0.19842534 -0.34390137 0.01927416 -0.113560125 -0.1302234 -0.07039115 -0.03176383 0.25094333 0.112132125 0.17017591 -0.022200724 0.17629972 0.0085721165 0.027796699 0.025496183 0.046373818 0.30804247 0.14247568 -0.23424202 -0.3997338 -0.36979318 -0.13987151 0.034280833 0.027878014 -0.109850936 0.27615342 0.23225734 0.11319437 0.31750956 0.06510863 0.11085756 0.03324451 -0.103302136 -0.15068142 -0.101850964 0.0852095 0.06423159 0.04955365 0.3243314 -0.20396146 -0.45495352 -0.34788817 0.058196817 0.11609134 0.06005306 0.09575887 0.1603249 0.03916999 0.23638526 0.06027266 0.021262791 -0.11115092 -0.081071526 -0.1457922 -0.17275792 -0.05582301 0.11999065 -0.09214724 0.059363455 -0.12470302 -0.2654185 -0.2382896 -0.12883143 0.007654274 0.11847952 0.1792113 0.08070473 0.21687312 0.2879639 0.35256666 0.22562441 0.021188106 -0.06039701 -0.13894533 0.0238784 -0.028495649 -0.006420423 -0.1432579 -0.4908277 -0.46603534 -0.5580584 -0.08549337 -0.024817051 0.19625849 0.36482838 0.1548604 0.11765386 0.029340787 0.36071643 0.424968 0.15967527 0.01832819 -0.19434981 -0.00624858 0.07424502 
-0.10083039 -0.04355334 -0.014850353 -0.035576127 0.018445369 0.11684489 -0.07681033 0.074073166 0.0071776593 -0.12153618 -0.0437641 -0.039884504 -0.10146188 0.05031968 0.044098362 0.16771372 0.12554392 -0.040971026 0.023740754 0.03357742 0.030495564 -0.100463346 0.09569801 0.16359681 0.26830262 0.094761096 -0.14274721 -0.33679852 -0.35275364 -0.51474833 -0.6362096 -0.35762873 -0.051528633 0.13990346 0.30042568 0.14214818 0.44261584 0.40628496 0.18245167 0.031868197 0.15006207 0.11286032 0.24613528 0.33681414 0.28568476 0.03987439 -0.01700165 -0.11779372 -0.43324798 -0.9059468 -0.7531262 -0.30485642 -0.069209196 0.02189198 0.1969273 0.10812101 -0.034625623 0.12517394 -0.009734322 0.1852089 0.36995295 0.10906402 0.31464505 0.45766348 0.11406805 0.08547721 0.12264321 -0.15600231 -0.43157715 -0.6579332 -0.40745184 -0.18091606 0.038474753 -0.07075077 -0.08923433 0.0052401754 -0.041387033 -0.12216428 0.15134685 0.12700838 0.3141567 0.13965558 0.34032726 0.12150729 -0.102754176 -0.106674604 0.014778948 -0.44984952 -0.8903601 -0.69903 -0.40876603 -0.10778914 0.09663167 -0.13902523 -0.063367456 -0.027792973 0.10630621 -0.04386126 -0.15490966 0.098127745 0.053062525 -0.01895888 0.42057347 0.27410844 0.028487306 0.005743638 -0.16641301 -0.5089119 -0.5378897 -0.5219561 -0.34530208 0.094731934 0.308993 -0.17660318 -0.0990251 -0.22987016 0.11633092 0.09656631 0.050962035 0.25371292 -0.22683917 0.23431472 0.352883 0.049811095 0.06033037 0.50691146 0.08460327 -0.73499143 -0.7148092 -0.45461777 -0.1280365 -0.121467985 -0.400698 -0.013442994 -0.50524247 -0.39010668 -0.02608609 0.031084076 0.1392076 -0.0012429487 -0.18937218 0.1562899 0.19883664 -0.020627169 0.28186217 0.23527156 0.09300007 -0.53489786 -0.7459183 -0.281608 -0.4922628 -0.27733338 0.12358467 -0.24651417 -0.40467897 -0.23019026 -0.19327699 -0.013107522 0.0062574996 -0.028444055 -0.36383915 0.2331473 0.33881134 -0.3208194 0.24430072 0.3546037 0.20210591 -0.3739245 -0.6103327 -0.4391497 -0.45532578 -0.2593736 -0.13322815 0.29759333 -0.0056013907 -0.042797074 -0.22680855 -0.20331074 -0.1697963 -0.4257434 -0.3268008 0.16930717 0.3528158 -0.11252278 0.29323232 0.3225609 0.14245112 -0.4256066 -0.6332343 -0.23823284 0.011158481 0.21007828 0.280787 0.083149426 0.015116385 0.05605665 0.05132858 -0.26055992 -0.14467555 -0.30917597 -0.22322255 0.1897564 0.24023072 -0.27445084 0.34335488 0.34785736 0.085169725 -0.06428647 0.29290065 0.12103887 0.034365818 0.26184785 0.17229517 0.3985303 0.13676012 -0.09099457 -0.08518987 0.13767281 -0.17439766 -0.121730216 -0.09488695 0.20828116 0.1946389 0.14508082 0.10023808 0.18622008 0.24827527 0.50052285 0.61988133 0.10627186 -0.0710434 0.049380194 0.015762433 0.11148826 0.21641196 0.024428075 0.1620849 -0.11710488 -0.2090931 -0.08518108 -0.23744062 0.17167702 0.13087644 -0.07247901 -0.08258243 0.18268493 0.16700971 0.4206443 0.32827494 0.012110637 0.1780457 -0.053824876 -0.04153939 0.1116859 -0.08321062 -0.18578191 -0.03718484 -0.08551185 0.12857106 0.08595693 0.07032803 0.1507847 4.2814427E-4 -0.14779224 -0.07383116 0.20373417 -0.015018243 0.09068217 -0.04640869 -0.051373605 0.20896247 0.059371 -0.09622507 0.23351707 -0.17543712 0.055535488 0.19254504 -0.14945161 -0.00403869 0.13063614 0.013926436 0.10616209 0.08919866 0.2343567 0.07162901 -0.009930517 0.16288194 -0.14136484 0.048022617 0.21980795 0.19127057 0.25886416 0.022802392 0.05907113 0.050759237 -0.008167456 0.17991316 0.32177427 0.06660729 -0.03169158 0.08932751 0.07017221 -0.12257612 0.2265834 0.2718454 0.14221911 -0.03987153 -0.12187541 6.557128E-5 -0.12823866 -0.18897845 0.02519749 0.21625061 -0.0021672868 0.014189522 -0.0555488 0.13257055 0.14455263 0.0817745 -0.13507086 0.15727723 -0.060664453 -0.38628227 0.11133893 0.27295288 0.16943641 0.13866234 0.05633143 0.054381076 -0.14510855 0.3259454 0.12900366 0.11145723 -0.18876834 -0.16583745 -0.2033761 0.1936829 0.34876278 0.15222053 0.19125591 -0.066435486 0.044941735 -0.48542815 -0.109423175 0.001993485 -0.11857094 -0.016741501 0.08158945 -0.1773876 -0.16431688 -0.12908229 0.060406324 -0.03577993 0.25168663 0.31492853 0.16885625 0.32825226 0.34796518 0.25597227 0.17865284 -0.07297312 -0.17757034 -0.3230496 -0.022563286 -0.015765639 -0.11305376 -0.26375762 -0.19441284 -0.08628298 -0.29216054 -0.22786313 -0.4044367 -0.29658726 -0.038156733 0.019313704 0.40118492 0.38869593 0.07035261 0.031375676 -0.094626494 -0.14690255 -0.076404095 -0.10554447 -0.25383767 -0.5822195 -0.5409523 -0.60997504 -0.3253069 -0.24483775 -0.42635223 -0.23865643 -0.25146165 -0.17530549 0.10814002 0.039986014 0.08550799 0.20705703 0.03504716 -0.078799225 -0.037784584 -0.0071300003 
-0.83194184 -0.043678604 0.02926638 -0.036466572 -0.045324426 0.08325934 0.11638463 -0.089561634 -0.053884156 0.018715654 -0.01267585 -0.023172198 -0.10118672 -0.14425127 -0.03199997 -0.13603878 -0.061959866 -0.057711802 -0.066566415 -0.044255745 0.0076384535 -0.06971982 0.10934779 0.15169336 0.26940745 0.15743852 0.11206831 0.09526158 0.11130306 -0.01886312 0.2130206 0.14072697 0.0033327607 -0.13455865 0.001860251 -0.093362644 0.09411151 -0.038108625 -0.12978522 -0.08140304 -0.008953089 -0.052063383 0.15890518 0.22338194 0.1348124 0.23550278 0.07545275 -0.0021233142 -0.037870444 -0.16794296 -0.0024181686 0.20381851 0.034544043 0.060722843 -0.07523315 -0.20631008 -0.05383216 0.07754442 -0.14746664 -0.0017966387 -0.065107405 0.07623544 0.16399126 0.020813972 0.104081 0.2693595 0.14394149 0.0274864 -0.09637167 -0.029963 0.12382701 0.19765857 0.3055885 0.17235647 -0.0020641612 -0.0012847944 -0.14996405 -0.1269858 -0.02818921 -0.122204915 -0.23403084 -0.037985656 -0.1305636 -0.15753204 -0.0887899 -0.08934619 -0.07980314 -0.0012139288 -0.019005308 0.07957791 0.027114134 0.20546056 -0.0057542585 0.060932666 0.31077906 0.3988262 0.0043648435 -0.24119698 -0.115888886 0.15125309 -0.07116285 -0.05196918 0.07968737 -0.13604262 -0.08435329 -0.26411137 -0.17612971 -0.073566616 0.15555263 0.32285267 0.36099586 0.17572095 0.11864225 0.091122694 0.3710835 0.49722233 0.15661564 -0.25916728 0.018642684 0.07545427 -0.027258411 0.18526702 0.09983713 -0.053570233 -0.22091374 0.10326886 -0.085233636 -0.1947872 -0.039030112 0.38550687 0.2979704 0.043884963 -0.004851455 -0.11132631 0.30585256 0.56883335 0.0109369345 -0.0023357722 -0.117709786 0.05218032 0.19592017 -0.0032917538 -0.014573719 -0.13767081 -0.08577691 -0.28430572 -0.33240506 -0.14902066 0.106816 0.16807619 0.016027933 0.26438853 0.25451666 -0.075548895 0.2867026 0.49158376 -0.058357723 0.049758606 -0.050979797 -0.07392872 0.13283552 0.0836754 0.049538624 -0.29825422 -0.19448549 -0.2373218 0.105022766 0.09607464 0.36077562 0.18391392 0.16736577 -0.19580467 0.07113107 -0.10760935 0.44173136 0.4112485 0.18633403 0.22496293 0.18473251 -0.040010836 0.09763965 -0.06499783 -0.047740817 0.10781181 -0.103626356 -0.064776644 0.12122364 0.013233743 0.22870946 0.109537035 0.107134394 0.14717995 0.096900925 0.03877355 0.3590681 0.18668741 0.07394482 -5.4563954E-4 -0.03590405 0.037540343 0.014493292 0.09969978 0.012656154 -0.034123585 -0.21204683 0.0013937749 0.22145383 0.1555658 0.36797094 -0.038684443 0.3464747 0.21287559 -0.052576862 0.011790983 0.07428498 -0.074923255 -0.074197665 0.17825484 -0.046133295 0.008071402 0.036455743 -0.10355609 -0.061256632 -0.18999088 -0.016133212 -0.059412178 0.21909627 0.25474733 -0.12838653 -0.16757739 0.20484799 0.11947571 0.17432876 -0.0137102865 0.0013210706 -0.09452639 -0.065073185 0.08228544 -0.08407704 0.02072733 -0.05625507 -0.051427867 -0.16934885 -0.33118027 -0.21372062 0.14735281 0.5351022 0.5140548 -0.0924914 0.15105398 0.08076549 0.017682835 0.029401097 0.22830941 -0.17056608 0.023419887 0.030730471 -0.09238385 0.16972625 0.11399614 0.018709697 -0.03517165 -0.23483525 -0.010496512 -0.098986976 -0.07620264 0.501181 0.41778353 0.05710041 0.031044006 0.15533268 -0.1758441 0.21205088 0.05755831 -0.18589592 -0.25539467 0.071827844 -0.12153856 0.12485523 -0.29167786 -0.21772286 -0.18489975 -0.020968126 -0.22829135 -0.26960507 -0.011824196 0.40525994 0.24408223 0.07672437 -0.009550147 -0.07330612 0.009200937 -0.018319188 0.041405886 -0.093552716 0.009252059 -0.16506027 0.10899321 0.089432694 -0.26838735 0.1786036 -0.023311833 -0.07867592 -0.27883062 -0.46330783 0.09180207 0.6168702 0.35976735 0.041017193 -0.043269645 -0.048243027 -0.087074526 -0.20689939 -0.013900152 -0.04162096 -0.080856994 -0.19336146 -0.10167689 0.044161804 -0.077608235 0.05485439 -0.094085485 -0.25767517 -0.16424222 -0.3470192 -0.0788475 0.5111953 0.418396 0.42811215 -0.17523216 -0.20406596 -0.03513164 -0.15427186 -0.0071784207 0.14614435 -0.0980777 -0.13934 0.060020763 0.0982332 -0.16908924 -0.11160073 -0.081840985 -0.21936016 -0.0852645 -0.1385737 -0.102605686 0.4227011 0.60344607 0.54426813 0.26051447 -0.06275897 0.00629793 -0.245333 -0.029675284 0.07677281 -0.10124107 -0.05576293 0.032947183 -0.014147596 -0.18846202 -0.017153854 -0.031062856 -0.38357127 0.005130251 -0.04882649 0.23348908 0.5245638 0.53989214 0.6500882 0.5267835 0.4038616 0.23616062 0.24650225 -0.025371572 0.037757475 0.07128088 -0.18995391 -0.16514127 -0.17113002 -0.3022518 0.015763702 -0.0027829127 -0.044052985 -0.19738138 -0.26870206 -0.07210116 0.3695424 0.4264919 0.66794056 0.56764525 0.5601724 0.44951048 0.17233336 0.23360904 0.021153761 -0.05261121 -0.14345576 -0.22040138 -0.2928585 -0.100632526 0.04565494 
0.37595525 0.048702575 -0.060478404 0.060472503 0.011362863 0.0660192 -0.028385976 -0.038615633 0.08310588 -0.06569111 -0.03686612 -0.06617933 -0.088094 0.09934532 -0.082390286 -0.017400457 -0.03618412 0.05165105 -0.06782344 0.026414463 0.02471084 0.099934116 0.04166719 0.020890607 0.062775895 0.024793133 0.17799258 0.08110257 0.18580835 0.066643015 0.22455992 0.10172607 0.14995627 0.17367935 -0.13684028 -0.17644063 -0.25467032 -0.30435732 -0.35346928 -0.03602866 -0.046802387 -0.01663739 -0.013996875 -0.12411942 0.10099508 0.19469757 -0.041734748 -0.038315643 0.12593685 0.13662185 0.14658077 0.20125084 0.20372999 0.028186152 -0.06982769 -0.19631097 -0.25329578 -0.33622327 -0.38884678 -0.27835643 0.044735305 -0.026240211 -0.13835716 0.058399677 -0.03926614 0.07826662 0.14120166 0.26210445 0.10635106 0.22664467 0.0458675 0.07723281 0.2599123 0.12764506 0.020427959 -0.30556455 -0.50537086 -0.39971894 -0.61386085 -0.2618655 0.12753165 -0.011694154 -0.0366361 0.12359141 -0.14623772 -0.30470094 -0.052730516 0.053821247 0.17933784 0.12298965 -0.14947596 0.2015441 0.294524 0.4341903 0.062951356 -0.19096844 -0.5152769 -0.5028373 -0.40085015 -0.1353098 -0.011792021 0.067755215 -0.010272281 -0.06544481 -0.2584716 -0.056836482 -0.2356625 0.084101446 0.095776156 -0.03968783 -0.0050848713 0.06074384 -0.013311413 0.09775314 0.011812254 -0.2728436 -0.5302617 -0.5507504 -0.25949198 -0.11236407 -0.09765038 -0.017978163 0.05048384 -0.15952262 -0.058339372 0.056120943 0.10442728 0.0118874 -0.077485204 0.12341681 0.14486803 -0.034483906 -0.036409445 0.040708076 -0.17132397 0.18016852 -0.004247617 -0.43629414 -0.1397027 -0.3324415 -0.30361855 -0.053234465 -0.07543094 -0.1819461 -0.08505033 -0.20171767 -0.03514432 0.076804146 -0.04867711 -0.07124029 0.116102755 0.038673423 -0.120783664 0.0033111817 0.008655748 0.19365413 -0.056482457 -0.40832403 -0.24385172 -0.24786116 -0.24255678 -0.076400675 -0.2746795 -0.011788359 0.04358862 -0.023407342 0.03298682 -0.062389746 0.01874777 -0.050362337 -0.10170851 -0.21933149 -0.08853094 -0.04505188 0.07325471 0.26941136 -0.0376513 -0.2220764 -0.11460688 -0.5258956 -0.51840156 -0.040213704 -0.44754815 -0.326835 0.1371439 0.0747079 -0.053699937 0.25063127 0.009332376 -0.1894154 -0.25920978 -0.3351117 -0.16142905 -0.024063628 0.28336376 0.072848015 -0.22521105 -0.253955 -0.09864168 -0.24703377 -0.5442059 -0.06256478 -0.5283508 -0.01705126 -0.057579126 0.026228918 -0.18681388 -0.21163878 -0.037303574 -0.2052072 -0.23355848 0.00531547 -0.042567708 -0.0070787254 0.30536443 0.41390052 0.06416043 -0.04785254 -0.15256785 -0.4672285 -0.5928538 0.0404673 -0.47425276 -0.15165193 0.20407863 -0.02397092 0.08465408 0.011491106 0.14875881 0.26927453 0.17848052 0.22007294 0.5313566 0.39198613 0.26505637 0.040267285 0.041502036 0.099874206 -0.36145917 -0.26729834 -0.40925273 -0.083637305 -0.4123079 -0.18717633 0.059987254 -0.22887671 -0.07830557 -0.14974004 0.15173683 0.52517337 0.45959172 0.25864425 0.30064365 0.43683 0.08480078 0.042453002 0.10838822 -0.04602474 -0.24407709 -0.42592728 -0.46183568 0.019992609 -0.46976998 -0.07872423 -0.04269016 -0.05689901 -0.29393387 -0.25010788 0.45218578 0.63345444 0.59680253 0.22439678 0.32559645 0.5026376 0.09784168 -0.021872768 -0.04250148 -0.0400602 -0.30511788 -0.5050776 -0.27151006 0.054161616 -0.38703248 -0.33501855 0.03237722 -0.33086473 -0.24488872 -0.06147656 0.2703465 0.21936944 0.39975736 0.27767092 0.2059605 0.2680041 0.41754603 0.24850968 -0.14645514 -0.055076335 -0.25274295 -0.5542438 -0.4330536 0.08297163 -0.27485856 -0.30779204 -0.23712356 -0.11563069 -0.25925985 -0.12291697 0.15098234 0.14970781 0.33120278 0.61847264 0.45839193 0.28073236 0.41712856 0.40290296 0.021589022 -0.20651269 -0.33617315 -0.37114382 -0.20135552 0.049157303 -0.13035941 -0.20672749 -0.14962776 0.0695157 -0.055312254 -0.05440821 0.23333457 0.29062998 0.18755192 0.44457814 0.5050896 0.20208696 0.122822486 0.120441385 -0.14847219 -0.36753616 -0.27536246 -0.08238448 -0.06128346 -0.055735644 -0.077991664 -0.096631564 -0.05003517 0.034321345 -0.3415195 -0.043752328 0.35077894 0.10273303 0.3624761 0.4750093 0.3572639 0.14969942 0.03268925 -0.21577181 -0.32020965 -0.2997943 -0.28232032 -0.20843506 -0.06079862 -0.042220626 0.040613957 -0.15369369 -0.3299814 -0.33546165 -0.29757294 -0.23481771 0.008857845 0.06594501 0.06374365 0.30589268 0.3546968 0.12783876 -0.12375443 -0.10935549 -0.20763844 -0.14577526 -0.06567947 -0.09008947 -0.002112462 0.008510765 -0.059219304 -0.20579673 -0.35628256 -0.5423667 -0.564048 -0.27391243 -0.22453952 -0.115030654 -0.11428513 -0.09636277 0.039728735 0.031518128 0.01921589 -0.08428907 -0.24783762 -0.27099815 -0.19181645 -0.10782278 0.067268126 
-0.112041056 0.042381264 -0.026350928 -0.04818211 0.009720573 0.03703585 0.10215382 0.050919503 -0.0072436086 -0.040821414 0.08028797 0.013302402 -0.00987593 -0.008521782 -0.10431832 0.043483745 -0.12720485 -0.13176206 -0.04852139 0.02432769 0.081930816 0.03273512 -0.10504539 -0.0882248 0.031282198 0.08088675 -0.012031937 0.008894181 0.07488397 0.1431591 0.19346826 0.17493713 -0.096207425 0.06211072 -0.019524692 -0.19804305 -0.32569173 -0.34566164 -0.28725454 -0.024685878 -0.18158783 -0.026145326 0.0021865894 -0.14643809 -0.049915694 0.07861251 0.045463774 -0.030937696 -0.03466287 -0.0920655 0.08594234 0.20906973 0.2830475 0.2153476 -0.08690604 -0.4716571 -0.39280674 -0.43952182 -0.4178455 -0.2979358 -0.2539218 0.012568372 -0.13618214 -0.24409518 -0.09598789 -0.028425446 0.027740577 0.048993655 -0.013079336 0.17347987 0.096222125 -0.054278847 0.002662338 0.04495139 0.062424958 -0.48816323 -0.62534 -0.47196037 -0.33723933 -0.24177696 -0.27020866 -0.08000454 -0.047516327 0.034145307 -0.11999789 0.26873785 0.30825743 0.23151031 0.181349 0.24412721 -0.02347283 0.04117474 -0.011519705 0.06868709 -0.057589833 -0.39875096 -0.6268556 -0.477477 0.007872412 -0.07416151 -0.042037286 -0.12333611 0.05051586 -0.014425861 0.07550025 0.22787493 -0.1410318 -0.03478915 0.12599038 0.08978013 -0.097725555 -0.041866742 -0.02715032 -0.017979281 -0.30555236 -0.3516296 -0.3116673 -0.21278708 0.22947848 0.034986917 -0.20196916 -0.12307144 0.04522662 -0.22453624 -0.08682135 0.09050569 -0.072453015 -0.15562196 0.066557415 -0.06389461 -0.0986148 -0.019039616 0.10390532 -0.2578271 -0.23111741 -0.16504268 0.16246608 0.27167273 0.26026976 -0.14260717 -0.13008243 0.012941143 -0.23622726 -0.29441065 -0.016608449 -0.022414641 -0.091806516 -0.1895622 -0.32461855 -0.13508011 -0.102042496 -0.21355556 -0.13613237 -0.18379126 -0.08447504 -0.052655354 0.27822372 0.41720775 0.31870613 -0.19444111 -0.21458529 -0.1263053 -0.09400045 -0.2621812 0.012561571 0.22986068 0.10912463 0.13533387 0.035150703 -0.3131247 -0.5295611 -0.48184276 -0.33112124 -0.17180373 0.051524717 0.13360052 0.6095164 0.71471995 0.50112486 -0.16060627 -0.15145405 -0.036673687 -0.20363277 -0.15776026 -0.12358996 0.24260756 -0.041657235 0.23156807 -0.041948903 -0.29749274 -0.4931357 -0.33094385 -0.34881482 -0.17274791 0.11394692 0.27208805 0.106547385 0.38044336 0.32594717 -0.033426493 -0.13484783 0.069575384 0.08432611 -0.22620063 -0.20914273 0.19944662 0.07770331 -0.017801069 -0.03661298 -0.35505673 -0.32807127 0.22111213 0.09408694 0.20774531 0.34422386 0.35327673 0.15448232 0.2665055 0.3075654 -0.093640104 -0.20374194 0.035867527 0.01650493 -0.16070074 -0.17463268 0.36612517 0.080045044 0.14388038 0.075155236 -0.15034111 -0.2587804 -0.16292952 0.104765356 -0.027809462 -0.067140736 0.14393575 0.24021265 0.4661903 0.21759687 0.31245 0.058055475 -0.008431344 -0.19963855 -0.08133688 -0.26578644 -0.04320298 0.10004831 0.009776234 0.2751912 0.0695369 -0.062288318 -0.15121944 -0.10708352 -0.034501817 0.083339386 -0.13522457 0.10038337 -0.0019818502 0.13439073 0.05046517 0.009983966 0.14486594 -0.09452663 -0.2614051 -0.09347552 -0.3252376 -0.27577043 0.05793923 0.13018331 0.077020146 -0.3049938 -0.12660302 0.3164304 0.16529228 -0.12361267 -0.076295346 0.113707684 0.080624044 0.17137404 -0.22832482 -0.30772445 0.15068805 0.024593974 -0.38182443 -0.15643312 -0.23156607 -0.4246569 -0.124896504 0.30228743 0.19621392 -0.16427125 -0.060257666 0.31690156 0.017221529 -0.2921426 -0.029997637 0.025195109 0.15005709 0.0050000306 -0.3657308 -0.52514833 0.01332652 0.14009412 -0.4969642 -0.32035002 -0.3044676 -0.14897609 -0.015017801 0.08525308 -0.044627734 -0.010521236 -0.12790935 -0.110562354 0.18283516 0.07045485 -0.039375316 0.008504469 -0.08766632 -0.37798122 -0.3933154 -0.3973252 -0.0072682314 0.108146705 -0.30266124 -0.34302294 -0.40941784 -0.21788698 0.0061861286 -0.04227873 0.0059504854 0.08960787 0.26259106 0.2362276 0.25623256 0.077090055 -0.0050671585 0.114745945 -0.17944898 -0.21073689 -0.30209127 -0.364529 -0.019328272 -0.080917366 -0.23429611 -0.2537911 -0.20022587 -0.14805812 -0.10451105 -0.003597842 0.19580695 0.41309187 0.23200154 0.21693084 -0.20149462 -0.28523985 -0.12429076 0.008920719 -0.036862597 -0.29128644 -0.18592823 -0.1641904 0.046097748 0.0348251 -0.14696234 -0.33706772 0.022728277 -0.07729637 -0.13843942 0.24601837 0.28160793 0.29091382 0.15929046 0.20845082 0.15957382 -0.25008282 -0.23446298 -0.078120545 -0.19181362 -0.21254392 -0.24863918 -0.14726447 0.042328037 -0.043841172 -0.17133833 -0.21422148 -0.24140783 -0.07257565 -0.041249793 0.12450114 0.19340399 0.22218609 0.39970362 0.29466838 -0.056561306 -0.17776278 0.013196026 0.113285765 -0.041693497 -0.17777789 -0.24670295 -0.035277072 
0.029450547 6.711577E-5 -0.15041158 0.013446221 -0.057324428 -0.01660525 -0.04802605 0.117832676 0.06549782 0.09151007 0.03971188 -0.059305266 0.087788396 0.035268612 -0.14767362 0.045608204 -0.010942343 -0.041049857 0.0657046 -0.026845558 -0.056479156 -0.06754163 -0.23256563 -0.31994897 -0.31381986 -0.25814795 -0.07498761 0.12471422 0.15985428 0.21567683 0.10995688 -0.13403794 -0.25684875 -0.31376755 -0.261011 -0.14675054 -0.20166233 -0.25272408 -0.11994415 -0.012211702 -0.27088574 -0.08458445 -0.26545498 -0.3110578 -0.34771648 -0.093105674 -0.012478708 0.07700506 0.22940777 0.36053193 0.056942213 -0.116837196 -0.19423844 -0.3655224 -0.13833873 0.19143324 0.22870708 -0.071470514 0.09995236 0.21079472 -0.36663204 0.0441943 -0.28173426 -0.4023505 -0.10108336 0.047197424 -0.057023067 0.15691204 0.40618134 0.22888845 0.12617892 -0.021595785 -0.09598966 -0.33499157 -0.047918502 -0.072031505 -0.07187058 -0.03740283 0.017710337 0.2051916 -0.28179324 -0.08847881 -0.33737665 -0.13462175 0.25021067 0.42841342 0.31313825 0.25077355 0.37647003 0.03673004 0.09712508 -0.09916837 -0.16901949 -0.1740854 -0.15733272 -0.3411696 -0.3998421 -0.037471082 0.16395454 -0.33239734 -0.08062357 -0.04288097 -0.22854358 -0.054056145 -0.008922242 0.21317515 0.29916325 0.33893082 0.14754593 0.19349772 0.16514148 0.05735832 -0.15205087 0.053551782 0.033763554 -0.019648455 -0.23506239 0.030438285 0.11219961 -0.2214662 0.11135441 -0.030726682 -0.31051713 -0.15835743 -0.26720545 -0.2577483 0.16919804 0.74586713 0.1721675 0.17053877 0.154515 0.016288871 0.06712627 -0.026115155 0.224133 0.037605874 0.0178107 0.10369022 0.13730901 0.088062465 0.13653216 -0.0258603 -0.290907 -0.011893783 -0.05806424 0.32407033 0.75229496 0.59498906 0.34625512 0.17474167 0.2449559 0.21661356 -0.07086488 0.054534268 0.035203118 -0.14317566 0.088515595 0.19644251 0.04464808 0.0011916851 0.08988146 0.067650214 -0.22566381 0.080454454 0.07785542 0.22428639 0.20126237 0.52586174 0.31305224 -0.28125736 0.12942174 0.23353907 -0.12090474 -0.10916968 -0.06798625 -0.014215514 -0.15680294 -0.1832083 -0.05552987 0.04984782 0.29382628 -0.082716025 -0.42243895 -0.08204834 -0.18468042 -0.16608003 0.05249233 0.6117271 0.62684816 -0.02078829 0.124931365 -0.026753437 -0.16522238 0.12454881 0.032807846 0.31015223 -0.080417044 -0.059902962 0.08016578 -0.12116775 0.12207013 0.06946834 -0.109186016 -0.05921433 -0.33938265 -0.26955968 -0.18598306 0.34048393 0.279708 0.35418454 0.37557968 0.21798469 0.27739128 0.59231937 0.33153877 0.2659651 -0.08132864 -0.3487106 -0.06301352 -0.026565013 0.0037401465 -0.10670037 -0.21872321 -0.110006385 -0.18127997 -0.11890153 -0.57671416 -0.40696925 0.3004284 0.6679853 0.20535678 0.19061676 0.22324954 0.33787492 -0.015906421 -0.01504607 -0.29087085 -0.5016172 -0.017443556 -0.25909567 0.27180734 -0.13999978 0.04766637 -0.18635713 -0.04890739 -0.084455885 -0.47110602 -0.14784522 0.12791741 0.26207435 0.08450711 0.48931643 0.09014413 0.097711034 -0.08551864 -0.26608917 -0.3440541 -0.31155613 -0.23923524 -0.01600522 0.39540505 -0.042555925 0.03084314 -0.11787133 -0.030013941 -0.06762694 -0.18074477 -0.3489468 -0.16086307 -0.262407 -0.07727179 0.13183337 0.10744745 -0.4079647 -0.20064437 -0.39983508 -0.41043323 -0.1591846 -0.16237551 -0.22188857 0.26439154 -0.007738712 -0.08652532 0.0023086478 -0.11085504 0.08704234 0.0052818577 -0.25785202 -0.13289145 0.0111805685 0.07029662 -0.016006608 0.20199734 -0.29131496 -0.20471849 -0.05121994 -0.05200591 -0.24436174 -0.11925464 0.15878129 0.061616037 -0.11879607 -0.015957283 0.18253598 0.25238797 0.0951229 0.05382878 -0.16049536 -0.34728828 0.01943063 0.16573933 -0.10015215 -0.06708847 -0.19561204 -0.37578842 -0.53224146 -0.044980176 -0.14921406 -0.20402566 0.17687216 0.07641721 0.05926057 0.25004408 0.17968309 0.14938574 0.03224041 -0.27030182 -0.15168619 -0.3873647 -0.07107992 -0.03527238 -0.09920608 -0.015415453 0.05739228 -0.12694408 -0.20875166 -0.30772206 -0.3438451 -0.2973022 -0.11009709 0.05399502 -0.049681358 0.27807385 0.20727487 0.18643247 0.1938505 0.058539774 -0.104180254 -0.3459187 -0.012338227 0.17797706 -0.06359606 -0.092449166 -0.23111151 -0.30883145 -0.4192823 -0.36638853 -0.39632684 -0.13699375 -0.021149226 -0.02938537 0.035447367 0.39854246 0.06792419 0.06384814 0.097566485 0.1546387 -0.029490845 -0.085849166 0.041648865 -0.18661621 -0.18500635 -0.25207633 -0.35837024 -0.4007968 -0.40379164 -0.10777343 0.07864559 0.07162151 0.008655307 0.07232419 0.09536811 0.1261696 0.2838462 0.2621593 0.40851107 0.44617492 0.14750461 0.022011906 -0.16494773 -0.32442778 -0.19584088 -0.056389675 -0.05229898 -0.17655483 -5.0350797E-4 0.30133978 0.2939094 0.19188392 0.022819346 -0.050681517 
0.1536947 0.039295852 -0.04793116 0.036581356 -0.032361645 -0.04057105 -0.017854432 -0.03070289 0.016731873 0.11560509 -0.046715576 0.04143421 0.07238614 -0.08503794 -0.0983927 -0.117912024 -0.032931402 0.0104697645 -0.06301161 -0.18464842 0.020367594 -0.004009399 -0.0044722087 -0.0025283021 0.030331008 0.054951172 0.1728528 0.21438421 0.19001572 0.0653332 0.15286656 0.12905867 0.27391618 0.10826541 0.058451116 -0.06861262 -0.36696708 -0.25766486 -0.12076973 -0.07018278 -0.34736007 0.09691725 0.005316188 -0.15460852 0.079118796 0.23355003 0.10015932 0.06379891 0.20465061 0.13316616 0.044009987 0.26681727 0.43435964 0.32484248 0.27583387 0.13715954 0.10054578 -0.05274384 -0.1856531 -0.15627062 -0.31739214 -0.083268926 -0.052381694 0.10262615 0.189732 0.24354239 0.0693698 0.043184604 0.003267999 -0.14272025 0.15097806 0.41860223 0.4807733 0.46138424 0.42150012 0.41574422 0.2763798 -0.2414816 -0.31441724 -0.038817506 -0.26969773 0.07394786 0.025183454 0.11860567 0.18020095 0.25441277 0.28538746 0.1674572 0.30780354 0.0797605 0.17243479 0.22898892 0.49645156 0.46815097 0.51139617 0.3514761 7.956242E-4 -0.09052083 -0.06071859 -0.15042807 -0.08823311 0.106593214 0.09436938 0.06796447 0.016363118 0.12973924 -0.062013403 0.013980024 0.05646853 0.03263807 0.19944517 0.027384534 0.069208905 0.31059024 0.64590675 0.5400983 0.26184046 0.014299846 0.025489982 -0.053671934 -0.13928363 0.1403936 0.19123262 0.0829014 0.24314906 0.08021842 0.033183344 0.33136895 0.18227015 0.21903859 0.050422702 -0.030514592 -0.06276913 0.19732569 0.75958604 0.57246286 0.111874044 0.16603447 -0.078627154 -0.07874237 -0.12248043 0.09033511 0.48546565 0.16545336 0.29197446 0.14229386 0.2904686 0.42165375 0.10624772 -0.0902989 0.07863612 -0.2760412 -0.11265725 0.059710052 0.7129625 0.46329355 0.2237785 0.0022913653 0.11439709 -0.19975515 0.053460754 -0.0016653948 0.13965571 0.042602476 0.22274724 0.27151304 0.08283638 0.12953113 0.058028392 -0.30145666 -0.21537963 -0.17261098 -0.27084884 -0.04372574 0.4576675 0.59244716 0.16567326 0.037231114 0.29731295 0.10930654 0.10310575 0.059598014 0.043957073 -0.15075737 0.15747395 0.08380392 -0.21788897 -0.03934176 -0.013922504 -0.5404327 -0.45166078 -0.18237951 -0.30420583 -0.0029344407 0.4835734 0.43460664 -0.033693604 -0.018001897 0.33184823 0.07590891 0.12146185 0.033506144 0.24709737 0.32511365 -0.18870899 -0.24919593 -0.29154935 -0.28112435 -0.4768057 -0.35235608 -0.33158234 -0.37753296 -0.44375688 -0.26658106 0.24920824 0.4255325 -0.102940075 -0.1605053 0.18517144 -0.029053997 0.049185924 -0.11074858 0.04143135 0.14054535 -0.12849578 -0.110924155 -0.21969502 -0.25494507 -0.039777473 -0.10996709 -0.27286375 -0.42623672 -0.4085035 -0.0021733793 0.020191366 0.14789324 -0.30867782 0.008900047 -0.111936554 -0.20394337 0.15732355 0.098886915 0.1705495 0.1938055 -0.08917656 -0.28862625 -0.3352159 -0.06947403 0.2119719 0.118995555 -0.3484902 -0.16126135 -0.12426988 0.109752834 0.20212659 0.12211234 -0.09517216 -0.078205064 0.085462734 0.25588182 0.029815534 0.113922656 0.23577732 0.096545 -0.11904741 -0.025748175 -0.010403823 0.16472983 -0.10009662 -0.22643024 -0.36032072 -0.11700864 0.049532387 0.1539368 0.17413074 -0.068860225 -0.10296202 0.07836751 0.2017288 -0.13057977 0.1454673 -0.07498498 0.111183316 0.037749067 -0.46336266 -0.2484344 0.028872915 -0.09977629 0.012532179 -0.14198492 -0.027129455 -0.1676592 0.29989707 0.14212385 -0.0041308147 -0.042768236 -0.1484108 -0.3038086 0.09112993 0.032619838 -0.10033416 -0.09561215 -0.15576181 -0.12210031 -0.2377803 -0.066431955 0.29444847 0.081735834 -0.11048025 0.18780394 0.21497925 -0.020315195 -0.07386593 -0.10074848 -0.08315532 -0.009259225 -0.2500413 0.014347129 0.3099422 0.07247761 0.0033279895 -0.1560505 0.08676212 -0.07236503 -0.23036064 -0.20022133 0.036407597 0.32155073 0.09515129 0.33545586 0.045177523 -0.14240274 -0.07428115 0.006785574 -0.015123814 0.048187204 -0.006263767 0.012402568 0.1695521 0.07180163 -0.02809185 -0.11967845 0.094845705 -0.20302032 -0.0748652 -0.011087716 0.1425689 0.21203713 0.17615412 0.24365437 0.19214554 0.11908149 -0.084664114 -0.10425365 -0.18571074 -0.038109127 0.112040244 0.020264635 0.20539086 -0.035624363 0.022478925 0.019961214 -0.044597264 -0.15985203 -0.21401365 0.11178044 0.123529844 0.2727026 0.10014389 0.106768295 0.3029608 0.24019976 -0.012658949 -0.053946864 0.020490002 0.08563931 0.18870974 0.1857035 0.027057134 0.0988384 0.042530935 0.009905661 0.008386406 -0.12201369 0.19269787 0.22258127 0.33678153 0.293955 0.18093318 0.12123731 0.18039146 0.23328775 0.18220499 0.19851066 0.31047258 0.17184934 0.12184271 0.1274649 0.1555962 0.055649713 0.14365384 
-0.30769718 5.8995106E-4 0.02070536 0.08732485 -0.013150732 0.059498794 -0.07944262 0.012305759 0.01203946 -0.09605123 -0.054215703 -0.03946691 -0.0908752 0.06795216 -0.065156735 -0.08084271 0.08555971 -0.02463639 0.11005111 -0.015727652 0.029097201 -0.060307633 -0.014907958 -0.0014871219 0.055064242 0.1055734 -0.052594382 -0.30755612 -0.23066671 -0.09775476 0.061924048 -0.0354 -0.07219432 -0.16291659 -0.023094287 0.16465598 0.47455013 0.3749812 0.21948346 0.17537561 0.09586754 -0.010585418 0.16544667 0.112118214 0.24803899 2.574249E-4 -0.06312733 -0.3091665 -0.41136983 -0.43353152 -0.28955856 0.12666506 -0.06957039 -0.11614599 -0.29122308 -0.018871484 0.26331565 0.3071554 0.16036262 -0.070299916 0.04929028 0.095212854 0.12783854 0.14058198 0.0074513317 -0.12146539 0.02626072 -0.20033297 -0.2532448 -0.083704464 -0.10558874 0.0698287 0.010642489 0.025819533 -0.04590076 -0.17801812 -0.19086702 0.21208791 0.0067065777 -0.102951005 -0.13350746 -0.06862386 0.21558888 0.34131777 0.15344542 -1.4339133E-4 0.014421392 -0.35135874 -0.23181763 -0.21640532 -0.034303382 0.022503164 0.076200604 0.19184053 0.056175124 -0.06183981 -0.012065856 0.14251655 0.124454506 0.17689934 -0.07260615 0.1428818 0.29666495 0.21847238 0.22103725 -0.006463537 -0.035848692 -0.0073352805 -0.112330005 0.03943941 0.005045711 -0.19888972 0.04318885 -0.082297914 0.014261376 0.11577929 -0.02185315 0.043592177 0.1211514 0.2730532 0.15549724 0.085358635 0.28253826 0.27549624 0.14992084 0.1055822 0.15880258 0.12475503 -0.07197617 0.100238696 0.14242566 0.049593814 0.09714256 -0.08328496 -0.05463482 -0.048040684 -0.028255114 -0.06057096 0.25137648 0.36237362 0.27793932 -0.020204429 0.17595017 0.09798621 0.024754422 0.10700584 -0.11488169 -0.15711321 0.03730093 0.30233482 0.40055057 0.16818771 0.34864667 0.21052226 -0.016349727 0.018335313 -0.10029414 0.04456046 0.08932477 0.24053796 0.18689708 0.04769308 0.09158758 -0.116837114 -0.16733456 -0.39022094 -0.17738055 0.023393797 -0.08277783 0.38283285 0.43716434 0.3280124 0.30757317 -0.114142284 0.030836357 -0.059490316 0.08830027 0.09065934 -0.0032408594 -0.1588637 0.1399632 -2.2740779E-4 0.14929298 -0.14961176 -0.25316072 -0.3305217 -0.062305555 -0.5478894 -0.40123197 0.109415956 -0.08778987 -0.059108038 0.03202811 -0.055520013 0.08002311 0.049071513 0.06145417 -0.113246664 0.153692 0.029833997 0.23423162 0.055738457 0.38346228 -0.06514758 0.009132372 -0.26277098 -0.628596 -0.6697228 -0.47121727 -0.076921016 -0.027318673 0.067668565 0.15440726 0.25526106 0.08350244 -0.18049268 -0.020496314 0.3015443 0.20000334 0.058996543 0.33783403 0.021980593 0.3369563 1.02404454E-4 -0.32469597 -0.20944402 -0.44802955 -0.38922897 -0.5875863 -0.32426783 0.008517971 -0.0045502186 0.2641533 0.17989969 -0.066453084 0.1025434 0.25035492 0.32901782 0.02726485 0.20180592 0.36080155 0.01178524 0.65676284 0.11734769 -0.19261396 -0.013550647 0.003690483 -0.3940394 -0.60040617 -0.16935411 0.083835915 -0.11557191 0.15704489 0.05734633 0.041675754 0.2513133 0.19631225 0.378423 0.21660057 -0.016286617 -0.10937849 0.11093737 0.6070708 0.036234237 -0.032868393 -0.32431197 -0.39486685 -0.23553668 -0.4027971 0.018988116 0.41532135 0.12497857 -0.42236358 -0.27446464 -0.040305432 -0.03885165 0.19466308 0.46719232 0.550436 0.29040292 0.18156253 0.064091116 0.45637366 0.117262445 0.21035008 -0.19346924 -0.5438398 -0.26679608 -0.2675849 0.1669299 0.37561503 0.12360732 -0.07758036 -0.032792795 -0.14746316 -0.050999235 0.16792387 0.12561722 0.4873363 0.43175194 0.1978429 0.042268913 0.24818358 0.06693659 -0.030495245 -0.08740401 0.12963143 -0.22134995 0.023125663 -0.16794595 0.1122497 0.3509559 0.18293263 0.20538 0.30744234 0.4069501 0.23371586 0.33928952 0.2118191 0.2734148 0.10725346 0.08508311 0.16012965 0.16065401 0.083376266 -0.18930209 -0.18565905 -0.18626827 -0.053558704 -0.19964445 0.20465168 0.11781209 -0.08685561 0.13325408 0.22944133 0.22032744 0.06214363 0.16913775 0.115238644 0.078993805 0.030888217 -0.008203881 0.097411826 0.15064852 -0.0045934194 -0.112863205 -0.04521656 -0.13019605 -0.004199877 -0.024221437 -0.0326084 -0.04319809 -0.08464023 0.10593943 0.32883295 0.23210174 0.32764736 0.13262631 0.09663292 0.113164425 0.09368283 0.036323063 0.061298735 0.1720197 0.15617843 0.15447429 0.08994861 -0.091601335 0.10059714 -0.14466599 -0.094662406 -0.021380829 0.20587133 0.12431459 0.24722426 0.14691107 0.13488388 0.13693123 0.16319562 0.13652675 0.10674726 0.06423586 -0.04223736 0.15869863 0.2649928 0.018990004 0.027489869 -0.113921694 -0.066558965 0.08883066 0.20116682 0.14064461 0.14349951 0.067416556 0.1222266 0.06447845 0.06661864 0.038601603 -0.0909564 0.1576013 0.17750628 
0.83248734 -0.033255015 0.05834666 0.007970788 -0.0700814 0.0076864823 -0.015870593 -0.02789336 -0.06959864 0.013079127 0.054508463 0.042183746 -0.0055876905 -0.083320126 -0.042412553 0.08442848 0.051144674 -3.0425543E-4 0.01767428 0.038428135 0.13463782 0.059398368 -0.09402363 -0.0014858934 0.06811743 0.14495894 0.11936976 0.05391901 -0.017108444 -0.031886596 -0.10984542 -0.26139298 -0.17852372 -0.17435922 -0.03646684 -0.1442443 -0.1327987 -0.077736385 0.073051125 -0.035664983 0.0045276354 1.2346354E-4 -0.044621773 0.08542789 0.1247 0.0652011 0.17770244 0.1389907 0.058615442 -0.09024745 -0.054915752 -0.083636135 -0.28512374 -0.33128765 -0.3003097 0.118035875 0.14280087 0.009442806 -0.12786363 -0.2696939 0.093670204 -0.006115132 0.07277075 0.13203464 0.17415473 0.23302622 0.1919663 0.1943001 0.1536226 0.17557041 0.14695281 -0.1527985 -0.29820123 -0.22642165 0.0021108207 -0.14820509 0.046474535 0.20010617 -0.055276506 -0.025831109 0.07016502 -0.09896506 -0.037446655 0.37215862 0.34382403 0.2703313 0.23291512 0.09419065 0.22267047 0.17368357 -0.04461174 -0.2691278 -0.29607248 -0.21226227 -0.26322547 -0.47847524 -0.16555735 0.0696688 -0.06589935 -0.22384794 0.17522137 0.016090369 0.047738828 0.4413213 0.3263652 0.27745613 0.2052545 -0.09311933 -0.123775125 0.17675126 0.25270784 0.15130126 -0.30925074 -0.56247187 -0.6473436 -0.53501 -0.5575213 -0.1999407 -0.1444949 5.097444E-4 -0.01482023 0.070773564 0.10915852 0.09876256 0.02250095 0.035313204 0.051323734 0.09765105 0.20420693 0.19765015 0.108896606 -0.0746562 -0.07537172 -0.34267956 -0.59866047 -0.7105618 -0.4427099 -0.38684735 -0.13469414 -0.12810282 -0.15506245 -0.051938657 0.046899565 0.12804274 0.06391323 0.19969065 0.2546439 0.2725943 0.38912582 0.25344864 -0.043921553 -0.09637401 -0.06697211 -0.35019886 -0.5821698 -0.41537994 -0.28821135 -0.2552128 -0.0321627 -0.054753147 -0.13686857 -0.046789996 0.014094007 0.065866165 -0.103875786 0.07256098 -0.046250418 0.11766529 0.10618077 0.057172887 -0.13420616 0.088858575 -0.057711847 0.11380434 0.10422096 -0.089949474 -0.1312283 -0.11366339 -0.25143176 -0.13522358 -0.28034052 0.003304826 -0.11702335 -0.11874649 -0.036236998 -0.1405212 -0.22270225 -0.054969225 -0.20978522 0.14061739 0.17783342 0.26043186 0.12957713 0.5006843 0.42230332 0.51631474 0.4070891 0.128162 -0.1830987 -0.19202507 -0.22210728 0.010071969 -0.24513032 -0.09179294 -0.037776798 -0.103962354 -0.17022671 -0.0693325 0.052305296 0.13076393 0.31126416 -0.063200854 0.3565237 0.36530724 0.22709633 0.3185991 0.16203105 0.13931398 -0.110695355 -0.1057815 0.063444905 0.05913231 -0.07942087 -0.17436998 -0.061789904 0.11821256 -0.15852539 0.3470755 0.36699265 0.2539275 0.092207894 0.11025348 0.008090425 0.16578723 0.26746014 0.109671734 0.20893955 -0.17891625 -0.08083892 -0.011940834 0.13373029 0.07586281 -0.017712798 -0.17708516 -0.11472978 -0.0589033 0.16814412 0.46728146 0.47020382 0.1353738 0.25768718 0.20580952 0.027399888 0.045550726 0.16594915 -0.0761685 0.028713003 0.1010058 0.04781153 0.1556337 0.24365889 -0.09326866 0.011923557 -0.27418628 -0.13583925 0.026791451 0.25311708 0.18184562 0.14788468 0.06522923 0.2529884 0.03777316 0.035059195 0.14562006 -0.04944119 0.089815095 0.1537795 0.2685343 0.11293786 0.2930342 0.18663421 0.05334302 -0.1508879 -0.030591033 0.0069897347 0.057477176 0.060995705 -0.13148078 -0.022031179 -0.14550358 0.13157037 0.17779353 -0.049334805 0.041812196 0.13249008 0.0333401 0.18898408 -0.015567993 -0.023496794 0.08326787 -0.06149371 -0.0115197515 -0.28987056 -0.016065579 0.044653382 -0.0074972366 -0.086026534 -0.15897179 -0.29487595 -0.16065408 -0.06925449 0.033720996 0.24439885 0.115180835 6.9803733E-4 -0.013026038 -0.039114833 -0.09176045 -0.09825747 0.15326314 0.018076995 0.12650703 -0.008015792 0.054314326 0.25132284 0.24818929 0.19309548 0.027087543 -0.32472134 -0.19688518 -0.13807204 -0.096104324 0.024398297 0.02905422 -0.14090765 0.031745825 0.060102146 -0.11567214 -0.047064703 0.052821986 0.21780497 -0.004352244 -0.043376286 0.07170698 0.08326202 0.15793784 0.114830196 -0.040156294 -0.36625704 -0.15745847 -0.12591736 -0.06579997 0.008189059 0.08387516 0.10888436 0.10284196 -0.06946535 -0.19417436 0.17102043 0.17496331 0.19547665 0.11047972 0.20347123 0.12563184 -0.03582581 -0.08513471 -0.13773155 -0.24647668 -0.27652282 -0.2569713 -0.26831266 -0.14805408 -0.16521455 -0.09255045 -0.18186212 -0.06006744 0.01685103 -0.02547921 0.1854876 0.12016882 -0.069154955 4.770424E-4 0.21614301 0.103034705 0.13912673 0.02754215 -0.087893404 -0.08099376 -0.37693316 -0.38358104 -0.43998435 -0.27577055 -0.23054579 -0.061792776 -0.20988993 -0.06708099 0.026528459 0.1429725 0.15721932 0.1404441 -0.11554904 
-0.3882317 0.027064689 -0.0056910985 0.02493571 0.10114246 0.09796599 -0.05879243 0.11844422 0.09705598 -0.011480898 -0.073710404 -0.03217327 -0.077921435 0.05163873 0.0809093 0.15278992 -0.044990137 -0.077298775 0.015683642 -0.098443374 0.07710794 -0.08743018 -0.050182886 -0.046007577 0.15715587 0.13290462 0.12822095 0.029422652 -0.15095593 -0.37266567 -0.14572915 -0.34214056 -0.26804167 0.0935987 0.52726 0.50225484 0.41996196 0.34021026 0.1276722 0.11781212 -0.017889088 0.044841956 0.022793904 0.07127422 0.12192036 0.19170468 0.13951464 0.13064186 -0.17025605 -0.36149415 -0.30001673 -0.32875556 -0.40967345 -0.10891326 0.13268712 0.49603668 0.5184673 0.5927286 0.34194723 0.24700649 0.052747563 0.07561824 0.13457641 0.31719592 0.20347413 0.19884293 0.124256834 0.018903505 -0.025704028 -0.2374903 -0.3675585 -0.51717585 -0.14381517 -0.28191984 -0.26473895 0.07749825 0.7991877 0.62000144 0.57733333 0.3112583 0.13583359 0.12347282 0.22566354 0.2839595 0.25560775 0.4017261 0.2502275 0.07894702 0.05998385 -0.22061318 -0.3414057 -0.3750894 -0.3870422 -0.39705724 -0.6138256 -0.27451104 0.33555934 0.518187 0.07147319 0.0013881376 0.17859946 -0.025206896 0.15479474 0.24149597 0.23310016 0.21329947 0.35039273 0.015145934 -0.30616358 -0.27128315 -0.45086515 -0.23494546 -0.1389441 -0.23772937 -0.32027528 -0.5105205 -0.072881095 0.25887546 0.07165572 0.044502113 0.19158517 0.0636879 0.1499191 0.11985188 0.19523615 0.11449623 0.048742924 0.1401936 -0.043217406 -0.304838 -0.43234363 -0.45959207 -0.3208017 -0.21962836 -0.18444027 -0.43838462 -0.041129343 0.6540687 -0.09174688 -0.06431032 0.24645689 0.20722628 0.32607886 0.09139154 0.118289225 0.3190461 0.20249052 0.2480579 -0.044753797 -0.34295225 -0.5380527 -0.26925746 -0.046272036 -0.2849804 -0.2854316 -0.17438652 0.07633628 0.38227278 0.16676879 0.14277273 0.34360778 0.12785116 0.2117268 0.22891127 0.19429336 0.05203186 0.14110985 0.32780522 0.1672171 -0.398928 -0.64401275 -0.23665881 -0.13076197 -0.065044306 -0.089255854 -0.11132497 -0.05887308 0.11903854 -0.076496504 0.2373251 0.77856857 0.07539874 0.5593284 0.31199813 0.23008499 -0.2138592 -0.17174573 0.36347634 0.05908681 -0.23040766 -0.20353399 -3.9432684E-4 0.17016107 0.14213811 -0.26986068 -0.18835314 -0.08028945 0.07250831 -0.18606539 0.014272608 0.5071229 0.025175197 0.48126075 0.16790122 0.21247192 0.11333535 0.30796897 0.52467644 0.037121218 0.03363144 -0.10406619 -0.19868177 -0.07445178 0.15312336 -0.34184664 -0.22220661 0.03454903 0.028480096 0.0059207682 0.30359203 0.7119348 -0.047101922 0.4301567 0.13835123 0.13487703 0.31585407 0.16313761 0.3137829 0.12138717 -0.052632637 -0.2386653 -0.47498825 -0.33386692 -0.20286731 -0.014993804 -0.02662598 -0.00935321 -0.11340726 0.065018006 0.018336149 0.58163524 0.067237854 0.474734 0.1338306 -0.0708178 -0.021211626 0.13587739 0.52300453 -0.07999129 -0.18461047 -0.14643723 -0.08369712 -0.4293033 -0.38327113 -0.19727136 -0.27864638 0.09479581 -0.010488949 0.07812029 0.36040628 0.5618681 0.04356173 0.15873556 0.11583499 0.21984056 0.02643752 0.45743105 0.43034938 -0.17030655 -0.35877034 -0.28084865 -0.15464967 -0.28707647 -0.30723733 -0.0023082213 -0.060622893 0.05671617 0.11324937 -0.14053051 0.30391806 0.14222912 0.07450295 0.25507113 0.23628935 0.22552153 0.514427 0.35941643 0.095505856 0.21566075 -0.013690915 -0.15441081 -0.14271545 -0.053028427 0.0941818 -0.07715124 -0.01737097 0.27978602 -0.02529308 -0.27985275 0.16661386 0.01581791 0.10677735 0.031581238 0.27255347 0.41170707 0.47340682 0.031722903 -0.11344788 0.026527064 0.21150175 0.06030362 -0.15466331 0.05713235 0.22589266 -0.101308964 -0.18458529 -0.0024326663 -0.19724074 -0.116236575 0.040860116 -0.13072403 -0.106855944 -0.13265897 0.25048816 0.2855238 0.29898116 0.12531047 -0.050247874 0.08881711 0.21527436 -0.026637398 -0.24666612 -0.010083333 0.19734855 0.17263462 0.16276355 0.01895255 0.075454526 -0.083305515 -0.016499715 -0.2562702 -0.043300442 0.030057622 0.30613816 0.11104386 0.069448486 0.20681949 0.1649928 -0.13523005 -0.11876863 -0.2549084 -0.24734952 -0.00550509 0.0020915095 0.15982164 0.22971638 -0.011343317 -0.16457544 0.029123401 0.1108308 -0.12487842 0.028108342 0.041608498 0.10590553 0.12179346 0.21831895 0.30168507 0.155922 -0.037169654 -0.022360662 -0.18475975 -0.5111183 -0.19152208 -0.020618888 0.14468063 0.049764007 -0.03236547 0.049029194 0.049633365 0.088556185 -0.019969486 -0.0045150155 -0.0037969858 -0.13735095 0.13642807 0.4495259 0.26467076 0.23351191 0.021680167 -0.02395013 -0.12811719 -0.19860214 0.0740445 0.07120836 0.044140607 0.2161451 0.16841464 0.069514364 0.2228019 0.018240118 0.030534297 
0.68403363 -0.079748206 -0.0513109 -0.07675723 0.1189145 0.021275595 0.041461933 -0.07147124 -0.025973951 0.088947594 -0.011715581 2.8246903E-4 -0.048064195 -0.005626289 0.0946766 -0.073642954 0.08472976 -0.07649391 0.033256955 0.045450028 -0.06583823 -0.0934283 -0.03536801 -0.0060216626 -0.018737549 -0.08477467 0.08203216 0.03613643 -0.11542911 0.14635156 0.32646808 0.40548328 0.3128054 -0.0021954447 0.04748204 -0.13858987 -0.27334106 -0.18257444 -0.10814874 -0.18346013 -0.17281826 -0.03940946 -0.028794471 -0.11443437 -0.0050228476 0.019891057 0.052364007 0.026350485 0.16868412 0.49952492 0.28720668 0.400376 0.3379054 0.022169625 -0.03942341 -0.034084946 -0.06544055 -0.26054025 -0.27114946 -0.0799986 -0.15415724 0.02439382 -0.18117216 -0.26272357 -0.021568282 -0.0256277 -0.021881826 0.06469202 0.2669678 0.38627332 0.47532052 0.26459435 0.036839113 0.0929214 -0.023896178 -0.044165954 0.019065736 -0.12966847 -0.40566728 -0.243763 -0.10762439 -0.097826764 -0.089899264 0.03965809 -0.132948 0.25340366 0.0946553 0.01118519 0.34048802 0.6019585 0.1546824 -0.008677854 0.17831048 0.31332558 0.11669316 -0.088104755 -0.13720024 -0.33080047 -0.22262144 -0.21042173 0.15179734 -0.10010761 0.08138937 0.07654829 -0.049263958 0.121359065 0.003613762 -0.094071284 0.29056874 0.17620815 0.2972379 0.010358217 -0.1408402 0.21449614 -0.06056641 -0.16921014 -0.27362448 -0.12265247 -0.14431868 -0.11156367 0.18648678 -0.15658025 0.025127064 -0.041779812 0.05259986 -0.15512043 0.18783596 0.077676535 0.58621734 0.37299183 0.4273303 0.22575404 0.06520769 0.14770149 -0.054024458 -0.1650906 -0.19790046 -0.17345668 -0.066804685 -0.06845769 -0.04458966 -0.022955785 -0.06205365 0.0100876335 0.10988375 0.047331054 0.2277325 0.44378516 0.9400469 0.5128597 0.17923675 -0.13071488 -0.33784947 0.114811555 -0.044569865 -0.07535018 -0.25122756 -0.27712223 -0.092457816 0.09032276 0.059423752 0.045843232 0.025990995 0.1970853 0.049600754 0.11038808 0.29593524 0.35962817 0.14789692 -0.0034206023 -0.0171192 -0.24158798 -0.3451552 -0.117770426 -0.3372455 -0.5366837 -0.34854946 -0.15471935 -0.13144551 -0.004315518 -0.15201944 -0.092443526 0.07960841 -0.051598452 0.2314798 0.19673918 0.13941751 0.2133081 -0.3121408 -0.44625667 -0.3288486 -0.41268966 -0.6353972 -0.6061779 -0.51102984 -0.5580973 -0.30363747 0.010811429 0.023526743 0.12768124 -0.18324973 -0.044684343 -0.0454196 0.25625008 0.083336346 -0.06092061 -0.2476455 -0.3353482 -0.5829857 -0.58873236 -0.3927025 -0.44479814 -0.6875702 -0.642697 -0.12907794 0.08558454 0.0027942494 -0.05691257 0.123690374 0.13392028 0.16862436 -0.006323726 -0.11335252 -0.05785841 0.024860727 -0.14611095 -0.16449317 -0.52203107 -0.09875278 -0.040474996 -0.18367979 -0.38085687 -0.3066599 0.07652238 0.02419919 0.14695965 -0.089897595 -0.06598865 0.25576875 -0.03232372 0.13660371 -0.017189214 -0.040680103 -0.06791123 0.06955414 -0.12115647 -0.3600563 -0.24126762 0.019991996 0.21559334 -0.07376263 -0.06350264 0.12757786 0.08472999 0.1922893 0.08182071 -0.0026177454 0.22909118 0.08007635 0.019238913 -0.07104289 0.13562897 -0.055603888 -0.20616311 0.3032506 -0.08846855 -0.2504208 -0.11171115 0.17219977 0.47464493 0.30617556 0.19557841 0.33467317 0.13104565 0.056135684 -0.111124635 -0.026568623 0.20617771 -0.15192603 -0.059344664 0.13943693 0.085518666 -0.19999593 -0.16329108 -0.13413331 -0.043107606 -0.0667529 0.058765553 -0.15601462 -0.09062056 0.14169964 0.21185529 0.097286314 0.123449534 0.0122990655 0.12742601 -0.06697825 -0.28447112 -0.15353777 -0.108837605 -0.0385876 -0.0048077563 -0.24225004 -0.032762107 -0.14217122 0.029926796 -0.24210055 -0.27142 -0.09343094 -0.21329167 0.29319933 0.2135089 -0.07039468 -0.093641356 0.31832173 0.1638639 -0.084169835 -0.11565924 0.00508273 0.13129547 -0.15882242 -0.029773476 0.14707531 -0.05751241 0.0027981007 0.32802278 0.07653666 -0.24035521 -0.16434892 -0.044867225 -0.11768876 0.056444045 0.22344391 0.22041667 0.18151905 0.22193637 -0.06839274 -0.09903179 -0.14013635 0.037447065 -0.042124942 -0.07941685 0.106808886 -0.03397165 0.17216572 0.09178153 -0.21505983 -0.40897033 0.07000428 -0.019064112 -0.07437269 0.12378533 0.2967924 0.093811266 0.021505829 0.06741291 -0.2356113 -0.1882711 -0.08545797 0.039212577 0.15612319 -0.016172376 0.16884145 0.15192835 0.008479733 -0.01789789 -0.16763137 -0.3386602 -0.10138088 0.03178746 -0.03490078 0.21631363 0.3574349 0.09985164 -0.05841793 -0.2326546 -0.3652364 -0.20785353 -0.15572323 0.0932684 0.012770725 0.055603728 0.23689778 0.23428899 0.19621715 0.2509828 -0.21511926 -0.39708176 -0.22956356 -0.10192292 0.057864744 0.051492035 0.24064574 0.0756294 -0.013000581 -0.08855298 -0.15265682 -0.19307163 -0.12715405 0.037125103 -0.058027145 
-0.5341003 -0.033351075 0.02942106 -0.020980315 -0.1603466 -0.14598125 -0.14748491 -0.14850037 -0.10673969 -0.1143695 -0.008471944 -0.03319676 0.0030480847 -0.12863725 -0.043249298 -0.13795565 -0.11133251 -0.045080163 0.039986588 -0.1310765 -0.17820524 -0.08866973 0.04586555 -0.16466452 -0.29781508 -0.2544008 -0.36300352 -0.1738623 0.10018271 0.21169552 0.048317943 0.057341676 -0.19093096 -0.062276527 -0.21891172 -0.21239632 -0.114378855 -0.027733546 0.026661357 -7.7777734E-4 -0.15018402 0.07450675 -0.09364728 -0.3529038 -0.3187618 -0.19476885 -0.16820242 -0.12875518 0.04547522 0.38788378 0.12342354 -0.039153356 -0.14031091 0.21890813 0.2478163 -0.0118495235 -0.08097874 -0.030458841 0.017398002 -0.0025687448 -0.453882 -0.02426096 -0.07731446 -0.11454698 -0.20079501 -0.26918513 -0.14208764 -0.05399283 0.19297123 0.16241944 0.24650563 0.27408767 0.19962174 0.20687896 0.33467913 0.2886613 -0.13038868 -0.10301361 0.23037745 0.18612888 -0.37332362 0.0023933114 -0.029176123 0.05074474 -0.22464663 -0.1345839 -0.15443887 0.067237824 0.14781441 0.09123143 0.25169116 0.20091328 0.11162361 0.09175256 0.44318265 0.470647 0.019941894 -0.21128218 -0.15217756 -0.018393304 -0.22138695 -0.02435099 0.18389414 -0.22192991 -0.33804986 -0.21626662 0.13273807 0.32672584 0.15099299 0.20896816 0.04874449 -0.10022516 -0.017334031 0.10714499 0.5217868 0.96519715 0.3161839 0.0031280823 -0.10755111 -0.3229313 -0.2529756 0.08180478 -0.010993319 -0.07737875 -0.31501418 -0.26876915 0.035750918 0.30122486 -0.06386906 -0.16356865 -0.07978602 -0.1922083 0.071946025 0.0014477542 0.40606445 0.79742396 0.12980838 -0.125904 -0.1628343 -0.10170181 -0.1895039 0.01207476 0.14976506 -0.09524512 -0.13300917 -0.15041177 0.18270287 -0.09510248 -0.19268848 -0.055440333 0.03931504 0.11655761 0.18757123 0.28990895 0.48180276 0.46327233 0.35993052 -2.5998297E-4 -0.3512479 -0.20505252 -0.32618785 -0.02305093 0.244022 -0.049185026 -0.32665804 -0.36112735 0.14669366 -0.031862378 0.09105732 -0.07753107 0.3597816 0.26162308 -0.25124535 0.047311634 0.43747893 0.44684434 0.038537662 -0.31020668 -0.004802325 -0.04093335 0.024428958 -0.032104366 0.21767086 0.0066237776 -0.43110824 -0.1276882 0.18787792 -0.20499761 0.15522084 -0.011877622 0.2084662 -0.09914526 0.062440462 0.41489542 0.68436044 0.6104819 -0.24183649 -0.4014371 0.17864935 0.049975447 -0.12621085 -0.24477738 0.20995659 -0.024283068 -0.40175977 -0.30948445 -0.08100915 -0.13950123 -0.24005163 0.24747767 0.17197144 0.15873913 0.25165907 0.53684235 0.6050055 0.23852324 -0.29026413 -0.1446546 -0.1282192 -0.20236385 -0.1743558 -0.25919706 0.1818883 0.09483661 -0.21931136 -0.3190663 -0.41884574 -0.20727178 -0.19800065 0.46890473 0.34082314 0.18375905 0.46586108 0.52833426 0.077471495 0.10474698 0.022618538 -0.2364254 -0.0525123 -0.20739369 -0.06226057 -0.206223 -0.012679832 -0.2738073 -0.06837827 -0.09793469 -0.30205056 -0.1628225 0.06737285 0.06755339 0.27738744 0.32206455 0.37229362 0.41275567 0.14478025 0.076077886 0.04677391 0.06117991 -0.18137616 -0.28103244 -0.16248912 -0.096663356 0.20312244 -0.07054074 -0.34933344 -0.16485095 -0.11640828 -0.109253764 -0.36041644 -0.23996766 0.30441585 0.5201405 0.06385155 0.06654397 0.046889402 -0.06078543 -0.025604425 -0.03241349 0.29850364 -0.059915036 0.13212368 -0.130901 -0.023176191 0.0055077844 -0.1074553 0.005062723 -0.14697905 -0.31932497 -0.34906033 -0.29232693 0.12211347 0.13286394 -0.06648515 -0.17832999 -0.15258789 -0.23381965 -0.20490381 0.17027266 0.48308066 0.15288107 0.35579124 -0.093451254 0.2436418 -0.1207611 -0.113652766 0.06812425 0.34005904 -0.10944504 -0.100449346 -0.13530555 0.08642837 -0.19952203 -0.34595826 -0.24201211 -0.3058818 -0.19036083 0.08908576 0.25004998 0.33052665 0.2956244 0.20656532 -0.017424306 0.27626637 0.038753267 -0.22686544 -0.25121972 -0.2048632 -0.07299369 -0.063167624 -0.08785452 -0.04997901 -0.35964584 -0.4761535 -0.32875586 -0.17619671 0.008728744 0.011780074 0.06406045 0.14744984 0.10743147 0.31325072 0.11724518 0.14230143 0.016754653 -0.018699287 0.08800301 0.013833521 -0.04217976 0.07988592 0.19285 0.18601775 0.044172563 -0.29256555 -0.1272359 -0.29873684 -0.32502693 -0.04879947 0.06825248 0.05661309 -0.028198112 0.12817425 0.09330612 0.08214014 0.049567625 -0.12634009 -0.017381907 0.005409979 -0.04122048 0.10544604 -0.12398781 -0.00982836 0.18890248 0.009519435 -0.042188197 -0.19159192 -0.054965597 0.112154536 0.24953417 0.15010098 0.11773692 0.057631142 -0.04106961 0.16639695 0.2693289 -0.06998285 -0.05925919 0.04087458 -0.14337018 -0.0034900112 0.101830505 0.041841365 0.0011200804 -0.016711539 -0.0774183 0.0619759 0.2256744 0.21696888 0.01572103 0.05121392 0.057432365 -0.06284627 
-0.2809548 0.036079954 0.07798344 -0.0724864 -0.058574427 -0.063221015 -0.12294441 -0.08208301 -0.11727807 -0.092020094 -0.09191664 0.015221921 -0.0888971 0.07505526 0.11558565 0.043711826 -0.0126302885 0.03826881 0.08339631 -0.02282408 0.08142436 0.04163454 0.06964998 0.10424354 -0.018645372 0.1349217 0.042578313 0.03096829 -0.06213745 -0.17410725 -0.013321688 0.07443164 -0.028236752 -0.0061068665 0.07721315 0.40686056 0.47598708 0.35913226 0.38926142 0.120413154 0.14989294 0.10009101 0.06486839 -0.061488025 0.0034618163 0.012969756 0.031456906 0.022974553 -0.10427738 -0.035094995 -0.14150901 -0.11564379 -0.2003142 -0.076652266 0.19748333 0.50421804 0.6205168 0.29960448 0.14405696 0.19754538 0.032437388 -0.0012869017 -0.09087152 -0.017976731 -0.11082731 -0.0027600634 -0.059030455 -0.031485282 -0.2413933 -0.18197745 -0.19907057 0.055674717 -0.032073304 -0.30042824 0.115055986 0.5896964 0.6339817 0.21943754 -0.022782471 0.028078012 0.04841731 0.06497175 0.024216006 0.09909688 0.16284767 -0.011225451 0.09641602 -0.15397994 -0.25318092 -0.4180594 -0.18905187 -0.14495677 -0.083655454 -0.26467553 -0.07917305 0.26844087 0.75793487 0.45804128 0.20821461 0.069684446 0.04697786 0.064091995 0.013304009 0.0882597 0.12767097 0.079399586 -0.10039572 -0.15939441 -0.33854613 -0.33291978 -0.0889497 0.21695243 0.466514 0.042473923 -0.22988905 -0.1050038 0.4407933 0.41396493 0.15124394 0.0068757012 0.028623985 0.117319085 0.18416432 0.24473846 0.16469137 0.11588574 -0.17096004 -0.2270492 -0.4113142 -0.16601957 0.22773564 0.52286965 0.4680229 0.025363363 0.045317158 -0.23269679 -0.036652446 0.24027385 0.11768954 0.22972837 0.11969858 -0.05988057 0.309614 0.116297826 0.035072133 0.122175686 -0.21382205 -0.24086718 -0.041417934 -0.1105436 0.33085138 0.4211873 0.31506005 -0.0027613575 -0.039667904 0.03763088 0.24133705 0.30948356 0.24674511 0.23745126 0.2045837 -0.008174715 0.17319141 0.0108366115 0.15884799 0.081489064 -0.120194286 -0.15511589 -0.04204176 0.17639844 0.373658 0.06316802 -0.06110639 -0.12597583 -0.41058215 -0.020400772 0.2597425 0.2862498 0.35154212 -0.0850097 0.0033527662 0.10999798 0.3345777 -0.067610614 0.005114842 -0.012586056 0.055034086 -0.09790692 -0.17498533 0.11127721 -0.06983269 -0.27844712 -0.20184796 -0.27398565 -0.43982178 -0.28293312 0.21348788 0.25834885 0.37507942 0.013317043 0.071147256 0.15199074 -0.008677744 0.05733476 0.032727286 -0.055628825 -0.0092887655 -0.16004312 -0.0010834732 -0.07998427 -0.041188285 -0.27891445 -0.37079376 -0.18252422 -0.52605504 -0.1491414 0.32443342 0.25282428 0.19218306 0.011252514 0.034203608 -0.0034263683 0.0422597 0.17073107 -0.013339875 0.16682509 0.03444793 -0.2640275 -0.40470743 -0.2596418 -0.1292626 -0.019510103 -0.1995894 -0.21058498 -0.22280836 0.11416914 -0.010811777 0.35930634 0.132403 -0.07316105 -0.06108672 0.038334813 0.041720897 0.05591102 0.020938113 0.256232 -0.07692902 -0.28686222 -0.16861616 -0.29663652 -0.2853994 -0.4056658 -0.27733263 -0.11394217 0.080861405 0.15927608 -0.1233235 0.118984774 0.38471758 -0.05662759 -0.36069468 0.007816771 0.15917182 0.024233159 -0.027513912 -0.029458491 -0.060959343 0.010622978 -0.29824805 -0.4054809 -0.23458222 -0.32206815 -0.1451955 -0.07408802 0.24558178 0.20772247 -0.07606696 0.17664807 0.24796835 0.022572473 -0.4490746 -0.045270685 0.21419065 0.1731717 0.0026984252 0.07260208 -0.13772938 -0.059342865 -0.35564974 -0.21440321 -0.2028137 -0.19174 -0.015437335 0.030012248 0.20708871 0.27661368 0.18542087 0.15769008 0.2260799 0.039349634 0.0798583 -0.06524138 0.07146722 -0.031811934 0.028983397 0.07502506 0.12621817 -0.037196968 -0.1340186 -0.38566884 -0.49782455 -0.31342536 -0.12801667 0.20828031 0.32902443 0.18544336 0.26210165 0.40876275 0.32202578 0.05312205 -0.10773174 0.029003436 0.037195366 0.07100557 0.036219146 0.040911607 -0.08774388 -0.06725834 -0.32852915 -0.463515 -0.29754153 -0.0028358197 0.12881799 0.31381065 0.41317418 0.20143257 0.10705272 0.3565278 0.15471606 0.0034636108 -0.039603863 -0.0951396 -0.029271783 -0.057011154 -0.2202388 0.17474762 0.20369066 0.16607296 -0.19586998 -0.22360764 -0.1382291 -0.12340724 0.075229734 0.42894316 0.43707868 0.39107117 0.33287424 0.23601897 0.06410798 0.07464309 0.002347638 -0.06757822 -0.19973125 -0.060353167 0.27048331 0.17848924 0.16934113 0.080678634 0.102163404 -0.17525299 -0.103854604 -0.00767262 0.18523031 0.2636819 0.3435357 0.45865554 0.20996872 0.18712522 0.108661324 0.15683055 -0.0074747847 -0.11848494 -0.15454613 0.104188666 0.29001266 0.43337712 0.30945697 0.20210397 0.114117555 0.0099943215 0.05822422 0.18608074 0.14941548 0.100488015 0.36374855 0.38197413 0.24645309 0.14552236 0.0787799 0.029366903 0.0038268599 
-0.08731873 0.08806878 0.05337894 0.0768169 -0.11655637 -0.09639913 -0.09016545 -0.056082416 0.0605655 0.023674512 -0.024617424 -0.04682648 0.031578206 0.023294065 0.077426 0.046852596 0.041990474 -0.088308714 -0.052016135 -0.09742554 -0.09784202 -0.021525841 -0.12714453 -0.029251315 -0.048202235 0.02002109 -0.060773645 -0.09295104 -0.041477658 -0.036085457 -0.29728162 -0.15110704 -0.10953921 -0.039723884 0.11090862 0.13553748 -0.0036017732 0.14514834 0.19471279 0.13455953 0.011851995 -0.08166922 -0.052924465 -0.20697881 -0.10528969 0.044343255 0.06656052 -0.06392545 -0.060713373 -0.1522538 -0.15684709 -0.19609343 -0.067818575 0.0066717207 -0.044032115 0.3256477 0.23317015 0.1527867 -0.014433759 0.014339801 -0.107768685 0.033140708 -0.15968701 -0.09388712 0.093561016 0.31650233 0.06970393 0.0080397045 -0.09151647 -0.101523295 -0.04621116 0.03502635 0.13692188 0.21091376 0.118047096 0.022197044 0.36991453 0.32340646 -0.021752285 -0.101624876 -0.037328564 0.053936128 0.037070543 0.05303521 0.22603837 0.30105302 -0.020270135 -0.06862842 -0.03172661 -0.06309459 -0.046188965 -0.035244554 0.0074207545 0.21305001 -0.12575337 -0.08029544 -0.0014009988 0.07365307 -0.08325848 -0.29376495 0.16219264 0.112500384 0.031578578 0.07259899 0.13974142 0.18171671 0.11496858 -0.0059408345 -0.24457613 -0.11041878 -0.095839426 -0.09086885 0.019205654 -0.099840656 0.021774095 -0.09346567 -0.015516304 -0.13718893 -0.13578403 -0.021968497 0.002147484 0.102980904 0.15936263 0.10277537 0.20247677 0.24656 0.22237612 0.20349316 -0.12918733 -0.23584221 0.013654542 -0.13230585 0.04932689 0.13250214 0.006117572 -0.3031359 -0.4233877 -0.122391835 -0.14651531 -0.0044066375 0.14734457 0.08356752 0.21012914 0.09515992 0.23659047 0.31207785 0.18831633 -0.016547594 -0.095199235 -0.21130395 -0.052523036 0.13515371 0.07382126 0.10468456 -0.107297875 -0.25049105 -0.16631576 0.07341178 -0.028411752 0.100840755 0.3121693 0.11904768 0.27206343 0.12818417 0.014588739 0.17589702 -0.095387414 -0.2961292 -0.24618813 -0.18398163 0.123571694 0.20380022 0.2303999 -0.04813232 -0.2125632 -0.040220078 -0.19808967 -0.27214593 -0.018755317 0.033256993 0.20945841 0.12835522 0.16359058 0.050545905 0.3108297 0.26108456 0.06452816 -0.120564714 -0.26718953 -0.32930815 -0.17557047 0.18388835 0.04932239 0.19892193 0.045301285 -0.17660628 -0.25975138 -0.08215335 0.15924051 0.08888541 0.15454212 -0.03838367 0.37077132 0.21721551 0.16569053 0.10790496 0.18426128 -0.14463954 -0.4842184 -0.18890506 -0.21012527 -0.22167028 -0.10539022 0.04060795 -0.08404762 -0.18740474 -0.25026003 -0.106630564 0.022543123 -0.07645262 0.3338766 0.0043747113 -0.06372649 0.21007146 0.2890425 0.33486402 0.0042271973 -0.202675 -0.042483326 -0.3036144 -0.35679805 -0.18370053 -0.24244979 0.25110456 0.25489178 0.21353857 -0.099345565 -0.33672354 -0.25737002 -0.26178145 0.2157154 0.046784703 0.025035424 0.31648785 0.37913382 0.12934756 -0.038319413 -0.016461954 -0.12312468 -0.117608696 -0.07396312 0.25378358 -0.12873332 0.23007059 0.29252777 -0.055594705 -0.06779021 -0.13847174 -0.097986184 -0.071947835 -0.025146417 0.07562151 0.15859318 0.34779269 0.32431635 0.25922754 0.30089298 0.035488546 -0.14012307 -0.21336408 0.15616241 0.12841618 -0.06677923 0.08750725 0.19112314 -0.062816866 -0.10877036 0.050886605 0.02019672 -0.052219413 -0.13665287 -0.026203245 0.06005112 0.14584209 -0.010523866 0.13827123 0.29823703 0.017394679 0.118708596 0.042846825 0.20177312 0.12226763 -0.08232348 -0.026934018 -0.0707235 -0.09559654 -0.13547385 -0.16330242 -0.12160731 -0.18240702 -0.12878902 -0.120328575 -0.108392306 0.110082015 0.13254757 0.31921703 0.379511 0.24449961 0.050611902 0.13059905 -0.054680035 0.031453583 -0.13002418 -0.066524625 -0.07532187 -0.091550194 -0.0849894 -0.13549729 -0.03453319 -0.084970035 -0.2199746 -0.039016165 -0.027810624 0.29422534 0.28736582 0.29751232 0.1589586 0.2697165 0.25990644 -0.051839292 -0.26110965 -0.27785277 -0.16381381 -0.049319517 0.0041155033 -0.08215982 -0.09132108 0.12842715 0.035832964 0.015648635 -0.02483308 -0.07496509 -0.009304036 0.25053868 0.16077095 0.4025869 0.49548557 0.2862411 -0.057948507 0.10238769 0.04335599 -0.19271879 -0.09851989 -0.01682213 0.10981477 0.12147155 0.018851994 0.061956204 0.30180153 0.10578493 0.028777538 -0.008661704 0.051405456 0.04750297 0.19655973 0.35860947 0.30920604 0.33758906 -0.04253061 0.046177827 -0.0023715578 -0.19616157 -0.09887029 0.01723635 0.12683682 0.22211553 0.123051524 0.10026966 0.29658028 0.21274331 -0.025786 0.012208824 -0.06315977 5.2963244E-4 0.1165051 0.33775356 0.28650656 -0.047374614 -0.060332026 -0.06565859 -0.1770094 -0.26251072 -0.104760244 0.017254176 0.29078585 0.20156376 0.11412863 0.16980362 0.23219058 0.09851673 0.06378735 
0.057458147 0.09638568 0.09257236 0.07930456 0.13105169 -0.037884887 0.020308858 0.046851795 -0.0291124 -0.06019788 0.102513015 0.14745533 0.002602705 0.03051441 0.15397233 -0.04930595 0.06539712 0.019094553 -0.025457876 -0.02986369 0.054000188 0.052200772 -0.12098126 -0.1301725 -0.07915335 -0.09209194 -0.11420985 -0.08214929 0.040000264 0.28151783 0.28460488 0.35678867 0.2960797 0.26566014 0.31472418 0.29649955 0.20236829 0.17521626 -0.06637885 0.05744016 0.058890086 0.051483713 -0.020316025 -0.09248094 -0.11927586 -0.23182282 -0.046764143 0.12863502 0.2877823 0.58827555 0.52395594 0.64766574 0.36076623 0.19426018 8.409952E-4 -0.087378375 -0.11199825 0.03136772 0.04280312 -0.07072206 -0.19355118 -0.037162498 -0.008595263 -0.22220057 -0.12738377 -0.34964472 -0.13146625 0.16955559 0.10291682 0.385546 0.53303194 0.58906645 0.28134516 0.0058122072 -0.024764325 -0.06950679 -0.36112887 -0.018065333 0.21454488 -0.2544056 -0.3409589 0.035366878 -0.15822797 -0.14417736 -0.1651277 -0.45850334 -0.33733267 -0.056248352 -0.054911815 0.3526574 0.5587522 0.42233425 0.021555616 0.08555471 -0.033075474 0.07684006 -0.06410399 -0.23986293 0.034488466 -0.15029022 -0.20382921 0.012986355 -0.23200387 -0.11540086 -0.22904749 -0.3171564 -0.16814432 -0.24617833 0.16448645 0.39867032 0.492328 0.3571895 0.1027377 0.069689564 -0.06166181 0.015380116 -0.08270525 -0.22067687 -0.27074352 -0.1736901 0.18789046 0.025621602 -0.2645213 -0.027771458 -0.30251116 -0.37270516 -0.037691925 -0.2578995 0.10461526 0.35350102 0.3528094 0.21520841 -0.009751457 -0.09582403 0.20646393 0.05944817 -0.16355792 -0.23786466 -0.012305404 -0.08146776 0.120037496 -0.12616083 -0.26919377 -0.1157175 -0.41988415 -0.3121101 -0.3006257 -0.46647504 0.04829478 0.34280095 0.4065003 0.14955412 -0.2069443 -0.24325171 -0.1819796 -0.16985905 -0.2218337 -0.14656858 -0.12381313 -0.03584045 0.07940761 0.04996362 -0.20706251 -0.22105147 -0.4134738 -0.22828247 -0.10622482 -0.28070882 -0.08888516 0.5028794 0.4498877 0.24821068 -0.0869352 -0.12171074 -0.2741774 -0.42017326 -0.13310555 -0.12142392 -0.03511364 -0.22005567 -0.19534428 0.0138195995 -0.11685858 0.05075357 0.05316851 -0.0057148426 -0.117511764 -0.16900055 0.21241327 0.54229575 0.5635291 0.24110012 -0.05868427 0.123052485 -0.21875253 -0.22906399 -0.09997581 0.030791016 -0.0032079618 0.070431046 0.019891517 0.011529635 -0.004892762 -0.034883656 0.39707455 -0.070977464 -0.18257932 -0.07279769 0.37098178 0.5022847 0.65595543 0.16990308 0.1472983 0.07289209 -0.09992804 -0.35211918 -0.07021928 0.0072119604 0.024005493 0.07311699 -0.031377815 0.10744304 0.009977564 0.026427077 0.15564425 -0.3536033 -0.19350637 -0.29476094 -0.14911115 0.32525277 0.2813023 0.30202132 0.22745089 -2.8047414E-4 -0.18165766 -0.36671436 -0.29537058 -0.1509396 0.25714973 0.027956992 -0.061062925 0.0034103442 0.277781 -0.037873935 0.16588753 -0.0066949837 -0.15206091 -0.19077183 -0.004802041 0.20761676 0.14441529 0.18097843 0.18016271 0.15058346 -0.09550612 -0.15164699 0.07903461 0.032460008 0.060111012 -0.18727867 0.11776432 0.058744747 0.46445653 0.089378186 0.19236873 -0.16793308 -0.28267226 -0.24112529 0.091257066 0.19234116 0.13931496 0.13677454 -0.06821932 0.07843067 0.053116836 0.1465222 0.011136212 -0.017273469 0.109954886 0.1277456 0.057953253 0.07666027 0.46081835 0.26725563 0.29643396 0.013231683 -0.20672502 0.030445434 0.25794402 0.29578382 0.15766053 0.21639055 -0.11032038 -0.035459075 0.09108294 0.060782347 0.26900792 0.12999232 0.11901469 -0.0024585356 0.040221658 0.20739053 0.5615989 0.27767208 0.17487144 -0.33286425 -0.38070592 -0.11453256 0.20718756 0.42751664 0.3285835 0.22102377 0.079930715 -0.025542973 0.13510999 0.23320912 0.24700868 0.01468517 0.05107278 0.28114164 0.15143128 0.13821991 0.37611032 0.2464939 -0.052798424 -0.42428127 -0.39336595 -0.16890235 0.16681153 0.2660061 0.2746245 0.18710566 0.029922655 -0.19460715 -0.06876363 0.20606332 0.18265018 0.10818606 -0.046168637 0.13572447 0.13764523 0.03531296 0.31421557 0.15174474 -0.1918535 -0.34398568 -0.15601788 0.0015551477 0.31751716 0.4525728 0.4630289 0.28616387 -0.13701054 -0.17193677 -0.23903611 0.06068897 0.1715909 0.3623478 0.04025945 -0.061477687 0.055865582 0.15518121 0.16699179 -0.0047945892 -0.2825617 -0.32026774 -0.06537178 0.16841696 0.3658574 0.3459036 0.3031751 0.114988126 0.044002935 -0.038975317 -0.20423345 0.055495817 0.071036875 0.32078484 0.056355443 -0.04071503 0.105620794 0.06162341 0.10091994 -0.0039851977 -0.0065100696 -0.049672678 -0.07843519 -0.013188619 0.20666416 0.2614066 0.042295586 0.095190614 0.0035625382 0.01311391 -0.14247157 -0.23610124 -0.06341954 -0.09364797 -0.037939545 0.057496235 0.09542185 
-0.32936352 -0.080875546 -0.095223 0.12588912 -0.025664791 0.07342948 -0.045473903 0.027403235 -0.01226435 -0.081296474 0.05852615 0.032991253 -0.06516283 -0.091957994 0.06323281 0.07067431 0.13335955 -0.016612902 0.12050857 -0.0522993 -0.04578015 -0.09096439 -0.031090919 -0.046776544 0.09310708 0.082150996 -0.06977435 -0.1438199 -0.1044302 -0.07323529 -0.020365883 -0.14532858 -0.22585984 -0.01589615 -0.034112554 -0.087761626 0.19366935 0.28395322 0.16781008 -0.018324738 0.11716727 0.00690369 0.09613309 0.15860058 0.042514205 -0.13871539 -0.14287458 -7.6820207E-4 -0.024760347 -0.028184574 -0.094881274 -0.0055777393 -0.24689175 -0.23717813 -0.15582515 -0.17552236 0.050309632 0.23139875 0.17415857 0.08248422 0.121105134 -0.0064093433 0.060852952 0.13631901 0.10476308 -0.2066788 -0.33806667 -0.23512259 -0.11233702 -0.05134058 -0.022349715 -0.10602834 -0.10806832 -0.3155248 -0.07643213 -0.03082474 0.08865677 0.06480685 0.24959756 0.04310488 -0.05043891 0.038776163 0.047387797 0.14188163 -0.054571874 -0.16452594 -0.062073477 -0.0878138 -0.19407827 -0.080591924 0.12390657 -0.034066696 -0.37815398 -0.18939114 0.055917345 0.2772445 0.18251124 0.29896846 0.22663039 -0.011981188 -0.029040428 -0.016297095 0.18578614 0.14479765 0.07249688 0.010983083 0.030880703 -0.09308342 -0.07303055 0.07494611 -0.13473417 0.047858663 -0.020715373 0.12635376 0.16875683 0.32375666 0.14572147 0.1917497 0.038715612 0.031546727 0.2658097 0.15541567 0.21110332 -0.010214714 -0.19137053 -0.19586253 -0.12325593 -0.19720003 -0.12625386 -0.04962568 -0.31433824 -0.09687227 -0.0015081787 -0.0042029223 0.2913501 0.34619308 0.08612102 0.09899844 0.024494812 0.18907082 0.34009996 -0.019474272 0.090035796 -0.01197052 -0.2296921 -0.15650749 -0.16368599 -0.17276543 -0.1810805 -0.17448434 -0.15417778 0.15069865 0.14842817 0.095111884 0.07565838 0.010931764 0.08162177 0.14845608 0.20252469 0.27066037 0.15545 0.040652063 0.047177646 0.06900022 -0.056043155 -0.11965092 0.04440618 -0.009131951 -0.1413751 -0.1146239 -0.13026817 0.18473727 0.08094083 0.1769201 -0.103028014 -0.13845277 -0.022361076 0.18728496 0.17053892 0.13181636 0.18136686 -0.008416587 0.024301806 0.02351669 -0.16716944 -0.10779664 -0.2624682 0.020242907 -0.18381591 0.027774291 0.34095785 0.3630038 0.36976415 0.1178162 -0.034176048 -0.05040884 0.104785144 0.28407633 0.17395288 0.13181289 0.09983633 0.11910194 -0.20177573 -0.22679108 0.10016367 -0.18874831 -0.21258341 0.096882604 0.22590165 0.33501932 0.57309693 0.6062873 0.4856046 0.37548393 -0.31173286 -0.03323834 0.16096729 0.36697784 0.27282622 0.075761035 -0.04197701 0.012120065 0.025398158 -0.08358927 -0.24747838 -0.2989634 -0.3323431 -0.28059036 -0.27769887 -0.11927928 0.23407447 0.22256911 0.032664903 -0.29141393 -0.32074496 0.022533102 0.2065947 0.3422593 0.28985384 0.19300337 -0.103712775 0.05177273 0.17641017 -0.3058977 -0.43419474 -0.23661396 -0.3790283 -0.052982077 -0.15965992 -0.09482379 -0.065602146 -0.18926813 -0.11610441 -0.21436885 -0.05369139 0.15726134 0.24516386 0.3582143 0.10024769 -0.14453954 -0.14323838 0.029642843 0.2461137 -0.18367963 -0.38109016 -0.28673425 -0.24771962 -0.27613404 -0.22407405 -0.03276373 -0.067970425 -0.3760855 -0.21393935 -0.30776057 -0.07374403 0.29206878 0.4477436 0.19791143 0.10006946 -0.08282282 -0.054120515 0.18768674 0.34842575 0.2283048 -0.23701714 -0.3017285 -0.15021947 -0.28869694 -0.1703483 0.18427211 -0.07747886 -0.12931535 -0.07490486 -0.11149114 0.25611213 0.31988895 0.17066199 0.13094975 0.13460216 0.110756 -0.086560756 0.03174746 0.2597308 0.11755014 0.091111176 -0.26937684 -0.36711693 -0.27749303 -0.18021668 -0.06575492 -0.22500606 -0.24999815 -0.02821978 0.12615043 0.060422603 -0.039681874 0.33713174 0.29192364 0.29723763 0.14520484 -0.018369433 -0.007565971 0.116521254 0.090326525 0.04782438 -0.072102964 -0.24174432 -0.23025376 -0.31038046 -0.1257509 -0.085939676 -0.0029088561 -0.14985995 -0.13576224 0.10807181 -0.070597626 0.26638207 0.1655917 0.030040968 0.0947777 -0.084050134 0.034617458 0.059164632 0.10089991 -0.048540704 0.16725287 0.017929545 -0.18554443 -0.30958718 -0.16259848 -0.09635041 -0.12578547 0.15079844 0.19398868 0.11160499 0.03650135 0.20351951 0.14182727 -0.12669906 -0.1672049 -0.032716915 -0.015377682 0.018598024 0.012295318 0.03561471 0.17634806 0.15527904 -0.22849904 -0.27011052 -0.18841138 -0.20357051 -0.003042051 0.037101846 0.07419814 0.044041336 0.13967651 0.17026578 0.08934581 -0.18124121 -0.016542897 -0.18253464 -0.048151378 0.10812264 -0.03891234 0.103626914 0.3159257 0.098904476 -0.1621674 -0.106197394 0.024502717 0.021704743 0.124419846 0.14969668 0.010170648 0.06436934 0.16409673 0.16297519 0.055109985 -0.1409909 0.022114774 -0.015086515 
0.24072604 -0.044419777 -0.071905375 0.048375636 -0.05244501 -0.07869818 -0.13857232 -0.11274386 -0.0108324075 -0.07900242 0.027366279 -0.024533842 0.10233923 0.10889942 0.017389884 0.027889395 -0.06825275 0.07078809 0.07614329 0.063253246 0.077103525 0.028647695 -0.13704209 -0.25296095 -0.22153006 -0.1456739 -0.12267732 -0.29480198 -0.31673065 -0.06641063 0.026250653 -0.030635515 -0.058485523 -0.013488442 -0.20313835 0.009380449 -0.16391128 -0.18259129 0.026593719 0.18489358 0.09569238 0.02900987 -0.26587325 -0.38107112 -0.32682335 -0.16131859 -0.27178022 -0.26433647 -0.12078041 0.222253 0.14620498 0.011884021 0.06017437 -0.022292817 0.04510556 0.08241261 0.13529344 -0.008982107 0.26344788 0.33260682 0.13030474 -0.022075 -0.3931519 -0.24098101 -0.16256028 -0.28351852 -0.16113168 -0.01944812 0.08485856 0.26575044 0.011655598 -0.13798758 0.008629785 -0.029339356 -0.06077694 0.10613976 0.3752785 0.24971318 0.3802014 0.38206175 0.068598464 -0.0029101647 -0.24237342 -0.1674869 -0.20933174 -0.0038936732 0.11575816 0.15208144 0.19463012 0.08803798 -0.042637862 -0.1160596 0.19695435 -0.111691535 -0.15797997 -0.021071926 0.08834457 0.45685008 0.36801282 0.3090787 0.15897414 -0.16065755 -0.11275895 0.020836094 0.07826971 0.21063527 0.07799159 0.14122683 -0.010733757 -0.110067464 -0.06514278 -0.07424329 0.050104946 0.19243097 0.0010206982 -0.15671957 0.26045465 0.2707455 0.37620434 0.19613723 0.2369672 -0.042071935 -0.17441373 -0.16717863 -0.049380165 -0.13133462 0.0019715007 0.18565643 -0.013836496 -0.045916487 0.23488043 0.29851437 0.28954077 0.31542775 0.33412847 0.19121964 0.39670223 0.35310593 0.37542382 0.121566065 0.025318714 -0.006989477 -0.1285594 0.10461412 0.17966983 0.18315122 0.14184168 0.031737924 -0.014723516 -0.047765754 0.23817445 0.17025417 -0.027012683 0.22697578 0.4072436 0.33843425 0.44778517 0.31859952 0.18389039 0.17844853 -0.14419818 -0.094760664 -0.24125168 0.12584917 0.073167175 0.14840245 -0.08134272 0.08700337 -0.09760893 0.019147404 0.08554671 0.3899156 -0.14668323 -0.042286873 -0.0016837147 -0.052987434 0.36238208 0.34757203 0.069989786 -0.039182313 -0.015747221 0.028491968 -0.05253311 -0.2426489 0.23158295 0.02419596 -0.06166747 0.2122683 -0.109911226 0.069611646 0.39004302 0.080872566 0.03300349 -0.114081345 -0.19406845 -0.120595284 0.21355185 0.19310082 0.056649234 0.016392741 -0.0055374643 0.08937171 -0.15629815 -0.071639046 -0.082733564 0.12568621 0.22972676 0.18859783 -0.18470623 -0.12817132 -0.06259521 -0.03533163 0.050212044 -0.11032039 -0.057657324 0.1351321 0.35769686 0.056265578 0.12289618 0.12880309 0.05764906 -0.03591344 -0.1341615 -0.12700856 -0.14942694 -0.054868437 -0.14027347 -0.2048757 -0.4755888 -0.43856573 -0.20177051 -0.07944245 -0.1906201 -0.5934554 -0.45965502 0.11220405 0.09278157 0.17020118 0.2759033 0.18925652 0.21646978 0.053496286 -0.14065439 -0.06631501 0.044695787 -0.26948303 -0.30830202 -0.3487126 -0.33587167 -0.667474 -0.5783444 -0.555625 -0.44435444 -0.8669931 -0.19871216 0.07447055 0.06438095 0.22669627 0.202201 0.16944256 0.026707528 0.16760951 0.36349517 -0.13188975 -0.20158605 -0.0034642292 -0.19710028 -0.48126936 -0.42924225 -0.54693305 -0.36765411 -0.13085932 -0.28586954 -0.32363164 -0.1000681 0.12986507 0.18649118 0.13970314 0.039959267 0.04635674 0.03166503 -0.056835618 0.31091997 0.15620361 -0.11665051 0.09440693 0.08375829 -0.39392075 -0.6253856 -0.29989582 -0.09833352 -0.435071 -0.10618181 -0.33473837 -0.14301178 0.15374619 0.20122638 -0.13724342 0.18522866 0.17977905 0.049572587 -0.06176744 0.04506954 0.019395702 -0.26944506 -0.1588177 -0.13032074 -0.6033456 -0.5306045 -0.5108741 -0.13969044 -0.2987815 -0.15335178 -0.112663716 -0.27591488 -0.031867247 -0.13839082 0.007410856 -0.03685974 0.19657375 -0.11704982 0.035330012 0.27947903 -0.15716988 -0.11414771 0.04817239 -0.13151036 -0.54053974 -0.6300917 -0.41396475 -0.26711157 -0.0055923886 0.15348148 0.001239373 0.19800192 0.04921593 0.030608712 -0.15251422 -0.05502562 -0.1472442 0.056912497 0.003437149 0.13564637 -0.049104515 -0.025760278 0.20853382 -0.1807807 -0.3687694 -0.08444343 -0.15731168 3.0433587E-4 -0.046668608 0.17189923 0.05415775 0.053498797 -0.10672244 -0.13674222 -0.23548885 -0.017045781 -0.03735004 -0.083151855 -0.01899294 0.1650358 0.024366071 0.15878415 0.19779626 -0.029708326 -0.29431584 -0.24721861 0.08867531 0.12050526 0.07296532 0.08723184 0.1532584 0.014662571 -0.03908779 0.049102835 0.07478648 0.19620165 0.17938544 -0.007978396 -0.050599802 0.09802913 0.03898309 0.2580672 0.29132763 0.01398304 0.0136203375 0.11885004 -0.0047318237 0.3368505 0.19430867 0.20638691 0.03492766 0.18444514 0.19982564 0.26404503 0.15259027 0.18100153 -0.058204893 0.0697116 
1.0846251 -0.073622294 0.07964153 0.04226262 -0.082975194 -0.039052546 0.027872328 -0.051149987 0.14256126 -0.08574416 0.037364487 0.030928273 -0.10146758 -0.10437053 -0.010431335 -0.018981997 0.090903334 -0.0647852 -0.05363977 0.0016089185 -0.059904207 -0.066678025 -0.15556246 -0.10355452 0.14101279 0.07933395 0.15424848 0.0246954 -0.08227936 -0.19403456 -0.032414965 0.032949287 0.18364066 -0.14189327 -0.09126327 0.15037756 0.028115196 0.050411362 0.06489095 0.030774623 0.08301716 -0.10074803 -0.06326716 0.070489414 0.23246136 -0.032008246 0.1921659 0.03887907 -0.071392626 0.06298167 0.14210339 0.27499685 0.30285624 0.13388138 0.17371736 0.28139627 0.085452884 -0.008392648 -0.0031628879 -0.10067593 0.090600014 0.019174933 -0.043648645 -0.040069707 -0.069764964 -0.17511705 -0.12119724 -0.14339758 0.021187816 0.02679584 0.15372473 0.12128246 0.29128554 0.31806776 0.1749368 0.20145933 0.5661705 0.19329956 -0.33830774 -0.19478862 0.21376938 -0.10265331 -0.08304577 0.11544677 -0.033784237 0.050125733 5.556826E-4 0.3221378 0.5377378 0.25726968 0.25078118 0.42368323 0.14938504 0.15230092 -0.08559913 0.026665628 0.29432407 0.660498 0.046833254 -0.27117625 0.13236405 -0.061002143 -0.032468405 0.25206497 0.08994477 -0.2919595 -0.077304274 0.23365101 0.025771897 0.123978 0.33341455 0.57076913 0.2428118 -0.22489737 -0.2743826 -0.081849255 0.06574334 0.31442273 0.197837 -0.028395737 0.16974446 -0.09709072 0.06419308 -0.084967524 -0.13728422 -0.46608922 -0.3355651 0.19300884 0.02670138 0.21571177 0.46877307 0.41062742 0.047801774 -0.35501364 -0.35936302 -0.23787981 -0.09902037 0.25607276 0.2165425 -0.23072629 0.3890663 0.0636829 -0.17284197 -0.13931602 -0.12542947 -0.18361779 0.10636561 0.30282915 0.50652313 0.35575667 0.24711302 0.012191934 -0.44306704 -0.68444586 -0.1481388 -0.3057893 0.008254437 0.24372932 0.10920438 -0.03423078 0.23567024 0.08298551 -0.21631658 -0.16227286 -0.08143383 -0.030979443 -0.18467109 0.29603615 0.23668557 0.3502947 0.012874857 0.12712008 -0.11190339 -0.4222482 -0.32503936 -0.28682742 -0.18728259 0.03842566 -0.10381682 -0.06359347 0.22584268 0.12387757 0.07836448 -0.22032405 -0.017425302 -0.09447956 0.04623899 0.703928 0.18911828 0.27178308 -0.1064353 -0.31779554 -0.4300305 -0.4017929 -0.4435821 -0.25084147 -0.057748456 0.019341316 0.020843565 -0.2293384 -0.19745606 0.12299164 0.1875316 -0.07303327 -0.23493743 -0.044892516 -0.03971107 0.29901904 0.11171243 -0.18937682 -0.4287768 -0.48140666 -0.34270367 -0.3272298 -0.3076488 -0.23436743 -0.05560004 -0.035138138 0.21743722 0.008844575 0.124200776 0.12372672 -0.1884985 0.028875552 -0.10404 0.15133156 0.06196556 0.21863277 -0.2111339 -0.6993845 -0.67880106 -0.4159059 -0.2810459 -0.20192944 0.028205326 0.25737488 0.0412508 0.22681557 0.1459423 0.06832384 0.07031968 0.101413414 0.010254277 0.11580576 -0.0404523 0.012932033 -0.18482374 -0.17466904 -0.20734718 -0.6001282 -0.5770766 -0.26707932 -0.19715902 -0.36343235 0.03138442 0.08056593 -0.11860907 -0.07100802 -0.11433031 -0.058811985 0.057840176 0.07817661 -0.00951508 -0.0904838 0.009597943 -0.03914232 -0.19575456 -0.11155019 -0.2441553 -0.17234601 -0.08471276 -0.14373769 -0.08779689 -0.1847363 -0.033954725 0.38243622 0.43911883 0.33921733 -0.23942015 -0.11218938 -0.09391819 0.09087847 0.24829337 0.14931376 -0.11153743 -0.021625677 0.15540667 0.11072302 0.047626905 -0.1500928 -0.054937556 -0.21406622 0.061977834 0.075018756 0.112629734 0.33304283 0.33558592 -0.049915977 -0.07004998 0.18845025 0.09064944 -0.020754678 -0.022385959 -0.0030493017 -0.2915029 -0.31074455 -0.026816128 -0.12898122 -0.16651198 -0.46103427 -0.34527886 -0.42375627 -0.067056134 0.2165498 0.21022673 0.16671222 0.00865694 -0.2121426 -0.08698061 0.1690724 -0.090794675 0.07440521 0.13509089 0.18441246 0.16024952 -0.029226435 -0.011580917 -0.21444635 -0.43984196 -0.5758697 -0.4008453 -0.07362278 0.03823149 0.19100481 0.017280608 0.044517465 -0.11149532 -0.1365062 -0.004580388 0.038835682 -0.053952962 -0.053133152 0.20836706 0.18337561 -0.07365679 0.2040845 0.17214839 -0.22340415 -0.32633826 -0.31298703 -0.17914204 0.112337925 0.16707271 0.2402646 0.29764336 0.120286904 0.09118503 0.0060337665 0.08767981 0.029199112 -0.15563765 0.107488245 0.19749025 0.028646717 0.20852166 0.1971799 0.1652773 -0.021928506 -0.2048623 -0.02861484 -0.04412743 0.052974477 0.09454788 0.12182563 0.1926237 0.27295372 0.08718057 0.1508732 0.09955707 -0.07594648 -0.0917838 -0.006485198 0.17080626 0.24694008 0.3921777 0.5823156 0.3225843 0.21056958 0.08892452 -0.12326404 -0.15071 0.0055822497 0.07488233 0.014989475 0.20356917 0.10699344 -0.08407026 0.20891695 0.1737917 0.06874296 -0.11567206 
