3
25 401 
-0.9090638 -0.096709736 -0.06605541 -0.056752495 -0.0985667 -0.0049402546 -0.05224549 0.114303924 -0.109087214 0.004879488 -0.07236185 -0.0965081 -0.1069499 0.0107660005 0.09198474 0.049836855 -0.033890504 0.010607415 -0.030584767 -0.036038905 -0.10713877 -0.101169996 -0.12520657 0.08709821 -0.059590086 -0.10800842 -0.029436845 0.18197611 0.24643834 0.2463868 0.05536287 -0.031339355 0.036747143 -0.29806325 -0.24221455 -0.07876667 0.058710076 0.14442259 0.17389423 0.2436729 0.2345003 -0.10013255 -0.058350924 -0.063396834 0.11330907 0.08018641 0.2773665 0.24701284 0.5160327 0.27143592 0.022820773 -0.08988538 -0.37143955 -0.1885373 -0.45491612 -0.2799334 -0.03561121 0.054961838 0.22918414 0.28271738 0.120043404 0.04137888 -0.03174135 -0.017296698 0.39545602 0.3804188 0.3002066 0.35922325 0.376673 0.03669972 -0.32489157 -0.3083659 -0.3309733 -0.3333665 -0.42754072 -0.28260198 -0.113327935 0.057031833 0.35275492 0.16036656 0.27710482 0.06022541 -0.25926054 -0.2046953 0.060623065 0.30147254 0.1375996 0.3563175 0.19422561 -0.10720971 -0.20549937 -0.19996303 -0.5302936 -0.48035702 -0.5793299 -0.27797818 0.025752971 -0.14419506 0.29408267 0.21595532 0.4969649 0.0434211 -0.24367432 -0.094085775 0.15022382 0.45503467 0.6000771 0.42575982 -0.026905429 -0.33348686 -0.3838212 -0.29038358 -0.32539472 -0.12237229 0.054538384 -0.18860042 -0.19000877 -0.10158047 0.15513125 0.30441406 0.2369501 -0.06630065 -0.21217193 -0.0030180162 0.44839665 0.43436328 0.25131047 0.2000498 0.02609625 -0.07439624 -0.4002563 0.045014393 -0.15955567 -0.009584726 0.23948002 0.15030573 -0.21136047 0.11340802 0.0075816587 -0.04708136 0.4177892 0.09615747 -0.294061 0.08078727 0.39957792 0.3470805 0.10613609 0.2082753 0.31468335 -0.22923551 -0.59578705 -0.49250975 -0.4178585 -0.18220077 0.057205204 -0.10312814 -0.13367131 -0.266738 -0.13698894 -0.07107605 0.6388711 -0.0922115 -0.22026637 0.33695462 0.9032734 0.6808455 0.53919333 0.20207427 0.11796208 -0.3720072 -0.63832134 -0.49671158 -0.1371008 -0.38936308 -0.376267 -0.41249815 -0.59159535 -0.19603783 0.22471005 0.31212607 0.23272404 0.079809316 -0.123248056 0.3638749 0.89391524 0.6617099 0.4251823 0.54589134 0.20956473 -0.62909317 -0.5153838 -0.3273217 -0.36918107 -0.3475661 -0.26592916 -0.501048 -0.50573987 -0.17267936 -0.05845441 -0.13149573 0.24136645 0.019769141 -0.26085356 0.46975622 0.6630736 0.81402004 0.8396592 0.64246595 -0.14248478 -0.31611305 -0.12741162 -0.20901148 -0.4167491 -0.7911481 -0.08893218 -0.5567125 -0.5605124 -0.15525077 0.07334342 -0.062050067 0.093589 -0.05926283 -0.015703388 0.38708606 0.89159113 0.6541916 0.65701026 0.17523928 0.053487103 0.015192095 0.16109857 -0.25201038 -0.44988683 -0.21816556 0.12428374 -0.20215999 -0.60990983 -0.2921863 0.31568736 -0.23211645 -0.31879944 3.7508088E-4 -0.17642927 0.42472142 0.76796645 0.58576167 -0.24252287 0.051164955 0.25196978 0.20973277 -0.04949521 -0.19141197 -0.08635915 -0.0525305 -0.49612612 0.010243838 -0.19328934 -0.1461197 -0.17711394 -0.27822372 0.16969477 0.005666299 -0.22281334 0.29108903 0.34273237 0.50641274 0.02877002 0.08888147 0.43616846 0.4553496 -0.32962546 -0.025858171 0.38628325 -0.2797585 -0.29817128 0.19483204 0.13082391 0.008569823 -0.08189124 -0.3192325 -0.15644234 -0.0786752 -0.20913652 0.11945592 0.30678743 0.5118405 -0.03946824 0.27293345 0.44044426 0.27581748 -0.08318642 -0.0659916 0.09925919 -0.17484327 0.07341425 0.15699366 0.032665923 0.10174403 -0.23842539 -0.5528072 -0.16253974 0.071329735 -0.22407612 0.42402786 0.42054027 0.45574516 0.17760646 0.26184383 0.21935913 0.44613746 -0.06292108 -0.26521274 -0.12519239 -0.34403658 -0.098361805 0.039747894 0.441472 0.15024778 -0.19971292 -0.24588232 -0.09172999 -0.03021182 -0.25838453 0.024064764 0.36683568 0.2448927 0.31084427 0.29686847 0.6737168 0.32069522 -0.1361302 -0.37727854 -0.14692633 -0.31552124 -0.058479056 0.0725718 -0.10507312 -0.15020841 -0.2732158 -0.14115939 -0.09499646 0.09938492 -0.15722719 -0.2204623 0.16307764 0.029090948 0.11691924 0.13513105 0.28437877 0.13295186 0.067867555 -0.26113272 -0.09418007 -0.124807574 0.11906372 0.15185046 0.026497433 -0.08712738 -0.22458775 -0.091974616 -0.06315452 -0.114991456 -0.30664507 -0.2924009 -0.22712137 -0.16025448 0.03321789 0.22052413 0.130368 0.15734908 0.24457982 0.030227443 -0.1786725 -0.2867612 -0.070416436 0.021574406 0.118174694 -0.0872957 -0.06004983 0.056259293 0.08624018 0.014396605 -0.24086343 -0.15448058 -0.23601763 -0.10428484 0.20389053 0.27556548 0.3530554 0.39948007 0.2921815 0.083862424 0.025551109 -0.018601306 -0.12707272 -0.17170471 0.14567114 0.030432329 0.15515354 0.012247403 0.06265911 
-0.11004078 -0.09270896 0.036401644 -0.098994814 -0.12455543 -0.078198664 0.09403809 0.07704998 -0.09241318 -0.05964893 0.0060122493 -0.016809534 -0.07902307 -0.015052407 0.035105817 0.1187542 0.06203741 0.066770196 -0.049011182 0.11925262 0.018654238 -0.10844807 -0.0060490845 0.029435633 -0.10080944 -0.10099113 -0.24800219 -0.20376223 -0.06876356 -0.12629917 -0.1552392 -0.28119513 -0.16958869 -0.12889206 -0.14373016 0.13126019 0.2795875 0.27671844 0.08390615 -0.05993454 0.053701233 -0.03398419 0.05300871 0.027062917 -0.06639017 -0.14101642 0.026090866 0.19431533 0.014559428 -0.091712125 -0.120011315 -0.27152345 -0.3481467 -0.43185243 -0.11071232 0.110265344 0.16352013 0.25156492 0.21090361 -0.14273319 -0.106617175 -0.080099665 0.07614311 -0.012996371 -0.04634071 -0.07931561 0.123876 0.1033199 -0.01851575 -0.08847716 0.11189682 -0.02969635 -0.22100459 -0.52612317 -0.0713654 0.12672694 0.042177834 0.21454625 0.0866594 -0.07170439 0.100855656 0.03788867 -0.109788656 0.015418412 0.0861493 -0.060906347 0.18218218 -0.14406826 -0.16678847 -0.2242198 0.22250448 -0.06728839 -0.07294918 -0.4720653 -0.11194424 -0.279344 0.0080044875 0.26912397 0.2540866 -0.015210213 0.048015602 -0.0899979 0.016437626 0.0022075356 -0.06633242 0.10142155 0.069416225 -0.19912349 -0.07624272 -0.12474362 -0.15692598 0.016355654 0.030283444 -0.16831659 -0.42808327 -0.17838065 -0.11529159 0.022748442 -0.16378465 -0.20584886 -0.010760435 0.09684136 0.04148866 0.25009087 -0.0818162 0.14283586 0.15515321 0.11791138 -0.0785014 0.07093757 -0.15063919 -0.0051024593 0.19350818 -0.10414604 -0.22829962 -0.2045291 -0.16955301 -0.17436104 -0.14893949 -0.047718268 -0.1471215 -0.054500435 0.09344399 0.1659019 0.09072392 0.23174031 0.11527056 -0.071633145 0.05558933 0.045514856 0.0179556 0.020455875 -0.03365013 -0.07793549 -0.006864658 0.08207778 -0.050524052 0.026729954 -0.1947622 0.042445138 -0.07163755 -0.05779117 0.20458235 0.16038062 0.15425968 0.239352 0.0147079285 -0.10681764 0.18950328 0.05549595 0.16902131 0.12500307 0.31129283 0.39884463 0.1248991 0.044779893 0.16170914 0.09082321 -0.09037661 -0.17633374 -0.15247998 0.15184025 0.13815996 0.05959864 -0.038140308 -0.0017898777 0.076066874 -0.015114673 0.111139625 0.43839857 0.4231998 0.30297658 0.73476136 0.6158304 0.12700479 0.17783375 0.32248527 0.28740257 0.10303843 -0.018367257 0.049612395 0.08874464 0.21785259 0.08591917 0.065162994 0.31524196 0.1209322 0.22910562 0.27632067 0.5191665 0.7935759 0.69485587 0.5556123 0.3206357 -0.21914707 0.020765902 0.5080019 0.2568869 0.13877538 0.06415362 0.14032164 0.11339909 0.042963617 -0.06633824 0.24422078 0.2987422 0.20688283 0.14458661 0.5481422 0.5163263 0.7375739 0.39068183 0.060116462 -0.27383217 -0.20716321 0.06705206 0.31987077 0.052446622 0.14343525 0.16913772 -0.009899845 0.052349426 0.24450146 -0.11490203 0.25905785 0.19742443 0.11129552 -0.019713994 0.19419254 0.0486187 0.08875782 0.0055198097 -0.020317702 -0.15955651 -0.0831026 0.1776092 0.19547254 0.15337709 0.19509111 0.1049503 0.07027706 -0.11877848 -0.043601617 -0.1435502 0.010719552 -0.15112689 -0.21893701 -0.51730025 -0.20869762 -0.2631378 -0.3330746 -0.25164583 -0.044927534 -0.35478222 -0.25444692 0.03788724 0.021627184 0.13450868 0.34050435 0.24985686 0.065650396 -0.04866954 -0.12123869 -0.110721484 -0.2436238 -0.4315936 -0.49417734 -0.40380505 -0.40978178 -0.25350854 -0.03959791 -0.109955125 -0.15184295 -0.3975635 -0.3068012 -0.25133005 0.107128486 0.11433073 0.1380582 0.15571965 -0.019915946 0.07183246 -0.07927163 -0.2510962 -0.2672168 -0.15870681 -0.11829167 -0.044909053 -0.28966427 -0.007695045 0.048842393 -0.2720962 -0.07516944 -0.3521192 -0.34796187 -0.081616 0.34589285 0.23168443 0.18159789 0.20912547 0.045150377 -0.079382256 -0.075674176 -0.04187296 -0.17931372 0.010182734 -0.066993825 -0.06664804 -0.14705263 0.0029830905 0.05222596 -0.2448017 -0.22398634 -0.27569386 -0.14150167 -0.04820535 0.20851684 0.10510961 0.009481525 0.035697605 0.056190103 0.03824179 -0.11555303 -0.27257475 -0.046085365 -0.04184791 0.09623658 -0.23091713 -0.40764794 -0.17806962 -0.05252035 -0.111167274 -0.14616872 -0.12533529 -0.1705603 -0.06875088 0.05449151 0.05842478 -0.032676104 -0.018387882 0.03557915 0.095427625 -0.10785522 -0.010015541 0.2776961 -0.041488923 -0.12166581 -0.41760612 -0.4040784 -0.12722404 -0.26922297 -0.16357216 -0.16553237 -0.24768625 -0.2765811 -0.056984153 0.3148334 0.10580258 0.1710124 -0.042011987 0.033880502 0.0090545295 0.108999975 0.1001507 0.30753785 0.2686097 -0.11336859 -0.22100686 -0.30876657 -0.3584328 -0.37111256 -0.17908877 -0.11155797 -0.06159927 -0.10806747 -0.06239661 0.17493564 0.12763906 0.15362878 -0.03482429 0.07982332 
-0.3061082 0.04834891 0.031999603 0.03986325 -0.02402142 0.10134845 0.14132886 0.03725609 -0.098915294 0.116637565 0.02208183 0.08001284 -0.108422555 0.02264316 0.070198745 0.054207142 -0.07128638 0.08116551 -0.079943396 -0.10377929 0.061237983 0.10567951 -0.07948479 0.011271494 0.028024137 0.07512686 0.021933189 0.023429677 -0.031729158 -0.13221666 -0.012566781 -0.025036296 0.051707502 0.0150803365 0.1381441 -0.022889476 0.16221555 0.038608525 0.0024267032 0.10021545 0.3458141 0.09590042 0.041996066 0.14780435 0.10457819 0.17898601 0.06636331 -0.089768305 0.13461079 0.19182308 0.056591615 0.09309464 -0.16323037 -0.028448027 0.029715305 -0.027771218 -0.12083916 0.034142856 -0.024136554 0.10519272 0.28189427 -0.023710579 0.21950273 -0.01752895 0.19495897 0.1972066 -0.09743697 -0.10453164 0.13141876 -0.08200932 0.06635077 -0.16539547 -0.28548524 -0.098715484 -0.10399988 -0.13380162 0.10882683 0.047073122 -0.19978987 -0.35994297 0.21283372 0.036588468 -0.042658083 0.074800946 0.009581793 0.043951612 -0.047268856 -0.065389246 0.07397839 0.12875448 -0.0797901 -0.21653816 -0.41999716 -0.165801 -0.2695432 -0.3105185 -0.12578362 -0.15477715 0.08678613 -0.04449269 0.36828887 -0.09634991 -0.07451739 0.11271358 0.18549745 -0.095790684 0.0610172 -0.1788425 -0.01765965 -0.1634786 0.16705112 -0.101620734 -0.13897571 0.08975236 -0.097972274 -0.1546668 -0.3591903 -0.16515395 -0.038501382 0.0068375734 -0.069949 -0.0010832205 0.15497805 0.324615 0.22405124 -0.0903932 -0.09055587 -0.015602495 0.055699114 -0.1310671 0.014989612 -0.01944966 -0.0651582 -0.0320754 -0.08626348 -0.14283478 -0.24590349 -0.24659199 -0.14089012 -0.13734482 0.052837778 0.047167253 0.34794453 0.26832086 0.23759048 0.0067286445 -0.09630788 0.06923427 0.03645394 -0.30684456 -0.34200713 -0.16869704 -0.3782107 -0.51891077 -0.47422242 -0.21833907 -0.42923847 -0.31936258 -0.20573059 -0.11908928 0.051633947 0.035440754 0.4360287 0.27980465 0.44806397 0.3869215 0.3417836 -0.1357444 0.09000738 -0.22202075 -0.41160348 -0.38729507 -0.16334808 -0.39591363 -0.3345624 -0.5660362 -0.41497648 -0.32701156 -0.10295169 0.050408293 -0.15893953 0.025589922 -0.03337687 0.15494034 0.64613163 0.49626032 0.21377774 0.15852123 0.20986766 -0.30901358 -0.33853203 -0.24029745 -0.28977698 -0.44397318 -0.21123591 -0.2986931 -0.36649126 -0.38541734 -0.09513688 -0.07272462 0.016190797 -0.016363684 -0.20344043 0.25545442 0.72867393 0.4783906 0.41932726 0.13732433 0.2014354 -0.20267038 -0.26589042 -0.2959013 -0.48225254 -0.7490631 -0.3313943 -0.2515707 -0.23735012 -0.12958299 -0.18337305 0.08360623 0.005176843 -0.038568206 -0.32867375 0.29386103 0.8944179 0.30783454 0.74470574 0.27710402 0.2046329 -0.081561536 -0.19082776 -0.23476505 -0.45490837 -0.22220726 0.09221801 -0.26962653 -0.578247 -0.46051848 -0.06482199 0.060398526 -0.08224889 0.017960537 -0.45031196 0.22688907 0.41312686 0.52660185 0.56179094 0.2690778 0.15540159 0.120197006 0.004501664 -0.15082648 0.32187012 0.12316221 -0.1998437 -0.16058783 -0.15451287 -0.37681097 -0.4003013 -0.0563558 0.02943067 0.018062329 -0.57866925 0.28114003 0.63983035 0.5635205 0.43369693 0.34378037 0.49374843 0.5448455 -0.029655192 -0.31086951 0.09478704 0.118565835 0.08123242 0.14312708 0.0021497763 -0.2242966 -0.38775715 -0.09473798 -0.07337455 -0.097039856 -0.37866756 0.25992522 0.24982476 0.094226085 0.23505059 0.6420254 0.36989117 0.12801114 -0.11291617 -0.062892415 -0.18339394 0.017434651 0.26354432 0.24173848 -0.17944962 -0.28336498 -0.34574798 -0.32465348 -0.14786436 0.07943096 -0.10838338 0.14550789 0.38161033 0.1423803 0.13222533 0.25006244 0.20195642 0.39072973 0.07109623 0.048318356 0.06437154 -0.2706288 0.15045217 0.24363117 0.056327492 -0.12793225 0.020466257 -0.004022449 -0.11830157 0.052123625 -0.38516727 -0.055087946 0.3036204 0.56197214 0.34267765 0.30413988 0.68845433 0.32581896 0.22514307 0.28415614 0.13654399 -0.039354984 0.10433604 0.04388691 -0.21177615 -0.17589808 -0.09687693 -0.03765177 -0.08264049 0.013832372 -0.19638474 -0.2797797 -0.12663515 0.17860943 0.2610903 0.33196542 0.47324175 0.3043475 0.08233385 0.07532831 0.115453795 -0.053451903 -0.20684959 -0.062343318 -0.102090515 -0.24274011 -0.1790651 -0.11030137 -0.11040388 0.014475354 -0.19922426 -0.28781036 -0.013412267 -0.10570688 -0.0016587399 0.30666205 0.26285443 0.1892051 0.012982701 -0.16733046 -0.01813312 -0.03955757 -0.26089036 -0.25771788 -0.26387772 -0.32145226 -0.1142645 -0.11313387 0.029111179 -0.06738349 -0.15703166 -0.19161613 -0.1462921 -0.040178 -0.102600105 0.09426549 0.25966382 0.12836158 -0.047501117 -0.107302755 0.0021242374 -0.18657453 -0.38575774 -0.30107144 -0.25312567 -0.28436583 -0.16587529 0.010841885 0.1111818 
0.107392274 0.004445325 0.112399645 0.038300607 0.11081235 -0.047993753 -0.075791925 -0.035799697 -0.13933568 0.01795567 0.07234532 -0.047002517 0.078900576 -0.024225395 0.10022211 0.078803554 0.08643155 -0.052024562 0.03459775 0.081927456 0.036329083 0.039031696 0.14666408 -0.011329611 0.00323795 0.123723455 -0.14712912 -0.086567156 -0.12540083 -0.120739594 0.02036193 0.0074569862 0.12126389 0.28252596 0.2901483 0.027646018 0.06122146 -0.1690872 0.011456645 0.18833889 -0.07518786 -0.07977202 0.20087759 -0.011590185 -0.008039222 -0.03733924 -0.15618241 -0.18112794 -0.15883385 -0.12757681 -0.015909635 -0.033321023 0.20585679 0.43124413 0.3454113 -0.025559388 0.12101828 9.566388E-4 0.24626182 0.16973501 0.10876411 0.054078694 -0.065459184 -0.022462882 0.049437292 -0.30343908 -0.1823806 -0.28772065 -0.2425487 -0.26813984 -0.30168834 -0.26281178 0.20652284 0.21329825 0.1602927 0.2993999 0.20634331 0.020613767 0.3338044 0.430515 -0.026120592 -0.12881434 -0.06390468 0.029865444 -0.18740849 -0.09683216 -0.08784951 -0.15552588 -0.1181311 -0.18819456 -0.4573598 -0.09496579 0.16935787 0.2316655 0.19782706 0.34135443 0.23098665 0.0016627379 0.0705332 0.21402761 -0.13164772 0.09533945 0.15402429 -0.15177509 -0.21306641 -0.24466763 -0.22303982 -0.11335471 -0.31954664 -0.17018041 -0.36346233 -0.1911711 0.2412516 0.101302944 0.28523764 0.42346954 0.49814448 -0.0036733595 0.31098855 0.04632167 -0.027397227 0.05784889 -0.050755277 -0.24053569 -0.23976058 -0.11599359 -0.20771824 -0.49345726 -0.4561204 -0.2518079 -0.13035469 -0.08838423 -0.1401752 0.04320601 0.23599967 0.28795063 0.55271965 0.46455604 0.4290966 0.29991293 -0.035219837 0.06473688 -0.15293853 -0.12215763 -0.002527684 -0.33704674 -0.42939776 -0.4927034 -0.31423202 -0.4470914 -0.3163625 -0.1195784 0.11645842 0.16165967 0.36968392 0.28290612 0.46721342 0.2708239 0.6270174 0.11308238 -0.5020993 -0.12078468 0.23777948 -0.06248344 -0.079831004 -0.6736897 -0.35522863 -0.29554704 -0.50611913 -0.59805864 -0.38572916 -0.13379785 -0.11627117 0.38837412 0.52071655 0.42292082 0.31202582 0.42256767 0.2716088 -0.043523178 -0.45971245 0.003121388 0.52950686 0.07058089 -0.121425144 0.05788141 0.08241535 -0.109236844 -0.46173114 -0.49036148 -0.23741737 0.007737049 0.2062794 0.002869423 0.3353115 0.3793634 0.35220337 0.55477065 -0.05535053 -0.22423403 -0.02143453 -0.01771534 0.19156489 0.120994 0.12993878 0.3168311 0.2722177 0.2657519 -0.22244242 -0.33198017 -0.24278386 0.04201582 0.23051536 0.14676966 0.17968123 0.34907293 0.58426803 0.3976413 0.062615044 0.07068909 -0.13764802 0.115978226 0.36688632 -0.090466544 -0.0382412 0.05372569 0.20334302 0.12339002 -0.16268773 -0.23522127 -0.13064092 0.17241897 0.22584985 -0.16689526 -0.33743438 0.095813334 0.1607464 0.41201997 0.1085497 0.27259618 -0.020265605 0.0037253788 0.080571085 -0.04839942 -0.14879486 -0.22837697 -0.1592223 -0.29056334 -0.10052854 -0.33753377 -0.36272097 -0.41239905 -0.3093397 -0.53786916 -0.4571451 -0.19284318 -0.11405821 2.0680623E-4 0.123114586 0.19477862 0.10514313 -0.1030367 0.2923501 -0.4339567 -0.46926644 -0.06659147 -0.25065583 -0.28619707 -0.38980666 -0.5081979 -0.21656507 -0.3157523 -0.39158672 -0.5114348 -0.41643482 0.016989822 0.23477088 -0.0023293917 -0.04775126 0.053615026 0.18225357 -0.054063085 0.32585514 -0.03532723 -0.15484357 0.05697308 -0.09248919 -0.3139488 -0.4446998 0.053464346 -0.027249789 -0.3457632 -0.23265421 -0.3496255 -0.01635646 0.24746335 0.27121374 0.29197925 0.12644506 0.080933504 0.29923424 -0.06030145 0.23426107 0.18687671 -0.18466209 -0.18270542 -0.18138088 -0.40412658 -0.04295537 -0.19441308 -0.09370564 0.0032603743 -0.017405778 0.1909525 0.07885324 0.19293405 -0.030656518 0.15167119 -0.018001528 -0.006677474 0.05581148 0.053915985 0.29199064 0.08509586 -0.25498322 -0.40895176 -0.41542882 -0.2216809 -0.0780682 -0.020012459 -0.0700048 0.34044966 0.26658246 0.089991815 0.2918996 0.04644548 0.12690128 -0.011784986 -0.15139307 -0.18413685 -0.079275824 0.05923746 -0.001175835 -0.024592388 0.27756786 -0.24016029 -0.45384195 -0.36909166 0.034982454 0.0899305 0.119011074 0.20084722 0.2403526 0.048528314 0.24612334 0.09978492 0.03375254 -0.16578224 -0.093509175 -0.18051411 -0.18954006 -0.06975923 0.03309548 -0.2068903 -0.014650102 -0.13942078 -0.24603653 -0.19085811 -0.09122297 0.056670036 0.18429014 0.2792512 0.18504392 0.21279708 0.2905541 0.40013245 0.23900758 0.0036434417 -0.08729309 -0.18950841 -0.0018743441 -0.038524948 -0.07227573 -0.1633534 -0.50453633 -0.42990485 -0.5577219 -0.054399326 0.003969993 0.27663276 0.46500164 0.21992189 0.17432173 -0.0067742094 0.42474136 0.42554054 0.13345566 0.016655464 -0.21159416 -2.1981922E-4 0.08626112 
-0.055927478 -0.04822312 -0.031149752 -0.049753543 0.00585517 0.12174841 -0.07251257 0.102668785 0.048986953 -0.06642576 0.023776026 0.015999066 -0.09222565 0.042391885 0.016473914 0.14295924 0.11840394 -0.04340709 0.0015984942 0.012135898 -0.005104859 -0.10221857 0.09383401 0.1753509 0.29890054 0.1190583 -0.13775852 -0.30023697 -0.28290525 -0.42712677 -0.5799386 -0.34510845 -0.111321785 0.07047513 0.30835843 0.21552138 0.5396949 0.47519934 0.20590459 0.009523559 0.14526962 0.1222875 0.24836363 0.3700762 0.35098752 0.07110124 0.056778215 -0.04707922 -0.38392997 -0.8648236 -0.73795646 -0.36344618 -0.12697224 -0.024881033 0.20824328 0.13830566 -0.042424567 0.09644731 -0.019369854 0.15390405 0.33839202 0.08166207 0.2859716 0.5303728 0.21168293 0.15816559 0.21129225 -0.099598244 -0.4023996 -0.6181392 -0.39482528 -0.22985798 0.0944116 -0.033208966 -0.094536945 -0.016059006 -0.08334383 -0.18399383 0.13680059 0.09868048 0.31152654 0.1237087 0.35446814 0.18636589 -0.03862442 -0.031655755 0.09093082 -0.4252214 -0.89254594 -0.6608514 -0.460105 -0.08876563 0.16149592 -0.036120985 -0.031049198 -0.031388156 0.09080014 -0.112992555 -0.2468409 0.038522065 0.09941729 -0.088173054 0.43772456 0.2523145 -0.027907014 -0.001807136 -0.1847344 -0.58101153 -0.5815516 -0.52400845 -0.36918646 0.12047797 0.30603904 -0.24495359 -0.16844185 -0.3036495 0.05466787 0.091465466 0.017435454 0.19742638 -0.26166126 0.13413452 0.32537228 -0.026388254 0.011474551 0.47511843 0.06025181 -0.8505019 -0.74771714 -0.447701 -0.22746558 -0.14020802 -0.41804326 -0.10314021 -0.674503 -0.5166277 -0.13417885 0.067428134 0.1650221 -0.033607144 -0.21204928 0.056687016 0.26661098 -0.013349871 0.2722702 0.22605002 0.09056896 -0.6021574 -0.68834686 -0.23544283 -0.5668612 -0.2708842 0.13850716 -0.29846367 -0.44261196 -0.2720693 -0.21384099 4.8513635E-4 0.037452318 -6.69745E-5 -0.45137107 0.14770883 0.4154277 -0.3699395 0.19179463 0.37238887 0.22122006 -0.39526668 -0.6087253 -0.40968382 -0.46797213 -0.29033515 -0.06853762 0.3043842 -0.04159661 -0.025297714 -0.21384354 -0.21825479 -0.101931386 -0.38859662 -0.40971172 0.07735354 0.3495334 -0.21022375 0.24077164 0.32454827 0.1384236 -0.4894086 -0.65537643 -0.23015179 -0.0047487696 0.16007966 0.3291506 0.14689213 0.022718525 0.121580504 0.09179192 -0.17199564 -0.081485294 -0.33918598 -0.227135 0.098050974 0.21941112 -0.41369948 0.24512881 0.36207187 0.050234515 -0.15805933 0.24185309 0.13376258 -0.039385814 0.17135374 0.15499249 0.39707947 0.22464402 -0.0330567 -0.087734275 0.2540263 -0.09197939 -0.16674839 -0.043062396 0.07980644 0.21804152 0.015406662 0.028050605 0.13442709 0.18344273 0.430766 0.57652956 0.078530185 -0.04501926 0.059485044 0.006058994 0.18521929 0.3352439 0.09706321 0.23778668 -0.05299196 -0.1999777 -0.07360484 -0.15013747 0.06330575 0.116215736 -0.13208622 -0.12683609 0.15065469 0.122432604 0.4682138 0.38699034 0.06904209 0.24480772 -0.06818248 -0.059832133 0.1636065 -0.06094296 -0.14339544 -0.0036612723 -0.12818883 0.12649095 0.17054746 0.1991925 0.03466897 -0.05184117 -0.21569175 -0.019914383 0.16961405 -0.015386624 0.17834157 9.849626E-4 0.0073559578 0.2797066 0.13515025 -0.063174374 0.3576311 -0.04578983 0.008060942 0.1377086 -0.17532982 0.047099583 0.18268359 0.11332124 0.006346966 0.040250536 0.19261034 0.14592637 0.057352975 0.2135545 -0.1297712 0.074482016 0.26288858 0.20481284 0.24859357 0.048639648 0.12213172 0.12101849 -0.034465928 0.15042415 0.3413034 0.097957484 0.0028856369 0.16245268 0.058604334 -0.13877 0.3115437 0.33705935 0.21441483 0.04296124 -0.14484532 -0.0046009636 -0.19862284 -0.21111123 -0.010571046 0.21900412 -0.0045857336 0.065520406 -0.06576699 0.19907728 0.19549634 0.12468338 -0.13395795 0.20806101 -0.049770117 -0.37994853 0.12415932 0.35342434 0.25094196 0.19828573 0.07809838 0.041738387 -0.21771735 0.3030814 0.107480764 0.0999519 -0.23218176 -0.2521799 -0.2548425 0.22417834 0.41940433 0.20357838 0.22795717 0.012761878 0.09632879 -0.44442374 -0.0963273 0.015880583 -0.119482644 0.026013853 0.15788577 -0.15288362 -0.15567353 -0.14229143 0.045566052 -0.062740125 0.20656694 0.231762 0.13812748 0.3543765 0.39068028 0.29757735 0.2289027 0.011001401 -0.11673054 -0.24040006 0.038969062 -0.023848357 -0.10572986 -0.2589436 -0.1477799 -0.0473704 -0.27016518 -0.20798145 -0.41139382 -0.32768217 -0.07465348 -0.00583618 0.42978793 0.4104917 0.084559426 0.029788535 -0.121117815 -0.14149939 -0.033009175 -0.068570025 -0.20776159 -0.5810409 -0.55581003 -0.6440701 -0.29257053 -0.19972418 -0.40055424 -0.23445302 -0.27104247 -0.22595438 0.0859719 0.06256713 0.07194961 0.17538448 0.041914806 -0.093572006 -0.039809536 0.007587825 
-0.7530073 -0.0503355 0.010502157 -0.06745391 -0.08510334 0.05166991 0.12244428 -0.09456591 -0.072394066 4.7241308E-4 -0.007779519 0.0054797935 -0.087147035 -0.120179236 0.0069595766 -0.12984903 -0.06408704 -0.058585275 -0.035586227 0.0032657972 0.031360123 -0.08330982 0.078284554 0.12849443 0.2706598 0.15204677 0.129252 0.11137625 0.11265347 -0.058136996 0.2004444 0.15148382 0.047772728 -0.07410091 0.07124842 -0.047614545 0.10683267 -0.013342037 -0.06952495 -0.042522795 0.0249857 -0.067938626 0.1382807 0.22311176 0.1423657 0.24265239 0.07952247 0.024455855 -0.026276123 -0.19918667 -0.05186868 0.21145782 0.10080503 0.13934249 -0.035535812 -0.24746792 -0.09181921 0.06790324 -0.10085458 0.013904332 -0.077385955 0.07015553 0.16646859 0.04489435 0.12568535 0.26598093 0.10963318 -0.008010457 -0.16482271 -0.029824946 0.13934486 0.25762922 0.42883274 0.22064789 -0.007994308 -0.045133416 -0.21777123 -0.18343481 -0.05019162 -0.15578867 -0.32472324 -0.061814994 -0.11330626 -0.15014668 -0.13554458 -0.12506269 -0.13400291 -0.055158217 -0.03600197 0.08435454 0.046783544 0.26999184 0.032994814 0.08630104 0.42261332 0.44292516 -0.059812587 -0.27058363 -0.12233874 0.08464485 -0.10421414 -0.10618785 0.11707453 -0.16953672 -0.18515083 -0.2785265 -0.18628666 -0.022707604 0.16736269 0.31772846 0.3479854 0.11767721 0.006107376 0.095003955 0.4301181 0.5894562 0.18035847 -0.27480587 0.059750956 0.08753568 -0.03090013 0.14179674 0.10384183 -0.107725136 -0.23590285 0.15554993 -0.051331133 -0.18519142 -0.10364285 0.34168845 0.29249907 -0.017213395 -0.11691922 -0.06845056 0.3706999 0.62168413 -0.01833902 -0.08071372 -0.16271524 0.0214141 0.18621854 -0.046091173 -0.04630277 -0.18252589 -0.054075863 -0.2762226 -0.40144676 -0.22495255 0.111054815 0.18017167 0.07356272 0.2679063 0.20449965 -0.051842403 0.28437486 0.44068143 -0.11145377 0.040250205 -0.101373896 -0.07478821 0.11747455 0.048383057 0.036419958 -0.34738955 -0.19551846 -0.27502462 0.0671176 0.04201217 0.33576092 0.24192812 0.253761 -0.19569235 -0.05667171 -0.12107576 0.39463195 0.33944565 0.14198194 0.21063672 0.18666326 -0.05014412 0.09322161 -0.08394224 -0.03289494 0.0383051 -0.18174183 -0.10654827 0.11823554 0.021450764 0.22387423 0.115849294 0.13096328 0.14394236 0.019268863 0.03010837 0.3548452 0.13314436 0.022761352 -0.009134344 -0.062125124 0.020630378 0.06747874 0.12171758 0.02111299 -0.08526087 -0.259977 0.017252471 0.224838 0.11170869 0.32648048 -0.06427841 0.3541443 0.2212359 -0.10131196 -0.011971404 0.058835912 -0.10136512 -0.15165344 0.20339318 -0.025266575 0.036739092 0.11142982 -0.0771593 -0.090257436 -0.22073224 0.021083226 -0.039469957 0.18561393 0.14851144 -0.16491827 -0.13766947 0.2071522 0.1033251 0.17561254 0.009436311 -0.018769925 -0.11446033 -0.033990845 0.1346439 -0.046885032 0.066988945 0.0131618455 -0.067348324 -0.14715329 -0.35212016 -0.16679499 0.22460121 0.52649885 0.42817354 -0.09322953 0.14624138 0.09236954 0.08016506 0.056560572 0.25390697 -0.15552825 0.0601275 0.09421845 -0.04848114 0.20750827 0.16305637 -0.012975774 -0.06452543 -0.20806932 -0.093435474 -0.02301476 -0.012544209 0.45145172 0.35563102 0.092499904 0.0239348 0.14179069 -0.0963707 0.3227813 0.08811774 -0.22924787 -0.3151914 0.025673795 -0.12430431 0.16067375 -0.24526997 -0.2889109 -0.15996401 0.013801103 -0.26704073 -0.1722931 0.016708365 0.318368 0.20857894 0.14740849 0.014231797 -0.08434875 -0.032387406 -0.0030238247 0.07051584 -0.12962982 -0.06644048 -0.20103686 0.13293241 0.14109907 -0.21872477 0.12706381 0.03017223 -0.045197587 -0.24322999 -0.38355047 0.068194486 0.5115714 0.34145275 0.13926616 0.076705724 0.0060187313 -0.120765306 -0.22714119 0.023646504 -0.02623897 -0.0797847 -0.18535416 -0.09696349 0.07343593 -0.05593178 0.023651494 -0.009950351 -0.20725144 -0.12247041 -0.2643569 -0.13641359 0.37718102 0.3254177 0.4768936 -0.082436085 -0.09143717 -2.2433048E-4 -0.13952887 0.0068604327 0.15565312 -0.104556255 -0.16746955 0.018071093 0.09817816 -0.13652314 -0.112927504 0.022191886 -0.16755502 -0.013947165 -0.054813396 -0.16121832 0.3200469 0.5269697 0.4889654 0.27203763 3.8850796E-4 0.070371866 -0.23167172 -0.06325695 -0.011861719 -0.18743846 -0.07833827 0.014796588 0.0458548 -0.14703308 0.006115092 0.07708925 -0.3369912 0.07532994 -0.014919413 0.15878999 0.43415946 0.48958352 0.6044725 0.51601446 0.4247504 0.28474274 0.27940717 -0.026499718 0.001363293 0.05140131 -0.14866574 -0.06251359 -0.06688224 -0.26058146 0.028450623 0.033483293 -0.020249438 -0.17594786 -0.2712708 -0.15791555 0.31285062 0.3856014 0.66177815 0.5677523 0.58600086 0.50864345 0.23541312 0.29559788 0.08185983 0.018372538 -0.06848932 -0.13939439 -0.25270498 -0.08193889 0.047173347 
0.43038526 0.054134913 -0.069629684 0.06821872 -0.002039369 0.031814322 -0.06916589 -0.053074934 0.093865275 -0.08085368 -0.050141763 -0.07012784 -0.079563595 0.11748504 -0.087344624 -2.8489632E-4 -0.012684055 0.07661822 -0.03899933 0.059620272 0.048706014 0.10861562 0.0396871 0.018756818 0.052552447 -0.013772455 0.17765093 0.08313798 0.20146504 0.08482298 0.26122215 0.115705386 0.16207996 0.20525824 -0.092437774 -0.15651749 -0.26020938 -0.33039117 -0.3552811 3.1434096E-4 -0.040610917 -0.023411075 -0.020503473 -0.13374494 0.09752566 0.20912278 -0.06495287 -0.07172773 0.09171583 0.11770279 0.18047231 0.21997757 0.18516603 0.066676125 -0.008355415 -0.15894367 -0.27461064 -0.37387407 -0.37241215 -0.2313834 0.0701837 -0.03582278 -0.15642682 0.028918471 -0.0979146 0.038299326 0.10105624 0.20548293 0.07127699 0.23347026 0.041670125 0.038538076 0.22602284 0.10297949 0.047277726 -0.30833068 -0.53376174 -0.372422 -0.6027951 -0.25481054 0.16945037 -0.020342857 -0.065388076 0.057116516 -0.19299394 -0.37272978 -0.10346063 0.046627022 0.24506475 0.18521212 -0.13724232 0.15602744 0.21962327 0.42737883 0.108895905 -0.17027977 -0.5232607 -0.48186648 -0.39698833 -0.1337895 0.0049048965 0.06781201 -0.024472691 -0.08165089 -0.3029238 -0.1320555 -0.27851483 0.119178556 0.19477114 0.06528599 0.044774015 0.051708788 -0.06623427 0.11630732 0.063158154 -0.21532856 -0.5038845 -0.5592796 -0.26308706 -0.11123534 -0.08122571 -0.020335192 0.07527149 -0.13565455 -0.06833473 0.004202374 0.063357875 0.04368084 -0.06528316 0.107999496 0.14011884 -0.070457734 -0.06767703 0.019263193 -0.13362233 0.24126497 0.028609877 -0.48864394 -0.1412475 -0.3516628 -0.31550348 -0.04233619 -3.7802153E-4 -0.17274897 -0.14202298 -0.23753399 -0.0059317406 0.12556851 -0.051215302 -0.1465046 0.13908277 0.0326646 -0.12722212 -6.028174E-4 0.09917927 0.26506087 -0.048120283 -0.46139392 -0.21577999 -0.24936618 -0.2781731 -0.0596397 -0.22944868 0.008918069 0.0094831735 2.8332957E-4 0.096989565 -0.042171653 -9.606085E-4 -0.09162771 -0.0812339 -0.19734628 -0.0918029 -0.012156606 0.19208279 0.3860375 -0.00825645 -0.2305844 -0.09341176 -0.4918389 -0.59176093 -0.025010118 -0.4191112 -0.33146462 0.104559034 0.10010406 -4.1174435E-4 0.22175594 0.047282472 -0.14671083 -0.24891599 -0.32286838 -0.13141054 -0.0041109687 0.3486393 0.1572151 -0.13946496 -0.19579889 -0.04150269 -0.19917339 -0.59792346 -0.08492592 -0.5314102 -0.06824422 -0.08772466 0.055145442 -0.18280149 -0.17993352 0.03638844 -0.20630255 -0.22953057 0.03616759 -0.020936783 -0.043298945 0.29557455 0.43150294 0.074686654 -0.09874323 -0.17054743 -0.441749 -0.64099497 0.041165125 -0.51250845 -0.1807557 0.23628844 -0.03435554 0.15583026 0.0408566 0.12028964 0.24661998 0.17392938 0.20618372 0.52342856 0.33593532 0.27170882 0.09341763 0.01224757 0.029059762 -0.4064989 -0.2657885 -0.43232727 -0.1193202 -0.45526078 -0.17525002 0.13767551 -0.20012164 -0.0033621758 -0.15705068 0.084318906 0.48506552 0.44866383 0.23722467 0.29249197 0.45698 0.07436544 0.030104762 0.056982737 -0.12896633 -0.29129714 -0.39444908 -0.44067168 -0.040877417 -0.50814396 -0.061156515 -0.026028628 -0.051968735 -0.3032429 -0.25465232 0.39509583 0.5822291 0.5764355 0.21609403 0.28293702 0.5970798 0.105447866 -0.085866645 -0.10173223 -0.06376313 -0.2769482 -0.43882784 -0.22745033 0.028752675 -0.39413887 -0.33324763 0.083213516 -0.30687603 -0.23892996 -0.0373496 0.23652627 0.15460177 0.3713231 0.27824286 0.20138569 0.300503 0.3831737 0.19447687 -0.207697 -0.07252722 -0.21403782 -0.5452113 -0.44085702 0.092644766 -0.24751103 -0.30148953 -0.23108068 -0.11427009 -0.32944718 -0.18559915 0.092950836 0.07520987 0.35425046 0.7075421 0.52019316 0.22219597 0.35631853 0.34976274 -0.024148576 -0.20633578 -0.2956271 -0.360914 -0.1895448 0.021117369 -0.119368106 -0.20607917 -0.20540647 0.032426905 -0.05538305 -0.025724966 0.21073739 0.28685948 0.2568251 0.5028534 0.50477 0.11315569 0.03956804 0.074389696 -0.16087426 -0.32035667 -0.22973973 -0.03739696 -0.030595198 -0.08539188 -0.06259339 -0.107624814 -0.07288081 0.009164314 -0.35771117 -0.04419731 0.3513658 0.15370719 0.46242848 0.55373365 0.31898746 0.06900378 -0.062029906 -0.25370735 -0.30481812 -0.253258 -0.2468926 -0.16922519 -0.04432704 -0.053009354 0.045773994 -0.15923154 -0.35471758 -0.34283456 -0.30730584 -0.24820755 0.025356514 0.14120083 0.14070992 0.35813114 0.32614166 0.096266836 -0.20659484 -0.11162479 -0.16131271 -0.08851632 -0.024607467 -0.07721669 0.0017198399 0.0024680162 -0.06975501 -0.23395881 -0.36292002 -0.515156 -0.5330178 -0.21344374 -0.15241535 -0.045171905 -0.07398153 -0.10312274 0.03426214 0.050770402 -0.009052038 -0.0858047 -0.24471888 -0.26735687 -0.19701605 -0.11134964 0.08340767 
-0.0013795604 0.047454372 -0.033647556 -0.04620697 0.015858961 0.032949504 0.0827961 0.026298372 -0.049500104 -0.061834063 0.083243065 0.017234564 0.012684442 0.012240491 -0.103466265 0.054189637 -0.121269755 -0.12548032 -0.05512823 0.02277194 0.097308815 0.030000675 -0.1302478 -0.09981814 0.020719014 0.086389914 0.0059730606 4.347127E-4 0.051955618 0.16194956 0.20274544 0.18484297 -0.09537206 0.095255084 -0.008243892 -0.20577823 -0.33964914 -0.36760372 -0.30706206 -0.027390387 -0.18672822 -0.032377306 0.010322295 -0.13697752 -0.011688379 0.11477473 0.086353324 0.01373113 0.0028672756 -0.0738663 0.047810953 0.14411162 0.2291435 0.21305563 -0.1001539 -0.5131673 -0.42300302 -0.48229048 -0.42880374 -0.28933853 -0.24611206 0.028857203 -0.1076478 -0.24483587 -0.115351945 -0.031733327 0.053404316 0.10202295 0.049470488 0.19342004 0.054615013 -0.14363466 -0.0520603 0.022756934 0.0870712 -0.5151833 -0.6701125 -0.49594933 -0.3301716 -0.20989276 -0.26452175 -0.07615056 -0.020761482 -0.010471291 -0.15869306 0.29151785 0.3684986 0.33119425 0.24087982 0.2895547 -0.0367182 -0.036441762 -0.05423375 0.08621913 2.0320353E-4 -0.37631032 -0.66352034 -0.4619673 0.047451727 -0.0605452 -0.0021719653 -0.11582958 0.057775456 -0.062316313 0.009927927 0.2713113 -0.020551808 0.13405065 0.19873962 0.14621198 -0.1079142 -0.12032464 -0.08036176 0.007916279 -0.23638073 -0.29915738 -0.30748802 -0.20257135 0.27242443 0.08615813 -0.17327379 -0.11369461 0.07204401 -0.3034566 -0.15649895 0.09869599 0.036404 -0.120908596 0.03466425 -0.13600706 -0.1614504 -0.12503164 0.06490938 -0.19636752 -0.16940562 -0.113513306 0.2121411 0.2525263 0.28822598 -0.11457062 -0.13383622 0.03488494 -0.2516818 -0.37461677 -0.11832882 -0.076153845 -0.11750821 -0.21222597 -0.3487789 -0.20363636 -0.13340917 -0.25338846 -0.12102719 -0.096542515 -0.02957115 -0.05139721 0.3380325 0.446818 0.3853998 -0.16799486 -0.22022976 -0.1325078 -0.09486239 -0.35292324 -0.07651375 0.16630465 0.0776996 0.16822088 0.030498238 -0.3008716 -0.46858123 -0.47587976 -0.3032272 -0.044427373 0.110877335 0.06435328 0.62726974 0.78816795 0.62540466 -0.12922996 -0.1751651 -0.05966702 -0.21199456 -0.15461423 -0.18228664 0.17114353 -0.040643547 0.20190963 -0.0612065 -0.21786149 -0.4411956 -0.26934385 -0.3150225 -0.077521786 0.16340314 0.23573217 0.14391144 0.43801844 0.34169307 -0.028914643 -0.19529204 0.029816104 0.038847104 -0.19944765 -0.22226027 0.1965816 0.10430367 -0.0087158345 0.006805405 -0.32599068 -0.29278764 0.24458984 0.08860734 0.28984454 0.36648917 0.37020347 0.15369467 0.20468193 0.31382895 -0.08310364 -0.21777353 0.0021611499 -0.06590397 -0.18998656 -0.13616163 0.45236847 0.1504426 0.13868628 0.0780374 -0.1587165 -0.23715433 -0.17426948 0.042151734 -0.11841524 -0.09541775 0.17567405 0.2316596 0.43239194 0.22042158 0.34569356 0.025389008 -0.053409435 -0.22448578 -0.087245256 -0.23498204 -0.031139461 0.13566367 0.008148279 0.2980569 0.0504134 -0.063792184 -0.18017058 -0.17046265 -0.09065858 0.03332021 -0.18757805 0.10312329 0.02949142 0.18263723 0.112168536 0.058848448 0.11029365 -0.05624938 -0.30215338 -0.13439037 -0.34275833 -0.25630188 0.047230773 0.15646061 0.06858879 -0.330152 -0.13864653 0.30407566 0.15722875 -0.22148682 -0.12846698 0.12927692 0.096936315 0.15548207 -0.22434102 -0.29413694 0.10105648 0.14018227 -0.34657297 -0.23850355 -0.29427695 -0.40841943 -0.09313093 0.30454302 0.15509953 -0.18797864 -0.07275837 0.23759496 -0.03271453 -0.3395275 0.0148184225 0.052495867 0.15142895 -0.039518166 -0.36944616 -0.49256727 -0.036545143 0.27595347 -0.43776357 -0.34998596 -0.43186164 -0.21908788 -0.038907584 0.06963169 -0.07908299 -0.024367934 -0.13182284 -0.13592204 0.203439 0.09873512 -0.018900253 -0.0023055158 -0.12870218 -0.39383647 -0.36649397 -0.36898628 -0.024025831 0.20487942 -0.23629846 -0.30754203 -0.4694896 -0.22614701 0.025394375 0.034076672 0.050574545 0.105064824 0.2682072 0.25847688 0.2450525 0.053086255 -0.0578582 0.058148798 -0.21723752 -0.15933368 -0.22894846 -0.32289803 -0.023408268 -0.05327865 -0.2034339 -0.2241209 -0.17572771 -0.12424648 -0.047204435 0.071581215 0.28173903 0.46710274 0.25507897 0.23432867 -0.22790842 -0.33536404 -0.20012443 -0.052344065 -0.05020067 -0.24995674 -0.13430077 -0.11556662 0.07266965 0.06590836 -0.13996726 -0.33967713 0.034237754 -0.09947007 -0.09881224 0.32747164 0.32171518 0.3101762 0.15159146 0.18645117 0.16133514 -0.30685 -0.29750377 -0.10737281 -0.19666019 -0.18645546 -0.22351477 -0.106200546 0.05139891 -0.04432548 -0.17320414 -0.21698557 -0.25976795 -0.074259974 -0.02058319 0.15019117 0.21329483 0.20665364 0.3679185 0.27320066 -0.07928388 -0.21036015 -0.0015735996 0.13421158 -0.0083641745 -0.14122772 -0.22465688 -0.0015538952 
-0.053811032 0.0023550931 -0.13378474 0.057067666 -0.007570923 0.046468616 -0.03728379 0.12359993 0.056318294 0.07536378 0.033525188 -0.07520192 0.102702625 0.066908866 -0.12647876 0.08565293 -0.010298047 -0.04867096 0.07643937 -0.046394903 -0.03362086 -0.07274414 -0.21661481 -0.32927394 -0.31549615 -0.2724058 -0.10047175 0.11496014 0.13370262 0.21886621 0.124043 -0.13068295 -0.21914464 -0.26326662 -0.27072674 -0.19945037 -0.24284504 -0.2609741 -0.1491911 -0.036386795 -0.2752079 -0.09105525 -0.26345423 -0.3340421 -0.3782337 -0.09544307 -0.037988838 0.086891495 0.25761804 0.4168106 0.07500417 -0.0766954 -0.12824963 -0.31845662 -0.15008135 0.2041963 0.32688197 0.0053467085 0.11330219 0.22168128 -0.37243527 0.06625552 -0.26645085 -0.45919964 -0.13005292 0.049362883 -0.042996388 0.24831001 0.47937727 0.27783152 0.1573062 0.010348563 -0.093053564 -0.33128372 -0.006565177 -0.029074049 0.011451888 0.041972633 0.05892871 0.22594202 -0.27852055 -0.042395573 -0.30667216 -0.16406585 0.2481536 0.46251726 0.3391485 0.27940428 0.42274567 0.0777925 0.17855017 -0.075580664 -0.22010992 -0.21495649 -0.2083149 -0.34469986 -0.40463802 0.0035032695 0.22608805 -0.28455397 -0.09377239 0.026572896 -0.25053763 -0.05770639 0.038192116 0.2603095 0.33404273 0.33085135 0.1414034 0.2104758 0.1781921 -0.0028378062 -0.21748783 0.046903133 0.005214176 -0.036976602 -0.29209808 0.036850084 0.12828 -0.16986409 0.14348117 0.061953116 -0.33835894 -0.16793574 -0.27991608 -0.21152091 0.19389145 0.73394275 0.1214672 0.124658525 0.1683722 -0.08130338 0.01547436 -0.05735311 0.2604236 0.05548639 0.048119932 0.14728896 0.19617529 0.18010895 0.20547171 0.024826908 -0.447716 -0.059929132 -0.11931708 0.275113 0.72225785 0.60774773 0.27791926 0.06968893 0.20737053 0.2029751 -0.079571575 0.12960842 0.032919776 -0.14524631 0.1358202 0.3015822 0.06161233 0.05234399 0.18957558 0.052594624 -0.33666024 0.13689399 0.078010336 0.14447877 0.17421989 0.5726522 0.39494747 -0.27082622 0.13585089 0.17532612 -0.116951555 -0.011571607 -0.0743209 0.04063626 -0.063561924 -0.14679614 -0.121855795 -0.0072023952 0.34659222 -0.09267304 -0.45257705 0.0808522 -0.15465541 -0.23884262 0.076500766 0.61961216 0.65203094 0.007918315 0.17924228 -0.028282803 -0.15257049 0.18975337 0.06843156 0.37403306 -0.07573071 -0.12715565 -0.04459142 -0.23607531 0.103424065 0.0858247 -0.17412034 0.028213784 -0.3174385 -0.29041776 -0.1986621 0.24451557 0.24489382 0.30270535 0.44741106 0.20639324 0.23678683 0.61646783 0.3565194 0.27705604 -0.046685576 -0.35612768 -0.16343588 -0.16019043 -0.052919544 -0.051501043 -0.22996393 -0.012783053 -0.16412143 -0.07844934 -0.54521686 -0.50543195 0.23196308 0.61934197 0.19277065 0.19368784 0.14756984 0.16810937 -0.17843193 -0.10083606 -0.31219319 -0.5477431 -0.086751685 -0.34571218 0.27473378 -0.121844284 0.123018794 -0.10594242 0.0057342704 -0.060466617 -0.42938596 -0.16660917 0.09495635 0.16800167 -0.032682735 0.53116244 0.0170329 -0.06292485 -0.15375803 -0.24723081 -0.30245963 -0.26597 -0.24215278 -0.052959573 0.49361852 -0.020855784 0.09227737 0.016819641 0.030036345 -0.023197124 -0.09870719 -0.3276344 -0.25499067 -0.3661939 -0.15526056 0.17160861 0.14816342 -0.5214655 -0.180845 -0.2500356 -0.3093379 -0.14324701 -0.20650917 -0.17639187 0.33758527 -0.008264101 -0.08720341 0.050869226 -0.20441784 0.06402142 -0.012611433 -0.2963958 -0.16556966 0.013310535 0.017516563 0.01858552 0.2588488 -0.3337137 -0.253536 0.017276652 -0.020061322 -0.28606927 -0.094108775 0.22364686 0.08233152 -0.12299072 0.045123 0.17752069 0.15255429 0.048635323 0.040093053 -0.20210035 -0.37863022 0.03572857 0.054815043 -0.15248352 -0.07782128 -0.20018165 -0.41893706 -0.5709942 -0.04958702 -0.13988012 -0.1380416 0.20691498 0.035975397 0.057480298 0.26353827 0.17950647 0.14552553 0.059399515 -0.23825221 -0.2064117 -0.41394487 -0.008810581 -0.05195017 -0.14184101 -0.0338018 0.034480445 -0.16445802 -0.21916103 -0.28828812 -0.28880793 -0.27097625 -0.15574993 -0.023359258 -0.06755098 0.24809796 0.23012705 0.21124984 0.23320329 0.060047533 -0.15747045 -0.37432814 0.01676079 0.20481542 -0.032147605 -0.061855786 -0.23042193 -0.28007466 -0.37981865 -0.3401416 -0.3819262 -0.23130512 -0.09844393 -0.083087236 0.019163335 0.36253467 0.013936659 0.07556437 0.11875561 0.19433245 -0.08226206 -0.12771894 0.027920648 -0.2131572 -0.18532732 -0.21301271 -0.3585643 -0.3813153 -0.36699125 -0.07453244 0.048353717 -1.0962827E-4 -0.036159452 0.06666391 0.0948583 0.10160788 0.25095084 0.25377402 0.42093927 0.4538176 0.07751608 -0.026042262 -0.21800792 -0.37450153 -0.21363822 -0.03485463 -0.024709962 -0.16570489 0.014841913 0.31495267 0.27201357 0.16404675 -0.0029948347 -0.06907354 
0.10864306 0.055364396 -0.055242166 0.058782276 -0.002515254 -0.020058047 -0.0051164557 -0.0356857 0.009347676 0.12680088 -0.038435448 0.045320082 0.087592565 -0.06737134 -0.06299552 -0.083207846 -8.5750304E-4 0.026538096 -0.008714704 -0.14480197 0.07038852 -0.019381765 -0.035246722 -0.009735021 0.04701076 0.045998916 0.13059479 0.19484806 0.17339733 0.06993584 0.18464185 0.12285372 0.2639652 0.10636529 0.07448809 -0.046941806 -0.37871438 -0.2501609 -0.070990875 -0.014141085 -0.32038575 0.083097845 -0.02036681 -0.17262317 0.083474495 0.21933424 0.008388025 0.006819412 0.19132495 0.14086987 0.029709527 0.2188207 0.375926 0.28851637 0.25154778 0.15537144 0.13810629 -0.062380843 -0.17332573 -0.14180659 -0.30849022 -0.11380415 -0.064592384 0.07619191 0.21756932 0.22910757 0.030761156 0.042930104 -0.011085192 -0.15169542 0.14711809 0.37597746 0.43170667 0.420417 0.35571826 0.4177626 0.26134646 -0.27353188 -0.34202126 -0.038886204 -0.2714048 0.09944186 -2.633397E-4 0.10526516 0.1801442 0.25492686 0.27933866 0.13588813 0.27363726 0.064279325 0.17210528 0.21367282 0.49672106 0.39299586 0.41657144 0.29469398 -0.011791782 -0.038007166 -0.038844094 -0.17254253 -0.07899613 0.1165132 0.08504427 0.053827822 0.014348811 0.14060391 -0.098201774 0.022709962 0.08665025 0.062128454 0.2275841 0.029933767 0.0754393 0.26591653 0.57840365 0.5124077 0.2653833 0.036586188 -0.03537854 -0.08370724 -0.10145873 0.13890167 0.14321913 0.030704891 0.23985046 0.09161938 0.09087744 0.41094586 0.24822733 0.31825414 0.13733797 -0.058123548 -0.112975195 0.18423638 0.7181858 0.5377476 0.032774225 0.18258055 -0.061057884 -0.052222636 -0.06813536 0.02643065 0.4036607 0.1480057 0.331673 0.17728545 0.32079938 0.5878448 0.19947308 0.006443936 0.16310568 -0.32170874 -0.03921257 0.19930837 0.72578436 0.37541342 0.091662005 -0.048748773 0.10109853 -0.15940142 0.19327292 -0.056127645 0.13984357 0.09202643 0.20668833 0.2691267 0.16696574 0.25394863 0.17256081 -0.24687167 -0.23043238 -0.1777659 -0.1526189 0.10763 0.49163947 0.56821454 0.10550126 0.043540806 0.33998936 0.1815731 0.19966187 0.036222562 0.11536423 -0.031145956 0.08524221 0.065228485 -0.15111397 0.03113763 0.021826487 -0.54776865 -0.4596509 -0.24772611 -0.2736668 0.061936107 0.4535978 0.35844857 -0.015078252 0.015093437 0.36493024 0.08798364 0.14391883 0.044817433 0.33251083 0.42351747 -0.21521725 -0.23479949 -0.22126357 -0.2998162 -0.5159923 -0.34492317 -0.2744166 -0.35942018 -0.36182493 -0.20163205 0.24699412 0.42867562 -0.1293384 -0.19142537 0.19094698 -0.050990686 0.027479935 -0.12074354 0.034962002 0.1895262 -0.17295761 -0.07951976 -0.23992333 -0.31536487 6.2205584E-4 -0.05523394 -0.25429818 -0.44580352 -0.3918937 0.016888747 0.009378392 0.15448965 -0.34608206 -0.041588236 -0.111356586 -0.27702427 0.16767812 0.008320352 0.10705927 0.20989998 -0.0575783 -0.31519735 -0.34510937 -0.08962413 0.19061716 0.06368552 -0.39332932 -0.1442152 -0.16278113 0.015168895 0.22450677 0.10262097 -0.08992115 -0.024707094 0.06731907 0.15553117 -0.0082095405 0.104887545 0.21439852 0.11397765 -0.085024424 0.017773105 -0.009005701 0.08025373 -0.18625963 -0.3251236 -0.37700108 -0.08384381 0.029164225 0.013155972 0.095678195 -0.08774426 -0.1385696 0.047745775 0.1442105 -0.20505449 0.15613185 -0.038646057 0.08164249 0.03399383 -0.5585894 -0.24707568 0.0630173 -0.13308224 -0.04389346 -0.17634895 -0.044478852 -0.13167058 0.3758846 0.14356212 -0.033997085 -0.07055823 -0.1901402 -0.34036052 0.0998056 0.02629324 -0.113463774 -0.029916368 -0.10092575 -0.14630583 -0.2793811 -0.07665428 0.2975129 0.032759227 -0.19944848 0.20147061 0.19471516 -0.054337427 -0.064057134 -0.050688747 -0.07920379 -0.0600248 -0.37841105 -0.036354974 0.32663754 0.0634734 0.03355288 -0.103612624 0.1792793 0.012139303 -0.15955773 -0.16255069 0.060709488 0.2573721 0.03351518 0.338637 0.043352246 -0.20087345 -0.051018316 0.042620707 -0.01292099 0.011342306 -0.06798371 -0.01726884 0.19164114 0.08236008 -0.030006716 -0.018533058 0.19323483 -0.094127856 0.03265974 0.0639392 0.1394832 0.18948227 0.17051254 0.22786626 0.16484162 0.115099326 -0.0460354 -0.057481717 -0.15882915 -0.00270223 0.1332219 0.023068998 0.22290096 -0.07380491 -0.01635852 0.09808983 0.07176247 -0.07667324 -0.16928563 0.13154699 0.12087616 0.2767246 0.08504881 0.08243021 0.27792636 0.21927342 -0.004369123 -0.07049891 0.044054106 0.1150729 0.19981809 0.20499267 0.011060263 0.07894256 0.013175831 0.030623315 0.05697059 -0.11791981 0.19748418 0.19679867 0.3305893 0.27730298 0.15383531 0.09866372 0.16190019 0.20896323 0.17331867 0.17810073 0.32215965 0.15695317 0.111573935 0.098485775 0.14032538 0.034143135 0.14061497 
-0.27016798 -0.0013322989 0.02075233 0.08435936 -0.032196667 0.053687442 -0.07132775 0.0388858 0.04132061 -0.09765649 -0.08651814 -0.06806657 -0.12231565 0.06872465 -0.07535628 -0.0854849 0.07264728 -0.042251173 0.11765432 -0.011749694 0.029297436 -0.071750544 -0.02731524 -0.029625343 0.017121524 0.07940988 -0.044998553 -0.2697677 -0.20024274 -0.11196325 0.056921408 -0.051167104 -0.068944044 -0.18771899 -0.025275763 0.17884065 0.5039715 0.37983152 0.24351217 0.20258227 0.111500345 -0.016856512 0.15790059 0.08665897 0.22144786 -0.041871917 -0.030426202 -0.30423862 -0.4323418 -0.46191365 -0.2913636 0.16101089 -0.043991577 -0.11274886 -0.28923735 -9.130361E-4 0.2931855 0.30405104 0.15539673 -0.09409307 0.046685748 0.097190894 0.108543634 0.16567193 0.01347796 -0.13069448 0.05202657 -0.2680518 -0.29143825 -0.09124579 -0.13811295 0.05847154 0.010962085 0.014134086 -0.02657234 -0.107636124 -0.18144815 0.20233998 -0.04340323 -0.12255982 -0.14125322 -0.0966811 0.22679648 0.40605903 0.17044777 0.022414178 0.028791422 -0.40171057 -0.2335923 -0.2021943 -0.053151254 0.0625148 0.06850089 0.17082542 0.101353586 -0.0070942063 0.026785584 0.10059044 0.09259939 0.18508005 -0.06123492 0.13327113 0.3491998 0.26694056 0.24318668 0.03991395 -0.02553278 -0.015587738 -0.06136072 0.0582716 0.06112976 -0.17705587 -0.015239501 -0.12964185 0.029361306 0.16939029 -0.004894874 0.0020374847 0.1126662 0.292033 0.16929223 0.07875909 0.31900117 0.30833665 0.242917 0.17141704 0.115127556 0.06583094 -0.05094004 0.11133814 0.2276915 0.12163419 0.08721566 -0.08176224 -0.06879392 -0.008158917 -0.024919806 -0.053565804 0.31915146 0.4147284 0.3625592 -0.021645715 0.20195018 0.1165035 0.077954285 0.092814356 -0.19870958 -0.21910892 0.036465835 0.32042363 0.49934563 0.21267945 0.410196 0.22938438 -0.051084716 0.08085248 -0.054372117 0.056428917 0.09376132 0.23769294 0.18547438 0.044912197 0.10909001 -0.124367036 -0.12789728 -0.42207852 -0.24825318 -0.06329194 -0.19098268 0.3411147 0.53981966 0.43519273 0.40105987 -0.036316194 0.041994333 0.024486188 0.1581421 0.04916397 -0.067210995 -0.23179479 0.12822044 -0.036908604 0.17292112 -0.16940081 -0.3171133 -0.34766525 -0.054261696 -0.58496034 -0.42543408 0.1285581 -0.015102783 -0.013904255 0.12263374 0.027595209 0.060977824 -0.006910085 0.02916245 -0.2080668 0.089268215 0.035184726 0.25830486 -0.008630114 0.40222412 -0.13118896 -0.08118232 -0.2445436 -0.6021061 -0.6794923 -0.48835912 0.008139367 -0.046617154 0.017772827 0.18115667 0.28976998 -0.008573911 -0.30074358 -0.13682657 0.23820373 0.2028927 0.14563346 0.34689292 -0.025988184 0.32249346 -0.03366287 -0.35124832 -0.21114747 -0.4888182 -0.45033565 -0.6239648 -0.30920514 -0.08994639 -0.10064978 0.31547266 0.3010915 -0.028569993 0.077560864 0.18815006 0.2544812 -0.0027976881 0.25263116 0.3792183 -0.06981403 0.6159374 0.08971909 -0.16335802 0.07700108 0.05214599 -0.37866095 -0.6585397 -0.19731814 0.08145592 -0.1436582 0.15338388 0.13756195 0.10376208 0.26299998 0.15668948 0.35723546 0.21288992 0.009428819 -0.11853411 0.04289679 0.5709138 0.033115793 -0.04622745 -0.35958493 -0.38644463 -0.2384839 -0.4641227 0.011496902 0.45107198 0.122754514 -0.4251359 -0.27941766 -0.056762666 -0.12065802 0.16515282 0.4890585 0.60697675 0.3419649 0.24454023 0.0425964 0.449443 0.058397558 0.116719075 -0.26729703 -0.5723517 -0.22314821 -0.26315948 0.07829593 0.2913433 0.13097751 0.017129626 -0.025139606 -0.20277633 -0.117899574 0.17714186 0.12762108 0.49718466 0.43904594 0.23341846 0.03400079 0.27961913 0.03665499 -0.030048894 -0.052715737 0.17522915 -0.11098245 0.07704029 -0.25130618 0.07998281 0.39388904 0.1848596 0.18703642 0.29154807 0.4419008 0.2841001 0.39312202 0.24112187 0.2578275 0.107970506 0.054532662 0.16932842 0.18519135 0.15506223 -0.16341911 -0.1659516 -0.13227557 -0.06119783 -0.26946557 0.1984324 0.10814756 -0.13708867 0.0854816 0.20333983 0.2398936 0.0669355 0.19055758 0.10743399 0.07363062 0.03813609 9.1461895E-4 0.11222102 0.17240694 0.04729797 -0.08622727 -0.03740922 -0.093924776 -0.015217966 -0.06452017 -0.039780866 -0.07507075 -0.11638187 0.04457352 0.3065701 0.22751963 0.33250394 0.13710485 0.110176995 0.15051852 0.12103866 0.06360338 0.1080251 0.18816306 0.1542881 0.1501273 0.086957626 -0.08356417 0.10900403 -0.16428412 -0.09390485 -0.0033086492 0.22273357 0.10082709 0.24776313 0.13726804 0.13801703 0.13700525 0.1725044 0.14928345 0.12405945 0.07705927 -0.027438564 0.15874188 0.23825255 -0.015947899 0.036514223 -0.09823102 -0.08009144 0.07923152 0.20844623 0.18467881 0.16414799 0.062409133 0.13315691 0.07199846 0.07048852 0.035924427 -0.093638316 0.17635152 0.18820074 
0.7317387 -0.037768945 0.0699146 0.006889517 -0.09699338 -0.02766433 -0.049902983 -0.041213926 -0.0756919 0.02159642 0.062263757 0.04332492 -2.6364045E-4 -0.08971033 -0.059104707 0.09243352 0.10009585 0.017721534 0.0047527836 0.039134532 0.11589313 0.070654005 -0.09684664 -0.027723681 0.032453664 0.10173639 0.09402975 0.051756654 -0.014286007 -0.01748742 -0.11187654 -0.24774078 -0.1538219 -0.15994522 -0.046579123 -0.15986271 -0.11025018 -0.07749723 0.052848518 -0.051078912 -0.020410543 0.0037335511 -0.049364388 0.06286727 0.08874682 0.026439616 0.19013518 0.13421336 0.052979603 -0.098923065 -0.06413561 -0.06482289 -0.27405187 -0.31678343 -0.30215806 0.09617577 0.15904787 0.07159202 -0.09343251 -0.25351867 0.10571574 -0.009403673 0.06608372 0.101006925 0.15603729 0.22827357 0.20654345 0.22504398 0.18771416 0.18941915 0.17369775 -0.12428019 -0.3161314 -0.2162352 0.06813777 -0.13280478 0.060198 0.28196537 0.049532797 0.046482924 0.11167818 -0.099718414 -0.05355893 0.34040946 0.32063562 0.2663213 0.24634017 0.16592754 0.2877913 0.19127165 -0.020744886 -0.28599355 -0.28423682 -0.17570692 -0.24823652 -0.5040232 -0.17127493 0.089632414 -0.0645718 -0.16670072 0.24997018 0.040314462 0.021044057 0.4137955 0.31383768 0.26884913 0.22928336 -0.037825193 -0.10078642 0.20707273 0.30798638 0.18823187 -0.2619899 -0.5447709 -0.65057355 -0.6103968 -0.6050082 -0.19328801 -0.19255616 0.06439272 0.056503594 0.090848155 0.09168724 0.12340499 0.047938574 0.038567536 0.03763844 0.14881554 0.24366678 0.22246748 0.11136363 -0.018350475 0.008444565 -0.32060748 -0.5510363 -0.7443205 -0.4164415 -0.34919265 -0.16748151 -0.094134375 -0.13714439 -0.07722683 0.083658636 0.17242274 0.06867932 0.213693 0.31455112 0.31396925 0.36117008 0.19773838 -0.12618352 -0.10559354 -0.07234221 -0.4055574 -0.55454123 -0.42734504 -0.27874625 -0.27272215 -0.026589662 -0.07944266 -0.19633782 -0.06685721 0.051121823 0.075650714 -0.07293867 0.08630433 -0.018185757 0.10866517 0.061209943 -0.0030369856 -0.1374027 0.11040711 -0.08379548 0.043956213 0.09353226 -0.17396344 -0.2281306 -0.1420048 -0.22860718 -0.138086 -0.3548433 0.021876916 -0.09849176 -0.13050327 -0.046007212 -0.15614222 -0.19876781 -0.0878664 -0.2153454 0.16056412 0.26163954 0.27500424 0.0611235 0.38289356 0.38682374 0.4529347 0.32810214 0.10624287 -0.17843549 -0.18784614 -0.28160265 0.014003899 -0.20006879 -0.12666938 -0.07964009 -0.09133076 -0.16127929 -0.07587651 0.097332485 0.20129138 0.39489365 -0.030299649 0.31734547 0.31871387 0.2257064 0.30307922 0.102094285 0.10738098 -0.14306934 -0.10042543 0.021409554 0.05672475 -0.024922866 -0.16765137 -0.078963995 0.09107468 -0.17582242 0.36292 0.4600693 0.31323865 0.16226013 0.13948573 -0.042764153 0.16923124 0.27895302 0.091265865 0.18520941 -0.22971264 -0.09341834 0.024681272 0.15510504 0.09196279 -0.0385146 -0.19577408 -0.12229113 -0.09414289 0.16864997 0.5133153 0.5675955 0.19423345 0.36950007 0.20549653 0.06473277 0.060568262 0.11487592 -0.1393307 -0.06783225 0.013095177 0.050810035 0.2102451 0.3309536 -0.11929726 -0.03948404 -0.2713144 -0.13648865 -0.007746635 0.21705124 0.23385169 0.1739759 0.12696359 0.26889837 -0.00700194 0.07649759 0.21498092 -0.07932047 0.03851722 0.06769738 0.25089443 0.15076682 0.35859507 0.27973148 0.011320402 -0.19702673 0.0050630793 0.015039783 0.03500011 0.034230858 -0.15701257 -0.03899143 -0.10486683 0.18278585 0.24520034 -0.0012294754 0.11272189 0.110951796 -0.013386188 0.18822213 0.019905882 0.003125635 0.10191166 -0.020872787 -0.03676779 -0.34744185 -0.020222541 0.037863187 0.011940598 -0.051186923 -0.21113811 -0.31348068 -0.13530898 0.003000875 0.12893467 0.32832238 0.1716499 0.011241028 -0.01657464 -0.023862734 -0.04694954 -0.12877901 0.12367809 -0.008722837 0.0973345 -0.076297544 -0.009779246 0.24970879 0.26501375 0.2265988 -0.0023823893 -0.33889058 -0.21177408 -0.14280866 -0.0788516 0.020881027 0.041042592 -0.1750816 -0.049276683 0.028971411 -0.1323241 -0.10328581 0.022098493 0.21010515 -0.05423253 -0.081410185 0.058829516 0.05733353 0.114375584 0.07049629 -0.09764007 -0.365254 -0.13214213 -0.15284084 -0.111378975 -0.024573138 0.054091092 0.068322286 0.034910593 -0.115083806 -0.21892774 0.14004874 0.16093929 0.20214452 0.09387487 0.19899462 0.17482094 -0.05328704 -0.13725854 -0.18728876 -0.3079735 -0.28531042 -0.24263906 -0.25094187 -0.16921088 -0.21739462 -0.14162762 -0.19167794 -0.08086749 -0.015456354 -0.05711414 0.16848145 0.11054684 -0.07491518 -0.022637026 0.20411223 0.14867704 0.17580946 0.01879104 -0.13543238 -0.13972841 -0.3837466 -0.3721167 -0.43885344 -0.29164588 -0.27548072 -0.051214807 -0.2203699 -0.102140084 -0.007753538 0.1376229 0.15650032 0.1464089 -0.123009086 
-0.40032884 0.031029813 -0.004432205 0.035795078 0.11825328 0.107781574 -0.08391617 0.12775455 0.090437934 -0.018623076 -0.07511161 -0.026934097 -0.080258295 0.04968684 0.057849247 0.12072599 -0.081836425 -0.095824964 0.006685938 -0.11842853 0.084086336 -0.10091201 -0.05819027 -0.05262735 0.17653134 0.1444547 0.12447229 0.03523191 -0.18524988 -0.3956933 -0.14282654 -0.34761503 -0.2752196 0.13831972 0.56167203 0.5178686 0.44546285 0.36805728 0.12201013 0.1104495 -0.021010567 0.041130938 0.014207202 0.072009854 0.15295629 0.22394706 0.18001561 0.2024236 -0.12843376 -0.29599103 -0.27978587 -0.3105797 -0.3719039 -0.041647676 0.18998891 0.5439675 0.55893296 0.6227194 0.32710162 0.2279066 0.021473447 0.068457425 0.12940413 0.37309465 0.22866552 0.26558733 0.2338965 0.15955226 0.044137094 -0.16342904 -0.33431956 -0.5322658 -0.12346379 -0.2346698 -0.16398141 0.1546241 0.82588965 0.591337 0.5612751 0.2829692 0.09380408 0.14005275 0.2736301 0.34106416 0.28671354 0.47232524 0.31576756 0.09013499 0.009676877 -0.28204522 -0.43112296 -0.4349527 -0.402749 -0.40490285 -0.59099925 -0.2288804 0.35074383 0.509472 0.046471965 -0.0031325347 0.17788473 -0.05610681 0.13214563 0.21446206 0.18529697 0.21729177 0.35521224 -0.04953494 -0.4469041 -0.34077224 -0.48555216 -0.21461308 -0.13369556 -0.2894098 -0.41779223 -0.52710193 -0.09818479 0.27237475 0.0372099 0.062640816 0.22929011 0.010039241 0.081000835 -0.004923238 0.112486266 0.12465016 0.083255894 0.114813395 -0.06417624 -0.2850516 -0.41378862 -0.4886486 -0.31549993 -0.22120564 -0.21225834 -0.47166628 -0.11408884 0.6568767 -0.13178273 -0.09645909 0.26436523 0.13729215 0.28311986 0.01054461 0.115831554 0.36965868 0.23953103 0.24783494 -0.044057235 -0.32590362 -0.55288374 -0.2699586 0.023063632 -0.21064171 -0.24178346 -0.18286774 0.07652404 0.40273747 0.09033035 0.14706954 0.4073708 0.040055342 0.22930527 0.20591645 0.1982149 0.10860048 0.21682861 0.37685713 0.19007698 -0.40806478 -0.65417725 -0.22678651 -0.03750508 -0.02377943 -0.10980703 -0.15522891 -0.061996795 0.16822731 -0.053800408 0.26936042 0.85830647 0.026137203 0.63196033 0.38493204 0.2742004 -0.22387648 -0.18198235 0.2788957 -0.053248208 -0.29268208 -0.17986907 -0.04457355 0.16625711 0.11143033 -0.31458026 -0.23821938 -0.100746274 0.048580036 -0.24403223 -0.03604565 0.505698 -0.017250322 0.54236233 0.25471687 0.15790325 0.0068961764 0.253178 0.41044483 -0.045992665 0.009780451 -0.1100044 -0.19336577 -0.06436321 0.18681417 -0.3205557 -0.22659837 -0.020560825 0.0064915605 -0.012847963 0.27992186 0.7699276 -0.05474575 0.49922875 0.16395721 0.050105695 0.2616039 0.13288276 0.28430882 0.11626314 -0.04424699 -0.16142294 -0.36560512 -0.32913676 -0.20218906 0.038047418 0.0117884185 0.009738212 -0.088498205 0.08765712 0.011244724 0.6388414 0.057631183 0.53389376 0.1706176 -0.111803696 -0.052949592 0.08463857 0.52508867 -0.015177376 -0.13931717 -0.114419036 -0.029957153 -0.4917936 -0.4619098 -0.22287871 -0.30557317 0.14115326 0.024736086 0.11475666 0.39839235 0.6375489 -0.01057786 0.17462674 0.15979438 0.24822658 -0.011748125 0.43765616 0.4202436 -0.15412271 -0.36048192 -0.3018602 -0.15219912 -0.20747337 -0.34432116 -0.040483516 -0.049533494 0.06348366 0.13815391 -0.15125592 0.32989317 0.15186924 0.0015260337 0.2466712 0.30192673 0.2009469 0.43832254 0.39227474 0.107083976 0.19318335 -0.052545764 -0.24594997 -0.20506786 -0.03989699 0.14326353 -0.036493585 0.032683127 0.3126712 -0.009507264 -0.2920961 0.16393058 0.008078387 0.08927664 0.022042967 0.31581667 0.41264507 0.4165015 0.045569796 -0.11540519 0.022427244 0.1887447 0.03278804 -0.20685971 0.12301077 0.3911763 0.023824977 -0.15399615 0.06359171 -0.14760907 -0.12685525 -0.0049749347 -0.16253722 -0.06662171 -0.109882526 0.24810678 0.314607 0.33896753 0.1809924 -0.09387817 0.10503864 0.18541886 -0.057139404 -0.24304192 0.09953824 0.3242817 0.24512692 0.18505283 0.08256129 0.13689291 -0.0797484 -0.036934983 -0.24723084 -0.011415104 0.088463426 0.3485086 0.075086825 0.073882826 0.28974205 0.20796801 -0.15480918 -0.16411743 -0.2884389 -0.26374796 0.048409022 0.031719826 0.17464884 0.26190856 0.075428136 -0.13916993 -0.0014687489 0.120494455 -0.09913363 0.07250397 0.08733954 0.13021736 0.10553982 0.21913435 0.38789186 0.22166757 -0.049943022 -0.0704009 -0.23564301 -0.54208493 -0.16325465 0.00434145 0.1899684 0.10312623 -0.0017980423 0.034420863 0.016209848 0.092361555 0.0038769976 0.01720985 0.029272376 -0.11766724 0.120406374 0.422034 0.28383726 0.29016668 0.04040392 -0.04554736 -0.12909894 -0.18873557 0.09882902 0.086612076 0.0571161 0.2512478 0.15738581 0.032445062 0.24215244 0.03859472 0.04579619 
0.7250084 -0.0896556 -0.06430375 -0.11626215 0.10229346 -0.007330463 0.00591601 -0.10596611 -0.042184353 0.087150946 -0.036180217 -0.037911203 -0.08942254 -0.04428226 0.07521432 -0.10190642 0.08121099 -0.10542636 0.040684525 0.07656115 -0.047535166 -0.10991021 -0.055128273 -0.04737768 -0.07485352 -0.15133591 0.048645884 0.0145546505 -0.11089438 0.16576663 0.32972842 0.41848236 0.33694375 -0.019429032 0.057639327 -0.16166863 -0.30562267 -0.23540111 -0.14632304 -0.19892097 -0.16477707 -0.028147275 -0.0141071025 -0.13460945 -0.034940336 0.0064715743 0.0036487218 0.011264406 0.19801277 0.53810185 0.29264402 0.4046189 0.33372176 0.037236866 -0.0016100721 -0.007930681 -0.11573849 -0.307395 -0.3231336 -0.026960243 -0.097163044 0.0780485 -0.17636123 -0.33636272 -0.049164753 -0.04512986 -0.068457134 0.055548366 0.32631838 0.37918875 0.46404928 0.25800157 0.007164307 0.11016904 0.026494322 0.0049200635 0.071755655 -0.058317382 -0.37391463 -0.19083887 -0.018637517 -0.077782184 -0.13608807 -0.013074183 -0.15737253 0.21212032 0.10924588 0.1587085 0.45679975 0.6153759 0.17182866 -0.05993163 0.1419927 0.32396892 0.16459905 -0.06995171 -0.09507562 -0.22223519 -0.19171494 -0.15023054 0.2111315 -0.0788156 0.055237636 0.043216452 -0.066202894 0.09992418 0.096074596 0.102165155 0.4738087 0.28631514 0.33434644 0.02333856 -0.12411364 0.23960844 -0.008987248 -0.15256186 -0.28601542 -0.0090623405 -0.11289819 -0.0913123 0.24751975 -0.12838812 0.004929601 -0.012505233 0.038230944 -0.18228804 0.23190111 0.24536431 0.68818474 0.39577883 0.480175 0.30181926 0.055911552 0.14102767 -0.054059688 -0.22418137 -0.17110886 -0.08201307 -0.01285039 -0.034925938 -0.021020884 -0.0024813358 -0.01509998 0.03074049 0.028141689 0.008033404 0.20653228 0.49792266 0.9435672 0.42802408 0.14920664 -0.104354456 -0.361024 0.0645534 -0.04521291 -0.05885242 -0.22523428 -0.21708469 -0.040836006 0.11655417 0.0301484 0.09244684 0.09140844 0.19115351 0.05217268 0.073561616 0.25299042 0.4215999 0.16135964 -0.027514407 -0.03427372 -0.21655379 -0.40561765 -0.13632241 -0.23284312 -0.46523055 -0.29549506 -0.13757339 -0.13275303 -0.025830463 -0.20991674 -0.018915059 0.12207801 -0.08685536 0.2602334 0.15943255 0.14639582 0.34062156 -0.17405012 -0.37150156 -0.33994707 -0.44184852 -0.6955264 -0.58267635 -0.38700855 -0.4487417 -0.21582887 0.062413003 0.043768425 0.10869347 -0.21809363 -0.04282414 -0.046996344 0.25481245 0.08645659 -0.13399495 -0.2772157 -0.22824903 -0.4418438 -0.5826101 -0.36357036 -0.40319833 -0.6960958 -0.6655097 -0.10184601 0.103380516 0.04180786 -0.08188013 0.11608032 0.18042633 0.14056793 -0.09230581 -0.2038243 -0.026166538 0.029415105 -0.22657555 -0.1890864 -0.46807447 -0.07531235 -0.018492622 -0.17007463 -0.39267683 -0.3182659 -0.0052661407 -0.046327647 0.14503731 -0.07188403 -0.083668806 0.24565156 -0.005300731 0.09693437 -0.05873294 -0.19705774 -0.07090345 0.102088764 -0.12841089 -0.35696733 -0.24543968 0.041660536 0.24404366 -0.09265904 -0.16535069 0.12316803 0.06546633 0.13104242 0.04095334 -0.018440753 0.16583264 0.019323878 -0.0043773977 -0.068927765 0.1355499 -0.14479972 -0.23137791 0.23976322 -0.10683902 -0.16619846 -0.0765447 0.17650823 0.4854687 0.27061734 0.10141688 0.32180455 0.25901708 0.123670265 -0.06351175 0.048388556 0.23124444 -0.21004796 -0.1217197 0.16143624 0.10786091 -0.22839853 -0.1827174 -0.18087049 -0.074537046 0.028075783 0.1443681 -0.19764452 -0.08425555 0.19850844 0.28674066 0.07422281 0.12789984 0.016465966 0.1511757 -0.07849497 -0.33796605 -0.22724633 -0.18028408 -0.029733822 0.031172883 -0.20854957 0.017216839 -0.1522954 -0.03881109 -0.2745386 -0.2739994 -0.17884733 -0.24890995 0.41966277 0.38647103 -0.020191945 -0.1004043 0.31939378 0.10988174 -0.18143159 -0.22285467 -0.07171014 0.1542546 -0.1229646 -0.022348033 0.18649043 0.04801071 0.039631527 0.32016468 0.01789629 -0.28276026 -0.23430218 -0.047881633 -0.014007455 0.19354731 0.22328411 0.22653383 0.16632365 0.16444215 -0.16636458 -0.1734277 -0.1995262 0.06563687 -0.051538214 -0.10478421 0.1296716 -0.0015621166 0.19952445 0.047425047 -0.30257398 -0.4940408 0.05540156 0.033827864 0.03027973 0.24064815 0.31541282 0.10875654 0.040454086 -0.0029426096 -0.35396343 -0.2847406 -0.13372046 0.01589033 0.12178136 -0.018522225 0.17146084 0.16140293 0.03980508 -0.019091936 -0.18121026 -0.37396958 -0.09124575 0.10921974 0.02122409 0.24536353 0.3383938 0.10695754 -0.01702084 -0.25526714 -0.4441617 -0.3055623 -0.22713654 0.073800854 -0.015990863 0.0587179 0.24147975 0.22011672 0.16714254 0.258302 -0.21419145 -0.3788138 -0.18510115 -0.036219414 0.1284358 0.08113223 0.27326065 0.1695072 0.026241433 -0.04821858 -0.1601971 -0.24121381 -0.16437675 0.020424848 -0.076749444 
-0.45212877 -0.029533844 0.03279077 -0.018891104 -0.1561234 -0.13918923 -0.13702062 -0.1368145 -0.06930989 -0.09968463 0.013514309 -0.05367845 -0.002156502 -0.13003832 -0.016026936 -0.111518346 -0.1038647 -0.03897164 0.08500739 -0.12203919 -0.13358119 -0.1012788 0.04439232 -0.17939886 -0.32378963 -0.27828187 -0.36800858 -0.11460698 0.17389026 0.25336242 0.0978086 0.06818353 -0.19773597 -0.069591835 -0.2573994 -0.25277612 -0.15406558 -0.03204812 0.051822647 0.04728628 -0.0913284 0.06922372 -0.12265598 -0.4109797 -0.40244943 -0.23315038 -0.16634075 -0.08062466 0.077301554 0.43546286 0.16650207 -0.005508958 -0.1118532 0.21381433 0.19321515 -0.08656467 -0.13277897 -0.107008584 0.010890128 0.019006278 -0.4174082 -0.0561714 -0.08823169 -0.16730614 -0.22341897 -0.28164274 -0.17524719 -0.08454771 0.1883051 0.20738342 0.3193933 0.38111764 0.30040246 0.1998733 0.25384074 0.22136912 -0.20961046 -0.20616369 0.15945612 0.1497684 -0.37938926 -0.0061999788 -0.029760608 0.064155504 -0.19342048 -0.10666374 -0.15955167 0.001931778 0.14314806 0.13410981 0.29301745 0.29945165 0.13185248 0.028668314 0.38574845 0.42751038 -0.014148865 -0.2457037 -0.20043163 -0.08664836 -0.28564957 -0.025397059 0.18715703 -0.233741 -0.28760138 -0.15487109 0.1560462 0.3501328 0.21195 0.2076423 0.038193285 -0.12857716 -0.09069035 0.057408817 0.4803423 0.9521364 0.2932909 0.0017665145 -0.094643705 -0.36327624 -0.2931338 0.10821265 -0.060071997 -0.11491238 -0.27909714 -0.16624571 0.10308745 0.3496087 -0.063257515 -0.19674343 -0.065551065 -0.29301062 0.017508782 -0.002896603 0.4047991 0.843603 0.08880069 -0.1810569 -0.11087347 -0.12844236 -0.21717905 0.050057627 0.008024343 -0.1370402 -0.05984142 -0.061526354 0.14505139 -0.123405986 -0.23883739 -0.053277463 0.09844542 0.06983328 0.20946546 0.3702978 0.44221976 0.40265805 0.3273839 -0.07606277 -0.3561508 -0.25677782 -0.36628145 0.020925848 0.17352323 0.008160571 -0.28789076 -0.374236 0.06054765 -0.094989605 0.07624409 -0.07869507 0.3994411 0.25442344 -0.19180462 0.17143142 0.4175714 0.46128786 0.06625493 -0.3985671 -0.057949226 -0.087852046 -0.02642621 0.055103067 0.30241865 0.07591822 -0.53048086 -0.17668743 0.20148866 -0.15631941 0.17793496 -0.060626995 0.19251674 -0.06514031 0.1257341 0.5044509 0.60154593 0.52911586 -0.27269033 -0.44993627 0.18647663 0.058543928 -0.21543822 -0.13672559 0.29811454 -0.04478278 -0.45440355 -0.28426388 -0.017630385 -0.163568 -0.33607453 0.12610497 0.14151156 0.176774 0.2944165 0.54720944 0.5389225 0.20638412 -0.22148553 -0.06880084 -0.047873784 -0.24948542 -0.271648 -0.09814391 0.22532126 0.05782351 -0.29653126 -0.33717316 -0.38789853 -0.27005148 -0.3097232 0.4336232 0.34117034 0.22806586 0.51725173 0.5082151 0.02027834 0.06986367 0.07570334 -0.23464541 -0.030259186 -0.20284265 -0.08951256 -0.12844048 0.11045575 -0.24825518 -0.087461345 -0.0763859 -0.2275605 -0.18434085 0.0028195132 0.086039126 0.2597249 0.40583846 0.42083883 0.37785867 0.21433865 0.1669593 0.092719674 0.12049683 -0.15083571 -0.33505115 -0.19489002 -1.0733574E-4 0.32913262 -0.03829478 -0.3598032 -0.16460513 -0.12677184 -0.1001437 -0.36058658 -0.22759901 0.33013117 0.6048075 0.05507973 -0.05209005 0.0727044 0.025375357 -0.0020679284 -0.052216664 0.30114597 -0.04258519 0.16523837 -0.07485819 -0.024896426 -0.07672083 -0.20187841 -0.017438883 -0.14895341 -0.29145685 -0.29577184 -0.32485998 0.106343664 0.110414624 -0.08112164 -0.24655093 -0.1932249 -0.23800987 -0.2442247 0.12679562 0.5361637 0.15029284 0.33635846 -0.10941735 0.21407141 -0.26522225 -0.20525108 0.07281795 0.4348415 -0.0183555 -0.056530718 -0.13199727 0.07058999 -0.18754615 -0.33112568 -0.2500307 -0.36532903 -0.24590889 0.030052584 0.24118656 0.35264474 0.26022792 0.1404771 -0.046139117 0.27078372 -0.0043694675 -0.25500643 -0.254581 -0.08365127 0.070396535 -0.0341276 -0.032021504 -0.005341072 -0.33448043 -0.42182794 -0.2840345 -0.14732319 0.04964876 0.019140817 0.12220823 0.19184582 0.08675741 0.27954462 0.1307632 0.08846236 0.0024365992 -0.020419076 0.07745381 0.050370265 0.020943364 0.11195343 0.18923128 0.1791013 0.09028826 -0.26762867 -0.10093528 -0.27781507 -0.31452885 -0.017351745 0.10788302 0.049344342 -0.07111358 0.10200481 0.0927286 0.026278056 -0.058139294 -0.22844249 -0.06154747 5.182286E-4 -0.032599855 0.07980801 -0.21019645 -0.059033748 0.20384689 0.04075772 -0.046258405 -0.2234686 -0.05604537 0.12832297 0.27370927 0.13060619 0.09347254 0.047097947 -0.06515832 0.12160905 0.19864284 -0.11936206 -0.07210206 0.045355476 -0.13974045 -0.033694178 0.05249952 -0.009391787 0.010539304 0.002849036 -0.039172396 0.102533214 0.23242463 0.22850756 -0.0026239718 0.019763721 0.039958254 -0.07794794 
-0.31720147 0.03991301 0.08828737 -0.08029913 -0.05917049 -0.06050823 -0.11815869 -0.06832998 -0.117761396 -0.09009923 -0.087193444 0.03356702 -0.103279196 0.07203391 0.10267099 -0.008081484 -0.07589243 -0.00391099 0.05674054 -0.0366189 0.09169492 0.04758561 0.07892939 0.123600826 -0.005778646 0.1448573 0.017790968 0.034999605 -0.053518806 -0.16947071 0.013366996 0.07300646 -0.06652862 -0.061330203 -0.015430618 0.36788535 0.4602416 0.35897094 0.3974685 0.12650163 0.1680568 0.1068109 0.06840489 -0.06328553 0.01393931 0.015253723 0.024938451 0.034290172 -0.080679424 -0.004636402 -0.16438226 -0.16528068 -0.24119465 -0.1602298 0.085086055 0.44010305 0.63950527 0.3276251 0.16363746 0.21022128 -0.0026602147 -0.01241373 -0.11066254 -0.013890856 -0.07294384 -0.004568903 -0.04621121 -0.039644223 -0.24617347 -0.17185132 -0.22859266 0.046266425 -0.027597364 -0.29746947 0.04829916 0.52723867 0.63468784 0.23963137 -0.027313422 0.022107255 -0.01132013 0.07319807 -0.014089287 0.13143833 0.20297422 0.004803225 0.13506763 -0.18074681 -0.28327864 -0.43566006 -0.18496591 -0.0723977 -0.0047429684 -0.20005481 -0.09422194 0.23719876 0.7835588 0.44355255 0.22500613 0.059691723 2.4462224E-4 0.068238504 -0.004831028 0.11331828 0.13693029 0.05395522 -0.10587295 -0.1983906 -0.3842373 -0.3778003 -0.082878724 0.3132949 0.62710804 0.14079608 -0.23249725 -0.10280009 0.45911217 0.42384613 0.16104968 -0.03104942 -0.026825199 0.11699676 0.16985862 0.30825636 0.23409145 0.12661965 -0.20048651 -0.31493664 -0.44671312 -0.21454269 0.20057417 0.540988 0.5320049 0.05457975 0.06424114 -0.20140293 -0.011317581 0.29945543 0.17990682 0.26877117 0.12319297 -0.10158582 0.33491117 0.1868995 0.12647405 0.17450579 -0.20500377 -0.24904713 -0.048926968 -0.14484456 0.27891412 0.37944388 0.35911676 0.040457174 -0.0065327743 0.13269754 0.24426067 0.33923984 0.28438917 0.2946888 0.19594023 -0.03648287 0.1933808 0.042775948 0.2000573 0.113947704 -0.075085185 -0.15161794 -0.047474988 0.105066314 0.25910118 0.034247622 -0.066424206 -0.10060055 -0.36100364 0.071677126 0.26219666 0.2870881 0.3680936 -0.08984493 0.011820765 0.080870695 0.2838666 -0.08052593 0.018286454 -0.003569543 0.090982 -0.06459967 -0.18106213 0.078009695 -0.178523 -0.34454995 -0.21797365 -0.26506388 -0.43904313 -0.25939402 0.21933097 0.2685171 0.4330143 0.017041117 0.06596923 0.10557635 -0.025780993 0.063374884 0.06454504 -0.06432774 0.026879832 -0.1513108 0.023746174 -0.060115412 -0.06725853 -0.23894164 -0.37830496 -0.16153765 -0.5547146 -0.15828042 0.32782102 0.24435624 0.20638227 0.02081611 -0.01114319 -0.09144281 0.040042587 0.13997507 -0.024770979 0.15019248 -0.020649092 -0.31300697 -0.3951066 -0.26227432 -0.14751743 0.02394771 -0.16208097 -0.18291369 -0.20711611 0.18232879 -0.018109825 0.31303427 0.13572401 -0.077547066 -0.074851714 -0.048630793 0.017029522 0.0660698 0.039004084 0.27706307 -0.109562345 -0.36697638 -0.23862882 -0.37200743 -0.3484394 -0.39358234 -0.26100096 -0.13197485 0.08547689 0.17501144 -0.13429262 0.118832625 0.39247033 -0.05682191 -0.34967852 -0.0012452749 0.20831428 0.077494256 0.0022268808 -0.015442963 -0.07425658 -0.062398534 -0.3810348 -0.42202342 -0.21838656 -0.31931788 -0.15626098 -0.1443055 0.20361386 0.20716082 -0.04716013 0.19323006 0.23189272 0.049911205 -0.40710074 -0.033174455 0.26671788 0.21763639 0.019382365 0.1095025 -0.20020461 -0.15718786 -0.4014517 -0.18574618 -0.1393653 -0.121118896 0.030558145 -0.007838796 0.19656622 0.29021728 0.182355 0.110410325 0.21583712 0.06775834 0.13852951 -0.048671294 0.09998423 -0.016053 0.07728854 0.13125487 0.07010906 -0.1464139 -0.18414621 -0.33593282 -0.41507146 -0.24183601 -0.13218628 0.15268965 0.30748415 0.1675746 0.24851805 0.41020697 0.3476334 0.09522594 -0.059469324 0.06053518 0.017016131 0.071421094 0.03839497 0.056441694 -0.15317066 -0.20207226 -0.3434982 -0.41772857 -0.27900806 0.01744065 0.12260229 0.29397127 0.40957674 0.21024047 0.113899335 0.38360596 0.18584536 0.009424909 -0.02419072 -0.051735986 -0.006637593 -0.056569148 -0.2189274 0.20316102 0.1647937 0.08881843 -0.24760018 -0.21737625 -0.13721016 -0.14994584 0.06175252 0.43850404 0.42499748 0.40049523 0.35455546 0.26016378 0.09313787 0.06221526 -0.0052349055 -0.01782276 -0.16583233 -0.03892892 0.31519577 0.20334482 0.16516753 0.0015258244 0.0727803 -0.19008137 -0.10126684 -0.020874664 0.19168147 0.2100909 0.2820692 0.4323675 0.18404703 0.1937678 0.1100037 0.13037923 -0.023557976 -0.1148194 -0.14122213 0.13939852 0.30293104 0.4415689 0.27171066 0.12117467 0.092628546 0.030315384 0.06902607 0.19945262 0.11953639 0.005664207 0.3220255 0.33571178 0.22718745 0.14993334 0.08744855 0.026169218 -0.0046273377 
-0.1655773 0.10181541 0.069088995 0.08927291 -0.11498498 -0.0772852 -0.06599685 -0.045110554 0.07646482 0.035414662 -0.01059848 -0.050432112 0.02653701 0.011026563 0.08730936 0.06980381 0.071553595 -0.093979135 -0.059439983 -0.111156754 -0.1102984 -0.031085955 -0.14331758 -0.037416507 -0.044924706 0.011533067 -0.07185916 -0.080951 -0.038529653 -0.016075462 -0.29799718 -0.14389254 -0.106967434 -0.027391465 0.16804476 0.19569442 0.041388057 0.20254935 0.23484242 0.1454356 -0.002347531 -0.10942843 -0.074242614 -0.23097458 -0.1489516 0.027447771 0.04445754 -0.0681055 -0.054119892 -0.14306614 -0.14370266 -0.16864859 -0.04068154 0.044403557 0.0017550335 0.40100938 0.3165647 0.199142 0.014137364 0.014013634 -0.1488484 0.003671249 -0.20303138 -0.103547715 0.13346514 0.35761455 0.09172257 0.029111417 -0.10514402 -0.09671243 -0.051787626 0.04368731 0.15384765 0.21076559 0.13899426 0.042163953 0.3825879 0.32438245 0.006975223 -0.07314039 -0.053439185 0.050717562 0.053050566 0.08923238 0.253409 0.32869354 -0.050003 -0.13920155 -0.08105148 -0.08951371 -0.080699764 -0.011991424 0.0071161785 0.18157974 -0.21278703 -0.14304525 -0.058228698 0.07915045 -0.05213721 -0.26389286 0.18450394 0.12128003 0.04864142 0.12006903 0.13573095 0.1373039 0.044872258 -0.0917123 -0.30812088 -0.12925608 -0.10643367 -0.045449104 0.015159287 -0.17559642 -0.034542352 -0.11040749 -0.061819997 -0.16859536 -0.20370837 -0.03298515 0.0062093325 0.1098186 0.1436215 0.14027289 0.2080189 0.24006112 0.16544287 0.13202223 -0.15699416 -0.20134763 0.08246719 -0.09858842 0.041235983 0.14155787 0.03767951 -0.29941002 -0.49180987 -0.13125171 -0.18668678 -0.046097 0.13121027 0.043008387 0.16092879 0.11516467 0.24670418 0.3083922 0.12942341 -0.011285001 -0.078722976 -0.19251376 -0.038137652 0.13608529 0.1154379 0.21164322 -0.08045233 -0.2715532 -0.19161741 0.07141688 -0.07462612 0.065669745 0.32734486 0.04160675 0.24320613 0.15350807 -0.015340542 0.18473949 -0.09314045 -0.28465053 -0.19086228 -0.19330704 0.10225468 0.18023983 0.30102098 -0.045105163 -0.23754406 -0.015908008 -0.17018346 -0.23996393 -0.010545934 0.03252875 0.23193964 0.08732561 0.20722127 0.092660464 0.27227113 0.26245192 0.05257256 -0.0427439 -0.20001224 -0.37210506 -0.222121 0.0813829 0.010921954 0.16904986 0.022153882 -0.13422711 -0.19255768 3.167639E-4 0.19330607 0.06186495 0.1649942 -0.020694045 0.43961036 0.2043404 0.09569518 0.048291195 0.23486547 -0.10728706 -0.5008966 -0.23280382 -0.234206 -0.26018792 -0.06326101 0.088084176 -0.06463156 -0.12307805 -0.18370128 -0.037991636 0.005892486 -0.13309251 0.35191804 0.071306534 -0.05373209 0.23235428 0.23900107 0.28861672 0.03179624 -0.21387371 -0.08518589 -0.34542805 -0.37106466 -0.17843811 -0.23701786 0.31432188 0.30695 0.31402513 -0.03156569 -0.29352298 -0.284451 -0.310695 0.23587076 0.066674024 0.01800256 0.31873348 0.35764194 0.13179816 -0.021507636 0.012563972 -0.15847406 -0.106176205 -0.042983208 0.31188905 -0.18370385 0.18608692 0.33538565 -0.013686118 -0.027735082 -0.10475476 -0.1267431 -0.14767693 -0.034985963 0.08950338 0.17754687 0.4083585 0.3685227 0.31879172 0.34460574 0.07413266 -0.11847392 -0.20085117 0.11583255 0.059024137 -0.10482306 0.008380962 0.19349866 -0.056269057 -0.123321675 0.031240374 0.029907217 -0.030940449 -0.12240789 -0.0074798013 0.037794493 0.15677461 -0.0049565 0.1519405 0.3563652 0.04855568 0.1218512 0.014079059 0.13326435 0.12732984 0.05572893 0.07321489 -0.060584035 -0.11944815 -0.15711896 -0.14895436 -0.057359792 -0.15019152 -0.12968293 -0.08995948 -0.111282475 0.058399007 0.10490424 0.33023867 0.38631195 0.21767618 -0.009907373 0.12788981 -0.09090588 0.07836655 -0.03795235 0.02674983 -0.028391024 -0.093423225 -0.050232507 -0.060380682 0.013267995 -0.08380984 -0.22226082 0.031753983 -0.01980841 0.28762272 0.28847542 0.30863792 0.1884624 0.2302916 0.23151322 -0.1297527 -0.33240455 -0.31204066 -0.15857989 -0.045032296 0.015134901 -0.07356348 -0.0465389 0.18335316 0.019638326 -0.025047962 -0.046505377 -0.012666838 0.019072067 0.28179234 0.15441592 0.38483244 0.5118611 0.2720409 -0.09720305 0.007691982 -0.027752493 -0.2724105 -0.109617814 -0.032963403 0.083318815 0.14194648 0.058326542 0.07694245 0.26115084 0.053275272 -0.009144242 0.039453506 0.08973235 0.071315244 0.20348564 0.34380615 0.32238358 0.36972487 -0.07146479 -0.035387438 -0.07217188 -0.22141254 -0.085619345 -0.012982157 0.13981907 0.25877267 0.13906215 0.07900172 0.2802721 0.19483319 -0.057373665 0.041712075 -0.030996766 -0.003423525 0.09649419 0.31282225 0.2814799 -0.054298725 -0.06429366 -0.10048519 -0.20418774 -0.26505694 -0.07882362 0.016041307 0.30306825 0.20022123 0.107151054 0.15503234 0.23783986 0.091870636 0.05477121 
0.096715145 0.10202271 0.102980785 0.08545812 0.13188833 -0.065500565 0.036886837 0.07161763 -0.026798949 -0.09594068 0.06803916 0.10986703 -0.047648452 -0.01699556 0.13951065 -0.07324277 0.086879365 0.050186448 -0.015357751 -0.03536626 0.04163151 0.05472368 -0.14107051 -0.14075574 -0.09538555 -0.12153636 -0.114603564 -0.07172909 0.06952473 0.27831906 0.22329773 0.31089228 0.25514695 0.23799238 0.34310797 0.31566602 0.2100652 0.18207023 -0.029979277 0.101769604 0.07063334 0.050862633 -0.02132328 -0.09429286 -0.15556055 -0.26418975 -0.07597841 0.11632436 0.29717955 0.6057749 0.48003268 0.6307788 0.33011967 0.21633627 0.06419213 -0.056374896 -0.12472932 0.04781084 0.08070847 -0.009243373 -0.13349342 -0.046252385 -3.4954923E-4 -0.20911896 -0.12404087 -0.3828684 -0.19956523 0.12647437 0.095530786 0.36960152 0.49647862 0.5988073 0.31964374 0.063183665 0.040891744 -0.016127834 -0.353742 -0.016763264 0.24856944 -0.1916255 -0.3197589 0.037083376 -0.13883063 -0.11716468 -0.12706856 -0.48559207 -0.4229642 -0.064092934 -0.03352017 0.34670103 0.5079588 0.3837238 -3.0550716E-4 0.08239709 -0.018264612 0.0743199 -0.07822264 -0.23854856 0.033219147 -0.16128255 -0.23478901 0.050624263 -0.20452832 -0.077812426 -0.24117218 -0.3630056 -0.23551242 -0.24420886 0.14161922 0.3610171 0.48358288 0.33597437 0.07474545 -3.9319866E-4 -0.059973348 0.0034850799 -0.07418808 -0.20000055 -0.24617228 -0.17712554 0.18039468 0.0900764 -0.23788401 -0.019565992 -0.3055647 -0.46330798 -0.14260416 -0.24444559 0.15428066 0.39902654 0.4252378 0.32203344 0.006018879 -0.14291668 0.23595625 0.07941629 -0.15204942 -0.30748144 -0.10166297 -0.086580954 0.14402378 -0.07483632 -0.27445835 -0.14433916 -0.4268968 -0.3559126 -0.33146656 -0.40566143 0.16378275 0.3623775 0.46560428 0.18534991 -0.26700497 -0.37526855 -0.2563946 -0.19115677 -0.20911962 -0.14966881 -0.18009256 -0.029752748 0.08996484 0.10371836 -0.2646409 -0.24126647 -0.38829222 -0.3112837 -0.16489567 -0.23461272 -0.062043834 0.48982525 0.4284378 0.2616132 -0.13957609 -0.19546458 -0.3008904 -0.34818557 -0.1235415 -0.14600511 -0.13210444 -0.2986604 -0.20648636 0.022140991 -0.15472932 0.007330084 0.10415431 -0.007561188 -0.17864391 -0.13420843 0.2121974 0.5366386 0.5891332 0.31273925 -0.017022252 0.097479664 -0.17008305 -0.17635112 -0.111078165 -0.02868673 -0.020884994 0.101179965 0.041766413 -0.031080628 -0.030198133 -0.0636308 0.47108218 -0.07182433 -0.23528607 0.0016836808 0.37773073 0.49390393 0.7061335 0.20147307 0.13774556 0.011588508 -0.12432852 -0.33201915 -0.010430579 0.038364314 0.03445385 0.088351056 -0.054572545 0.086617246 -0.034744114 0.053816885 0.27787656 -0.37847087 -0.2189157 -0.22239207 -0.17165026 0.31192595 0.2697581 0.28241286 0.18801025 0.006320919 -0.20698966 -0.41152376 -0.25827762 -0.100746594 0.2609179 0.04314424 -0.111825824 0.015257315 0.2538455 6.077879E-4 0.20416142 0.04088925 -0.121952474 -0.14077315 0.042878106 0.21013932 0.1512221 0.14588009 0.1889926 0.15088832 -0.1287974 -0.14969261 0.05817173 0.010474725 0.05564008 -0.21639018 0.072782286 0.013290168 0.44770765 0.09302482 0.19965185 -0.1516309 -0.29340374 -0.17723113 0.12395427 0.16333893 0.113816924 0.11127344 -0.038212124 0.10921119 0.08341914 0.22854161 0.05426888 0.01233456 0.11111055 0.1072028 -0.0018326122 -0.01174143 0.43676627 0.28738698 0.33078793 -0.010494735 -0.28929797 0.00796307 0.21924402 0.2572827 0.11226038 0.26843494 -0.09198033 -0.039063264 0.14146216 0.16247007 0.34478313 0.17001854 0.107501775 -0.02291151 -0.018366555 0.1250454 0.5535088 0.29234588 0.19873095 -0.32437986 -0.42701235 -0.06137548 0.2515896 0.42649645 0.35374328 0.23860094 -0.0020047168 -0.03529799 0.14673078 0.30521214 0.29311895 0.013076742 0.034423545 0.29354045 0.11577447 0.06943018 0.3658815 0.24960618 -0.07446037 -0.39993876 -0.4175201 -0.09843117 0.19568755 0.28145254 0.27542782 0.19165 -0.00785231 -0.17414746 -0.01890322 0.28576708 0.19874069 0.11247886 -0.056813084 0.15410778 0.11851048 -0.04126905 0.27723724 0.16682963 -0.11767118 -0.29980773 -0.11742337 0.03912062 0.32143226 0.45930254 0.4552976 0.27503645 -0.17467852 -0.1700848 -0.20619576 0.103132434 0.13067093 0.35164076 0.021570843 -0.08263509 0.024907291 0.12713873 0.13423443 -0.023933955 -0.22522667 -0.2911708 -0.06612699 0.16982071 0.34326234 0.29498574 0.28564295 0.10236053 0.01891601 -0.015288793 -0.18570963 0.08187316 0.07692428 0.3227977 0.0469053 -0.055963084 0.08975121 0.050509565 0.08319027 -0.027241088 0.03117635 0.0038040997 -0.07362079 -0.028680904 0.16041803 0.20316604 0.03292655 0.10214269 0.016694989 0.06632072 -0.10152942 -0.17888136 -0.0036398757 -0.0817235 -0.035465755 0.058542933 0.09478978 
-0.24164258 -0.09229696 -0.1103079 0.1259553 -0.052607737 0.072115935 -0.034787294 0.058193147 0.016670823 -0.060604397 0.09265324 0.05275625 -0.064443134 -0.10230991 0.06227072 0.06754596 0.13639903 -0.027463112 0.11860451 -0.06969283 -0.06698216 -0.10590629 -0.047524128 -0.072567694 0.080772154 0.09179273 -0.0565026 -0.13297953 -0.08155904 -0.05479977 -0.009618542 -0.15090336 -0.23367462 -0.005305168 -0.031217499 -0.10326895 0.18657523 0.28236187 0.17170551 -0.033318818 0.12056635 -0.0037908365 0.0769392 0.13671665 0.009423507 -0.14309902 -0.12232584 0.019222904 0.0020396623 0.0022810576 -0.104873575 -0.0138872145 -0.27254942 -0.24736196 -0.15513879 -0.18869835 0.03314024 0.23826984 0.17081393 0.07071522 0.11438981 -0.029285127 0.030186182 0.13434167 0.108188815 -0.19706129 -0.3342507 -0.25945368 -0.11552886 -0.07759696 -0.010609184 -0.078676715 -0.0828636 -0.2906658 -0.082041256 -0.05590366 0.072676085 0.041249026 0.22210176 0.0100646885 -0.07443426 0.008415302 0.035419438 0.16860858 -0.039411705 -0.16681297 -0.09100446 -0.14449076 -0.2553125 -0.10288754 0.16463447 0.023277083 -0.3654337 -0.1620382 0.058581483 0.24531266 0.17754032 0.26743972 0.18773563 -0.042797245 -0.042939764 -0.0672611 0.18976758 0.16943537 0.11290832 -0.009960502 -0.01560217 -0.17627528 -0.15935703 0.022703458 -0.106665306 0.08909129 0.024201125 0.15188006 0.15664914 0.30471742 0.15747446 0.17730571 0.015664766 0.021960307 0.27672705 0.12854265 0.22706595 -1.5883557E-4 -0.19124515 -0.23549278 -0.15797988 -0.25714007 -0.16028698 -0.08361911 -0.30759576 -0.10700895 0.0052619353 -0.010075197 0.2661819 0.3287245 0.106866084 0.0976795 -0.0055132415 0.20514992 0.3375028 -0.046696592 0.119798966 1.7535666E-4 -0.20002636 -0.18131518 -0.20735641 -0.21076776 -0.15910524 -0.15061907 -0.12238033 0.17687714 0.11305127 0.045405924 0.050825622 -0.022684386 0.121923156 0.17596647 0.18849622 0.2948909 0.139485 0.03346878 0.07275524 0.102125786 -0.010630925 -0.20467769 -0.028516928 -0.05050182 -0.1269785 -0.071405135 -0.081624776 0.22605823 0.04409496 0.15733157 -0.12651402 -0.15466534 0.0337622 0.21017441 0.1609217 0.11016397 0.18104103 -0.049672972 -0.003487102 0.03183837 -0.15686546 -0.18779963 -0.32368952 -0.018203093 -0.23376828 0.025089018 0.3885641 0.4112838 0.3690402 0.12894814 -0.010102092 -0.05422546 0.08898353 0.23497315 0.1519169 0.15731815 0.10696425 0.091613255 -0.20965481 -0.22077782 0.12707685 -0.23037829 -0.27068526 0.064993285 0.20745961 0.38973963 0.59718543 0.6292963 0.47834054 0.4496861 -0.2984902 -0.0681878 0.0928603 0.32742077 0.2942955 0.11757433 -0.016983382 -0.049100123 -0.018155325 -0.05562575 -0.21165122 -0.32697007 -0.43052655 -0.31378117 -0.27749023 -0.12887356 0.23645975 0.24117482 0.06259482 -0.24949169 -0.31727397 0.037819427 0.20525385 0.38004586 0.35748842 0.26263824 -0.087480746 -0.02823369 0.15623733 -0.2687895 -0.42465505 -0.23419403 -0.42246935 -0.105903514 -0.19000575 -0.13108864 -0.098140374 -0.21098973 -0.1089403 -0.22284961 -0.061277848 0.15712847 0.27311718 0.38919657 0.12594698 -0.11944105 -0.15535372 -0.012139898 0.27730003 -0.16587515 -0.36317596 -0.30253318 -0.27751297 -0.34189504 -0.2629248 -0.08289231 -0.07381853 -0.3907881 -0.16130938 -0.26229385 -0.06452292 0.32550657 0.4744185 0.22497581 0.09180967 -0.089768365 -0.065183096 0.16365674 0.4018431 0.25498235 -0.24951355 -0.30142456 -0.13718894 -0.30950466 -0.20978168 0.1388599 -0.099395916 -0.13533808 -0.081414476 -0.13069944 0.27105802 0.33943322 0.14766358 0.11516265 0.09237271 0.10712626 -0.12263323 -0.008153536 0.2976269 0.16983716 0.11722946 -0.2300744 -0.3343501 -0.24504231 -0.1995895 -0.07546283 -0.21829012 -0.27196905 -0.08759759 0.080115266 0.020511959 -0.05365045 0.31393075 0.24020943 0.25526753 0.10434324 -0.0412891 -0.0051099947 0.14212997 0.10431274 0.08247952 -0.03564857 -0.22042558 -0.23189777 -0.3127949 -0.11547672 -0.07319804 0.010205846 -0.17421348 -0.13894895 0.12484402 -0.0719509 0.24704269 0.10425688 -0.031601448 0.077052064 -0.10445932 0.045446444 0.08070933 0.13239628 -0.021402165 0.20431547 0.020517198 -0.19549231 -0.34535885 -0.17272468 -0.092905045 -0.14438891 0.16222459 0.21320564 0.11017734 0.0089083025 0.15225641 0.103052795 -0.15282035 -0.16960442 -0.01084811 -0.013194825 0.043077707 0.041035585 0.058599215 0.1883687 0.1375899 -0.28572965 -0.32494807 -0.24303892 -0.24199535 -0.013599482 0.034091644 0.059193183 0.015526204 0.11521982 0.15058395 0.09265526 -0.18591374 0.007734291 -0.17243432 -0.05730116 0.13191713 0.0018347016 0.13155259 0.3266919 0.06699747 -0.2184161 -0.15877631 -0.014290244 -0.029266084 0.085632116 0.109946035 -0.043958653 0.04510642 0.15468381 0.17032045 0.0644197 -0.15351315 0.038530458 9.92607E-4 
0.30631155 -0.044875406 -0.07755451 0.05370085 -0.04880479 -0.060147963 -0.1225748 -0.104711294 0.012050547 -0.045464043 0.070117414 -0.022172295 0.10200052 0.09278648 0.008387158 0.0064810757 -0.10645071 0.038350232 0.05897424 0.037494507 0.07250353 0.030221416 -0.1492051 -0.2853601 -0.2507159 -0.16380048 -0.10114183 -0.2864788 -0.30957618 -0.017370636 0.08570985 -0.020441657 -0.08391437 -0.065431364 -0.28473023 -0.054979023 -0.28522968 -0.30221578 -0.057425637 0.15124168 0.07767711 0.047874 -0.26092398 -0.39806965 -0.3440931 -0.13171983 -0.25635457 -0.23356843 -0.07360106 0.29868907 0.18563716 0.02579195 0.051377423 -0.013568544 0.026874268 0.08941764 0.11001559 -0.0810121 0.17388597 0.3509522 0.12979326 0.031505372 -0.37522227 -0.27991804 -0.17364353 -0.25556028 -0.09138142 0.038942922 0.15701461 0.29556152 0.049967308 -0.0825389 0.04122223 0.052501366 -0.0056232265 0.17687404 0.4729991 0.2507292 0.36793038 0.41438916 0.12265724 0.065777004 -0.2294661 -0.19620907 -0.21850921 0.04316706 0.20512909 0.19256078 0.21532173 0.10072216 0.041825987 -0.048404656 0.24113905 -0.08842817 -0.14250852 0.01079605 0.1341747 0.4561111 0.3280736 0.32462487 0.19044553 -0.1000239 -0.11111283 0.030727623 0.124701925 0.25443172 0.11657726 0.17624676 0.016496759 -0.074312575 0.031221282 0.013317193 0.1346694 0.24691829 -0.006915596 -0.141822 0.23994006 0.21894383 0.3327191 0.20955402 0.2527464 0.0608664 -0.17987491 -0.13439147 -0.04407258 -0.14811991 -0.0050794724 0.19626383 0.039955743 -0.01730255 0.30384305 0.2731719 0.29730895 0.32505685 0.3001173 0.1823053 0.43847686 0.37932947 0.41530368 0.198733 0.015761424 0.084109694 -0.11103587 0.12089128 0.16441761 0.1429301 0.116374515 0.029196056 -0.025408534 -0.10313671 0.1453105 0.0980842 -0.06086091 0.18017794 0.38208473 0.34631157 0.46582952 0.340197 0.24539149 0.23873734 -0.18075365 -0.044211514 -0.2292291 0.12585288 0.037982438 0.075559296 -0.110009834 0.091983326 -0.12142794 -0.02993339 -0.049358763 0.35216326 -0.18827933 -0.036466714 0.03344066 -0.09596861 0.34525037 0.4291929 0.08681622 -0.054738995 -0.056135796 0.07032817 -0.030804757 -0.2255454 0.20590144 0.002429272 -0.033950783 0.29864255 -0.11372246 0.025635844 0.3524804 0.09603603 0.07797734 -0.08768647 -0.18740033 -0.13395432 0.25344133 0.2860028 0.13969834 0.01864919 -0.06421672 0.1087905 -0.18473354 -0.09148641 -0.112156436 0.11315722 0.24254589 0.22420155 -0.14345348 -0.17416997 -0.04085265 0.110757895 0.17100498 -0.004021887 -0.007461603 0.16042656 0.38282996 0.07684751 0.13106078 0.13082445 -0.039629392 -0.094878554 -0.19628261 -0.1487321 -0.19869296 -0.07753925 -0.20942137 -0.24440596 -0.48237124 -0.55348027 -0.16158517 0.07359713 -0.05038798 -0.5695055 -0.46231923 0.10883764 0.03997866 0.11937622 0.28512678 0.16772567 0.20041117 0.023867397 -0.22195609 -0.09129247 0.027230453 -0.3422978 -0.44036782 -0.43014818 -0.35505518 -0.719462 -0.53764415 -0.5318907 -0.41817912 -0.9300521 -0.26726758 0.008528101 7.574962E-4 0.24020855 0.24063668 0.19509064 0.054151207 0.17573483 0.32926303 -0.14210609 -0.2632678 -0.060084775 -0.23511977 -0.5298269 -0.3960181 -0.5465529 -0.33147928 -0.14396748 -0.33195665 -0.37785193 -0.13000914 0.17786571 0.2932337 0.20900702 0.028786585 0.032210484 0.07123765 -0.03830215 0.3376083 0.16473415 -0.17828202 0.08409547 0.10314398 -0.37701634 -0.59809977 -0.29581437 -0.067618154 -0.38315073 -0.12929974 -0.41216594 -0.13803117 0.21088208 0.2539917 -0.14440064 0.16674735 0.16360952 0.08532343 -0.025640946 0.11616684 0.031702302 -0.31718493 -0.22885214 -0.16353478 -0.671532 -0.6172696 -0.5341293 -0.15341477 -0.27111438 -0.14057036 -0.14235131 -0.3528528 -0.025699167 -0.14687178 -0.041759122 -0.07645872 0.16989768 -0.11012109 0.05672533 0.32061988 -0.14783965 -0.1264594 0.03154256 -0.17266138 -0.6618176 -0.73067725 -0.43667445 -0.26139992 0.0047918586 0.14937626 -0.024899798 0.18809238 0.081518784 0.073001735 -0.20203157 -0.11864946 -0.16977741 0.0506364 -0.032293152 0.12575161 -0.073096186 -0.023873728 0.23890443 -0.188802 -0.42385975 -0.083959945 -0.153653 0.009802357 -0.044461735 0.18501644 0.102795154 0.11687575 -0.03396858 -0.11672612 -0.27793482 -0.063646846 -0.06685721 -0.10569053 -0.04894065 0.13562989 -0.0363308 0.15439527 0.19900332 -0.021999769 -0.32996637 -0.24479377 0.11833343 0.13465144 0.0680753 0.12611319 0.19157296 0.0736672 0.034835625 0.052292455 0.03386644 0.15653196 0.15910202 -0.022984186 -0.090964794 0.07796341 0.02451905 0.25118908 0.27278018 -0.033509213 -0.05181756 0.09489215 0.01431599 0.36436734 0.1969743 0.2270191 0.034128796 0.2048372 0.18738231 0.2428699 0.113780394 0.16440983 -0.08129546 0.07842828 
0.9543906 -0.08243763 0.09640066 0.051238444 -0.0960485 -0.049521 0.0093272375 -0.064013146 0.13728128 -0.0867367 0.056930114 0.047430594 -0.11178063 -0.11407761 -0.035202336 -0.05877172 0.10649224 -0.069545925 -0.06585274 0.0057842 -0.074266374 -0.075716056 -0.16667101 -0.12508197 0.121912755 0.10814773 0.20172721 0.017872412 -0.11359411 -0.23005679 -0.061946794 0.011003896 0.19366127 -0.14410177 -0.12706405 0.14774565 0.017877389 0.007199269 0.027401276 0.023915205 0.07995461 -0.11786427 -0.06845813 0.08167755 0.27730066 0.020015607 0.23003697 0.021688737 -0.093746096 0.029129567 0.075935245 0.23806429 0.313753 0.13692196 0.17727214 0.30393362 0.122518785 0.0020732621 -0.015998932 -0.078697 0.12259263 0.025184741 -0.05528712 -0.058099993 -0.03829765 -0.123880416 -0.04573002 -0.10670707 0.062295824 0.00327443 0.112996235 0.053548235 0.20424707 0.30772996 0.19858472 0.24502355 0.6405865 0.2661574 -0.29686314 -0.14817776 0.2886319 -0.10271427 -0.11609293 0.124087155 0.011864112 0.12937777 0.029537879 0.36758938 0.57579297 0.27897498 0.20796438 0.33015582 0.06573319 0.12912251 -0.10430928 0.026713578 0.32985997 0.73341465 0.09588572 -0.19790095 0.17980707 -0.050094716 -0.0580609 0.326321 0.13737145 -0.2686385 -0.04760388 0.25644368 0.04299542 0.15763485 0.33882034 0.5719794 0.29722613 -0.23433599 -0.32735306 -0.11073899 0.07158016 0.34582847 0.17980634 0.019781305 0.19575977 -0.09547853 0.05316318 -0.009404637 -0.1374887 -0.46151373 -0.40786675 0.1911225 0.010228147 0.17568238 0.47605896 0.49605915 0.07701817 -0.43523648 -0.46220943 -0.32948163 -0.13552876 0.2931835 0.289395 -0.1519274 0.47989327 0.07107014 -0.12534325 -0.08358508 -0.1348063 -0.219916 0.11471388 0.33459157 0.46481887 0.2089311 0.10676481 0.019688707 -0.4426135 -0.7807923 -0.17769627 -0.35441375 -0.0115574775 0.27930033 0.20944516 0.0077977614 0.2659788 0.10938428 -0.21517022 -0.14859809 -0.060024478 -0.033869952 -0.13833131 0.32017002 0.18971358 0.24980944 -0.060025625 0.13631329 -0.12568356 -0.48834077 -0.32859188 -0.31181043 -0.19120473 0.0986779 -0.07027671 -0.0652492 0.26280233 0.13881607 0.034753036 -0.20306154 0.021140432 -0.108459055 0.07720883 0.693654 0.15140322 0.28629383 -0.044505764 -0.34153467 -0.48918265 -0.47841495 -0.47135362 -0.25204864 -0.041367542 0.03277423 0.033238024 -0.23591712 -0.2026262 0.10270067 0.1787246 -0.04581559 -0.28615978 -0.12019794 -0.10654768 0.29982063 0.17360665 -0.096848726 -0.3268102 -0.43256587 -0.37426138 -0.34122664 -0.37540093 -0.28189433 -0.04764076 -0.011818968 0.22103623 0.077955194 0.086093344 0.030556561 -0.20468383 0.052872002 -0.11983411 0.105671704 0.07288806 0.26465207 -0.13207345 -0.66138196 -0.69092023 -0.44013423 -0.29771003 -0.22248442 0.041699354 0.29881895 0.10712218 0.2591894 0.17068169 0.08230609 0.015127309 0.059853222 -0.13694113 0.14481063 -0.03077689 0.033004303 -0.12761013 -0.15649445 -0.11571706 -0.54139715 -0.60525453 -0.3006362 -0.14939429 -0.3060875 0.0043320865 0.03934336 -0.1409261 -0.08594601 -0.09364944 -0.047997545 0.051387683 0.034691837 -0.18438305 -0.0756666 0.043879874 -0.022628171 -0.11505662 -0.06660838 -0.15143918 -0.020158108 0.012526583 -0.15333663 -0.055653416 -0.17416033 -0.1035491 0.3778723 0.48741457 0.3698572 -0.2714439 -0.14596829 -0.07035383 0.070433326 0.17089449 0.19559032 -0.10198743 0.02800365 0.20708898 0.12611568 0.101551406 -0.040379982 0.07772749 -0.12718359 0.04224215 0.023940254 0.10689747 0.37446332 0.37130544 -0.06711285 -0.16342933 0.14234672 0.16402213 -0.014640059 -0.028045055 0.023526045 -0.30276352 -0.301252 -0.018374665 -0.1821695 -0.21676105 -0.43437827 -0.253899 -0.3849474 -0.098561294 0.14198028 0.20492786 0.16288592 -0.01111803 -0.27238303 -0.14513075 0.13776523 -0.02511918 0.060095493 0.13907228 0.21009398 0.18312861 -0.008659735 -0.05950012 -0.39497134 -0.5392849 -0.602636 -0.4093625 -0.06328743 -5.4352137E-4 0.1391572 -0.04481588 0.013941485 -0.10964126 -0.14061199 -0.04328753 0.057323772 0.002105101 -0.0998187 0.22630535 0.2323861 -0.042569026 0.24657108 0.12761837 -0.369648 -0.41424045 -0.29209575 -0.12390099 0.14048582 0.18785731 0.2671132 0.3171586 0.08771475 0.06351342 -0.020501036 0.066689305 0.048490312 -0.13308282 0.10806711 0.20625602 0.08420263 0.27049735 0.21079233 0.15536676 -0.08516622 -0.25663862 -2.4042568E-4 0.0017993496 0.066555105 0.08403736 0.1359357 0.22140566 0.27762243 0.040095456 0.10383961 0.06677646 -0.07852403 -0.085103594 -0.016280655 0.18320677 0.28114092 0.42297256 0.59229887 0.3008331 0.14330386 0.06958021 -0.09658461 -0.124893546 -0.01826805 0.034816783 0.0030184593 0.19307852 0.09443462 -0.11067873 0.21244147 0.18838573 0.084955424 -0.12016736 
