4
25 401 
-0.09749619 -0.041118976 0.19682825 0.07583091 0.022392726 0.08443917 -0.010800524 0.0110702105 0.16019647 0.099312305 -0.11275209 -0.09709836 0.13509116 -0.025930574 0.005439412 -0.011360015 -1.6248363E-4 0.0013028078 0.11796881 0.054375805 0.007203714 0.05115794 0.12790157 0.055425193 -0.18898405 -0.081932634 0.0045589725 0.24394709 0.09017845 0.010908079 -0.12086554 -0.2001646 -0.031122496 -0.09048174 -0.075412534 -0.17345634 0.12872759 0.32608262 0.1218527 -0.043325305 0.087948196 0.026246397 0.1619546 0.17970672 7.560309E-4 0.15777716 0.06790257 0.12066335 0.075980656 0.0017262169 -0.2205849 -0.18969157 -0.27922904 -0.09724836 -0.14545149 -0.016129328 -0.116305806 0.2490861 0.10195176 0.30467263 0.114285074 0.062712006 0.22696835 0.20554002 0.22990327 0.10446632 0.08811331 0.023626767 0.02526928 -0.23126972 -0.2719641 -0.21332838 -0.33129776 -0.24981277 -0.07837513 -0.0357647 0.089208096 0.12707467 0.055963073 0.25519758 -0.012975704 0.07581861 0.03811258 0.068000056 -0.020497251 0.07580258 -0.040245976 0.104557455 -0.37402508 -0.24878395 -0.2504625 -0.09378325 -0.08412839 -0.18266852 -0.09833453 -0.04495876 0.22178684 0.076425806 0.0072003887 0.12182988 0.0020629428 0.1440327 -0.097628035 0.058274854 -0.043859296 0.045348957 0.23069449 -0.018552903 -0.33017203 -0.17850976 -0.28401864 -0.49869555 -0.2688093 -0.09422783 -0.12542078 0.0062752916 0.18419358 0.21933047 0.104445316 0.23516099 -0.20577778 0.10282863 -0.056158055 0.18364826 0.25440487 0.12918216 0.10153633 -0.30852833 -0.56187785 -0.46409777 -0.33424476 -0.6173769 -0.24242039 0.0460883 -0.12116375 0.2766154 -0.0386027 0.09674456 0.11733698 0.123061545 -0.22052497 0.27996162 0.19663294 0.18277961 0.23469868 0.29244107 -0.08721632 -0.11662505 -0.44571266 -0.49057057 -0.5918118 -0.53069 -0.0830409 -0.13135554 -0.13702764 -0.024588961 -0.2937245 -0.07184952 -0.011850778 0.10163363 0.0076805945 0.24772629 0.31575456 0.17215568 0.61900455 0.42739812 0.36421522 -0.03216709 -0.22432745 -0.80830723 -0.7117247 -0.43924177 -0.27935228 -0.12057898 -0.11008928 0.067615055 -0.0585606 -0.21083039 -0.07451394 0.29892892 0.17484525 0.2396819 0.43725654 0.4939201 0.27545494 0.31786853 0.53294367 0.20570971 0.15282424 -0.36744654 -0.25465703 -0.1815741 0.04275553 0.058092024 -0.22771615 0.01125403 0.060758784 0.0029440809 -0.008010024 -0.05314012 -0.03864581 0.003174639 0.30223307 0.19972485 0.37746534 0.3183373 0.2609418 0.25816116 0.46353096 -0.06729624 -0.1721996 -0.09385265 -0.34529927 -0.24849063 -0.19649842 -0.14746627 -0.08652777 -0.20498413 0.12446884 0.1692348 -0.28173158 0.081962906 0.31677434 0.17903171 0.5760294 0.3465584 0.2347663 0.15252222 0.22225343 0.2542161 0.33308598 0.1656055 -0.06763348 -0.025859952 0.05394616 -0.19376805 -0.43553537 -0.10715516 0.06424169 0.14021763 -0.26094538 -6.4740214E-4 -0.11383081 0.29743657 0.24565211 0.27013087 0.20593186 0.20873132 0.11870199 0.20311834 0.28359905 0.24379385 0.24518749 0.046095956 -0.23904018 -0.29580343 0.010745088 0.0635001 0.08948941 -0.08858128 -0.06222006 -0.27819586 -0.2823293 0.3941427 0.26436728 0.0827529 0.41073045 -0.061910458 0.2995774 0.21390644 0.14705747 -0.05043824 0.10253698 5.9735845E-4 -0.41617212 -0.13796248 -0.08187639 -0.11051525 0.057458736 -0.013898742 -0.09584919 -0.042563286 -0.29736724 0.3519404 0.18358216 0.13616441 0.1304647 0.038518295 0.41512194 0.14914782 0.11153707 0.4409701 0.22150612 -0.16142587 -0.2690855 -0.18714568 -0.25933746 -0.093049124 -0.32636678 -0.3405481 -0.105133854 -0.17794639 -0.037925567 0.1131175 0.2669918 0.071545966 0.051090647 0.29763076 0.11539124 0.2950154 0.1606218 0.36028042 0.124591514 -0.3194775 -0.37735903 -0.23463467 -0.10690287 -0.0069649434 -0.10814059 -0.11136915 0.14706902 -0.07731 -0.052337106 0.15757279 0.031085562 -0.1875628 0.09441198 0.068662465 0.47266173 0.48486543 0.10126366 0.05875901 -0.023502447 -0.2451943 -0.32485932 -0.106548145 0.078926906 0.30609584 -0.04979161 0.049650073 -0.2704659 -0.10369227 -0.017628659 0.04017638 0.014352532 -0.24327551 0.22549598 0.32900804 0.21280658 0.19711424 0.035265166 1.8498389E-4 -0.27799177 -0.055266332 -0.16331361 -0.021249583 -0.07515155 0.41284996 0.036652673 -0.14579861 -0.11158064 -0.08398547 -0.06266534 -0.10138249 -0.03807943 -0.30408576 0.06495391 -1.2436777E-4 0.10670104 0.10848062 -0.009632771 -0.13675766 -0.30273035 -0.24209411 -0.07142638 -0.032629296 0.12619178 -0.011390749 -0.005916739 -0.18499722 -0.006872378 0.020205116 -0.24895471 -0.28746876 -0.40029848 -0.2872609 -0.060131844 -0.016110022 -0.02733463 0.068145715 -0.04713625 -0.072767556 -0.20113663 -0.053052217 -0.121972516 -0.01603907 0.14329927 0.15179409 0.0561681 0.12400504 -0.054928407 
0.1132636 0.050155476 0.071501024 0.031778056 -0.1225665 -0.12671506 -0.25148776 -0.22652708 -0.053484168 0.026949491 -0.08179817 -0.2192812 -0.08716223 -0.11895178 0.0069410196 0.034359667 0.08442366 0.19188687 0.19605148 -0.04011751 0.07766313 -0.065024614 -0.040717505 -0.12725906 -0.2448292 -0.08393596 -0.11089393 -0.08998736 0.21426345 0.24198402 -0.010252086 -0.14508282 -0.07611185 -0.037875246 0.25702667 0.17577529 0.37264058 0.3320088 0.25717774 0.11850751 0.060019594 -0.0016658274 0.06221456 0.0498961 -0.15637986 -0.026949339 -0.0022269916 0.116429314 0.29749542 0.05792005 0.21653248 -0.05819956 -0.115833685 -0.022387534 0.2536873 0.4716022 0.42922103 0.5221679 0.48738122 0.19809186 0.011941143 -0.048862614 0.022406217 -0.13470235 -0.26152858 -0.058192264 0.11260491 0.17487921 0.10866741 0.118155874 -0.1431747 -0.14223972 0.08930911 0.1209969 0.25059688 0.644904 0.5038751 0.4522559 0.30202428 -0.032534968 -0.149735 0.07037389 -0.04580646 -0.25542507 -0.21866202 -0.17210072 -0.02557499 0.08901234 -0.07916577 -0.08448892 -0.15543213 0.06290001 0.07945772 0.111276224 0.32765374 0.60939443 0.6603748 0.5006021 0.11769988 -0.29427564 -0.04299967 -0.011206079 -0.11201141 0.010290896 -0.3297215 -0.11241457 0.1287804 0.1915441 -0.05514578 0.035561603 -0.194965 -0.011456216 0.072650276 0.45677364 0.58685327 0.59755564 0.6039858 0.2953144 -0.090331644 -0.15794453 -0.10361487 0.07412812 0.021261305 0.1836352 0.12711647 0.09309675 -0.18085597 0.052658223 -0.22597632 -0.0065028192 -0.2000335 -0.050321173 0.14905366 0.4367395 0.65025145 0.36388332 0.1612054 -0.155848 0.0045951726 -0.14503501 0.004259059 0.20198084 0.14387627 0.10226398 0.11312763 -0.031541415 -0.15142076 0.26501203 -0.015378902 -0.20773879 0.0063197417 0.2502953 0.33642963 0.04894762 0.24620193 0.14472094 0.13454786 0.026567383 0.055280786 -0.089273 -0.025582217 0.19358937 0.16205846 0.17429096 0.18100923 0.08572672 -0.044478487 0.21050403 0.34546018 0.444683 0.44130197 0.073960304 0.122451656 0.076293275 0.14847314 0.07879644 -0.03582178 -0.033406302 0.28681874 0.05524616 -0.28056464 0.28642103 0.3706126 0.287733 0.1523895 0.30869073 0.4103509 0.49694526 0.4481728 0.27677912 0.048822954 -0.012088809 -0.091625005 0.1621664 0.23641358 0.10263791 0.08282559 0.2676065 0.14668578 0.08604357 0.06454473 0.3702249 0.53059906 0.24516071 0.22635357 0.4983398 0.31959978 0.28158766 0.2305796 -0.1762569 -0.0702227 -0.006383822 -0.41470516 -0.37580246 -0.005401422 -0.07477601 0.16891621 0.3623491 0.18080439 0.17605627 0.19530308 0.40966454 0.49507722 0.2659514 0.2984432 0.10491371 0.16032328 -0.17399447 -0.18422657 -0.22935142 -0.10019577 0.10075025 -0.20951173 -0.37949032 -0.012911185 0.0051944903 0.048048712 0.077033244 0.4318194 0.1833299 0.06203187 0.36468673 0.22972074 -0.124275245 0.1623184 -0.07388129 -0.3675562 -0.4998315 -0.37361136 -0.38764963 -0.0042017577 -0.1100258 -0.04314247 -0.25171658 -0.24648774 0.007889794 0.13829345 0.40091923 0.22584017 0.07570081 0.072240174 0.103680946 -0.011045597 0.099731885 -0.17453209 -0.36761174 -0.22949056 -0.3045719 -0.24758248 -0.24925274 -0.32562423 -0.20746353 -0.17959465 -0.18521455 -0.16113807 0.13815013 0.16872975 0.27813175 0.33895957 0.24757966 0.19146772 0.03223012 0.1322693 0.1374467 -0.08469439 -0.17569587 -0.34725735 -0.1739251 -0.21168542 -0.070560895 -0.05789289 -0.54961485 -0.52092415 -0.33499074 -0.34457517 0.15977073 0.49586874 0.2313131 0.39910868 0.26266304 0.22783056 0.06213051 0.15604904 0.088263705 -0.11177223 -0.11791851 -0.04688045 -0.065551005 -0.008425245 -0.11003771 -0.20250817 -0.33894846 -0.45258933 -0.43103918 0.16410573 0.40292373 0.46902117 0.32587317 0.121259816 0.20417069 0.10416021 -0.1590038 0.10298481 0.0026038717 -0.384127 -0.243563 0.03228755 0.27262443 0.13726138 -0.1027084 -0.41614243 -0.2952735 -0.39678288 -0.033414666 0.17164814 0.1720264 0.39009675 0.35201612 0.020906964 0.080215774 -0.016747175 -0.20919342 -0.04689521 -0.2766783 -0.2471194 -0.13361743 0.06183595 0.10939671 0.062869474 0.08398673 0.055881698 0.09682484 -0.21058527 0.12294484 0.35181978 0.32695776 0.3172778 0.31366277 0.16036227 0.23770195 0.04122335 -0.30821246 -0.28305972 -0.067891374 -0.018735882 0.054210175 0.1691995 0.10974708 0.156954 0.23929441 0.25762683 0.304438 -0.13299862 0.36126044 0.36674333 0.4304711 0.3777468 0.3087484 0.021596616 0.1459691 -0.009609467 -0.0055171037 0.0021888928 -0.11303392 0.19690132 0.38246125 0.541748 0.29954776 0.34857792 0.106760465 0.30356845 0.21299265 0.13639164 0.30208188 -0.020874279 0.30198362 0.17819153 0.07126068 0.113136515 0.06994289 -0.03404617 
-0.40728572 -0.01224176 -0.07770782 -0.0489565 0.022149047 -0.048719313 0.06771479 0.0227652 0.004806031 0.024329724 0.062853426 0.11054978 0.107449204 0.082684435 0.060505867 -0.049948264 -0.0030705642 0.04813484 -0.107925795 -0.09012034 -0.2178236 -8.290637E-4 -0.011867503 -0.061449513 -0.19263965 -0.19347037 -0.15928425 -0.16729535 -0.16910495 -0.04524187 0.005436021 -0.1443611 -0.12864676 -0.108334325 -0.14332199 -0.110887274 -0.07452459 0.121459365 0.1848712 0.19048321 -0.15285005 0.047509104 -0.17140847 -0.1815766 -0.34316507 -0.2735766 -0.24475789 -0.029179882 -0.09927617 -0.20816423 -0.2409816 -0.1590539 -0.08791572 -0.18795826 -0.17734765 -0.079370625 -0.014804789 0.08449635 0.077660054 0.059539042 -0.3060148 -0.1044546 -0.23180765 -0.24884245 -0.39320055 -0.23758407 -0.08964075 -0.10478374 -0.08832659 -0.19809337 -0.26445743 -0.24749112 -0.26081517 -0.12565137 -0.06190488 -0.124665454 -0.18695958 0.11975773 0.033295073 0.20210874 -0.25679374 -0.06826424 -0.42418894 -0.42621106 -0.22975008 -0.21682465 -0.25671962 -0.1367623 -0.2633759 -0.28062114 -0.2988984 -0.4581115 -0.17834349 -0.14270617 0.18621764 -0.08325081 -0.3364463 0.1495423 0.17007288 0.14783114 0.008853404 -0.08774083 -0.26741064 -0.26931152 -0.024766495 -0.022886192 -0.029615477 -0.28076854 -0.040677134 0.025748782 -0.09638916 -0.118113 -0.06231907 0.05133339 0.10331055 0.061454307 -0.032768343 0.2223323 0.1363177 0.042914826 0.045322023 -0.32948065 -0.2933429 -0.13672091 -0.08457308 -0.112282194 -0.04429711 0.0030846095 0.12757991 0.18649189 -0.026615217 -0.09514656 -0.15287454 -0.07364369 0.24112459 0.19264041 0.17460291 0.29680467 0.063980825 -0.057196647 0.121352054 -0.2494463 -0.32883224 -0.05041426 0.08302683 0.22595695 0.24038659 0.22126012 0.31902468 0.3179396 0.27652866 -0.14205895 -0.12089879 -0.1299693 0.1003994 0.079443336 0.10004514 0.15398476 0.105344854 -0.01672262 -0.1066285 -0.21177226 -0.07063471 -0.19108889 -0.012254315 0.02926716 0.21131311 0.2779236 0.35665706 0.34318614 0.29639897 0.08322276 -0.08246061 -0.28438142 -0.091265716 -0.23575951 -0.08549092 -0.017103061 0.11750416 0.09447136 0.06898258 -0.19081359 -0.087534055 -0.1038225 -0.03635358 -0.039285075 0.079276785 0.24007943 0.57065356 0.35548794 0.19710295 -0.029228237 -0.1330905 -0.08328959 -0.26016796 0.053111598 -0.034847755 -0.22042102 0.18219587 0.07109027 0.031101827 -0.15447915 0.0010567182 -0.049898442 -0.039386105 -0.004199693 0.20857543 0.5529017 0.31948352 0.3402444 0.16458824 0.23081778 0.45174193 0.42580163 0.10233511 -0.10493909 -0.2969696 -0.121403635 0.0010957173 0.058255736 0.00854788 -0.03364711 0.1155233 -0.14828226 -0.19614743 -0.05162911 -0.25026396 0.18382752 0.38804233 0.3079811 0.31802854 0.2007263 -0.026218276 0.06561013 -0.048879102 -0.026860887 -0.15500133 -0.07490068 0.1595132 -0.16683997 0.07737793 -0.1664046 0.027084826 -0.21145768 -0.14887823 -0.11223414 -0.22978432 -0.14301793 0.022616502 0.19262142 0.24819143 0.16710822 -0.09265817 -0.26423126 -0.24856688 -0.23339328 -0.15274353 -0.03083506 -0.15593897 -0.05916631 0.033658393 -0.119410105 0.18032368 0.06636766 -0.33587247 -0.27832705 -0.2195916 -0.38190475 -0.13452226 0.006672476 -0.10484183 -0.20540668 -0.33722982 -0.408972 -0.20182438 -0.11744175 -0.074264765 0.10031746 -0.10685123 -0.058930036 -0.012016179 0.048075352 0.16783233 -0.03049448 -0.10518979 -0.01827491 -0.14979257 -0.12455841 -0.1798784 -0.12567803 -0.40048453 -0.3191139 -0.1073394 -0.41297516 -0.28216517 -0.15898302 0.05184766 -0.06658174 -0.059049696 -0.11182312 0.03004731 0.19950916 0.14562857 0.03918175 0.09464015 -0.031231983 -0.048225056 -0.23931167 -0.19568396 -0.3224573 -0.18371418 -0.34866184 -0.31809318 -0.3175357 -0.28749707 0.0030868188 0.028591892 0.08063521 -0.16887525 -0.003628313 0.03410412 0.079695195 0.16160256 -0.0129248295 0.049202457 0.01109526 -0.03333006 -0.11414315 -0.1673506 -0.046971537 -0.23312649 -0.17114462 -0.19717933 -0.30992526 0.010632851 0.13698821 0.049900662 -0.21789768 -0.4106338 -0.11020043 -0.01965504 0.07769563 0.2615372 0.13250004 0.0955538 -0.0643673 0.0046309186 -0.06629747 -0.09856833 0.07695878 -0.2012895 -0.18687427 -0.15586872 -0.17049174 -0.09659529 -0.116841465 -0.085057475 -0.122962385 -0.40280086 -0.23310064 -0.053160522 0.28541997 0.25022927 0.13806446 0.050311305 0.054238964 0.088776305 -0.006579356 -0.010028613 -0.083424464 -0.19459064 -0.15045771 -0.18444234 -0.3583554 -0.3823571 -0.2345473 -0.22180629 -0.11176119 -0.16564798 -0.20338629 -0.12242589 0.12181555 0.053288598 0.029369244 0.16920367 0.15304928 0.021260165 -0.023316238 -0.0058664265 0.019868447 -0.28549966 -0.108786084 -0.30777058 -0.20215169 -0.34917766 -0.2257553 -0.102643944 -0.21953018 -0.12129105 -0.07878441 -0.0906253 
0.08798258 0.05440807 -0.06163632 0.08116692 -0.013574724 -0.007815932 0.2513255 0.03311006 -0.08541083 0.020908775 -0.032905687 0.081010096 0.007897708 -0.004072046 -0.061774265 -0.1928547 -0.19748914 -0.05756815 -0.061093893 -0.115061365 -0.018720172 -0.0225723 0.018403137 -0.02273317 0.012146341 -0.018152036 -0.05110281 0.09689813 0.06156682 0.11635427 0.121816374 0.03157808 0.029393658 0.02235293 -0.11661055 0.053812 -0.1378642 -0.3760466 -0.29877073 -0.13961229 0.0659426 0.014384053 -0.018937837 -0.16619426 0.03995099 -0.09993154 -0.09401324 0.05568107 0.26793543 0.2244143 -0.029314246 0.116409406 0.37939668 -0.016039297 -0.3007626 -0.25434825 -0.14238164 -0.27440912 -0.22991034 -0.36634964 -0.27005002 0.001798047 -0.15559162 0.06433814 0.2894918 -0.15153623 -0.15888612 0.1060672 0.18962227 0.1735736 0.029880062 0.25427392 0.41278186 0.43480465 0.053812988 -0.27813813 -0.3358385 -0.33530492 -0.32409862 -0.33414912 -0.017221147 -0.018512664 -0.12347059 -0.04279769 -0.08329821 -0.28451297 -0.17272767 -0.13163017 -0.1755978 0.17866379 0.09042234 0.26942366 0.446027 0.524084 0.15783371 -0.21937487 -0.57718724 -0.5891935 -0.12944499 -0.028704097 -0.13239343 -0.07035287 0.04848453 -0.20840007 -0.15291269 0.11542146 -0.09682322 -0.0739864 0.1154201 -0.026024811 -0.06329799 0.18916954 0.1838143 -0.10233731 0.09809715 -0.049758974 -0.57049286 -0.6171543 -0.02939265 -0.13477242 -0.056058213 -0.054222297 -0.010972964 0.047831744 0.09627459 0.204931 0.15660438 -0.1839075 -0.40840065 0.028732743 0.1658534 0.010083895 -0.21627341 -0.35231513 -0.2003678 -0.012891337 -0.23423246 -0.41744033 0.026082117 0.019882996 0.022531252 -0.115290366 -0.28923413 -0.113127105 0.26276317 0.0918438 0.07766401 -0.1546662 -0.39093834 0.15604624 0.048206046 -0.16022131 -0.19483878 -0.3533943 -0.17584491 0.32512805 -0.038774706 -0.11738915 -0.22190528 -0.2134387 -0.25086215 -0.27728167 -0.12980974 -0.22489479 0.1913584 0.12369876 -0.010226136 -0.13760108 -0.16583073 0.018942319 -0.18815096 -0.18756956 -0.17711596 -0.30852538 0.0041724914 0.32634503 0.25522342 -0.14969827 -0.11418847 -0.6192254 -0.42222714 -0.50705886 -0.19210328 -0.13984583 0.4144322 0.076950215 -0.06736381 0.46214038 0.034781877 -0.21957639 -0.30365396 -0.38678285 -0.25928354 -0.35445157 0.26820707 0.18968469 0.21442568 0.18674146 0.12824129 -0.36020055 -0.5406182 -0.27258185 -0.16806707 -0.14270383 0.21823575 -0.03106294 0.2435273 0.38040394 0.1545915 -0.21197163 -0.13883756 0.21595363 0.29304904 0.22207755 0.62730783 0.5056276 0.11292695 0.43133643 -0.010248955 -0.12346201 -0.57302916 -0.16952527 -0.17763713 -0.2326835 0.022140888 0.027760772 0.029404186 0.016975142 0.16068874 0.20218962 0.25875536 0.18083985 0.27490053 0.51472306 0.31721056 -0.04388694 0.07308955 0.16319138 0.0068072136 -0.38995612 -0.6620146 0.04148518 -0.22105293 -0.41020218 -0.18342109 0.20362313 -0.053182915 -0.16544965 -0.07944016 0.3684366 0.1866567 0.14902937 0.22695425 0.47512126 0.32936308 0.056704916 0.03780453 0.16170444 -0.09718865 -0.30126202 -0.47247592 0.08001367 -0.20609893 -0.48105884 -0.08389003 -0.17311658 -0.41528594 -0.3466933 0.28646797 0.61962646 0.4289802 0.19626799 0.4267369 0.22316897 0.27979314 -0.15299638 -0.0039948383 -0.03521113 0.11561946 -0.09243139 -0.10448038 0.018898156 -0.34665942 -0.2827068 -0.10816065 -0.5581535 -0.39786485 -0.04380129 0.20318583 0.3672335 0.2700206 0.3237879 0.061382055 0.020269534 0.23935166 0.08588614 -0.2505433 0.0772874 -0.24615814 -0.24912441 -0.28022528 -0.022759287 -0.31936654 -0.42612955 -0.28209957 -0.24362105 -0.10826508 0.008030548 -0.01771948 0.069014505 0.53839874 0.46126735 0.1589905 0.32802045 0.280965 0.18423758 0.1018684 -0.013174894 -0.33349696 -0.13968723 0.17663687 0.43785176 -0.2399604 -0.4947279 -0.36118224 -0.33213514 -0.18526089 -0.43482012 0.034870964 0.14011998 0.21995859 0.4276832 0.33819568 0.05095782 0.1513408 0.17197685 0.028321266 -0.2492279 -0.11439563 0.016008152 0.4692121 0.3465986 -0.05689384 -0.34611985 -0.34572732 -0.45469856 -0.30230957 -0.3679979 0.3568917 0.22843936 0.5203628 0.58146864 0.41088393 0.10380157 -0.15874192 -0.28826696 -0.26420218 -0.3890065 -0.054505058 -0.08719778 0.1278785 0.18789826 0.17627539 -0.07673767 -0.49500418 -0.502262 -0.29840776 -0.07970559 0.067394406 0.109057896 0.2676088 0.48057014 0.38230336 0.25571272 0.068228886 -0.37692633 -0.4363434 -0.234696 -0.28780642 -0.060770646 -0.08796532 0.06315686 0.14595635 -0.0416141 -0.45853195 -0.7356614 -0.71229905 -0.28047267 -0.3010917 -0.079649955 -0.1218182 -0.040256847 -0.11418316 -0.22757894 -0.039142374 -0.38923302 -0.40863392 -0.31661353 -0.034618787 0.019755239 0.019447297 
-0.22468463 -0.07405211 0.024389984 -5.1863146E-5 -0.08719153 -0.05362775 0.005791735 0.08224988 -0.06775821 -0.08518548 -0.034203846 -0.0955858 -0.08784515 -0.100936785 0.044153772 -0.060659427 0.02587594 -0.0856887 -0.061305612 0.014539984 -0.024657827 -0.016756874 0.08340393 -0.015830256 -0.2087671 -0.15323047 -0.04645916 -0.11978468 0.025899095 -0.0519811 -0.09394167 -0.12583214 -0.036299888 -0.1538256 -3.358206E-5 -0.13616423 -0.17043442 -0.037313644 -0.13160743 -0.077837884 0.047393862 0.07379131 0.011742072 -0.10406165 -0.22440945 -0.36223954 -0.10595037 -0.011278368 2.698588E-4 -0.024637897 -0.030941838 -0.073682755 -0.061246775 -0.22016351 -0.19705373 -0.32208964 -0.16631305 -0.14123772 0.017472066 0.10070095 0.20940942 -0.11526528 -0.22937831 -0.19514062 -0.23520552 -0.104056984 7.3759677E-4 -0.07392761 -0.13436602 -0.12554723 0.05012623 -0.12159472 -0.0909901 -0.2368438 -0.29293206 -0.2832209 -0.17040384 -0.010947238 0.110832706 0.06751338 0.10737906 -0.16035625 -0.3669058 -0.41890383 -0.28642857 -0.25715646 0.0138942 -0.057010546 -7.2179665E-4 0.012347244 -0.040636566 -0.17432706 -0.12964809 -0.109078124 -0.12716591 -0.17119385 -0.28767732 -0.07131487 0.11349314 0.0058079623 0.04496859 -0.22893195 -0.25150084 -0.28603402 -0.2065932 -0.189203 0.031249914 -0.091615 0.08862648 -0.11180107 -0.15613914 -0.030753326 -0.14083219 -0.061067227 0.06756931 0.05559843 -0.027460057 -0.2150129 -0.0778728 -0.06472833 0.13919061 -0.04704368 -0.37348887 -0.24813692 -0.122499645 -0.09864531 -0.09516968 0.031181563 -0.07893025 -0.06701623 0.03325886 -0.19342907 -0.1610974 0.07801232 0.30080768 0.16795288 0.2522295 0.033704672 0.18538481 -0.10797876 -0.09571137 -0.2743996 -0.40548307 -0.24245374 -0.049787518 -0.015133924 0.009509216 -0.054734718 -0.041518304 -0.00915532 0.029056521 -0.082727775 0.04703814 0.16031447 0.1995271 0.25643995 0.24103422 0.16511649 0.028412905 -0.041140847 -0.17618817 -0.1872314 -0.2101633 -0.054259285 -0.029462932 -0.051078886 0.055023726 0.046044264 -0.04618624 -0.0020499756 -0.049581088 0.0589563 -0.10822764 0.04163959 0.05955565 0.3064757 0.10156917 0.2744183 -0.12428333 -0.2906433 -0.09327773 0.011332411 -0.15354861 0.09098261 0.23695235 0.026582003 0.10217396 -0.10277379 0.11550951 0.25342342 0.15420647 -0.22447078 -0.12685058 -0.009065505 0.22239563 0.21839522 -0.03816708 -0.06957375 -0.13826011 -0.13574624 -0.23813592 0.13754433 0.10153356 -0.006603836 0.29786924 0.18402047 0.11069888 0.32080048 0.44912866 0.24984244 0.13482112 0.13741153 0.2578297 0.32592028 0.24596174 0.036582075 -0.21707039 -0.20811862 -0.31164807 -0.06818383 -0.28684053 0.13099062 0.11187822 -0.16589107 -0.10954915 -0.029597642 0.23745345 0.3397657 0.4346662 0.4538026 0.0076872027 0.13010412 0.15194319 0.003578668 -0.30591315 -0.19924478 -0.1432273 -0.13363872 0.23109417 -0.06489592 -0.08812346 -0.04159563 -0.1851214 -0.18669164 -0.41016474 -0.20190518 -0.0026803901 0.18605693 -0.024539087 -0.016286928 0.022701863 0.13357 -0.17548072 -0.35077557 -0.5985047 -0.3530176 -0.11672823 -0.03668842 0.06000988 0.03710415 0.17480086 0.008377134 0.008455509 -0.23401187 -0.25848123 -0.26942775 -0.24696778 -0.08871021 -0.23047033 -0.23572786 -0.18969975 -0.34753677 -0.52021646 -0.5402978 -0.5639578 -0.47926325 -0.26307303 -0.13284369 0.03408341 0.19121376 0.39279586 0.03768893 -0.17587021 -0.11258899 -0.16297159 -0.13749719 -0.09762878 -0.22893602 -0.26643956 -0.3065945 -0.52325284 -0.31235346 -0.4181564 -0.40854117 -0.21525116 -0.2689807 -0.16641338 -0.11863432 -0.1903119 -0.09656647 0.1528741 -0.11707622 -0.0029922016 0.020327523 0.13026133 -0.12440171 -0.29087433 -0.34506494 -0.3904007 -0.38551584 -0.17708956 -0.26423854 -0.30220103 -0.20212807 -0.13511539 -0.14155428 -0.07793955 -0.197467 -0.2615741 0.03446104 0.079965375 0.11773274 -0.19861133 0.13522482 0.03839803 -0.10413505 -0.19304407 -0.446039 -0.24117064 -0.29469517 -0.1755974 -0.052552465 -0.16930537 -0.18779452 0.0677056 -0.13477446 0.074598044 -0.14501041 -0.29748464 -0.078581885 -0.117476225 0.18149897 -0.0103479475 0.086542375 0.15505068 -0.16075031 -0.31407702 -0.33797094 -0.22583087 -0.08423668 -0.094854824 -0.16549039 -0.11084928 -0.17917134 -0.13745962 -0.11283913 -0.21466602 -0.24540994 -0.16765574 -0.05975935 -0.20350802 0.23762736 0.109603845 0.15144223 0.0056281723 -0.18295592 -0.23844145 -0.21487208 -0.20951372 0.011069275 0.0010036987 -0.033069856 -0.1504942 -0.17335545 -0.0118589895 -0.10732364 -0.08086232 -0.15598091 -0.037223417 -0.16762556 -0.034615923 -0.03289348 0.18142459 -0.10142837 -0.1034635 -0.27622288 -0.18260272 -0.18217152 -0.056117058 -0.0145304855 -0.025167676 -0.006759361 -0.04454582 -0.13246535 -0.070791386 -0.04345136 0.016471187 -0.1474041 -0.046110377 -0.06624228 0.0037595327 
-0.37311313 -0.11205726 0.03014036 -0.041564524 -0.023907242 -0.018412711 -0.1062873 -0.16717198 -0.09828819 -0.03836009 0.059252504 0.034953605 0.11973479 0.081968345 0.010060646 -0.007974155 -0.041843813 -0.17528522 -0.07859486 0.012933256 -0.08532702 -0.056611314 -0.03246137 -0.08893232 -0.04916411 0.050715826 -0.1389411 -0.18465443 -0.03301472 -0.0025291708 -0.19929269 -0.010816661 0.052175887 0.20761402 0.027370565 0.18470721 0.12562898 -0.058596652 -0.079384066 -0.19327445 -0.09821955 -0.050645422 0.14349234 -0.075911626 -0.15091935 -0.07065405 -0.22466302 -0.25730863 -0.20142984 -0.07866072 -0.06499471 0.27259812 0.17119731 0.13138008 0.0045493823 -0.1426358 -0.12145952 -0.065152384 -0.09844224 -0.1101789 -0.049868904 0.056642674 0.128717 -0.04130967 -0.2668872 -0.37607956 -0.19554192 -0.12130456 -0.2138739 0.043369833 0.32973433 0.1873424 0.07271663 0.2724331 0.012923868 -0.19624753 -0.31067374 -0.0748048 0.047641274 0.020921495 -0.2294569 0.13141175 -0.0780885 -0.044173084 -0.0813001 -0.26451236 -0.31711224 -0.21775928 -0.21950138 -0.06241784 0.29518887 0.101223685 0.33750197 0.20788522 0.14772397 0.06797514 -0.37322125 -0.09694411 0.0034382967 0.017211908 -0.33322307 0.20687321 0.19543566 -0.09957835 -0.15470278 -0.08904871 -0.27976456 -0.29415283 -0.29870304 0.2188374 0.18845724 -0.016882932 0.32271016 0.16032852 0.0818304 0.14980006 0.040964775 0.06273656 0.13283533 0.098127276 -0.25047848 0.10215672 0.008960592 -0.06800329 -0.45406288 -0.16910806 0.032087125 -0.23512955 -0.22717671 0.091322795 0.113718666 -0.16893806 -0.17072837 0.06154207 -0.10616903 -0.13454169 0.13257238 -0.0584583 0.04268165 0.0036979476 -0.34423578 -0.090468265 0.13672322 -0.12896152 -0.2911081 -0.1832222 -0.39468813 -0.23825581 -0.21874881 -0.048530754 0.017297078 0.18137126 0.037154846 0.15254809 0.016995892 -0.14899895 -0.05477343 0.16863102 0.24691364 0.029210877 -0.3442654 -0.021479443 0.07923798 -0.34219328 -0.29764262 -0.35776874 -0.07968899 -0.0043564322 -0.11648555 -0.022254882 -0.025732715 0.30508453 0.19540547 0.09894171 0.062394187 0.03566554 0.21217172 0.35701907 0.3663926 0.003924858 -0.24291027 -0.13169223 -0.08454 -0.19446981 -0.30985814 0.044025376 0.06983237 -0.30821726 -0.07782573 0.111271404 0.45135424 0.24911398 0.34655267 0.2919935 0.46913156 0.20721173 0.03289076 0.19112502 0.4352467 0.16036241 -0.25904697 -0.20973207 -0.120727696 -0.2804925 -0.21039233 -0.49016184 -0.18920676 -0.21971789 -0.23912367 -0.037441596 0.35963812 0.21507692 0.4816229 0.6237662 0.3226961 0.19986318 0.055761755 0.4059665 0.28823254 -0.028305208 -0.28421876 0.013258929 0.20775762 -0.16586936 -0.6543009 -0.3653475 -0.40172088 -0.2618196 0.0021515342 0.16071196 -0.072829366 0.10351614 0.3921445 0.12631962 -0.2575086 0.0013671434 0.31608453 0.6611794 -0.026268797 -0.13408521 -0.26401612 -0.02762784 0.12512265 -0.30955175 -0.39149368 -0.37013644 -0.2812242 -0.35943413 -0.034755807 -0.0032514143 0.23375617 0.36644083 0.21457073 0.18740045 0.040321697 -0.02877729 0.3060914 0.40990752 0.22006674 -0.18803397 -0.2729172 -0.06962001 0.19659634 -0.3225998 -0.36926293 -0.36906224 -0.437551 -0.15144934 -0.15195796 -0.18506984 0.09385836 0.06805638 0.23808551 0.12870882 -0.25489375 -0.21279177 0.06253998 0.16071923 0.0945111 -0.022191778 -0.0045678704 0.14008237 0.10907449 0.18587406 -0.10397284 -0.43399674 -0.3462357 -0.40978572 -0.28846616 0.116297275 0.1739202 0.18747182 -0.083154514 0.13095851 -0.14845763 -0.20411254 0.12755994 0.27516767 0.30507243 0.30473182 -0.079075076 0.15028954 0.35509068 -0.00742448 -0.05669112 -0.19165541 -0.16677514 -0.1932672 -0.11464928 0.033252988 0.08803236 -0.08138257 -0.16098517 0.2601783 0.20516938 0.10229555 -0.1858996 0.10742506 0.2080529 0.21236417 0.014444555 0.23086645 0.1998859 0.047970735 -0.16214593 -0.23229827 -0.23225728 -0.20938541 -0.15348339 -0.18307164 0.19902484 0.059725706 -0.25920764 0.2456381 0.44201764 0.28287184 0.30674848 0.24553889 0.15078653 0.10772986 0.12859142 0.18571515 0.2510385 0.17452535 0.0957777 -0.06964207 -0.4033996 -0.38958055 -0.10447723 0.1569498 0.016992463 -2.8265957E-4 0.101346195 0.25924093 0.16390084 0.11003249 0.01609329 0.18504177 0.045874115 0.035590913 -0.017395541 0.06443532 0.31627467 0.27293205 0.08014183 0.057795823 -0.25019443 -0.4538099 -0.30240005 -0.057363637 0.07768115 0.014883098 0.09208904 0.26538494 0.10858041 -0.04789395 0.09575059 0.010841709 0.123040035 -0.027694654 -0.098921955 0.10393615 0.17153102 0.05753505 -0.14754094 -0.48203808 -0.6501545 -0.5686954 -0.39551 -0.21530437 0.12332538 -0.027401632 0.15654334 0.14756408 0.11305979 0.15629697 0.2283749 -0.064835474 -0.0050327666 -0.081562 0.0069578337 
0.8362631 -0.0602473 0.057258822 0.08277659 0.17018533 0.29807496 -0.009729968 0.044967037 0.04914784 0.14880988 0.06197618 0.012341039 0.023406964 0.071131445 0.1383221 -0.019492824 0.020723797 -0.1042927 0.0754647 0.053249262 0.1213621 0.077979095 0.15491138 -0.0014758796 0.21137756 0.19938806 0.09518653 0.004849678 0.09491786 -0.012625466 -0.2688757 -0.2743607 -0.07667832 0.09083402 0.09095337 -0.113707274 -0.07920686 -0.1720411 -0.23929884 -0.015544151 -0.041321654 0.010278979 0.1615153 0.23095778 -0.0066411095 0.10210775 0.061654773 -0.10832837 -0.09830308 -0.11693118 -0.25349748 -0.14804503 -0.03144288 0.086248204 0.12773363 0.18190388 -0.023403618 0.05375525 -0.23437712 -0.10490965 -0.13270123 0.1880734 0.26406515 0.13503481 0.12236819 0.1932882 -0.025986277 -0.19262345 -0.263489 -0.35076842 -0.033569887 -0.05782609 -0.09291346 -0.086781 0.011175025 0.041540887 -0.06033336 0.12642384 -0.11594747 -0.20032182 -0.025819814 0.17212982 0.071391255 0.13418445 0.13790196 -0.03540801 0.04340613 -0.17693308 -0.2702227 -0.12948687 -0.16044806 -0.17535277 -0.091959886 -0.31513786 -0.16733368 -0.38145277 -0.08943849 0.18214637 0.028586052 -0.07211139 -0.28197443 0.20433582 0.11380984 0.35298756 0.042500038 0.22187278 0.232269 0.1164817 0.06459656 -0.08573385 -0.21202223 -0.11386417 -0.10183028 -0.28966254 -0.29632914 -0.19007687 -0.25066724 -0.17549722 -0.05029901 -0.21494353 -0.37199646 0.04481887 0.013335962 0.110124126 0.253591 0.32073334 0.1942043 0.17173441 0.0853826 0.022093067 -0.18633123 -0.052346006 0.095017605 -0.03355175 -0.52344435 -0.29202294 -0.3028201 -0.32267728 -0.16575876 -0.16806932 -0.19079746 0.13559511 0.1296451 -0.20733236 0.1175778 0.34115753 0.23327915 -0.025440628 0.03365836 -0.07010733 0.0013236243 -0.024733415 0.061241478 -0.19899154 -0.33545408 -0.28016165 -0.22642614 -0.28642502 -0.041734233 0.039537728 0.08486763 0.0658641 -0.08460179 -0.10654179 0.15396972 0.17923883 0.16416886 -0.11506745 0.002111 -0.035650633 -0.19812384 -0.16646403 -0.37458807 -0.1461721 -0.00793261 -0.1077404 -0.22296575 -0.2610406 -0.16540426 0.03787531 -0.26008576 0.0015923596 -0.13659638 0.14667612 0.04544232 0.15345632 -0.052923344 0.10530988 -0.03625316 -0.01880949 -0.071037784 -0.21976182 0.047923535 0.08573582 0.45759323 0.3835335 0.30003604 -0.14252752 -0.15560614 -0.060864016 -0.18414935 0.07871122 0.001475692 -0.07947617 0.062102832 -0.23077711 -0.017937198 0.08100383 0.034731403 0.09554948 0.11001163 0.34926927 0.41845515 0.73664826 0.45116115 0.39669114 0.09609012 -0.13178386 -0.21564044 -0.090612374 -0.13182609 -0.114126936 -0.043015108 -0.08465117 -0.080392584 -0.12849133 0.036784697 0.19077091 0.39132625 0.4608255 0.4185825 0.31803104 0.5629251 0.54778266 0.41860232 0.23845221 0.08207322 -0.19616117 -0.21934806 -0.08035278 -0.020707734 -0.16989416 -0.37340188 -0.13663968 -0.22414535 -0.06894181 0.4199522 0.18505508 0.5265535 0.3567979 0.4225924 0.39202896 0.44637907 0.337714 0.20615703 -0.20486932 -0.0693217 -0.08439219 0.05812431 0.06798223 -0.0076548997 -0.22229902 -0.35513547 -0.23929003 -0.51823264 0.15833466 0.70723796 0.11934386 0.08505 0.087518305 0.09680264 0.087057665 0.04990401 0.20191449 0.114231154 -0.017286416 0.17978038 -0.28404135 0.19350997 0.134423 0.037719995 -0.04296861 -0.27379525 -0.39055714 -0.07089089 0.36244816 0.39696366 0.20998873 0.014532638 -0.12742977 -0.010360969 0.22897014 0.068186834 0.031277895 0.05497854 -0.12586917 -0.030932076 0.016343964 -0.036655385 -0.11374401 0.08369777 -0.11974233 -0.11289423 -0.1517953 0.20164004 0.492402 0.20218834 0.14065279 -0.14852093 -0.06666912 0.06101458 0.18378358 0.09924621 -0.09327092 -0.19884884 -0.29222748 -0.04639145 -0.24981524 -0.11631093 -0.25246787 -0.09250098 -0.19244315 -0.122980714 0.09865811 0.2306345 0.54155195 0.4062607 0.1558829 -0.09695095 0.06152183 0.07636631 -0.1784812 -0.26518738 -0.24089289 -0.07900953 -0.2066407 -0.07157192 -0.10211838 -0.1328686 -0.061907675 0.018844616 -0.08300535 -0.14152399 0.11007361 0.12094451 0.45030224 0.4168459 0.25301966 -0.07101422 -0.11338907 0.13007922 0.060522296 -0.01877996 0.020558544 -0.07343729 -0.24722466 -0.12684669 -0.12557018 -0.1258944 -0.021859502 -0.12638262 -0.18358205 -0.18246296 0.124721535 0.33285725 0.4354973 0.29176447 -0.07196381 -0.08422913 -0.09027711 -0.13503088 -0.09608285 -0.15565845 -0.29669493 -0.09928411 -0.031205049 -0.07181306 -0.099631354 0.12931624 0.04309014 0.12167992 0.036012076 0.08338826 0.13598794 0.37069246 0.18601298 0.18318598 -0.08104183 -0.021946786 -0.024659194 -0.17756696 -0.2134988 -0.2210808 -0.0065098885 -0.04324021 0.054900862 0.03474833 0.07444428 -0.016741196 0.17648326 -0.036132827 
-0.044730503 0.023196613 0.08669677 -0.073197074 -0.014807816 0.01656749 0.16142619 0.12712261 0.07364772 0.15027392 0.18757373 0.29341576 0.010252846 -0.0010465524 0.14946932 -0.026841588 -0.2663164 -0.066332266 -0.14763892 -0.0068108034 -0.055453397 -0.10270369 -0.0532439 -0.18107563 -0.010052952 0.02473764 -0.06399107 0.027625877 0.07034786 0.032077983 0.12609163 -0.013640098 -0.00456748 -0.029180594 0.009476881 0.1074067 -0.16409889 -0.30214742 -0.13805607 -0.21947983 -0.11890693 0.033558358 -0.14018826 -0.13819504 -0.045760877 0.022012051 0.07903553 0.044394173 -0.035234865 0.11218402 -0.15296543 -0.03120377 0.16042247 -0.079550475 -0.26236945 0.06880921 -0.03663272 -0.052720133 -0.3832932 -0.31333035 -0.29448816 -0.050265636 -0.043464713 0.1358165 0.17494169 -0.015994994 0.048244327 -0.062940195 -0.118243955 0.28962642 0.15325084 0.12517843 0.12071518 0.38533983 0.13490853 -0.15205361 0.03318748 -0.30725282 -0.51669914 -0.28609025 -0.17809354 0.06341616 -0.007990966 0.08713615 -0.21249604 -0.13716488 -0.08331303 -0.1533114 -0.06896775 0.32535848 -0.008513834 0.09612974 0.15418644 0.26322556 0.113191724 -0.0031345938 -0.08192199 -0.4337883 -0.2670054 -0.1472909 -0.024936402 0.109993234 0.16365586 -0.016109612 -0.20826507 -0.116285324 0.074008435 -0.08268386 0.23954478 0.14818817 0.20103781 -0.025355265 -0.20606641 0.0074996613 0.13893467 0.06851925 -0.09406759 -0.400516 -0.07409563 -0.068233736 -0.22834823 0.008276235 0.059148114 0.0409979 0.04524012 0.09161824 0.18764105 0.01903964 0.20769832 0.11072523 0.19163351 -0.059127215 -0.032430172 0.21958601 -0.029787855 -0.061635263 -0.0849795 -0.46479335 -0.44446474 -0.14055282 -0.16613166 -0.18472178 -0.07392044 -0.1580969 0.11625425 -0.33430782 0.059774686 0.13398254 0.0990022 0.46994293 0.14450718 -0.04945447 0.17299294 0.22625884 -0.2680683 -0.13145876 -0.16871926 -0.30797064 -0.57377183 0.041408677 -0.14012586 -0.35578874 0.01670945 -0.12769496 -0.31170425 -0.11349839 0.16630639 0.097708546 0.42191458 0.2728548 -0.082251444 0.12960933 -0.2988588 0.045944232 -0.22942148 -0.12081696 -0.45845428 -0.54027724 -0.53211075 -0.16387482 -0.21543902 -0.46629742 -0.14397329 0.04850351 -0.034138 -0.07887596 -0.055088278 0.029141076 0.09516848 -0.17584398 -0.36359352 -0.20411824 -0.5396166 -0.50677955 -0.1598358 -0.014508483 -0.30420852 -0.25982177 -0.31642497 -0.04182722 0.08165401 -0.43792808 -0.21604429 0.1577784 0.18121007 -0.024008688 -0.28908554 -0.30101743 -0.15645419 -0.16367511 -0.38398898 -0.24296412 -0.59303135 -0.36561987 0.26317826 0.4251196 -0.12622733 -0.162347 -0.019981747 -0.19004148 -0.09154371 -0.6218464 -0.08416813 -0.11994408 -0.07008264 -0.16277012 -0.2733311 -0.13165504 0.15432574 -0.01194152 -0.34178793 -0.050779898 -0.10142 0.24233519 0.4582211 0.18577498 -0.05409891 -0.23683737 -0.38787696 -0.345873 -0.4088411 -0.47740823 0.022168722 -0.009413567 0.10311145 -0.09255297 0.09127945 0.038770415 0.08134322 -0.025295548 -0.10288158 0.262357 0.22358434 0.3401776 0.33652982 0.31060418 0.23188306 0.033249285 -0.11575084 -0.09165695 -0.24792176 -0.23253958 0.060471747 0.0077161184 0.08574788 -0.11361477 0.056541026 0.17192417 0.27166304 0.092594326 0.4209253 0.28208396 0.33530998 0.26747212 0.12219188 0.2520278 -0.12698284 -0.0055044224 0.029570313 0.110211834 0.017321425 -0.20438622 -0.07116902 -0.12576205 0.0014454853 -0.10849423 -0.08687225 0.3093609 0.11413414 -0.17777431 -0.16156927 0.17910364 0.20453735 0.05521539 0.22954765 -0.116962135 -0.122173786 -0.0055439295 -0.025130132 -0.065937586 -0.06932305 -0.09036384 0.059567686 -0.07107929 0.008770676 0.011175438 0.04969137 0.021606145 -0.03339848 0.047745425 0.26304457 0.17349845 0.0967107 -1.6197277E-4 0.026896782 -0.007458541 0.15273623 0.05481112 0.022429211 0.14465868 -0.1405292 0.051683176 0.16161937 0.056288183 0.13418515 0.08980298 0.15692039 -0.08271027 0.035424236 0.06457108 0.073705025 0.15993899 0.055153944 -0.04426859 -0.0055655097 -0.054402824 -0.07428 -0.053696305 0.15543641 0.19119821 0.13718851 0.2467304 0.13743922 -0.008890491 -0.056086656 -0.051071394 0.15753655 0.29020098 0.1476444 -0.006394553 -0.041170683 -0.009231322 -0.09072756 -0.227257 -0.45145765 -0.2934868 -0.24267551 0.10755087 0.19114271 0.06123324 0.018569011 0.13500762 0.14302431 0.040712137 -0.011032997 -0.05020734 0.19461998 0.19215101 0.12274981 -0.15005924 -0.2528096 -0.08420849 0.12244902 -0.014149837 -0.38866398 -0.38248822 -0.18246925 0.033694845 0.03342878 0.05469006 0.041556373 -0.09811833 0.054343715 0.28991917 0.089660406 -0.026335219 -0.032995157 -0.0638343 -0.2430315 -0.1916625 -0.39718875 -0.4533599 -0.32945985 -0.35897577 -0.04103673 -0.2933258 -0.16328333 0.016326422 0.14292294 0.16919675 0.15719329 
0.29690975 0.08035341 0.07870785 -0.038204186 0.09102725 0.07532529 -0.20110975 -0.10093761 -0.20551512 0.17144077 0.22175533 0.109285995 0.18447681 0.19585833 0.0917255 0.15059246 0.06273083 0.13529144 0.020802831 -0.019513424 0.07775856 -0.081680566 0.04745176 0.050171807 -0.08023435 -0.036827583 -0.1264284 -0.24855414 -0.11450647 0.09447186 0.2265712 0.23960504 0.11044138 0.34464025 0.19318625 0.27245283 0.19336545 0.073977 -0.012546542 -0.035589926 -0.07939078 0.010661992 0.07910458 -0.14716642 -0.07380641 -0.1568193 -0.21621403 0.09056452 0.08117517 0.19624446 0.23573728 0.44119555 0.33657107 0.36593404 0.34914455 0.42038113 0.2802086 0.17722017 0.13943231 -0.083423965 -0.28056535 -0.064159706 -0.038179323 -0.20684797 -0.1527978 -0.26940387 -0.21399286 -0.13204212 -0.1922169 0.1557816 0.47214568 0.4525407 0.50986123 0.40030503 0.18802725 0.25358737 0.13438965 0.019788837 0.017032139 -0.11221912 -0.1692165 -0.031325318 -0.14003906 -0.17097308 -0.2165383 -0.33065218 -0.23396309 -0.25173467 -0.39611468 0.09583959 0.4779591 0.49827114 0.5933804 0.3629699 0.22881548 0.15768418 0.10382578 -0.0059954636 0.013970896 -0.0029595138 -0.08728756 0.013096436 -0.10400451 -0.046111085 -0.15224281 -0.07541434 -0.068822004 -0.36166063 -0.14139812 0.019478204 0.40539482 0.70181006 0.52665204 0.27622455 0.04332115 -0.08650055 -0.19462694 -0.18561521 -0.038950846 -0.13218427 0.07401278 -0.1838535 -0.18523094 -0.11869959 -0.16198528 -0.09151894 -0.24636675 -0.13226014 0.10687026 0.11949104 0.4941828 0.43498272 0.148909 -0.028375885 -0.34322363 -0.45099398 -0.47308376 -0.3913281 -0.049913336 -0.014352487 -0.00726834 -0.096151106 -0.04696447 -0.06679828 -9.6390327E-4 -0.15720694 -0.28378558 -0.11908429 0.0727686 0.41009346 0.47083563 0.38979465 -0.19451049 -0.28575802 -0.402252 -0.2906949 -0.2764655 -0.14239132 -0.16682032 -0.05463668 -0.21254577 -0.083125725 -0.070293486 0.109962754 -0.04539571 -0.047506686 0.01934021 -0.054770384 0.120871164 0.49151576 0.5697848 0.42367366 -0.11250372 -0.25150174 -0.39367688 -0.29519317 -0.3537015 -0.24058597 -0.18685158 -0.24104008 -0.21715793 0.07726073 -0.023034303 0.027157046 0.068575494 0.08845282 0.03511206 -0.083445504 0.25135216 0.44244376 0.3492649 0.24515395 -0.076315716 -0.20039006 -0.12102708 -0.19314235 -0.12252701 -0.057465132 0.048634097 -0.051925123 -0.13424368 0.11268878 -0.014903831 0.11528673 0.3352734 -0.007276622 -0.031511255 -0.050989173 0.2390096 0.16000894 0.22720207 0.049951077 -0.11924615 -0.23524971 -0.06570603 -0.009097963 -0.013322481 -0.0784043 -0.08068584 -0.12708959 -0.036399875 0.19190644 -0.052108765 0.13777949 0.097670354 0.017205046 -0.16584058 -0.15865946 -0.084201 -0.060187526 0.14987783 0.046428256 0.17337316 0.11690392 0.047979865 -0.06508187 -0.1435164 -0.06298131 -0.1860921 -0.16624206 -0.14943585 0.08328826 -0.0027337181 -0.07893096 0.21037212 -0.07877794 -0.052326452 -0.08238968 -0.09739743 0.10231666 -0.030743418 0.056098 0.08945388 0.20053494 0.06508013 0.057957057 0.0021255044 0.09639242 0.036833856 0.05266957 -0.1263586 0.09741444 0.101712205 0.0694454 0.15020473 0.22053234 -0.10458781 -0.15578026 0.03315793 0.03334661 0.2389349 0.12911038 -0.09277944 -0.020097913 -0.012349958 0.06230964 0.15446074 0.08937942 0.023271436 0.08953726 0.07392956 0.19672988 0.16434076 0.1798887 0.05268893 -0.025941681 0.14566912 0.18653986 -0.10495534 0.01694523 0.10958132 -0.074423596 -0.068639405 -0.030726543 0.02969455 0.11414796 0.17420253 0.1911318 0.16244021 -0.011146639 0.13589367 0.09560986 0.18683288 0.06721562 0.013334808 -0.12450517 2.016873E-4 0.06283875 -0.23918058 -0.10932388 0.17028134 0.024993993 -0.18098316 -0.027713332 0.33807763 0.34807143 0.3813864 0.19772235 0.056794602 0.14887236 0.07781709 0.22356173 0.10257104 0.09624835 0.07485936 0.07480378 0.092057504 -0.012450302 -0.100245595 -0.107750095 0.082554966 -0.0063015884 0.058240905 0.19902222 0.18875912 0.14429438 0.25351536 0.23037034 0.16834007 0.12944376 0.18004188 0.09246592 0.0662096 -0.026565176 -0.11046485 0.19093633 0.014864015 0.13831808 0.034495663 0.061845906 -0.10883855 -0.053570155 -0.013095775 0.16813077 -0.053412 0.07047644 0.21838377 0.022783676 0.15893167 0.15042096 0.05798842 0.09554478 0.08087157 4.777195E-4 0.10099385 0.048436776 -0.054782193 0.07139986 -0.0130338585 -0.02592992 -0.101493485 -0.10735128 0.07675834 -0.07838257 0.011500044 -0.13920866 0.10756384 0.16783796 0.099521086 0.1664647 0.014341388 0.14795679 0.21508923 0.1017028 0.19142099 -0.022971569 -0.07562467 -0.005739571 -0.058500543 -0.23359567 -0.29069123 -0.26512244 -0.026011532 -0.063237585 -0.17005306 -0.016361898 -0.16695817 -0.028933553 -0.03414055 0.099658534 0.06459404 
0.052602164 -0.036171198 -0.118345685 -0.07546614 0.09095862 0.14570141 0.26655525 0.14710025 0.052294627 6.863372E-4 0.20247898 0.10376091 -0.074449666 0.068391986 0.12853816 0.024350846 -0.105329834 -0.13544816 0.031302057 -0.22337048 0.057772156 0.041165397 -0.19900386 -0.054272193 0.048762348 0.04655021 0.14131203 0.15400791 0.05594376 0.104939446 0.11241338 0.14453164 -0.14318152 -0.18126228 -0.0136072235 -0.08158739 0.008085956 -0.06592534 -0.16725238 -0.12182354 0.044246957 0.025506943 -0.13163644 0.083525285 -0.005334806 -0.055910457 0.10255084 0.19110812 0.28864753 0.23517005 0.2555199 0.09349195 -0.028504347 -0.15077896 -0.13738814 0.010919998 0.03750684 -0.19029154 -0.0022405745 -0.17515625 -0.16841851 -0.076321326 -0.010830795 0.021520441 -0.02117224 -0.026529623 -0.01637972 0.2567932 0.24883819 0.18418075 0.20103624 -0.055766206 -0.041630045 0.005331139 -0.024534015 -0.0022867962 -0.19062278 -0.07551081 -0.07243376 -0.39155412 -0.20007198 0.03856434 0.0082385205 0.1945974 0.0350342 0.17132974 0.28898412 0.122029714 0.14980668 0.21712965 0.21372457 0.08446889 -0.067071825 0.15517437 -0.013548387 -0.16917673 0.06427131 -0.060918365 0.06320095 -0.20093705 -0.05112767 0.020459734 0.033659037 0.23483932 0.07804775 0.20875077 0.31081453 0.24054778 0.3786383 0.24985474 0.0554716 0.081791356 -0.13329041 -0.3063877 -0.18078095 -0.025645865 -0.34602383 -0.3069957 -0.1243196 0.030678155 0.08298353 -0.10119362 0.11755808 0.23334402 0.26458746 0.018912401 0.16826968 0.20372802 0.4595318 0.45469284 0.22126304 0.019141976 -0.076895475 -0.22556762 -0.3779455 -0.19644086 -0.17258263 -0.1090973 -0.19150467 -0.24247082 0.17495835 -0.21161272 -0.15754652 0.19959919 -0.13079904 -0.09779335 0.05571385 0.18886794 0.5009936 0.5561548 0.37994245 -0.0011019639 -0.2313417 -0.19026162 -0.39664742 0.073667444 -0.2297532 -0.17856678 -0.30726478 -0.022619225 0.22153077 -0.11112129 -0.0776477 0.3109121 -0.048470225 0.0411375 -0.053826343 -0.086266264 0.3461953 0.5190543 0.33540192 -0.020958362 0.048161373 -0.07300584 0.0041641523 -0.116256475 -0.35419956 -0.3072561 -0.25208527 -0.019186866 0.34105834 0.18077658 -0.0014333443 0.24518387 0.028687434 -0.26243955 -0.3300666 0.051279686 0.21281277 0.5570986 -0.05220185 0.3229675 0.03876946 -0.050266527 -0.29301104 -0.119506404 -0.119152516 -0.14078577 -0.12602973 0.20146792 0.35463288 -0.21975327 -0.24800901 -0.010754221 0.2351064 -0.2754955 -0.26430818 -0.24628843 0.03390249 0.24132636 -0.15207486 0.082406074 -0.13553044 -0.10260154 -0.15991744 -0.22293398 -0.15928845 0.13608783 0.20320646 0.11175869 0.380809 -0.24654248 -0.08557538 -0.061486654 0.012523251 0.030296074 -0.0735603 -0.09471514 0.033671435 0.052778363 -0.0610008 -0.08050912 -0.122733854 -0.05777087 -0.24005878 -0.19022708 -0.12624428 -0.2101018 -0.014771515 0.011478379 0.26115036 -0.14323018 -0.0051885475 0.24232043 0.09663675 0.2233443 0.372836 0.17140785 0.02984857 0.10777508 5.641218E-4 0.10516815 0.066498175 -0.03766987 0.07496494 -0.053483866 -0.12546685 -0.01520024 -0.13352899 -0.018132517 0.0724608 -0.107385814 -0.1672678 0.14318334 0.22485393 0.21665813 0.29865462 0.27567497 0.19320467 0.16609098 0.47824377 0.3093246 -0.19418553 -0.2105553 -0.06883774 -0.013974514 -0.06595595 0.0430466 -0.10868589 -0.062446088 0.41523382 -0.038245004 -0.17024435 -0.058397964 0.20024383 0.57021976 0.41395336 0.41014385 0.48235562 0.08646734 0.23859133 0.23979472 -0.017628891 -0.22322114 -0.041980553 -0.06837802 -0.22756061 -0.08866859 -0.18775378 -0.35922083 0.32369936 0.041252792 0.18579099 0.36925828 0.3629408 0.29094902 0.117932476 0.14632268 0.011043273 0.18650621 0.22660504 0.17813757 0.12095648 -0.15555239 -0.064635664 -0.044615034 -0.14296426 -0.070155986 -0.16397396 0.05618874 0.1990648 4.625052E-4 0.11901421 0.339923 0.28124148 0.29043716 0.30453932 -0.09536784 -0.08741849 0.09794461 0.040558197 -0.08497271 -0.17214972 -0.18709192 -0.3419002 0.03942838 -0.07040958 -0.13292854 0.05683921 0.17787431 0.21771587 0.15625593 0.1731261 0.24334261 0.10701713 0.22256148 0.2823302 0.2565042 0.18100998 0.055134904 -0.03247604 -0.18011485 -0.08813829 -0.12900408 -0.11107181 -0.046852876 0.004274402 -7.532382E-4 0.10398555 0.062909745 0.05441693 0.14498876 -0.014287724 0.0785348 0.1435257 0.28278527 0.2614128 0.26426756 0.17761515 0.058039863 -0.12177394 -0.16607837 0.007454482 -0.052615307 -0.18699533 -0.22470517 -0.15971166 -0.07084158 0.06965951 -0.02456333 -0.035778448 -0.009961671 0.07380292 0.1635131 0.29958364 0.23153606 0.38908166 0.08532826 0.039700665 7.499035E-4 -0.16316287 -0.26720443 0.0012650447 -0.21690157 -0.22201301 -0.5520562 -0.36260682 0.0012626861 -0.13759764 -0.026552543 0.063703805 
0.61722434 0.06695192 -0.07709932 -0.03793012 -0.0614917 -0.059981465 0.05513238 0.1633716 0.28953293 0.2124354 0.17764755 0.15530483 0.13486674 0.06223332 -0.05378011 -0.3273428 -0.17173374 -0.08349088 0.06712151 -0.10897317 0.08502019 -0.10266855 -0.037960913 -0.13623191 -0.068523705 -0.014747252 0.15387237 0.00872854 0.100628056 0.062293276 0.2146927 0.42904368 0.48696935 0.36888465 0.12772834 -0.08483449 -0.041477885 -0.18495788 0.09879492 -0.048740964 0.08798661 0.04306998 0.035316385 -0.109372795 0.004068769 0.12885296 0.20898731 0.14020862 0.1343824 0.11942066 0.18222602 0.47242284 0.5513697 0.4217126 0.2044285 -0.12782969 -0.11074412 -0.2607328 -0.32334355 -0.14285427 0.081367 -0.0024747374 -0.15669546 -0.116083175 0.08948688 0.057916645 -0.109990284 -0.008861187 -0.10108435 -0.103734404 -0.008361706 0.45895845 0.35357082 0.36604986 0.07412716 -0.1269969 -0.046020307 -0.06400449 -0.19140738 -0.035698365 0.050015997 -0.11650116 -0.059766922 0.045848384 -0.10077437 0.019047858 -0.1400109 -0.16729654 0.12215771 -0.115407564 -0.1432909 0.20738132 0.58121294 0.5422495 0.14414194 0.2077238 0.09035979 -0.26978248 0.008925602 0.043584824 -0.039361466 -9.5082674E-4 -0.023737673 -0.009583668 0.09728616 -0.07900085 -0.3678093 -0.14104694 0.11080071 -0.010450193 -0.057094455 -0.0104148425 0.3383441 0.3926197 0.49817604 0.35441056 -0.08950271 -0.1870517 0.033867136 0.04798039 -0.23793319 -0.08037987 0.11737118 -0.063764825 -0.061626334 -0.17042924 0.08931429 -0.054388497 -0.01884892 -0.25056013 -0.2921962 0.012571791 0.37342128 0.35893714 0.32046148 0.47489527 -0.07532291 -0.37924522 -0.19409345 0.07996439 -0.23296376 -0.04817032 -0.2382612 -0.1599019 0.07612655 0.0997836 0.009080585 0.03285119 -0.19804639 -0.2847137 -0.18762438 0.10540225 0.23181248 0.19236219 0.57453024 0.38735908 0.07651525 -0.1656202 -0.12231429 0.062672414 -0.18649831 -0.32265854 -0.18220598 -0.19965318 0.28934222 0.39687467 0.23072411 -0.10226185 -0.005438188 -0.0094467765 -0.1827782 0.090069026 0.13149479 -0.2002086 0.19034505 0.7237292 0.5356761 0.1470777 -0.13287513 -0.11909854 -0.23370785 0.04803672 -0.19169839 -0.18156433 0.14138031 0.18356721 0.11875701 0.24168137 0.11001612 -0.28712034 -0.15494578 0.038449936 -0.45407474 -0.28957763 0.13062862 0.3419024 -0.0408388 -0.1673361 -0.21986723 -0.21585181 -0.2394348 0.09925348 -0.11745383 0.004336465 -0.012003977 0.25674066 0.16522901 0.12825578 -0.43661988 -0.45147917 -0.35249695 -0.08562968 -0.1707973 0.036172062 0.3667956 0.27813116 0.07895145 -0.073911205 -0.09693015 -0.27689195 -0.41464886 0.051807843 -0.19787072 -0.11917117 0.039771415 0.3547329 0.33592692 0.15562111 -0.27971277 -0.47110686 -0.34140933 0.19226703 0.23111746 0.35348567 0.2618685 -0.15147536 -0.15169537 -0.02734913 -0.17184994 0.05074106 -0.41471738 -0.15856183 -0.24867506 0.17569521 -0.1748205 0.062493827 0.1384731 -0.07718519 -0.14588495 -0.21216825 -0.31242937 -0.11752017 0.020046234 0.071942575 0.22161421 0.13145079 -0.13388345 -0.14985691 -0.08450899 -0.17340034 -0.43469888 0.060087238 -0.42183164 -0.026887603 -0.052346498 0.101238586 0.15489136 -0.116420545 -0.16474575 -0.04546735 0.0030423198 -0.06535925 0.48382297 0.27124783 0.1257335 0.121334165 -0.23841406 -0.16269842 -0.2613005 -0.2590899 -0.35409787 -0.14215733 -0.32419893 -0.0098731145 -0.2054958 0.01846003 -0.009198978 -0.062262625 -0.0020894278 -0.5152883 -0.34943524 0.19928212 0.43102407 0.34549293 0.048607208 0.057959184 -0.14741035 -0.12621371 -5.984126E-4 0.016426697 -0.08307947 -0.2284398 -0.54813766 -0.10068843 -0.30625814 0.09103454 0.25636122 0.20092715 0.1606533 -0.27376685 0.08478745 0.24899992 0.3189594 0.23573576 0.20907927 0.21684408 -0.009592462 0.0146193085 -0.014800858 -0.048948146 -0.3379181 -0.023232715 -0.23377445 -0.19351806 0.04805195 0.23799634 0.12991476 0.124379635 0.068490334 0.21116047 0.2616074 0.39767507 0.35279676 0.4230429 0.27017102 0.26592448 -0.06294198 -0.18705708 -0.032818146 -0.2189642 -0.13734294 0.0048286174 -0.43408942 -0.2493413 0.024721533 0.21131264 -0.006933853 0.06347962 0.34354275 0.410875 0.39219078 0.31598443 0.15814655 0.22669071 0.034271576 -0.054004263 -0.23679583 -0.25913566 -0.18098438 -0.10034138 0.15347414 -0.14636247 -0.16744953 -0.21153377 -0.18382694 0.12481499 0.08961556 0.2686347 0.34126627 0.5083023 0.41136494 0.49728066 0.5083355 0.27314237 0.03875089 -0.051347904 -0.1773894 -0.17122783 -0.14689018 -0.11775661 0.101049624 -0.12360195 -0.13686237 -0.18131116 -0.18153091 -0.11307296 -0.1588094 0.19307144 0.35897198 0.4543543 0.51150054 0.38819385 0.23301786 0.23677312 -0.14734659 -0.1163169 -0.22475228 0.078145176 0.023208711 -0.07957423 -0.021852864 
0.21728191 -0.0990419 -0.0073945196 0.01687799 0.08553982 -0.04425281 -0.22023937 -0.29325625 -0.2844874 -0.28225186 -0.32549962 -0.05986438 -0.06292321 0.042119402 0.18784776 0.22090384 0.2890456 0.28840467 0.28626335 0.16528924 0.058853623 0.018176239 0.027300142 -0.027233655 0.09162242 -0.0511451 -0.1586796 -0.24559917 -0.451284 -0.45835713 -0.08633757 0.15456244 0.17966235 0.16317834 0.32564744 0.16001923 0.3967324 0.34816778 0.2587274 0.08834991 0.036439545 -0.067115575 -0.020608664 0.04690177 0.062116195 -0.11690755 -0.26165557 -0.4160768 -0.41721714 -0.27761045 -0.039151534 0.036098186 -0.0033901555 -0.013976548 0.037299603 0.07071538 0.21654446 0.20726281 -0.0070932726 0.13934481 0.18239199 0.08995296 0.13765489 0.34953082 -0.022666844 -0.33887663 -0.49002758 -0.51372796 -0.26505852 -0.2465878 -0.38288957 -0.09692882 0.07487726 -0.22205153 -0.11571787 0.327545 0.5689114 0.28680158 0.17623374 0.07836587 0.0590751 0.12528759 0.3418541 0.3344288 0.022926847 -0.22046752 -0.32067809 -0.27552262 -0.21878262 -0.16104072 -0.11465765 0.209079 0.003534553 -0.40491182 -0.28047764 0.24812771 0.49753815 0.87752527 0.08258916 0.042987328 0.05784799 -0.027422989 0.31896377 0.33326703 0.21530591 -0.05776662 -0.47336227 -0.25975582 -0.3167943 -0.08276254 0.085814334 0.26862282 0.14593653 -0.22820309 -0.37249833 -0.1546065 0.29219437 0.6478913 0.16080348 0.015479825 -0.022379888 0.11694571 0.4053687 0.21915136 0.15697385 -0.18799908 -0.5602372 -0.31343302 -0.36455974 0.04660114 0.17453179 0.5217814 0.027315376 -0.099652186 -0.060374614 -0.05800311 0.17856582 0.26581535 -0.07695117 -0.0026097377 0.02441854 0.10336478 0.14208278 0.19131249 0.0591981 -0.10772702 -0.55464756 -0.32295373 0.06618153 -0.13101397 0.020747757 0.09745486 -0.111982904 -0.16571821 0.038806792 -0.4027627 0.47331965 0.37224904 0.24688515 0.14200008 0.12717052 0.26746857 -0.068687364 0.2352158 0.26541576 0.015813366 -0.4199685 -0.4089248 -0.23021685 -0.07912853 0.13793191 -0.1990793 -0.05300032 0.06171609 -0.391785 -0.028234126 0.35730958 0.3917208 0.07152161 -0.038019925 -0.08809047 0.19899508 0.20281698 0.12515889 0.25847358 0.1221658 -0.15559313 -0.16978079 -0.3394365 0.011405445 -0.16697991 0.024329413 -0.10357985 -0.1331809 -0.4001114 -0.07008133 0.37766358 0.4399496 0.11775611 0.053501785 -0.11436145 0.28436527 -0.11241852 0.30475825 0.21162 0.12220728 -0.43479237 -0.10197235 -0.30652496 -0.38219523 -0.21764371 -0.29447356 -0.27085054 -0.19180004 -0.27466732 0.00511688 0.75878626 0.32012102 -0.06546731 -0.19811535 0.13345641 0.3906955 -0.20369945 0.14721663 0.14981417 0.13734278 0.1726234 -0.046652462 -0.40879604 -0.35186875 -0.16081646 -0.0022729319 0.0123362765 -0.1103695 -0.12552889 0.38178983 0.48515123 0.528981 0.05458361 -0.059055466 0.020216102 -0.07091192 -0.0991478 -0.0075137923 0.111152016 -0.024194295 -0.226598 -0.02290394 -5.6345505E-4 -0.025735697 -0.036158334 -0.29600373 -0.22469454 -0.47486606 -0.089841284 0.32514718 0.11048892 0.48920256 0.08798489 -0.09290327 -0.26974884 0.016054047 -0.120028384 -0.021170098 0.023214672 -0.048894525 -0.08688137 0.28253958 -0.0367432 -0.2387839 0.055252105 -0.087622166 -0.11786595 -0.20662248 0.14833601 0.34099513 0.35450906 0.2434014 -0.08004203 -0.17205077 -0.29202318 0.13242489 0.16654669 0.20003298 0.008888967 -0.18028137 -0.074730486 -0.007279601 -0.347278 -0.2546441 0.05581875 -0.08176218 -0.010720251 0.082353346 0.060717613 0.1446855 0.31918892 0.10821009 0.0729914 0.09544166 -0.25735334 -0.017480183 -0.11518404 0.101213545 -0.4435372 -0.4353489 0.15396225 -0.07106915 0.12013452 -0.30148256 -0.2823002 -0.26093188 0.09077801 0.28383327 0.19565642 0.1978121 0.031683087 0.047481544 0.20005168 0.008213796 -0.39460427 -0.072222345 0.09045324 0.14924063 -0.1578472 -0.3136433 -0.04465026 0.17047742 -0.11616573 -0.13837582 -0.21886037 -0.06869163 0.21609865 0.11417774 0.22659086 0.13028607 0.009295063 0.2365078 0.045552395 0.06980685 -0.07524176 -0.18143421 -0.007035885 -0.051533394 -0.02174466 -0.1775278 -0.2232121 -0.2674391 -0.14894968 -0.35623565 -0.3019994 0.0900269 0.14358222 0.35297704 0.4572588 0.1857815 0.09865699 -0.019181272 -0.110872194 0.20673817 0.027519574 -0.29440692 -0.18603696 -0.04544923 -0.1777867 -0.033209264 -0.27880764 -0.22658016 -0.2376737 -0.15505011 -0.19446589 0.12419822 0.2523063 0.47567704 0.43711236 0.41001287 0.19586991 0.029509874 0.18141249 0.25036982 0.17336611 -0.003682726 -0.07834778 0.015603686 -0.058181707 0.028063226 0.120374724 0.04905785 -0.012352876 -0.20112793 -0.052738916 -0.015997712 0.27190325 0.54326624 0.38450623 0.41986346 0.28037444 0.23195678 0.0021446035 -0.024898445 -0.05035207 
-0.6834492 -0.09815666 0.10731357 -0.085365094 -0.12528685 0.035374865 0.023859357 0.13602854 -0.07639945 -0.019405713 0.13001731 0.12197402 -0.026999392 0.064199015 -0.18336597 -0.40040004 -0.28377283 -0.24973434 -0.20485769 0.046691686 -0.1911902 0.101050004 0.09398029 -0.16544494 -0.029150108 0.04760485 -0.0147742685 0.18914269 0.031247929 0.04043801 -0.0065566273 0.057933375 0.041191213 -0.03946081 0.011950496 -0.076330155 -0.3056146 -0.30964443 -0.07943104 -0.033626184 -0.23470017 -0.03481477 0.081928745 0.032395575 -0.009813568 -0.051523115 0.043931343 0.10906747 0.10924696 0.10285354 0.030066425 0.10296565 0.09085796 0.4964131 0.24398258 -0.34315965 -0.4321044 -0.09259751 0.04062026 0.09388961 -0.31890208 0.05414786 0.09899205 -0.15454419 0.20891857 0.09356557 0.18218526 0.011975222 0.13838062 -0.13837515 -0.1434431 0.26497987 0.24933815 0.33246285 0.5922838 0.14260441 -0.33282444 -0.14371525 0.17854829 0.16956897 -0.2721743 -0.065940626 -0.11109295 -0.11150681 -0.07142838 -0.011764552 0.012608918 0.19065423 0.09065014 -0.06073857 -0.077714436 0.112709105 0.24775699 0.6166182 0.8958602 0.4906485 -0.123722024 -0.29668093 -0.065715685 0.1636057 -0.17148261 0.13618754 0.0046841926 -0.1957344 -0.11341631 -0.16085859 0.03532463 -0.0507466 -0.25217396 0.04136013 -0.1593053 -0.05165085 0.1668473 0.47909817 1.1425325 0.88007843 0.05724371 -0.36605254 -0.20916234 0.113241866 -0.39594632 0.057719197 -0.011304204 -0.060403712 0.040770616 0.13598925 0.07000826 -0.10487596 -0.21953776 -0.12529486 -0.04518324 -0.08783083 -0.17167205 0.19754942 0.88677853 0.82472324 0.21369246 0.054048132 -0.05936943 0.15222263 -0.4732708 0.009926266 0.03472116 0.06776221 0.010147052 -0.17784616 -0.0065525123 -0.08341432 -0.29686597 -0.011982035 -0.12667699 0.014728921 0.05918363 -0.008760407 0.75671834 1.0193058 0.17566876 -0.16414021 -0.18400517 -0.27124 -0.41257167 -0.25440744 -0.080762476 -0.11606193 -0.25851366 -0.16587299 -0.07077077 -0.03171779 0.13571845 -0.09617925 -0.011347972 0.017302644 -0.14456631 -0.3652181 0.7013873 1.0181769 0.26678792 -0.04797236 -0.1262619 -0.11945691 0.09067651 -0.14156944 -0.2697759 0.19264165 0.18499392 -0.097911574 -0.03096507 -0.15559945 0.03828158 -0.17436482 -0.019508036 0.0022842707 -0.23244181 -0.32306877 0.5649297 0.62398785 0.09435427 -0.132557 -0.13896526 -0.10878413 -0.058126446 -0.12476379 0.04161927 0.103501 0.17636803 0.059648946 0.29768425 -0.0069205347 -0.016431212 -0.16127911 0.054078583 0.25341567 0.2532724 0.16490577 0.41077355 0.16723245 0.17689767 -0.0015186963 -0.23949327 -0.016408997 -0.16035722 -0.25206035 0.23840247 0.17134295 0.080813825 0.15491827 0.17831953 0.08685328 0.08168145 0.11285631 0.023986153 -0.008129282 -0.071748175 0.20200019 0.081361726 0.003596175 0.13733439 0.047492847 -0.06682055 0.20899948 -0.116212696 -0.14988765 -0.19231947 -0.13936785 0.061587047 0.0073067388 0.29638517 0.3531844 0.1108431 -0.085424736 0.020006744 -0.1400101 -0.008575523 0.2049527 0.076590866 -0.103415936 0.009874859 0.050773222 0.24799037 0.09605713 -0.23037833 -0.052159943 -0.18996423 0.004878249 -0.11151116 -0.13133769 0.3712057 0.5083252 0.17050934 0.12422987 0.11525548 0.20204107 0.19634716 0.31949762 0.05113525 -0.11426342 0.046401486 -0.07985483 0.32720506 0.0758781 0.20959021 -0.026495082 -0.08964085 0.0054050004 -0.14918076 -0.16162182 0.15017545 0.18696132 0.35176915 0.30781248 -0.1711076 -0.018016828 0.37373692 0.10156514 -0.09997549 -0.31023714 -0.19183299 0.15225841 0.23969917 0.09583685 0.2434708 -0.14599937 0.04885621 -0.20085143 -0.09352245 -0.15153714 0.07966683 0.22536753 0.41896772 0.50078654 0.344306 0.1836074 -0.21277943 -0.018068768 -0.16214174 -0.40671805 -0.12727065 0.2684196 0.15146631 -0.055597857 0.42377478 0.123678714 -0.011945101 -0.38774514 -0.48792234 -0.09639717 0.10726791 0.073559195 0.4690493 0.3212502 0.3279833 0.016235882 -0.36250678 -0.27222538 -0.18715145 -0.29329214 0.08477339 0.12293798 -0.0082217185 0.098388836 0.1638303 -0.05607751 0.037152193 -0.041637205 -0.19246052 -0.26420575 -0.113035955 0.18504125 0.5866585 0.63136107 0.56191444 0.14008322 -0.18868902 -0.24987945 -0.44515988 -0.42822084 -0.19003043 0.13218594 -0.034240175 -0.10798867 0.046657633 -0.0030815832 -0.07192349 0.14838658 -0.08196642 -0.12711242 -0.11073667 0.18164618 0.30681995 0.46705684 0.5666197 0.26414886 -0.052919153 -0.33977234 -0.36570203 -0.2743415 -0.33523846 -0.07762247 -0.21168588 -0.2298751 0.09386389 0.015585337 0.08912728 -0.079821445 -0.29479066 -0.56861436 -0.3664357 -0.06858296 0.11559641 0.07410187 0.039781734 -0.059596006 -0.2080512 -0.08969247 -0.008379476 0.07870571 0.046087928 -0.11040687 0.017718717 -0.14239617 0.042559188 
-0.11521118 -0.009683837 -0.025691742 0.019087382 -0.08085817 -0.21361747 -0.033492327 0.055544645 -3.3358965E-4 -0.09586916 -0.1816518 -0.15504485 -0.14570525 -0.16559152 -0.22203463 -0.23821673 -0.06625067 -0.026129259 -0.17722379 0.033898875 -0.12869737 0.05244737 0.15041205 0.1822251 -0.017531632 -0.102902636 -0.08501538 -0.007749528 -0.07399935 -0.08035778 -0.06722462 0.07407992 -0.08318599 -0.010878146 -0.053024624 0.08855248 0.22021452 0.03301738 -0.17033349 -1.7362932E-4 0.0050967177 -0.08080588 0.13630524 -0.11778282 -0.06348202 0.036047317 -0.02508678 -0.36060157 -0.07700994 -0.13840178 -0.090607174 -0.040941704 0.05350896 0.15818296 0.23160303 0.17445873 -0.014564162 -0.07067545 -0.056472566 -0.09619818 -0.20143959 0.06808217 0.112255536 0.1312569 -0.12907976 0.06949479 -0.18506382 -0.15995155 -0.07980311 -0.16293071 -0.028917182 -0.059723187 0.13360146 0.22446635 0.453371 0.1642665 0.18769935 0.0153763145 0.047994588 0.170811 -2.8320705E-4 -0.06048871 0.15014313 0.19609976 0.285297 0.067801505 0.092304565 0.051221065 0.20146495 -0.11197767 -0.024907766 -0.1433023 0.32321742 0.38975894 0.24791215 0.29488927 0.06373096 -0.26375124 -0.20404348 0.13036881 0.048825182 0.08529638 -0.050330255 0.019181672 0.11219236 0.31883505 -0.024369247 0.17877701 -0.087770574 -0.023060072 -0.16211547 -0.20919882 0.01840692 0.10742215 0.3111724 0.3488225 0.2961496 -0.006654081 0.21615057 -0.06872108 -0.13165207 -0.013083509 0.07852344 0.12801602 0.14288399 0.08281036 0.17891176 0.3545682 0.29542688 0.22099964 -0.056260426 0.076144665 0.31620204 0.19169897 0.26849422 0.23076095 0.21868038 -0.029968893 0.017764091 0.10420805 0.15298179 0.060727138 0.40857062 0.20581819 0.1905645 0.31904685 0.2877796 0.09476626 0.39628586 0.1154286 0.041898884 0.27274075 0.12121309 0.39307958 0.25476238 0.3022298 0.47262302 -0.11758116 0.286359 -0.044522367 0.041561324 -0.083265305 0.1991142 0.10212246 0.020020839 0.005105271 -0.047106616 0.037504498 0.38727227 0.252665 0.33754516 0.3795049 -0.071227446 -0.16385424 0.15742473 0.5175786 0.2757746 0.20955984 0.3464506 0.33747786 0.33189633 -0.19518013 -0.038456324 0.037338294 -0.03700112 -0.35942966 -0.38245076 -0.42283297 0.006936724 -0.09867357 -0.03908973 0.11991341 0.023092909 -0.08383892 0.17667279 0.5105434 -0.057413317 0.056486264 0.54953104 0.42287236 0.29455268 -0.31811124 0.062422145 0.04835534 -0.37775156 -0.66253704 -0.81982476 -0.61776704 -0.89996004 -0.3915047 -0.14790083 -0.20350733 -0.015811855 -0.3135261 0.04088093 -0.019707564 -0.30996513 -0.029984038 0.030445848 0.0033649458 0.065550715 -0.3187491 0.16969673 -6.787678E-4 -0.33267537 -0.049947225 -0.35048798 -0.40579617 -0.78374434 -0.2783151 -0.22726761 -0.17611551 -0.12629125 -0.11481175 -0.07616208 -0.1289243 0.00414427 0.09557428 -0.19212392 -0.21518546 0.007766785 -0.05735804 0.30177763 0.045319032 0.0010626985 0.22019005 -0.14666797 -0.21664947 -0.41516918 -0.09607389 0.043804225 0.0019971444 -0.11454172 0.076962955 -0.0061302506 -0.01546081 0.089798465 0.1281431 0.058322858 -0.019932311 0.27585706 -0.10488393 0.27513263 -0.13641112 -0.15519881 0.06305921 -0.11063894 2.6739645E-4 -0.1740667 -0.20398968 -0.050359398 0.07863911 -0.22419079 -0.05864065 -0.00783448 -0.10101795 0.05214321 0.027462812 -0.03350625 -0.13893832 0.08354847 -0.112396196 0.3252609 0.010288414 -0.07400064 -0.2077817 -0.26147565 -0.19731456 -0.3701504 -0.29820105 0.10232496 -0.13233547 -0.11695613 0.05183166 -0.1446854 -0.06798852 -0.092604175 -0.20973532 0.065290354 0.044746175 -0.20710132 -0.03802963 -0.1477515 0.11155592 -0.124704406 -0.22215766 -0.06669411 0.025058186 0.11329005 -0.008628009 0.0061631985 0.0039283014 0.053558506 0.10143269 -0.15374467 -0.09807073 -0.14051421 0.007877642 0.26504433 -0.19791059 -0.22415085 0.085128844 -0.07451292 0.048571274 -0.35846445 -0.30614758 -0.18636657 0.042480167 0.23921807 0.10578188 -0.09282247 -0.024414977 -0.15269415 -0.13924764 0.037460633 -0.14410575 -0.1043751 0.2644089 0.19972543 -0.05958449 -0.1352398 -0.033180602 0.14017682 0.049672958 0.024382818 -0.15920575 0.025450008 -0.043619584 0.17289522 0.19521683 0.08768992 -0.010132627 -0.07199773 -0.12349267 -0.064639516 0.09708172 0.1232683 0.18513705 0.1019218 0.21416852 0.15092868 -0.08248913 0.041259278 0.043246258 -0.019793568 0.034229413 -0.013714207 -0.0985758 0.077730395 0.028710388 0.3043954 0.15051761 0.07933177 0.084259324 9.315459E-4 -0.08335114 0.062986016 0.19404073 0.1754429 0.26151118 -0.026292957 0.08848775 -0.038848802 0.06416552 -0.13688733 -0.25935987 -0.09055085 -0.054020595 0.061191723 0.010525039 0.2313218 0.24036758 0.23526573 0.044652253 0.15434113 0.2954299 0.42422712 0.35424572 0.25830406 0.17805052 0.040285714 
0.7207298 0.013950243 0.11554281 -0.018602593 -0.0090375105 -0.12863822 -0.14981055 -0.1722458 -0.006268083 0.0115123615 0.09117386 -0.032601368 0.013543536 0.05940446 -0.042757984 -0.06265141 -0.12557447 0.04004855 -0.11900821 -0.16192052 0.058158107 0.09656999 -0.015158661 0.021310112 -0.07454933 -0.21501693 -0.13415383 0.01906111 0.082281075 0.2402017 0.09036644 0.13048206 -0.010735589 0.06288033 0.014428173 -0.08970843 -0.055434704 -0.07506775 0.021511428 -0.06868086 0.062459506 0.06325995 -0.07871103 0.042418372 0.038927466 -0.05496786 0.06146435 -0.012896813 0.08809769 0.15722314 0.25337622 0.120243356 0.0045767613 0.09607083 0.32932383 0.25715816 0.065877736 -0.08953124 0.1042115 -0.01867372 0.053085446 0.024226658 0.11304874 -0.11997639 -0.070492096 -0.10191519 -0.044472456 -0.023496175 0.23268376 0.17194283 0.12659362 0.1292893 0.008258794 -0.042102005 0.17432912 0.2094832 0.18432271 0.10429459 -0.066436 0.048419736 -0.022523928 0.13162194 0.02697076 -0.110739365 -0.02998285 -0.023724413 0.047786064 0.01647675 0.2916758 0.22375104 0.06525513 -0.020448176 0.10599026 0.016231606 0.047506403 0.19723493 0.17439638 0.10667947 -0.010239662 -0.024628136 0.121068925 -0.028555011 0.041457694 -0.04374989 -0.063093185 0.044190787 0.20247963 0.028974757 0.054914314 0.10824857 0.28844804 0.064900726 -0.057486087 0.103058875 0.09484982 -0.01565664 0.1114735 0.27334318 0.0066311737 -0.2546109 0.001768931 -0.12274264 -0.1296545 -0.12990172 0.057949983 -0.123623885 -0.06727878 0.26565692 0.22387868 0.01480634 0.16810188 0.21601936 0.05766691 0.05618764 0.03436157 0.0589564 0.108250126 -0.035477266 0.06514529 -0.016370555 0.21021608 0.17728102 -0.06728865 -0.007192008 0.15312532 -0.016096734 0.25006044 0.2980395 0.47238693 -0.008973702 -0.09664801 -0.04938742 -0.032857236 -0.052039154 0.15177977 0.052197643 0.2839043 -0.07181698 -0.06788543 -0.124730006 0.05233318 0.1192679 -0.04439629 0.10545847 0.21247226 0.348642 0.2560251 0.33792087 0.12378971 -0.099735886 0.17203613 0.016018983 0.28444377 0.16884707 0.035368513 0.06589462 0.08619964 -0.010921368 0.020966614 -0.025086481 0.1154043 0.036575813 0.053995755 0.49753526 0.41820782 0.4008148 0.14696445 0.33387247 0.11769876 -0.14252254 0.1575167 0.09737074 0.15872055 0.13661851 0.0032441765 -0.07968064 -0.006057754 0.07000498 0.022612473 -0.02851648 0.070832275 0.05819309 0.07206791 0.3552681 0.012593133 0.16409054 0.052746233 -0.11194966 -0.25674203 -0.01847287 -0.12814792 0.064402044 -0.1042865 -0.06440552 -0.10067787 -0.16475382 -0.08261618 -0.01718082 0.029676909 -0.26235417 -0.017631397 -0.043179795 -0.32881242 -0.10539774 -0.12704942 -0.4772784 -0.570621 -0.61178005 -0.44653454 -0.023272416 0.069330834 0.21481927 -0.116051264 0.06513484 0.13203731 0.1530118 -0.26029083 -0.22055377 -0.24110456 -0.2039264 -0.10206771 0.33114356 0.06931258 -0.17289624 -0.30832925 -0.35298058 -0.61730343 -0.4488156 -0.09613366 -0.058022827 0.08537402 -0.068766326 -0.056141358 -0.0051325886 -0.1214641 0.1170708 -0.020763323 -0.1177572 -0.18454854 -0.15193963 -0.041745324 0.062443458 0.16032907 -0.017904047 -0.30716452 -0.4218497 -0.29085565 -0.2984571 -0.10846418 0.07542898 0.05242942 0.17193635 0.034456924 -0.03340403 -0.06997539 0.008162283 -0.21143441 -0.070214584 -0.0117558185 -0.06600348 -0.042121153 0.20059621 0.21835469 -0.14415413 -0.33702376 -0.20290321 -0.37258324 -0.08878878 0.14969872 0.14639479 0.20541544 0.06855741 0.002122637 -0.09116545 -0.20059164 -0.1378699 -0.006516222 -0.093181625 -0.0956996 0.015159807 -0.018722637 -0.03103609 0.14505635 -0.018256797 -0.27324265 -0.03084347 0.0279998 -0.002075881 0.20714104 0.114812985 0.06799669 -0.041759115 -0.13508277 -0.2905562 -0.22098556 0.12582955 0.12572308 0.033105172 0.10349721 -0.018017992 -0.0378611 -0.22828962 0.115732305 0.10460234 -0.0551116 0.17487139 0.04227314 0.33584258 0.12651272 0.13401344 3.6444416E-4 0.048809905 0.015221358 -0.10913313 -0.08859957 -0.09784954 -0.07676583 -0.014056604 -0.110380955 0.117176525 -0.067138374 -0.24919671 -0.03154569 0.061075926 0.27325198 0.37515476 0.36934516 0.38011366 0.1020972 0.12832041 -0.026328325 -0.097729295 -0.061545745 -0.18294999 -0.17765658 0.11728891 0.11198226 -0.05494318 -0.0111721335 0.11554318 0.12411115 -0.068728276 -0.049854036 0.29464012 0.40751386 0.6239974 0.36886314 0.20738609 0.12183676 0.10849387 0.009404197 -0.026397107 -0.24607761 -0.12813817 -0.07176403 0.033998504 0.08590212 0.0960573 0.019816753 0.117085375 0.058687244 -0.06852533 -0.0027004376 0.45797655 0.6468543 0.69743115 0.4783335 0.22437762 0.11077349 0.026783092 0.041944608 0.100055 0.08610887 0.050304193 0.19373421 0.13491623 0.03592381 0.16326663 -0.05625758 0.13317633 -0.021671 
-0.40036717 0.10061355 -0.09207779 -0.04642648 0.024181055 -0.03697893 -0.25037032 -0.31055194 -0.29486212 0.033002112 -0.004879333 0.19076525 0.122979075 0.117489725 -0.06971555 -0.24349979 -0.024135929 -0.13023426 0.10900278 0.07171019 -0.027278524 0.029014513 -0.10413303 0.007094519 -0.110356435 -0.17134768 -0.36809364 -0.28661564 0.07822971 0.22058515 0.023125459 -0.08246115 -0.09454439 0.016445894 -0.074888304 -0.13958523 0.045546148 0.0071488125 0.060869336 0.024337538 -0.09978388 0.06456583 0.1504301 0.040106755 -0.07045717 -0.32433468 -0.08735746 0.14663479 0.21847117 0.34925985 0.12116766 -0.22282809 -0.12525195 0.09130361 0.10976001 0.11603211 0.022526007 0.023184797 0.15913126 -0.009444871 -0.3139906 0.07581202 0.087899595 -0.20654035 -0.40677273 -0.26212636 0.009741908 0.20198014 0.16347809 0.405474 0.5110337 0.36259216 0.068527184 0.16994807 0.07821348 0.22221622 0.08478423 0.06655725 0.059800066 -0.004254005 -0.22118269 0.14854078 -0.010955038 -0.3647978 -0.20520754 -0.34339586 -0.18578713 -0.15105432 -0.17292435 0.20767437 0.34636036 0.27330306 0.20873608 0.020951772 0.16036898 0.2299862 -0.02033858 0.007825949 0.0018960173 0.0042432416 -0.10781045 0.09990709 0.057425395 -0.06601852 -0.17963074 -0.10472558 -0.046843275 0.07116848 0.065521955 0.3199882 0.17309092 0.18335438 0.13751952 0.20769927 -0.056280363 0.35116646 0.17029053 -0.20670362 -0.25523388 0.030683588 -0.046770547 0.21124332 0.026883218 -0.12567249 -0.18611012 -0.04414613 0.13557899 0.051237535 -0.079517044 -0.052102976 0.16940098 0.19299445 0.20101441 0.18595327 0.18607686 -0.05939826 0.06894625 -0.35246262 0.034288988 -0.10051367 -0.30487525 0.28905556 0.08220227 -0.13284022 -0.08349752 -0.059669368 0.04200846 -0.13403763 -0.20994136 0.19775848 0.21857868 0.2829559 0.25493932 0.07879007 0.06880759 0.04338805 -0.12329279 -0.17374462 -0.4687422 -0.25264087 -0.28999668 0.1366612 0.11363876 -0.10609024 -0.05220296 0.028597362 0.091373585 0.07641646 -0.15527837 -0.16676682 0.024837524 0.18438338 0.09741512 0.08243117 0.28826272 0.18600333 0.050140012 -0.17314361 -0.11329946 -0.28530598 -0.4439211 0.1715465 -0.11526176 -0.12557133 0.03353036 -0.09777433 0.17061493 -0.34255135 -0.5762616 -0.37617105 0.12899742 0.116923764 0.05491532 0.23475924 0.3284297 0.20969819 0.2415553 -0.056276936 -0.0014362938 -0.38271964 -0.3671255 0.113611646 -0.09128517 -0.1351948 -0.17324178 -0.18359569 -0.25087005 -0.3991179 -0.50254476 -0.16834116 0.22455497 0.22959176 0.08019301 0.25105745 0.28999904 0.20098951 0.18881968 0.11511622 0.017452113 -0.44311893 -0.27202776 -0.18797778 0.058119897 -0.045738235 -0.04151727 -0.09534636 -0.39523286 -0.5371585 -0.2891183 -0.15777399 0.15099625 0.22629409 0.12162312 0.2305307 0.21279043 0.28370738 0.50500846 0.29557958 0.03783102 -0.62654734 -0.1738943 -0.03076615 -0.1604085 -0.11881487 0.038302876 -0.16897 -0.33645725 -0.29774138 -0.19451374 0.04461191 0.0822683 -0.08578665 0.27469468 0.24436466 0.045625284 0.096775025 0.473739 0.35374776 -0.23333608 -0.4047132 -0.09132749 -0.19118956 0.1434276 -0.17441316 -0.25653577 -0.4033034 -0.23655412 -0.32228115 -0.031221358 0.14849332 0.007676604 0.03547451 -0.053622603 0.16846816 -0.21493468 0.14461184 0.30341735 0.11107196 -0.1897985 -0.3388681 -0.20739985 0.15839407 0.13319921 0.024138229 0.042209733 -0.13139243 -0.2285539 -0.2573363 -0.16584864 0.19838387 -0.0035456726 9.7215106E-4 -0.26934248 -0.034383003 0.036562987 -0.036905292 0.07920596 0.19494899 -0.02600385 -0.13860486 0.009340016 0.12335481 0.10542903 -0.17460103 0.0021415018 0.029958991 -0.09672196 0.10330238 0.034161475 0.081379056 0.10304857 0.105653405 -0.147435 -0.3223633 0.06915393 0.054593038 0.17279112 0.25453472 0.08355311 0.053581536 0.38133544 0.068947494 -0.064264596 -0.046442967 0.06805002 0.0698066 0.051979523 -0.16939361 0.18347132 0.085411765 0.15075694 0.027108293 -0.14874889 -0.24682233 -0.08072622 -0.034801345 0.20736176 0.21162796 0.17720903 0.15596291 0.37405995 0.26846159 0.12571315 -0.2430906 -0.36290872 0.1051124 -0.10503392 -0.15298922 -0.070594616 0.21184292 0.4037377 0.18738809 -0.09341233 0.087099455 -0.13435999 -0.15500124 -0.04918469 0.14602508 -0.038218297 0.10585593 0.12745528 0.053251985 -0.013743318 -0.088767104 -0.07614386 -0.045803018 -0.24142972 -0.07958139 0.05324597 0.029466286 -0.11682968 -0.1259188 -0.097273536 0.14033398 -0.0074494397 -0.027258093 -0.010542418 0.16128577 0.17527111 0.05620301 0.31553656 -0.0019624291 0.09459909 -0.1262287 -0.17298447 -0.2278339 -0.04963172 -0.233055 -0.17208092 -0.11119171 -0.04925369 -0.06738389 -0.07938764 0.068142176 0.08350333 0.16424964 0.22262722 0.13919906 0.16000874 0.2601036 0.058065623 
-0.41103214 -0.10228257 -0.08185005 -0.09978287 -0.12542428 -0.03541016 -0.16790809 -0.104667276 -0.23268779 0.10503098 0.1272785 0.057648122 0.03860601 0.06547998 -0.0051461277 -0.30886853 -0.06568387 -0.044345643 -0.012580113 0.06983962 -0.12579753 0.088904485 0.10777218 -0.021850444 -0.18982694 -0.07107313 -0.2133512 -0.13769363 -0.019992452 0.3350158 -0.018205369 0.1059815 -0.14714175 -0.002222402 0.020637926 0.077119604 0.064906046 -0.07387148 -0.0050548343 0.007082975 -0.16243872 0.12664287 0.02394382 -0.18222813 -0.24331069 -0.09183218 -0.19993694 -0.0682095 0.1474806 0.041970707 -0.028119316 0.035611253 -0.122987635 0.113858186 0.14065585 0.16489512 0.09300309 0.10186983 0.08214405 0.13207166 -0.29560664 0.13559447 -0.06666335 -0.1126769 -0.40252352 -0.15832661 0.02392514 -0.020798694 -0.0023723512 -0.058440294 0.23684138 0.198725 -0.047090754 -0.08237665 0.1512834 0.07822652 -0.14708929 0.090936825 0.1408849 0.08987549 -0.31882083 0.049755134 0.02900996 -0.18291424 -0.2950607 -0.17706758 -0.023813592 -0.044124126 -0.29796177 0.006175627 0.20626259 0.08465269 0.24136895 0.1469403 0.35059622 0.26092392 0.04220653 -0.13333493 0.13154407 0.093423136 -0.1456654 0.107576385 0.12805949 -0.15072192 -0.23686634 -0.16024803 -0.006716134 -0.07296424 -0.05096493 0.22885548 0.12985918 0.08131446 0.20111382 0.26588023 0.19210666 0.6138173 0.42360565 0.05805814 -0.056500547 0.086160384 -0.09543216 0.012471638 -0.012866572 -0.27957785 -0.24123935 -0.20059259 0.03888732 -0.092951 0.08675914 0.14393106 -0.12545528 0.11938197 0.27744597 0.25171176 0.28056028 0.33424103 0.31145018 0.11254603 0.08113245 -0.0040989043 -0.34523717 0.11366789 0.29923406 0.15751448 -0.08714953 -0.3209688 -0.22247648 -0.24594854 -0.06837041 -0.016788516 -0.05965584 0.2827701 0.121714704 0.14285342 0.38017085 0.28718883 0.105180755 0.21285376 -0.3037092 -0.16646951 -0.22128627 -0.058103245 0.28240034 0.07793989 -0.3574369 -0.3265796 -0.18037875 0.058415696 0.03693226 -0.09961551 0.06533816 0.3340254 0.096728764 -0.09615116 0.28230524 0.35730833 0.25991872 -0.060535777 -0.1411294 -0.14286101 -0.0426701 -0.046714094 -0.020172423 -0.009060162 -0.07962925 -0.14230543 -0.02642181 -0.16841199 0.013866222 -0.022110363 0.119600736 -0.037211787 0.2689472 0.3529934 0.4560766 0.66051567 0.029408349 -0.2846277 -0.019027906 -0.11326919 -0.053819876 0.0108651845 0.2385293 0.012730541 -0.14019755 -0.39434037 -0.103107184 -0.036153276 0.05990969 0.111940265 0.094411425 0.30421197 0.35357544 0.78588134 0.733005 0.30518737 -0.07644964 -0.24013144 -0.3157875 -0.218558 0.1003601 -0.17825867 0.17881767 0.27073866 -0.17553939 -0.3422548 -0.33382934 -0.025460089 -0.114747 0.11100145 0.15895733 0.25494576 0.45564818 0.3759711 0.146856 -0.09481617 0.21687749 -0.01653166 -0.21655321 -0.2771865 -0.03536762 -0.18437777 -0.109101325 -0.20069465 -0.09290737 -0.43690094 -0.3962403 -0.19664602 -0.19399427 0.030098723 0.25526306 0.23146631 0.28287283 0.3924005 0.17676231 -0.1519505 0.0020887286 -0.18502864 -0.15083423 -0.35053465 -0.052867077 -0.3153187 0.01727026 -0.08354675 -0.11328547 -0.28164652 -0.16882463 -0.07572935 -0.1640249 -0.14092262 -0.011796353 0.2989625 0.3046176 0.20057714 -0.1182002 -0.21529551 0.009450024 0.01802912 0.19659351 0.13592273 -0.0066637006 -0.33248296 -0.21786381 0.17325665 -0.011014618 -0.1025958 0.1813388 -0.17148294 -0.2625705 -0.06715382 0.19526154 0.09281809 -0.07040152 -0.05179448 -0.12475608 -0.25627258 0.05919128 0.37450558 0.29383636 0.073938675 0.21993509 -0.015392707 -0.04835379 -0.16646425 -0.038421936 0.16711785 0.10822049 -0.06712804 -0.27864397 -0.20102972 -0.1733236 -3.0893617E-4 -0.22382905 -0.28831172 -0.2587624 -0.0791314 0.14771734 0.54761326 0.23924589 0.1892257 0.34035012 0.089118175 -0.060353514 -0.20299047 -0.3540068 -0.070986584 -0.14143288 -0.40797588 -0.13404778 -0.4456817 -0.10555944 -0.33564574 -0.3397171 -0.33326894 -0.06497387 -0.12804928 0.16043417 0.29749545 0.11550225 0.08621889 0.3798192 -0.049607657 0.106636465 -0.05928943 -0.06669512 0.2203368 0.14184098 -0.07179093 -0.12014202 0.044877276 0.057100147 -0.19953102 -0.16658305 -0.04792267 -0.19255805 -0.17074929 0.053316586 0.21290427 0.05889796 -0.015332474 0.044993 0.043356903 -0.09601069 0.16950622 0.1381092 0.32852533 0.20586245 0.011205561 0.08015887 -0.02092939 0.06400194 -0.18821591 -0.07279118 -0.04434402 0.012236847 -0.09465197 0.005582494 0.21662958 0.18472996 0.20265146 0.2058548 0.071646504 -0.065104455 0.104521796 -0.06978909 0.049418267 0.17438926 -0.14264044 -0.115770124 0.025918059 0.09114286 -0.17284073 -0.27436358 -0.22185789 0.022880845 0.11236769 0.152746 0.113774054 0.22594649 0.043906547 -0.029162291 
0.22076826 0.012779482 -0.07299126 0.1215855 0.1485768 -0.044946373 0.25999516 0.0067562303 0.022559717 -0.15055948 -0.08518121 -0.14484099 -0.16410269 -0.05498424 -0.017988835 -0.026141515 -0.10861306 -0.15823835 -0.17426248 -0.21738793 -0.06670176 -0.13161916 0.030510334 0.042421047 -0.10201292 0.15242273 0.24883322 0.14558862 -0.016865985 -0.03056459 0.062006712 0.14527857 0.0012837455 -0.09238919 0.012823631 0.203466 -0.04172489 -0.037099924 0.058198344 0.029870028 0.12270216 -0.13141312 -0.21444689 -0.23324348 -0.22586589 -0.10690984 0.30768532 0.13587654 -0.10992992 0.13416219 0.21254943 0.11103108 0.27980146 0.05831828 0.0034646858 0.038469218 -0.15973946 -0.034797154 -0.10181309 -0.08228038 -0.1348993 -0.021789933 -0.339841 -0.11211411 0.06934837 0.065858565 -0.14402376 -0.19300152 -0.09873096 -0.0070066843 0.055547453 -0.14823699 0.18334499 0.15760832 -0.0033600044 -0.11063713 0.08440767 0.027627625 -0.29272136 0.003063709 -0.1510962 -0.24407688 -0.10338374 -0.121837564 -0.0057790694 0.1106585 -0.0886523 0.08077895 0.25036618 0.1925754 -0.2871869 0.037418973 0.05158304 0.1767284 0.07982139 0.06399525 0.110531874 -0.028035982 -0.18687432 -0.16047512 -0.15026054 -0.18682587 -0.028627226 -0.09117834 0.08967386 0.39922673 0.16937952 -0.06682278 -0.043421254 -0.21520272 0.107236035 0.11068203 -0.15242001 0.034521867 0.12968649 -0.103153214 0.06730947 0.18030787 0.12629509 -0.12709239 -0.10581375 -0.24987039 -0.1446117 0.15066823 0.38309795 0.21646051 -0.09722012 -0.26008883 -0.29180336 -0.16793664 -0.05896867 0.35918173 0.30214047 0.07978221 0.06797463 0.13464394 0.03200828 0.3392225 0.13383818 -0.047330968 0.07265 -0.33638588 -0.35327786 -0.010095762 0.3332509 0.26638293 0.25206783 -0.006741491 0.03232365 0.008525518 -0.021755306 0.1689428 -0.08385505 -0.058824725 -0.114738636 0.10585956 0.036048207 0.11074624 0.16356803 0.13141552 -0.15154399 -0.26146096 -0.30662188 0.052461743 0.19034846 0.19212814 0.04716334 0.03330514 0.17614642 0.16869794 0.10376618 0.011608531 -0.08877826 -0.5675734 -0.29323462 0.035874225 0.033587135 -0.20523793 -0.0127654 0.29705417 -0.08846136 -0.12902378 -0.1725993 -0.07852333 0.30698487 0.15642452 -0.012809675 0.6267687 0.59405863 -0.007707447 -0.46792907 -0.18353197 -0.4019245 -0.3263474 -0.13035244 -0.32220367 -0.6128046 -0.39287978 -0.08742975 0.38733864 0.17802022 0.12943317 -0.011547528 0.35529542 0.36015144 0.19602719 0.3113585 0.48566642 0.1618393 -0.009415773 -0.42902622 -0.34504667 -0.41868204 -0.027950235 0.19012041 0.3443777 -0.23038894 -0.39802128 0.02153907 0.26365018 0.12244782 -0.114717714 -0.37086326 -0.14986996 0.3361129 0.100317165 -0.18349367 0.41918662 0.27060285 0.09893794 -0.261601 -0.0814663 -0.017567525 0.20925382 0.20609644 0.12297083 -0.4365014 -0.31021306 -0.17071432 0.2985221 0.26305005 -0.1610158 -0.24614455 0.1333232 0.072672315 -0.022800371 0.18242137 0.3748962 0.060237035 -0.33673388 -0.3300296 6.673974E-4 -0.11125769 -0.18716227 0.058777045 0.07308335 -0.25424886 -0.4188916 -0.13221544 0.23464103 0.06093387 -0.19276527 -0.39787942 0.20730391 0.3056663 0.1809307 -0.10816727 0.059283957 -0.0442159 -0.37398943 -0.3276416 -0.36318633 -0.03705182 -0.11346862 0.057219867 -0.262169 -0.18074371 -0.11577729 -0.23910911 -0.15827735 0.22628638 -0.08129515 -0.19515456 -0.017546438 0.11472804 0.014384577 0.1305312 -0.11062436 -0.12960869 -0.12355716 -0.5132771 -0.47897637 0.042788383 0.005739464 0.102320395 -0.059719175 -0.05296821 -0.38344532 -0.12623337 -0.18460159 0.062844634 0.021790415 -0.09590638 0.27994734 0.11695979 0.32186463 0.22207113 -0.05354057 0.07856175 -0.2328272 -0.16229327 -0.43743333 -0.11170221 0.05719215 -0.07731238 -0.10678609 -0.3464054 -0.30387828 -0.22541529 -0.04123344 -0.20590444 0.024158409 0.20407309 0.09657133 0.261046 0.2849592 -0.12303535 -0.013517214 -0.2445497 0.04942312 -0.14265767 0.08134234 -0.006030159 0.081308335 0.052087057 -0.03563177 -0.35391304 -0.28076467 -0.18525653 -0.19389316 -0.19362365 0.14560392 0.034508247 0.22848743 0.29841608 0.13096836 -0.098468214 0.06848574 0.18181343 -0.16995361 -0.2408315 -0.10601912 0.083857566 -0.22628361 -0.16292444 0.083008505 -0.092173696 -0.24130866 -0.09452894 0.024781734 0.10077411 0.011897036 0.05096743 -0.0030905555 0.085634984 0.034156926 -0.00804929 0.07387008 0.033869144 -0.14209624 -0.07979053 0.08659825 0.082258195 0.0033537 -0.17481567 -0.3207257 -0.13031119 -0.19453609 -0.15106513 -0.07204166 -0.084881954 0.06500119 -0.056056224 0.25951245 0.23165707 0.4271865 0.15078665 0.20614658 0.02006505 -0.20455246 -0.010364843 0.3121667 0.15247765 -0.18711407 -0.0013582961 -0.29975605 -0.28934714 -0.06764157 -0.1887257 0.009301479 -0.15283765 
0.6730946 0.03679666 -0.027624648 -0.20628458 -0.36785385 -0.4294495 -0.38698226 -0.15021652 0.13119695 0.036488388 -0.044860736 -0.032107275 0.1390934 0.013247992 -0.18871103 -0.21996033 -0.061554983 0.015164042 -0.22834231 0.054815635 0.055270698 -0.059013393 -0.123766884 -0.1417057 -0.28730056 -0.112583295 -0.022402352 0.20761946 0.27327135 0.09820098 0.007201218 0.19508472 0.11374548 0.12700877 0.13313366 0.042977627 -0.029581683 -0.060477592 -0.018620484 0.095157795 0.08379922 0.06325133 -0.26284787 -0.26235136 0.04131438 0.049075544 0.25543925 0.28384474 0.36394247 0.20294873 0.13478793 0.3378215 0.40275785 0.2505827 0.27479658 0.231295 0.21469179 0.07191364 0.23981649 -0.07056131 -0.109191045 -0.04771944 -0.28944838 -0.1779936 0.27738148 0.033558846 0.13873112 0.20704117 0.46029857 0.25894693 0.0050123613 0.054934274 0.048986778 0.0384497 0.22974743 0.26717603 0.3481717 0.46592936 0.16965787 0.1335956 -0.004038151 -0.14998391 -0.2798377 -0.054888513 0.30505735 0.27245143 0.24193573 0.4850744 0.4197948 0.24494398 -0.24265492 0.030281505 -0.10560034 -0.0497183 0.16522722 0.1747723 -0.0052715233 0.14856249 0.39677435 0.026008015 -0.100745946 -0.09408209 0.05953283 -0.113853484 -0.11399885 0.29810798 0.5528159 0.55875856 0.12209938 -0.16113171 -0.0334969 -0.43689632 -0.24372241 0.24095377 0.34257677 0.06760989 0.13484336 0.32612368 0.49313 -0.12960993 -0.25456905 -0.12898935 -0.19445753 -0.22487785 0.051381063 -0.12742053 0.33810705 0.45280766 0.14886199 -0.29043666 -0.20331492 0.027836464 -0.008574838 0.2508188 0.75510097 0.22364305 0.050494794 -0.03254982 0.01710824 0.15169759 -0.07307766 0.053167883 0.08002227 -0.25205523 0.105325125 0.03918243 0.40100902 0.37669054 0.29321826 -0.10291556 0.19749562 0.03324712 -0.04099278 -0.019840032 0.6497484 0.55977315 0.21369703 -0.26491153 0.04688048 0.055826306 -0.14519513 0.0142000355 0.05807119 0.13325864 0.16001143 0.10482344 -0.0911123 0.0050147767 -0.36434445 -0.58188504 -0.045456614 0.11993542 -0.07515472 -0.28620052 0.40366003 0.683587 0.19526567 -0.44578972 0.26089877 0.108490385 -0.09372118 -0.055805642 -0.25543013 -0.1704706 0.31222668 0.25847635 0.16320919 -0.13862397 -0.294501 -0.75987285 -0.25797462 -0.030254759 -0.21067902 0.213266 0.58914447 0.5522645 0.02741228 0.119509645 0.19446985 -0.17478903 0.04598052 0.15224767 0.0040597115 0.34909934 -0.026193835 -0.15748307 -0.24040604 -0.37003306 -1.0692695 -0.40374517 -0.2995441 -0.19619998 -0.24843277 -0.40780246 0.17068546 0.385571 -0.020037016 -0.14133322 -0.03930017 -0.05034153 0.11933712 -0.33469263 -0.023799665 0.28431213 0.39075154 -0.02238881 -0.31410265 -0.24936517 0.21125394 0.068564974 -0.11360271 -0.14237219 -0.28610128 0.22345228 0.31003588 0.0866725 0.16630332 0.124311864 -0.14452115 -0.25252897 -0.009935934 -0.21958937 -0.092957176 0.25644296 0.17002372 -0.16316628 -0.612513 -0.311336 0.3075836 0.0929314 -0.14194825 0.016025443 0.23463663 -0.010262817 0.210212 0.31058404 0.14891645 0.06733846 0.1608181 0.26319888 -0.020741154 -0.15204754 -0.22926599 0.2368093 0.05343423 -0.06828534 -0.12617059 -0.051992465 -0.14168163 0.0019686182 0.043186467 0.27347758 0.22625493 0.022829141 0.06669026 -0.04656917 0.055066224 0.19405943 0.1781208 0.008281218 0.08341613 -0.27876347 -0.13806555 -0.011067249 0.10498471 -0.022277782 0.054220874 -0.049202472 -0.003594629 -0.06395309 0.26447836 0.013608808 0.025098912 -0.06306027 -0.054774053 -0.021933386 -0.059355162 -0.21078035 -0.050434127 0.13250805 0.076161735 -0.06236781 -0.011062272 -0.018985948 -0.09929462 0.063182294 0.2732801 0.13994376 0.19781391 0.1111817 0.35620436 0.13581869 0.07555581 -0.24568093 -0.2802817 -0.19269939 -0.15028104 -0.109892495 0.03866565 0.15446396 -0.08228161 0.15712354 0.51189643 0.13999473 0.12503226 0.08949076 -0.09365293 0.0725161 0.10202105 0.34501797 0.046003178 0.08258098 0.044964015 0.117325276 0.15959805 0.056657396 -0.28323585 -0.14223732 -0.025214043 -0.094160475 0.14581831 0.22913697 0.66885346 0.51086724 0.29202497 0.20239931 0.18671548 0.3649669 0.34001136 0.3066597 0.11160973 -0.30168995 -0.19083056 -0.085078396 -0.21718793 -0.36223996 -0.027354268 -0.066077724 0.09405347 0.17013882 0.2863287 0.13104281 0.4132641 0.52314943 0.56207323 0.616744 0.26845565 0.3567079 0.082646176 0.25231245 0.13543719 -0.009636521 -0.2998125 -0.10777755 -0.37659308 -0.3390059 -0.021385822 0.021051995 0.038426355 0.17307323 0.07072995 0.12708132 0.22975868 0.5914892 0.49814734 0.71096087 0.41263756 0.3296328 0.15676817 0.14142033 0.16233721 -0.043015033 -0.047065977 -0.1704944 -0.03967738 0.27788895 0.25380892 0.22562207 0.18860923 0.12748863 -5.9369986E-4 
-0.46598002 0.030178735 0.0050012907 0.16610046 0.100110345 0.08046392 -0.030257931 0.1561352 0.024065373 -0.10355494 0.08132102 -0.042668827 0.13976052 0.06361085 -0.13128975 -0.3168337 -0.14870842 -0.20476495 -0.1557644 -0.14449129 -0.114976704 0.011820717 0.08664693 0.25627196 0.08811552 0.043602113 -0.032043517 -0.0012270894 -0.12014973 -0.21053904 8.5866894E-4 0.2933452 0.12738767 -0.016721498 -0.24696662 -0.21174203 -0.2604403 -0.43118244 -0.19375128 -0.1171449 -0.045704674 0.07763313 0.04193278 -0.05753458 0.14369428 -0.04400846 -0.056776863 -0.27648893 -0.16975157 -0.13357456 -0.0121972 0.23106353 0.08011276 0.041038103 -0.12426178 -0.28598452 -0.44115666 -0.30117488 -0.480014 -0.49211618 -0.24741413 -0.032099854 -0.123557344 -0.031103922 0.09611553 -0.11100767 -0.09904492 0.23416002 0.03860723 0.21504346 0.27990168 -0.052991826 -0.050632264 0.027757429 0.1166966 -0.34283158 -0.48394293 -0.43067527 -0.31829444 -0.324023 -0.1107841 -0.027149877 -0.047948807 -0.02957585 -0.09949316 -0.31226453 -0.09658718 -0.1358776 8.8899414E-4 0.09319685 -0.073446475 0.09098181 -0.17099869 0.039304912 0.20843627 -0.02832951 -0.5933491 -0.49580264 -0.3551061 -0.20668747 -0.22700569 0.054711968 0.054899644 -0.2285222 0.17698248 -0.13148655 -0.36488104 -0.21233061 -0.2077627 0.007952211 -0.0027162984 -0.049454283 -0.028923435 0.05017036 -0.08980696 0.013710367 -0.25934565 -0.17459576 -0.070037246 -0.17348768 0.0763682 -0.1412489 0.010380467 -0.07632076 -0.13585618 -0.31063032 -0.2287486 -0.2974163 -0.13579153 0.21061307 0.006291739 -0.007795979 0.18868795 -0.063555524 -0.13890865 -0.019600863 0.0016110794 -0.04021907 0.016481375 0.08231762 0.1258515 -0.026711248 0.027181804 0.13636974 -0.039013818 -0.33261496 -0.44523466 -0.18844345 0.14032921 0.4564588 0.28366652 0.34056452 0.30984136 0.45047167 0.1433834 0.35656914 0.20860505 -0.09924027 -0.07742305 -0.028534777 -0.052362837 -0.16951045 0.079397105 0.015140321 -0.25717327 -0.21968372 -0.25062194 0.040947955 0.08417758 0.24356762 0.3422716 0.2734726 0.37277734 0.06908095 0.099266 0.109569095 0.16302882 0.31126332 -0.024709204 -0.44456008 -0.35937786 -0.3686304 -0.039525397 -0.0066132545 -0.23179464 -0.09490464 -0.2789596 -0.34068412 -0.049749743 0.2168436 -0.003271851 -0.25231135 -0.04984252 -0.058281474 0.09352031 -0.021443285 -0.07670171 0.02111312 0.042856235 -0.32227927 -0.35146564 -0.14292637 -0.14761612 0.02180293 -0.29012495 -0.41814223 -0.32234567 -0.30913782 -0.21175495 0.13584836 0.04148106 -0.13471292 0.12852328 0.058217768 0.11792089 0.0813213 -0.11479596 0.281021 0.21988942 -0.2866975 -0.30514163 -0.08799359 -0.14603996 -0.30400184 -0.5288971 -0.5429639 -0.3392578 0.030369341 0.13299473 0.37942597 0.24334642 0.17599064 0.35963437 0.35975832 -0.124871984 0.057632755 0.41777298 0.60660154 0.27504733 0.12441319 0.0742413 -0.0814699 0.23522267 -0.10852121 -0.6445377 -0.51358694 -0.35863718 -0.21781118 0.27957907 0.5673632 0.23414887 0.2357355 0.27323782 0.10526273 0.28953218 0.12427867 0.2841095 0.28220704 0.18286501 -0.06574004 -0.18148854 0.11891993 0.091688484 -0.2591216 -0.3473896 -0.4580794 -0.48788682 -0.10872875 0.24107252 0.20912552 0.36303982 0.2412932 0.009899787 -0.07510094 0.17169511 0.119166605 0.09616589 0.36008614 0.07189267 -0.058834013 -0.10308706 0.05344942 -0.13907188 -0.21256043 -0.15739009 -0.49024075 -0.28220603 -0.19948043 -0.1518678 0.03222513 0.11595041 0.19446033 -0.108553484 -0.1132803 0.040724486 -0.10942142 0.1368797 0.3309411 0.1533387 -0.093615435 -0.12866758 0.10933995 -0.20070162 -0.28299662 -0.28055 -0.1746448 0.0021495288 -0.14689091 0.01783122 0.0074604987 0.24806187 0.09791364 0.06502094 -0.12963761 0.016941195 0.04637679 -0.109028086 -0.12125222 -0.16655523 -0.26551113 -0.10591638 2.1944747E-4 -0.036455717 -0.22783104 -0.19817781 -0.31778666 -0.42314774 -0.096561864 -0.08086181 -0.013591007 0.27196115 0.25949892 -0.10148407 -0.040711354 -0.07046625 -0.06618819 -0.017209524 -0.09945891 -0.35641336 -0.1840054 0.010552681 0.03660194 -0.17219064 0.034258593 -0.09799991 -0.11294548 -0.039757513 -0.06858832 0.17850661 0.30897135 0.20539328 -0.012538218 0.021335589 -0.11533306 -0.27149603 -0.20126465 -0.07147154 -0.11968864 -0.27454334 -0.16139124 0.033416167 -0.07342825 -0.06659091 0.21882835 0.12122957 0.08763662 -0.058950625 -0.027527021 0.16584323 0.20271869 0.11841704 0.15542373 0.18230551 -0.03186639 -0.3276172 -0.26791435 -0.36779752 -0.09273337 -0.16626607 0.016947543 0.055009283 -0.11154007 0.091265984 0.21908289 0.13096675 -0.18327498 -0.38677445 -0.080258004 0.09102426 0.121449456 0.21382815 0.20666431 0.10654337 -0.27392477 -0.17129628 -0.15541874 -0.16624929 -0.090987265 -0.10019263 0.04728045 0.13780327 
-0.08394952 -0.11549612 -0.11800684 0.082427 0.11339258 0.15323836 0.09945007 0.24042033 0.24194577 0.07895131 0.09129546 0.006944478 0.11465753 0.020156367 -0.048540417 -0.19045871 -0.21855569 -0.005455026 -0.029614378 0.02506178 0.08978783 -0.104383 -0.12980254 -0.106079526 -0.1390429 -0.07403941 0.12811808 -7.0839684E-4 -0.09465949 -0.10757178 0.16044156 0.010979623 -3.7479383E-4 -0.1284308 -0.1478343 -0.07012826 -0.31901407 -0.13666718 -0.20140404 0.07822132 0.29510087 -0.047546335 -0.023414958 -0.03272227 0.11653751 -0.057521477 -0.015358446 0.11803142 -0.060080834 0.034055546 0.035279166 0.08396165 0.07532304 -0.2769982 -0.4904438 -0.42420235 -0.4744154 -0.1488317 -0.057938445 -0.012153542 0.26126862 0.012098945 -0.16429521 0.1616004 0.25864118 0.1628653 -0.016885012 -0.11503429 0.019586166 0.10473303 0.14858401 0.038720183 0.066775404 0.10339865 -0.312128 -0.6392812 -0.41518456 -0.3949783 -0.24583241 -0.040720556 0.21493803 -0.08737601 -0.027608572 0.2963844 0.072950035 0.061270695 -0.01929664 -0.13898297 -0.0741139 0.13016737 -0.20700629 0.09071275 -0.013009068 0.08527637 -0.2058054 -0.5222175 -0.42941347 -0.49504763 -0.20639545 0.11028313 0.1034341 -0.16814218 0.07942365 -0.10144423 -0.18481366 0.11545684 -0.056516446 -0.20875497 0.039348077 -0.1860276 -0.25644463 -0.08673633 -0.06573789 0.00993806 -0.04501822 -0.4319926 -0.75453156 -0.42451644 -0.009889868 0.18663819 0.072419584 -0.21484312 -0.06739374 0.0688952 -0.097758 0.030073421 0.11136608 0.13542014 0.15487145 0.25124735 -0.05568289 -0.15540598 -0.0990563 0.22271462 -0.20196453 -0.4506918 -0.4772446 -0.5166179 -0.20645097 -0.021068739 -0.18961264 -0.19909503 0.030008389 0.022463514 0.06479209 -0.13589528 0.054920383 0.04104616 -0.091660105 0.06527186 -0.27645648 -0.047966283 -0.019248858 0.11285569 -0.18749674 -0.2753524 -0.57195836 -0.5687749 -0.2881518 0.22752176 0.072878875 -0.1174489 0.09302994 -0.041807745 0.021609839 0.059230708 0.022165515 -0.1221273 -0.116924115 -0.19455765 -0.5480356 -0.022071855 0.0705588 0.29470187 0.20473775 -0.076103486 -0.6011726 -0.49751994 -0.20980713 -0.27265638 -0.1454908 -0.30338892 -0.22326094 0.022871383 -0.03971612 -0.084036484 0.16247907 0.25151977 -0.34743795 -0.43325934 -0.3766728 0.2591552 0.0033348245 0.012371284 0.111905806 -0.19840865 -0.339959 -0.48681 -0.20075321 -0.35313267 -0.10228867 -0.32459605 -0.295499 -0.22386834 -0.045734804 -0.2519466 -0.04687017 -0.28333253 -0.35842744 -0.033964664 0.19999257 0.47054425 0.1383021 0.06430141 0.11375974 0.2634002 0.0013917009 -0.14783557 -0.37867424 -0.24853821 -0.39274415 -0.32994255 -0.3830547 -0.17857634 0.12827212 0.101205654 -0.12241574 -0.3022483 0.1819041 0.23466155 0.4264659 0.34577695 0.031353932 0.28350985 -0.07312661 -0.30336484 -0.0725872 -0.08218329 -0.3166621 -0.11588713 -0.2653695 -0.32469553 -0.23941562 -0.058003545 0.20686625 -0.0841741 0.081142746 -0.07354959 0.2255769 0.30715212 0.22396651 0.43809655 0.2462126 0.11533426 0.03872767 -0.22491275 -0.16710243 -0.17257988 -0.21007264 -0.11529068 -0.29919937 -0.029904027 -0.11996852 0.1658843 0.298617 0.03371748 0.09571625 0.06762028 0.53883135 0.4003351 0.4713215 0.44358903 0.36424392 0.04000925 -0.0040071923 0.17905127 -0.03474037 -0.086135656 -0.2036173 -0.15618841 -0.23393032 0.014722054 -0.13218413 -0.075356096 -0.19293633 -0.18300149 0.13723323 0.3042434 0.46884516 0.26273313 -0.0095443 0.2870427 0.3531616 -0.012064904 0.11177645 -0.13353616 -0.03828081 -0.25126353 -0.14555447 -0.15966743 -0.16191714 0.03876801 -0.23684642 -0.24228165 -0.2175094 -0.107847214 0.018405456 0.30121255 0.32632712 0.18811557 0.2361907 0.26075718 0.4039385 0.021227596 -0.056586366 -0.13117695 -0.2164999 -0.25108492 -0.2765779 -0.33532694 -0.2625536 0.061346762 -0.09967284 0.050248917 0.15323837 0.15285785 0.2621386 0.13905989 0.19367455 0.37246215 0.10927889 0.23789114 0.211438 -0.15817945 -0.3143852 -0.2604232 -0.19304174 -0.30809596 0.051488634 -0.272815 -0.21249455 0.11428412 -0.013468031 0.1833407 0.16295622 -0.049673915 0.09649247 0.26885247 0.12166181 0.041985434 0.06268728 0.06605542 0.1143613 -0.23331386 -0.59974927 -0.36882487 -0.18534198 -0.27750045 0.0065796115 -0.07905071 0.025169967 -0.04549569 0.057960834 -0.17621405 -0.061500728 -0.14049253 0.14307266 0.15942517 0.061457727 -0.02609808 -0.0067867725 -0.046078637 -0.12888774 -0.22147204 -0.4843993 -0.42680168 -0.27409738 -0.18058987 -0.2826448 -0.28517506 -0.09218548 0.07820626 -0.07878823 -0.027337426 -0.24333628 -0.032630697 -0.22347024 -0.016852394 -0.2641014 -0.28153184 -0.33548346 -0.29452685 -0.26099902 -0.3535154 -0.14173818 -0.4273217 -0.27482978 -0.2033587 -0.017444164 -0.02088673 0.09397023 
