3
25 401 
-0.89020336 -0.0748071 -0.051635418 -0.05281831 -0.103598386 -0.026317673 -0.05479442 0.10005834 -0.05657827 0.03830352 -0.040521692 -0.088667564 -0.1001337 -0.022256112 0.03058657 0.0039402954 -0.056535903 0.0058700247 -0.021349031 -0.02513824 -0.0823099 -0.079598784 -0.09920244 0.028974155 -0.09428166 -0.13700381 -0.03679768 0.17331517 0.22927573 0.23952377 0.09550682 -0.015037738 0.003745371 -0.28639376 -0.26122975 -0.11453094 0.020088345 0.13394399 0.15463027 0.2042207 0.18953553 -0.0786558 -0.045936476 -0.07315573 0.08344635 0.060956523 0.24409539 0.20731954 0.4226849 0.24873732 0.07473726 -0.04889058 -0.26564634 -0.15844606 -0.39167595 -0.23360129 -0.029246403 0.06043635 0.21114817 0.2604879 0.11144028 0.033167236 -0.016752962 0.00901131 0.3461375 0.32680765 0.28449205 0.27007252 0.29045752 0.043539084 -0.2611618 -0.20091265 -0.21798593 -0.23479868 -0.3142961 -0.17810966 -0.05813396 0.050498866 0.29169592 0.15392208 0.2529612 0.047686733 -0.19110745 -0.12627108 0.10104722 0.3091835 0.16482067 0.3255537 0.16544457 -0.07387953 -0.17360641 -0.11718754 -0.40440336 -0.3640329 -0.4429497 -0.14745568 0.07882385 -0.12546705 0.22675203 0.18808518 0.39528626 0.031299673 -0.17398223 -0.027827848 0.17074363 0.41595018 0.5734277 0.43586454 0.09686037 -0.19559392 -0.28685305 -0.2779622 -0.33620408 -0.1690718 0.03229439 -0.14667912 -0.14765 -0.076096974 0.13630159 0.25129008 0.15294355 -0.059904333 -0.16567054 0.025091888 0.42334414 0.39192322 0.24937367 0.26402652 0.07740183 -0.03196933 -0.30024868 -0.0027819334 -0.14747876 -0.07755034 0.1521235 0.14347312 -0.15612316 0.12391552 0.05282427 -0.02948288 0.2943564 0.055010147 -0.22844498 0.089122355 0.3265171 0.27123412 0.11557819 0.22659193 0.24919754 -0.22604662 -0.5278974 -0.41519943 -0.30488712 -0.11502445 0.10460581 -0.005722474 -0.08217047 -0.21911497 -0.12535673 -0.118674345 0.44502658 -0.11114721 -0.15374799 0.2645646 0.696042 0.52796733 0.46672535 0.20308909 0.094862215 -0.35556847 -0.519706 -0.398304 -0.038399734 -0.22276543 -0.24498977 -0.31099498 -0.5046061 -0.23178467 0.12814817 0.18890293 0.20433341 0.034414627 -0.021949744 0.23556237 0.59450907 0.5190865 0.43674034 0.52109694 0.17733058 -0.57703894 -0.42080575 -0.22451848 -0.20819001 -0.2758408 -0.2730851 -0.4396604 -0.46332428 -0.18647179 -0.067081414 -0.08614405 0.23637551 0.007853974 -0.16305831 0.32390177 0.45013833 0.73225117 0.78994995 0.55360186 -0.12847248 -0.29897848 -0.11770876 -0.11764617 -0.33271375 -0.6832556 -0.12712584 -0.45502526 -0.44238883 -0.10878462 0.10002118 0.030593043 0.12900019 -0.047617685 0.04923075 0.29787183 0.7235946 0.5759181 0.5642263 0.09052285 -0.053661898 -0.08599785 0.11852707 -0.18512133 -0.3536777 -0.16214204 0.15790023 -0.08694163 -0.44557783 -0.25216535 0.26427513 -0.15143089 -0.22745588 0.017018188 -0.13204828 0.39766556 0.6968226 0.54814065 -0.1358062 0.03364984 0.13942882 0.101038724 -0.06480802 -0.22993289 -0.101167835 -0.06036535 -0.46294054 -0.053354166 -0.2171355 -0.14017229 -0.116576925 -0.17575747 0.1781798 0.024837958 -0.16129972 0.35006803 0.34952334 0.45499682 0.087818444 0.022704983 0.28335065 0.33147544 -0.27723354 -0.06164192 0.24988131 -0.2554141 -0.30897993 0.035679787 0.012669845 -0.049606428 -0.056812286 -0.2114711 -0.023214456 -0.044577345 -0.15671013 0.08490247 0.19643417 0.43753678 -0.0054216743 0.17761298 0.3839562 0.23064846 -0.07638604 -0.080448456 0.08717228 -0.19928165 0.0016890649 0.066886485 -0.037758768 0.03350934 -0.25700095 -0.47893956 -0.07812937 0.066169165 -0.11845966 0.32819605 0.29603165 0.32965457 0.10060958 0.170421 0.19841847 0.3399839 -0.049394883 -0.16817747 -0.1141412 -0.37587857 -0.12663642 0.013981517 0.3460021 0.12585613 -0.18518363 -0.2476934 -0.0805982 -0.040135853 -0.16041242 0.056045607 0.3047406 0.13752136 0.19699703 0.2219494 0.5313323 0.22198202 -0.1171156 -0.29455233 -0.17096607 -0.36965004 -0.13878983 -0.011345815 -0.13024698 -0.15938114 -0.2518909 -0.14258885 -0.09139316 0.06460076 -0.09445619 -0.13142623 0.15741485 -0.003817985 0.06070292 0.10694274 0.24043971 0.09818723 0.05912266 -0.18950632 -0.099719025 -0.18320745 0.03755217 0.070076585 -0.020049123 -0.08485287 -0.1768507 -0.04712084 0.0017560999 -0.10210703 -0.23631123 -0.20570318 -0.17252482 -0.15836841 0.004712232 0.19468068 0.12664056 0.13866167 0.22379 0.049525294 -0.17004223 -0.26361048 -0.086487435 -0.018281175 0.07273398 -0.055886433 -0.031447187 0.0695818 0.10317689 0.008452667 -0.2012018 -0.14325726 -0.2225889 -0.08657496 0.1774179 0.24561219 0.31229693 0.37488675 0.2651983 0.08138421 -0.013735523 -0.05593815 -0.1354372 -0.17157488 0.0938083 0.03105272 0.14404607 0.034203265 0.07130274 
-0.07494394 -0.07155857 0.024445692 -0.07853169 -0.09719195 -0.060445048 0.057212852 0.043712724 -0.09652435 -0.05695292 0.008740694 -0.0096373195 -0.04956732 -0.0024676821 0.043776464 0.11759814 0.06094504 0.065423034 -0.024572806 0.109542355 0.029041765 -0.08863525 -0.01584498 0.019680167 -0.08490661 -0.07740655 -0.2039472 -0.19158725 -0.10030555 -0.114717185 -0.12099578 -0.2322914 -0.15151067 -0.11526669 -0.08427407 0.12953115 0.21191753 0.21143627 0.08191086 -0.039976187 0.044268977 -0.033335675 0.032508135 0.02373804 -0.041751545 -0.0990109 -0.0013960474 0.1363621 -0.010118592 -0.075539514 -0.09908727 -0.22658552 -0.30394122 -0.36103478 -0.062352225 0.12004667 0.1189167 0.17057735 0.17522453 -0.096658535 -0.0907183 -0.06614985 0.061836462 -0.013079845 -0.04833216 -0.068844184 0.082344964 0.066290446 -0.0156777 -0.03815861 0.099949665 -0.037910767 -0.2027161 -0.43777138 -0.05493099 0.1115543 0.034662314 0.15044346 0.06859895 -0.044962555 0.06208689 0.028777422 -0.08613917 -0.0034288554 0.049269035 -0.059430666 0.12463815 -0.13776545 -0.13869783 -0.14765912 0.1810627 -0.09408542 -0.099525 -0.38815463 -0.06712679 -0.2157656 -0.0098976465 0.21011545 0.20077416 -0.016845448 0.031978145 -0.07529385 0.008090267 -0.017779257 -0.09569596 0.07059254 0.05980941 -0.13197327 -0.032152593 -0.04409209 -0.117577545 -0.021405185 -0.024790568 -0.15038852 -0.3354269 -0.12025194 -0.07997418 0.022641025 -0.12185678 -0.15402834 0.0024579032 0.061790332 0.007458172 0.15053675 -0.09123183 0.09230514 0.14020613 0.11434707 -0.043840773 0.067923486 -0.11457668 -0.058587898 0.08756615 -0.115326785 -0.2074494 -0.15177365 -0.14585567 -0.16768573 -0.11015142 -0.023425018 -0.115649804 -0.0477718 0.054162826 0.10006901 0.04422906 0.18882778 0.07140461 -0.044655558 0.07916252 0.03883847 -2.7143036E-4 -0.031973876 -0.04427315 -0.05908565 0.034216985 0.067469336 -0.08738423 -0.011688037 -0.18499099 0.048333365 -0.04919744 -0.045705218 0.16534974 0.10189677 0.07307833 0.19818129 0.02598148 -0.070604615 0.1676335 0.061281152 0.12495935 0.048694387 0.23659153 0.37764522 0.14450575 0.040905785 0.08275588 0.060188334 -0.060999025 -0.14463116 -0.13001047 0.12911576 0.14240997 0.041549988 -0.09428538 0.026723068 0.10008265 -0.004010275 0.085686065 0.3458099 0.32387784 0.19604626 0.58762723 0.54804784 0.13373694 0.15337294 0.2826016 0.26419583 0.06100245 -0.076790914 0.02626909 0.10780771 0.17751172 0.04349264 0.0011128761 0.26214597 0.13636789 0.23126003 0.25346574 0.43993822 0.6712033 0.56585675 0.48357454 0.27295765 -0.17444168 0.054421257 0.44071186 0.21911713 0.0808074 -0.0025399935 0.10358808 0.12968338 0.043067116 -0.055600483 0.16689694 0.24964932 0.23235805 0.16846515 0.49775228 0.5048681 0.6421034 0.30153823 -1.7566455E-4 -0.27543995 -0.16474874 0.09996629 0.28985566 0.038057927 0.08414093 0.085243 -0.020807682 0.0977924 0.19878829 -0.08105951 0.21843994 0.14718942 0.08518673 -0.007617411 0.20416103 0.08938145 0.08227539 -0.0057816333 -0.07665197 -0.15694964 -0.04462284 0.16043834 0.1725292 0.13708754 0.13766143 0.08284921 0.06745306 -0.04471565 -0.012719887 -0.103780285 0.004530631 -0.17172894 -0.2331816 -0.4797469 -0.15520388 -0.18364094 -0.23485248 -0.14659911 -0.029769624 -0.27919173 -0.19022039 0.026365928 0.017355338 0.12198841 0.27818063 0.21669436 0.029185984 0.026292995 -0.06648218 -0.119046785 -0.23420987 -0.38824856 -0.4337618 -0.31992623 -0.29438317 -0.14851148 0.04379199 -0.035642844 -0.099705756 -0.3003979 -0.2225095 -0.19307262 0.10652978 0.11422084 0.1357106 0.14144722 -0.002993981 0.11933992 -0.016225966 -0.23468222 -0.25395408 -0.16895983 -0.11982226 -0.032130398 -0.23894516 -0.011728305 0.050679903 -0.20803906 -0.012815782 -0.25027826 -0.23513436 -0.044902723 0.3018472 0.1900296 0.15744096 0.1671956 0.06244718 -0.019758346 -0.021071453 -0.022995843 -0.11677675 0.0043730815 -0.075819016 -0.068822846 -0.16876061 -0.057020754 0.036921743 -0.18810324 -0.15083347 -0.21294327 -0.11078126 -0.041588012 0.17327447 0.081561975 0.0026522565 0.037078153 0.07329995 0.051293023 -0.073573686 -0.21282023 -0.038001534 -0.0058534103 0.09871158 -0.1799096 -0.3703601 -0.19481213 -0.06481363 -0.091723055 -0.10810051 -0.110457666 -0.16342251 -0.06525548 0.0516944 0.0360911 -0.020656254 -0.009061913 0.045898598 0.08755688 -0.096327394 -0.026334142 0.20752202 -0.030112984 -0.10513282 -0.30888513 -0.3347299 -0.13335632 -0.25111243 -0.16056469 -0.16315372 -0.20952861 -0.23014456 -0.036808882 0.26457262 0.09547833 0.1394709 -0.029366389 0.036353327 -7.072303E-4 0.07261191 0.061782286 0.23832287 0.20214806 -0.097558506 -0.16113049 -0.24463528 -0.29488444 -0.31569353 -0.17375696 -0.11358862 -0.05546794 -0.09243557 -0.033523314 0.14233036 0.10218733 0.12708579 -0.021481942 0.06619477 
-0.32621995 0.04155655 0.027106607 0.03423157 -0.0146453995 0.08522449 0.10741372 0.029767616 -0.07435054 0.09803929 0.017821161 0.047001597 -0.10586698 0.0012382308 0.043711357 0.038098354 -0.06544254 0.06871715 -0.0596745 -0.0867604 0.05846144 0.081087515 -0.0596195 -0.011457178 -1.5953966E-4 0.022343714 -0.027194578 0.004156723 -0.029972011 -0.09390389 0.016532263 -0.01880809 0.017616846 -0.021447215 0.076515675 -0.03534248 0.12948786 0.05720303 0.006880159 0.07867495 0.27954975 0.07419895 0.040234517 0.09774059 0.062318236 0.08583497 0.011112855 -0.09885707 0.07280805 0.14390782 0.06333567 0.09601567 -0.10891093 -0.017726818 0.0025862071 -0.03468489 -0.09107164 0.03498783 -0.030328924 0.062042262 0.19974515 -0.01529633 0.18725355 -0.00962342 0.17621514 0.12950803 -0.09456915 -0.113590755 0.06775011 -0.07593077 0.02712931 -0.12396593 -0.18983597 -0.047367245 -0.093817264 -0.09195706 0.095272586 0.0056446744 -0.22018488 -0.32024392 0.17732169 0.041727223 -0.013770591 0.093908735 0.03413866 0.068146326 -0.023302909 -0.05602725 0.054672886 0.10548822 -0.09634062 -0.12314067 -0.29348397 -0.1119701 -0.22555672 -0.20613527 -0.059188485 -0.13770811 0.025634207 -0.053736538 0.29864287 -0.05727986 -0.044449642 0.12917826 0.19487782 -0.04019433 0.06815374 -0.11937946 0.049058165 -0.09071664 0.15198836 -0.07996685 -0.14129783 0.05394626 -0.09674319 -0.108822756 -0.2794208 -0.15017132 -0.06389848 -0.011797068 -0.06314211 0.016366906 0.1353321 0.28251648 0.22130911 -0.035482474 -0.03455551 0.011398443 0.079677105 -0.08747477 0.005046448 -0.07000098 -0.06436258 -0.019468646 -0.10164392 -0.103492685 -0.18833993 -0.1707643 -0.098136455 -0.114011146 0.052704625 0.055282723 0.27831888 0.24456018 0.21327192 0.012244002 -0.079171196 0.10309819 0.012138875 -0.27716422 -0.29193258 -0.1331488 -0.2719416 -0.38776428 -0.41208848 -0.15404029 -0.33081427 -0.24873182 -0.17095499 -0.121239565 0.032732453 0.048392035 0.37850255 0.2388079 0.3793188 0.3053203 0.30002412 -0.08965409 0.07754065 -0.18017608 -0.30660984 -0.29767004 -0.0772888 -0.26050904 -0.2854056 -0.46033016 -0.33521813 -0.26552582 -0.10841053 -0.033847973 -0.15013029 0.058509745 0.017577693 0.13833241 0.46685708 0.38139918 0.23080511 0.20126182 0.17956707 -0.2634109 -0.22935244 -0.15964529 -0.16816863 -0.32491422 -0.23878096 -0.28723505 -0.2970857 -0.29049903 -0.104811236 -0.09162802 -0.007859211 0.046350677 -0.16827662 0.21391945 0.56428766 0.41116962 0.41152766 0.117209926 0.16922934 -0.17892021 -0.18689315 -0.22728482 -0.39417076 -0.6324934 -0.33741763 -0.19376455 -0.12640777 -0.03780963 -0.12143554 0.04733846 0.0015279297 0.013569052 -0.2521501 0.21590674 0.72076297 0.2871925 0.6317037 0.19264582 0.14792162 -0.09746282 -0.14642397 -0.18753596 -0.4015374 -0.21177632 0.059114877 -0.19769236 -0.43855196 -0.39049882 -0.08097019 0.0244083 -0.089145355 0.034878742 -0.3449619 0.17848872 0.37064138 0.47251 0.5169641 0.26489264 0.120188035 0.053826053 -0.027758107 -0.16503122 0.191906 0.015835568 -0.22496597 -0.16941194 -0.1619941 -0.2920979 -0.3210078 -0.054363575 0.0031145439 0.041427333 -0.4724561 0.25378904 0.5665375 0.48111066 0.42724055 0.30855536 0.3887073 0.4334395 -0.034415375 -0.24456787 0.06152474 0.0074437675 -0.008614995 0.062233135 -0.0046136007 -0.19263272 -0.31753576 -0.055432983 -0.031619772 -0.046138868 -0.3520348 0.15454938 0.13103946 0.11362293 0.26233277 0.5335235 0.34888598 0.111454174 -0.11222932 -0.037336316 -0.087676056 3.2338852E-4 0.17340748 0.16475649 -0.14789288 -0.2691627 -0.33175507 -0.2992964 -0.108787775 0.07016945 -0.11878189 0.054339062 0.2684107 0.13131519 0.15532228 0.22921821 0.19320224 0.28950638 0.0075455555 0.053503055 0.06300897 -0.24078721 0.112539604 0.20769903 0.06615665 -0.10796747 -0.0062215896 -0.054608364 -0.15942262 0.021042315 -0.33266634 -0.07755402 0.2448108 0.45742068 0.32943037 0.2805352 0.568034 0.24720274 0.15492529 0.2014043 0.08280684 -0.06333653 0.052904483 0.019098932 -0.15335463 -0.14911053 -0.092485555 -0.079504155 -0.14068218 -0.009579952 -0.19688925 -0.24989691 -0.10782869 0.13434815 0.21671844 0.29305524 0.3948796 0.20330468 0.03679396 0.042249948 0.09293056 -0.047141064 -0.1725101 -0.047573447 -0.07553048 -0.19469352 -0.15760821 -0.11803946 -0.109253876 -0.0020952148 -0.18370354 -0.2673239 -0.044340987 -0.091751605 0.017938055 0.27021155 0.24142876 0.12767693 -0.028628955 -0.14338575 -0.013704171 -0.03670084 -0.20546149 -0.22003019 -0.23892765 -0.28083566 -0.11688644 -0.12464156 0.017102815 -0.06061968 -0.1366796 -0.18691239 -0.14217876 -0.014600006 -0.050997835 0.1024639 0.22420788 0.11244711 -0.059755746 -0.09440368 -0.017956646 -0.17960247 -0.31850216 -0.27534026 -0.23898636 -0.24642661 -0.13781469 0.005001017 0.0849236 
0.012092506 -4.9474766E-4 0.09187943 0.021818737 0.06892754 -0.055050343 -0.0869001 -0.04620413 -0.1203055 -0.01323982 0.02507894 -0.05900042 0.054184597 -0.010532189 0.091821246 0.100038014 0.10664522 -0.016299313 0.04879257 0.08097923 0.031586204 0.032425594 0.12478532 -0.016066773 8.3410955E-4 0.098551676 -0.11906185 -0.0871598 -0.120993316 -0.1222367 -0.0044635185 0.013925164 0.12336824 0.25636464 0.27484888 0.063918635 0.11032547 -0.10222309 0.03924421 0.17416593 -0.043961357 -0.057583295 0.1609231 -0.022076199 -0.014026489 -0.03247814 -0.12980317 -0.1565156 -0.1469085 -0.11825569 -0.017435743 -0.0071989116 0.1684989 0.35988864 0.3295988 0.01761751 0.11687923 0.014374549 0.20018715 0.15142281 0.1169051 0.03511822 -0.067479394 -0.03838167 0.007347789 -0.24294706 -0.13083993 -0.2347914 -0.19511774 -0.2131543 -0.23656991 -0.204787 0.15021527 0.15946478 0.16303237 0.29055732 0.14080502 0.006862877 0.28607956 0.36748657 -0.016987603 -0.11351609 -0.06130917 0.0017598737 -0.1586218 -0.085646614 -0.08145175 -0.12511566 -0.10190254 -0.1527682 -0.37899894 -0.10217546 0.10988766 0.15511207 0.1590234 0.3056892 0.2079669 0.033517208 0.08667457 0.21045002 -0.11523435 0.07437906 0.11639455 -0.109978266 -0.16945408 -0.22627774 -0.1816102 -0.08629389 -0.30451643 -0.20337965 -0.34869388 -0.19435406 0.17040794 0.067598686 0.25819314 0.39251956 0.46647093 0.018690271 0.24604908 0.060719434 -0.020726968 0.054144103 -0.025739871 -0.19084138 -0.2249984 -0.10915517 -0.17690386 -0.405745 -0.41103703 -0.24462076 -0.12135824 -0.05791933 -0.13921346 0.008426725 0.25194538 0.28138185 0.4733041 0.36796665 0.32332662 0.20521162 -0.028067635 0.057476096 -0.13685255 -0.1337482 -0.046354815 -0.31879312 -0.36212075 -0.38283476 -0.269099 -0.38154987 -0.24918321 -0.079466134 0.02826123 0.09285891 0.2958478 0.20956263 0.4202774 0.226609 0.4419 -0.01087514 -0.36062542 -0.09543588 0.14489855 -0.09167901 -0.07918015 -0.59058493 -0.29169494 -0.20960465 -0.39207536 -0.5147629 -0.31976244 -0.0883059 -0.13043626 0.23993354 0.3555901 0.323454 0.31526574 0.35367125 0.18739562 -0.055269927 -0.3169807 -0.027833506 0.36647722 0.030223276 -0.059193373 0.03218676 0.05692738 -0.11168671 -0.39352113 -0.43693128 -0.17196012 0.0226946 0.12329314 -0.047316857 0.2558948 0.31225166 0.2934584 0.41532615 -0.071625866 -0.15617728 0.010133727 -0.029922338 0.16455689 0.1315019 0.15363467 0.25202072 0.22611201 0.20455968 -0.1862232 -0.26376188 -0.17865543 0.023425816 0.14184414 0.08324474 0.1352143 0.29516345 0.4759405 0.3254212 0.026602646 0.08137377 -0.08699351 0.112848 0.3299134 -0.020395905 6.8515644E-4 0.06621478 0.18182193 0.12556918 -0.10223049 -0.16410716 -0.15697084 0.08274693 0.16595522 -0.09823025 -0.25168368 0.06894061 0.11584987 0.3466702 0.100171655 0.24050102 -0.023220722 -0.0036826364 0.11193428 -0.009847009 -0.105336085 -0.1531366 -0.064669386 -0.17323329 -0.04337368 -0.27460754 -0.32749215 -0.36931476 -0.20969382 -0.36880127 -0.3251264 -0.120548114 -0.036025174 0.07168833 0.12565593 0.11114086 0.068285264 -0.09967975 0.27593186 -0.3100893 -0.3571132 -0.049574323 -0.20177652 -0.22259232 -0.35693106 -0.4532725 -0.21992472 -0.3025316 -0.30835322 -0.397173 -0.35223055 0.044482216 0.23909952 0.053526673 -0.025375478 0.05397009 0.16558106 -0.08394207 0.28603348 0.04409756 -0.12852614 -0.03913575 -0.13924178 -0.29228926 -0.40028918 0.048509065 -0.057994124 -0.31381196 -0.1821744 -0.21443488 -0.030607453 0.21041158 0.24860303 0.26393068 0.11373309 0.089309186 0.23970993 -0.09693674 0.2019821 0.16262951 -0.15178333 -0.18425922 -0.17100647 -0.30600622 0.0056486255 -0.10969899 -0.106078774 -0.054432955 -0.028344233 0.20523445 0.09888128 0.1587031 -0.014170112 0.15139665 0.010484387 0.021513639 0.024839899 0.040684007 0.25488383 0.10741572 -0.20562986 -0.34546122 -0.32334986 -0.13354318 0.009216409 0.01749859 -0.08797647 0.2389018 0.1987567 0.09306063 0.27049842 0.058639593 0.1025131 0.027219575 -0.08903286 -0.12989873 -0.082598306 0.07014586 0.042293083 0.027100975 0.2610604 -0.18127553 -0.38575387 -0.30041713 0.04508238 0.090832666 0.05799366 0.09763869 0.15136991 0.034769673 0.20249024 0.0631388 0.024445035 -0.09728184 -0.064975984 -0.12600355 -0.14828996 -0.047200087 0.08485566 -0.09962833 0.03392747 -0.11364765 -0.2260611 -0.19667724 -0.103080295 0.012876145 0.107270025 0.16801356 0.0911153 0.18542275 0.24728703 0.31165972 0.19706732 0.019723255 -0.052468717 -0.12355247 0.01664403 -0.025614861 -0.018726265 -0.12827644 -0.4236589 -0.39387566 -0.476518 -0.07159365 -0.018293833 0.17687958 0.32249033 0.14121154 0.112538554 0.021952402 0.3203886 0.36246142 0.13415758 0.018227719 -0.16551387 -0.003496374 0.06469078 
-0.09663167 -0.037470087 -0.016330298 -0.032160286 0.01661396 0.1026345 -0.062437095 0.06781986 0.013555176 -0.09319309 -0.024942793 -0.022793183 -0.08190907 0.046704426 0.041371454 0.14955074 0.11585872 -0.024716957 0.023781804 0.029748838 0.023146713 -0.084992595 0.07966816 0.14095253 0.23386967 0.0849844 -0.11993275 -0.28121436 -0.29254034 -0.4304634 -0.5392025 -0.30964404 -0.057150222 0.108867794 0.26184577 0.14276925 0.40197855 0.36387774 0.1678281 0.031967416 0.13241129 0.09739239 0.20978476 0.29188076 0.25173172 0.03344299 -0.008271784 -0.09987577 -0.37391406 -0.77760816 -0.6521123 -0.2819159 -0.07534545 0.00780021 0.16729079 0.10103447 -0.024437653 0.10744784 -4.5631884E-4 0.16094607 0.3176552 0.08845443 0.26366636 0.4000472 0.110089906 0.07499942 0.107854284 -0.13928884 -0.3823158 -0.5682581 -0.35646403 -0.17251354 0.036794685 -0.061387636 -0.08453383 0.0031712565 -0.0352949 -0.10453534 0.1382029 0.118632324 0.27528286 0.11676523 0.29279786 0.11446912 -0.08078987 -0.08690715 0.014838473 -0.39241293 -0.77351034 -0.60060173 -0.3666445 -0.0959191 0.08379385 -0.10911692 -0.056313895 -0.02511995 0.09474004 -0.036916777 -0.13255987 0.08667045 0.060742542 -0.021975985 0.3646609 0.232704 0.012571967 -0.0018671483 -0.15104984 -0.45583624 -0.47682104 -0.44993064 -0.30543834 0.07295731 0.24916767 -0.17017642 -0.102292106 -0.20970102 0.088236116 0.08784603 0.049669728 0.2182913 -0.19201744 0.19209087 0.30445078 0.03568062 0.044016805 0.4192823 0.0572106 -0.6595405 -0.6254772 -0.39525306 -0.14042531 -0.12196488 -0.35029402 -0.036036655 -0.46336824 -0.35574755 -0.04102094 0.0353464 0.12566093 -1.741371E-4 -0.15933356 0.12776811 0.1899929 -0.006406176 0.23766851 0.18789092 0.058464237 -0.48991165 -0.6424564 -0.24952808 -0.44839698 -0.24494988 0.09873433 -0.2273852 -0.3553323 -0.20625769 -0.16722189 -0.009334445 0.008022496 -0.01704223 -0.32190064 0.20083913 0.31322622 -0.2684282 0.1960025 0.291554 0.1555141 -0.34094137 -0.52886945 -0.3789955 -0.40179732 -0.2332744 -0.105588004 0.25184506 -0.014594687 -0.035562053 -0.1884779 -0.18034339 -0.13749312 -0.35500014 -0.2949452 0.14346321 0.31013596 -0.10532673 0.23652191 0.26989397 0.11598605 -0.37647316 -0.53799003 -0.19948791 0.00818923 0.17472133 0.25521278 0.08592391 0.0153364595 0.06592807 0.057263535 -0.20688546 -0.11244016 -0.2703417 -0.19967812 0.15995412 0.20990083 -0.25053236 0.2793034 0.3001131 0.0712946 -0.058678865 0.25453883 0.11832063 0.02818935 0.20676671 0.1415104 0.3312444 0.12771645 -0.06270261 -0.06882666 0.13871339 -0.13122448 -0.11421204 -0.08499797 0.16838886 0.18370707 0.10666356 0.078359455 0.15366031 0.2122746 0.43182933 0.53656507 0.091607295 -0.060209304 0.034746025 0.003339057 0.097678185 0.19575927 0.024439394 0.14819138 -0.08379682 -0.16967042 -0.07084203 -0.19812642 0.14067735 0.12477868 -0.057190116 -0.07487571 0.150938 0.14562176 0.381981 0.2975409 0.01279104 0.15066005 -0.056469474 -0.04342873 0.09449228 -0.07177445 -0.1491569 -0.022933245 -0.068984844 0.11332252 0.08243537 0.0711093 0.11626335 0.004745017 -0.12830962 -0.05176259 0.17070398 -0.0044236877 0.0976415 -0.029784352 -0.039164245 0.18360505 0.061666127 -0.07256624 0.21952195 -0.124509566 0.041531492 0.15757747 -0.127648 0.001338389 0.11400203 0.019140573 0.074371636 0.07669194 0.19440648 0.07072491 0.007476337 0.14492273 -0.12030308 0.045704443 0.1990504 0.16949655 0.22387724 0.031733528 0.063724816 0.0533058 -0.010962959 0.14982925 0.27270457 0.056489084 -0.026712319 0.07942775 0.05268487 -0.10004919 0.21182497 0.23878619 0.12996343 -0.027716927 -0.11140803 0.0044140113 -0.11515926 -0.15430377 0.02176258 0.18850997 0.004509023 0.022980731 -0.04719324 0.12484037 0.13198668 0.07581686 -0.118697256 0.13345698 -0.052232765 -0.32124653 0.102399416 0.24302043 0.15367721 0.120029226 0.046654172 0.04532292 -0.13569316 0.26991582 0.10823129 0.10001031 -0.1578298 -0.14959368 -0.17090386 0.17558011 0.3096631 0.1370199 0.16624534 -0.048494257 0.04794856 -0.3984119 -0.08499309 0.00419584 -0.10360569 -0.01372568 0.074498124 -0.15198313 -0.14291435 -0.118896514 0.046436667 -0.028203763 0.21440938 0.25985986 0.14548998 0.2851566 0.3040079 0.22473218 0.15852445 -0.04952387 -0.13687076 -0.256343 -0.011990055 -0.01778261 -0.100333184 -0.23138052 -0.16554356 -0.07517005 -0.24969059 -0.19359046 -0.34636775 -0.25279516 -0.029617202 0.017939875 0.34648806 0.33112112 0.06530411 0.026674883 -0.08427168 -0.12280659 -0.056345634 -0.085176095 -0.21440978 -0.50066435 -0.46983296 -0.5305205 -0.27976748 -0.20761883 -0.3605436 -0.20633362 -0.2214825 -0.15711163 0.08808129 0.03788073 0.069301896 0.16958374 0.031089855 -0.06981602 -0.032292906 -0.0033725293 
-0.8015392 -0.03788199 0.020432657 -0.036752053 -0.04389022 0.066277824 0.100645624 -0.0755651 -0.048422564 0.0123302145 -0.009529371 -0.014210996 -0.08218288 -0.11522314 -0.018824609 -0.11518862 -0.056689177 -0.050949965 -0.05124175 -0.027965922 0.011136125 -0.061081994 0.0857963 0.12465798 0.23093763 0.13393185 0.09843896 0.08448622 0.09398119 -0.023065668 0.17895566 0.124808766 0.018413069 -0.09223533 0.02191776 -0.0678869 0.07857735 -0.031615894 -0.10026951 -0.062920935 -0.001209601 -0.046386205 0.13020186 0.19097921 0.12032823 0.20249604 0.065667205 0.0051182606 -0.030221554 -0.14694756 -0.008386401 0.17739163 0.049671214 0.07800036 -0.04615105 -0.17593452 -0.051608983 0.059228137 -0.12100195 -5.262116E-4 -0.058619615 0.064265795 0.13924575 0.0265203 0.09648625 0.22632232 0.115943626 0.017797893 -0.09174143 -0.021164473 0.11152926 0.18394703 0.2889134 0.16556028 0.010751384 0.003497051 -0.13187273 -0.119127095 -0.032034457 -0.111507714 -0.2141794 -0.035060674 -0.10629656 -0.1261127 -0.08098089 -0.083367735 -0.07683405 -0.01180704 -0.01702555 0.07121405 0.029737689 0.19055001 0.00578172 0.063200206 0.29562986 0.3593727 1.0042541E-4 -0.20347548 -0.09780179 0.11233184 -0.06614055 -0.052655805 0.07402293 -0.11868632 -0.088470876 -0.2252525 -0.15109228 -0.052421175 0.13345048 0.27017015 0.30361602 0.14428829 0.07825608 0.07823335 0.33438286 0.45343912 0.14824578 -0.21629459 0.023988362 0.063789584 -0.028092783 0.14760526 0.08319254 -0.050629184 -0.191711 0.08973963 -0.06773245 -0.16296843 -0.04592172 0.3140098 0.2524601 0.0333976 -0.019282635 -0.086093515 0.2790524 0.5056018 0.021174662 -0.0065522874 -0.102417424 0.0402057 0.1598695 -0.014232045 -0.013583592 -0.12208299 -0.07655262 -0.25003648 -0.29878286 -0.14605837 0.080679365 0.12872337 0.018519543 0.23405461 0.21044463 -0.06025778 0.2515322 0.42552155 -0.03479737 0.055295654 -0.04579328 -0.06009312 0.109934695 0.062693484 0.048117157 -0.25860828 -0.16918215 -0.21520154 0.079789 0.06983759 0.29141453 0.1555772 0.15413038 -0.155636 0.043562885 -0.08904153 0.38015288 0.35691065 0.17213735 0.20347449 0.16104282 -0.03491665 0.08327934 -0.05561234 -0.02519578 0.08645759 -0.10427112 -0.06875165 0.10333307 0.01738783 0.1948663 0.09324423 0.10031067 0.13585724 0.07609192 0.038421873 0.31953317 0.16518529 0.06935848 0.01301096 -0.028987598 0.02566566 0.025334211 0.089203045 0.027500296 -0.030716604 -0.19119914 0.0037199215 0.1962096 0.13616799 0.3142128 -0.032363746 0.29520413 0.19440837 -0.0431412 0.016125955 0.07345618 -0.05403258 -0.06400047 0.16280267 -0.03245843 0.010305349 0.0451807 -0.0806541 -0.041934673 -0.16425695 -0.013474316 -0.045361664 0.19116007 0.21596734 -0.10463122 -0.13697119 0.17949402 0.11017312 0.15846151 0.0031289272 0.0054372083 -0.07667779 -0.046608213 0.078550324 -0.06727725 0.021769485 -0.02962709 -0.045456927 -0.13325371 -0.28613374 -0.1809778 0.14081861 0.4667093 0.44081226 -0.06847662 0.124924235 0.0753881 0.034823548 0.037973747 0.20651911 -0.1385355 0.02686484 0.03494653 -0.07639081 0.14244065 0.10026103 0.0126228845 -0.039313354 -0.19351065 -0.031168802 -0.0773311 -0.044894412 0.4390065 0.37150156 0.0709149 0.02405796 0.12391467 -0.13894822 0.19756058 0.053029995 -0.16541569 -0.2269947 0.049873527 -0.10698503 0.10627114 -0.23882832 -0.19404508 -0.15726662 -0.017400466 -0.20991068 -0.21436816 0.00843479 0.35576984 0.23308034 0.097311854 -0.0010995439 -0.07150089 -0.009169876 -0.022851776 0.03465023 -0.08994723 -0.0087434435 -0.14811659 0.09620632 0.085858 -0.21614788 0.14365856 -0.014967827 -0.06710312 -0.24509665 -0.3870514 0.082563095 0.52817273 0.33272228 0.074698016 -0.00834491 -0.034068275 -0.08311112 -0.18199253 -0.009729305 -0.03777101 -0.071251474 -0.1624358 -0.08596637 0.04119989 -0.06233368 0.041883074 -0.06945729 -0.21790183 -0.14811255 -0.2926369 -0.07581232 0.42567906 0.35839713 0.39290807 -0.11689956 -0.14362167 -0.020577539 -0.124343276 -0.0018893231 0.12490371 -0.088614576 -0.12937263 0.037389174 0.0773644 -0.14055352 -0.09783675 -0.056880098 -0.18474026 -0.072293855 -0.11264764 -0.09825052 0.35344437 0.51304495 0.46573737 0.23614407 -0.02769016 0.025540607 -0.1966327 -0.027094238 0.04793162 -0.104472496 -0.05502003 0.01852238 -0.008147879 -0.15759408 -0.013550085 -0.010690188 -0.3231292 0.006852862 -0.044197332 0.18243387 0.43880033 0.4608126 0.55265105 0.45284465 0.35353175 0.2150741 0.21681508 -0.020319242 0.024229541 0.05455199 -0.15705517 -0.12821485 -0.13244665 -0.25214425 0.012952117 0.0010757705 -0.03882928 -0.1720446 -0.23675692 -0.07879657 0.3099558 0.36144936 0.57068217 0.4865968 0.48308146 0.3949826 0.15960526 0.20787695 0.027708475 -0.033584055 -0.1121635 -0.17564486 -0.2429305 -0.083184734 0.037561256 
0.39048606 0.04198173 -0.05246514 0.05300712 0.008467963 0.050402634 -0.030245582 -0.034292724 0.072444655 -0.05852345 -0.033337306 -0.055901963 -0.07285233 0.086182535 -0.07229038 -0.014789246 -0.02957983 0.045634203 -0.053866353 0.026395816 0.02396506 0.08563847 0.03478677 0.018005954 0.052871775 0.0154579375 0.15098825 0.06981173 0.16084878 0.06095563 0.19540106 0.086656354 0.12739813 0.15069415 -0.11210221 -0.1503069 -0.22058971 -0.26602158 -0.30248806 -0.028017487 -0.041752838 -0.015443712 -0.013448032 -0.10460348 0.08894126 0.17065485 -0.037066493 -0.03584176 0.10323858 0.11286198 0.12834957 0.172419 0.16949451 0.029425018 -0.055796098 -0.16972955 -0.22718903 -0.2990888 -0.3348067 -0.23441724 0.03435002 -0.02430334 -0.120305575 0.04590371 -0.037903048 0.0653599 0.11564948 0.21275699 0.08496019 0.1937766 0.038200274 0.05953506 0.21520215 0.1027057 0.01716815 -0.2707155 -0.4475145 -0.34821245 -0.5300512 -0.23269778 0.10829118 -0.011870262 -0.03666344 0.09341128 -0.12424017 -0.2592774 -0.047947947 0.042808175 0.15759815 0.1142471 -0.12245438 0.16571078 0.23872885 0.36577547 0.056838624 -0.16732162 -0.45224622 -0.44049805 -0.3570979 -0.12671283 -0.008643971 0.05665208 -0.0134502435 -0.056473676 -0.21800773 -0.050399452 -0.20038605 0.072721675 0.09065755 -0.017661056 0.008506573 0.052590016 -0.015481424 0.08984282 0.015386399 -0.2281572 -0.45878562 -0.48492017 -0.23761834 -0.10540441 -0.08192518 -0.017766854 0.042587183 -0.12880333 -0.044118743 0.04511679 0.08235955 0.01339078 -0.06686882 0.10465744 0.13134283 -0.030154279 -0.034987587 0.032803312 -0.14278738 0.1499315 -0.012673599 -0.3907907 -0.13329677 -0.2959062 -0.25936043 -0.046283074 -0.055893876 -0.15228294 -0.07747884 -0.17296 -0.020229299 0.07897471 -0.041687977 -0.071289375 0.109659515 0.03846067 -0.10016415 -7.9196465E-4 0.01495639 0.16538146 -0.054441053 -0.36072212 -0.20732749 -0.22140019 -0.21425904 -0.06643748 -0.22964317 -0.009339459 0.03507326 -0.008729111 0.049245697 -0.046995156 0.008530079 -0.053663645 -0.08305776 -0.17828515 -0.07524777 -0.040067084 0.071950495 0.2396459 -0.02719424 -0.18874802 -0.09894609 -0.4495278 -0.45964348 -0.035503462 -0.3807347 -0.27824655 0.11507285 0.07694243 -0.031710487 0.20089145 0.005052887 -0.16800538 -0.23140572 -0.29345584 -0.14404999 -0.032688905 0.2420351 0.07279247 -0.17045541 -0.19886063 -0.07038765 -0.20704427 -0.47484905 -0.058412917 -0.45375788 -0.02995816 -0.05168374 0.03326262 -0.15494433 -0.18215543 -0.033572067 -0.20039755 -0.21934508 -0.007498153 -0.043880805 -0.020014644 0.25448304 0.3539951 0.063161954 -0.03564279 -0.12566915 -0.39267802 -0.51392496 0.036675867 -0.4147672 -0.14411053 0.1761577 -0.022828054 0.082405806 0.003845429 0.10809327 0.20920826 0.14255182 0.18459938 0.4572438 0.33027127 0.23361664 0.048081618 0.03629824 0.08482166 -0.30853954 -0.23071328 -0.35675484 -0.07208514 -0.36355394 -0.16728057 0.058485832 -0.19259675 -0.055005014 -0.12515381 0.12087179 0.4435608 0.39634937 0.23959924 0.27945802 0.3896647 0.07762913 0.033433028 0.08284357 -0.050114978 -0.21813215 -0.36036757 -0.38941512 0.008590794 -0.41374713 -0.077640295 -0.04124121 -0.05369695 -0.24763022 -0.20331897 0.38431364 0.5405232 0.5166781 0.20885819 0.2923194 0.455676 0.089863 -0.029889718 -0.047337186 -0.04308175 -0.26051974 -0.41854838 -0.22140656 0.04194979 -0.3367868 -0.29042435 0.03212451 -0.2791473 -0.20568289 -0.041046884 0.23192893 0.18664315 0.34359 0.24303186 0.18449312 0.2444139 0.34736428 0.19744568 -0.13706043 -0.05603285 -0.21638396 -0.47456568 -0.36674377 0.07333338 -0.23221956 -0.26610368 -0.20466639 -0.10288112 -0.23483525 -0.11537122 0.123940535 0.12361326 0.2919213 0.54010075 0.4023169 0.23293151 0.34151006 0.3317253 0.010836101 -0.17500338 -0.28192872 -0.31576344 -0.16850542 0.0363363 -0.11393216 -0.1844424 -0.14584386 0.044342536 -0.04902989 -0.042259276 0.19310337 0.24439129 0.1696721 0.38392457 0.42652294 0.15852284 0.0880476 0.094864376 -0.122908466 -0.2977032 -0.22235066 -0.06230927 -0.045885183 -0.052427795 -0.06752729 -0.08924888 -0.051576894 0.017542172 -0.29570824 -0.044751815 0.28840557 0.08656409 0.31545028 0.41056657 0.29543903 0.11241664 0.0072463322 -0.1904355 -0.2665843 -0.24406415 -0.23245715 -0.16951515 -0.048918027 -0.03704278 0.033395432 -0.13192351 -0.28592077 -0.29165587 -0.26342255 -0.21127962 6.950214E-5 0.05613138 0.057139136 0.26250952 0.2954423 0.103039324 -0.12206791 -0.09509375 -0.16866723 -0.11526512 -0.052263636 -0.07700141 -0.0030031458 0.00620252 -0.050774742 -0.17896196 -0.30752352 -0.46116096 -0.48169303 -0.23038979 -0.18487592 -0.09429085 -0.097262524 -0.086139984 0.03308993 0.030258752 0.009036557 -0.07326138 -0.20998345 -0.23018062 -0.1653403 -0.09297888 0.05867743 
-0.07465601 0.036525335 -0.023488741 -0.041017286 0.008904365 0.0312762 0.086057104 0.04294197 -0.010306005 -0.037169784 0.069310255 0.012894587 -0.00495369 -0.0040187626 -0.08912348 0.035931002 -0.10916487 -0.112040326 -0.045129675 0.018097688 0.07084834 0.026726354 -0.09376168 -0.07852197 0.024261065 0.07248763 -0.001403063 0.0118241925 0.061522964 0.124233596 0.16636786 0.1528258 -0.079261556 0.057049353 -0.018088397 -0.17330189 -0.28203598 -0.29918295 -0.24949104 -0.025115672 -0.15611923 -0.02396101 0.0011840019 -0.12237043 -0.030985357 0.08016284 0.052909292 -0.010370191 -0.019631645 -0.07594116 0.06521255 0.16616842 0.22884312 0.1781402 -0.080488816 -0.41339684 -0.34601322 -0.3875964 -0.36298865 -0.25761563 -0.2172902 0.011943712 -0.11263855 -0.20611204 -0.079183474 -0.01722219 0.03413521 0.054361846 -0.0038128293 0.1478481 0.0710261 -0.06540521 -0.011309611 0.029156022 0.057105217 -0.4189277 -0.5456899 -0.41626593 -0.29691482 -0.20872542 -0.23463632 -0.06855489 -0.0392121 0.017241701 -0.10757531 0.23453732 0.27043664 0.20603044 0.15341024 0.2075388 -0.027994826 0.017090809 -0.02181564 0.055259492 -0.03905545 -0.33118838 -0.5417876 -0.41182154 -0.002131448 -0.07319081 -0.03393072 -0.10655912 0.036444664 -0.0273515 0.049945418 0.19917722 -0.10389251 -0.011631413 0.11156446 0.08293857 -0.083937936 -0.04643835 -0.034111142 -0.015819578 -0.2474793 -0.28577334 -0.2617036 -0.18158014 0.18938863 0.023750072 -0.16931945 -0.109155424 0.03186583 -0.21160269 -0.08705923 0.075330794 -0.04563997 -0.13277683 0.0452958 -0.06566499 -0.09114494 -0.041273087 0.070155166 -0.21796261 -0.18738669 -0.12474987 0.15745614 0.23597743 0.21841775 -0.12738672 -0.11231714 0.0052376855 -0.21357031 -0.2698357 -0.032050684 -0.027302086 -0.083301276 -0.16250455 -0.276495 -0.12375788 -0.096624084 -0.19940647 -0.12865706 -0.15282461 -0.066511765 -0.03493086 0.26329106 0.37132066 0.28457642 -0.1701648 -0.18593611 -0.11820586 -0.09024841 -0.24353698 -0.004410138 0.18952513 0.0947008 0.1335411 0.04132174 -0.25831634 -0.44644833 -0.42607462 -0.29078415 -0.13419557 0.048538376 0.106046975 0.5363238 0.6307702 0.4520207 -0.13401729 -0.13516816 -0.041746482 -0.17820612 -0.13658565 -0.110984124 0.20170045 -0.021224363 0.21313252 -0.016557954 -0.23614974 -0.42306665 -0.29069972 -0.30651817 -0.13708061 0.10344686 0.23206201 0.11617129 0.35614672 0.2995627 -0.022233522 -0.11856988 0.05124468 0.06249183 -0.19247954 -0.18396768 0.17575167 0.09100146 0.01006211 -0.010846657 -0.30174133 -0.28424984 0.17568044 0.07534305 0.19388607 0.30169985 0.3179919 0.15144949 0.24278003 0.28736126 -0.06824429 -0.17050031 0.031066366 0.0026752753 -0.1598006 -0.15419535 0.33039927 0.099591345 0.1342917 0.061318986 -0.14123783 -0.22357021 -0.13981585 0.08445247 -0.038741972 -0.060854856 0.13737361 0.21752279 0.40693676 0.20077868 0.27150598 0.040951904 -0.005856264 -0.17213999 -0.091726676 -0.23728232 -0.03153286 0.104034334 0.00950154 0.22425413 0.049326595 -0.05682158 -0.12714422 -0.09975395 -0.046034165 0.053267807 -0.12160005 0.09502486 0.011437859 0.12613581 0.04862442 0.014435135 0.13008855 -0.067819126 -0.2392262 -0.10036893 -0.27772486 -0.22744136 0.041725647 0.10680977 0.062379096 -0.2619015 -0.10654173 0.26775247 0.14128958 -0.12154473 -0.074892186 0.09862147 0.06659915 0.13229293 -0.20528165 -0.26531103 0.13324319 0.052294485 -0.31390333 -0.15001297 -0.20714052 -0.35414848 -0.1022809 0.2505804 0.15661418 -0.14485657 -0.04685188 0.26486498 0.017519055 -0.24885972 -0.013227511 0.027912332 0.1252987 -0.014061578 -0.31924114 -0.44386575 0.015063823 0.15106562 -0.40864292 -0.27647313 -0.2776482 -0.14229786 -0.023387233 0.06267684 -0.045297086 -0.011815625 -0.102129236 -0.08769843 0.17001767 0.070602216 -0.026912956 9.474082E-4 -0.08966832 -0.33485678 -0.3350903 -0.33550125 -3.7878126E-6 0.11071751 -0.24953777 -0.29272425 -0.36362854 -0.19627772 -0.0022860172 -0.03047941 0.010824547 0.07762672 0.2247266 0.21013378 0.22099929 0.06581014 -0.012224534 0.08350457 -0.16738066 -0.1781359 -0.24827681 -0.30429614 -0.012952225 -0.06362399 -0.19860388 -0.21835893 -0.17733069 -0.13475898 -0.0932028 0.0010630803 0.17424054 0.3529162 0.20119105 0.19246738 -0.16980542 -0.24653615 -0.118718706 -0.007771694 -0.043163307 -0.24614312 -0.15301614 -0.13409518 0.045720465 0.03613174 -0.12283048 -0.28934893 0.012929103 -0.08108787 -0.12319549 0.21386023 0.24152365 0.24680409 0.13607445 0.17791027 0.14051537 -0.2183388 -0.20984162 -0.076355726 -0.17081416 -0.18081167 -0.20919466 -0.120342165 0.037555646 -0.03681469 -0.14544116 -0.18461373 -0.21318343 -0.07187883 -0.0404777 0.104753405 0.16588935 0.18532404 0.33414742 0.24863547 -0.04804189 -0.15397076 0.0070463433 0.09467952 -0.033948645 -0.14491019 -0.20520437 -0.02513942 
0.0066827843 2.2270963E-4 -0.12259084 0.019241182 -0.040690906 -0.003982578 -0.03996251 0.101007745 0.05433768 0.07501683 0.032207735 -0.052884124 0.075437106 0.0329599 -0.1253405 0.03888883 -0.015233873 -0.044750266 0.049540784 -0.030016106 -0.045688134 -0.05806298 -0.19325703 -0.27381736 -0.2666913 -0.22030742 -0.065433264 0.10769153 0.13214822 0.18249471 0.09448294 -0.11350625 -0.21319884 -0.2595939 -0.2255978 -0.13651948 -0.18391453 -0.22301517 -0.11488366 -0.020293925 -0.2325324 -0.07299723 -0.22513038 -0.2700114 -0.2979772 -0.07548613 -0.011087871 0.07348293 0.20143157 0.31703326 0.052436016 -0.09269575 -0.15452784 -0.30260795 -0.11895217 0.16720718 0.21344684 -0.048086863 0.07945391 0.1714387 -0.31834978 0.039639905 -0.23638083 -0.35192 -0.09159873 0.04286532 -0.04027672 0.15447105 0.36000052 0.20343536 0.11240424 -0.015235809 -0.086871356 -0.28747413 -0.031731065 -0.050167415 -0.042324558 -0.01233457 0.018568661 0.16576947 -0.248805 -0.06780355 -0.28047225 -0.120722756 0.20859663 0.36847898 0.27297914 0.22461641 0.33450383 0.044173967 0.100554444 -0.08119447 -0.15600878 -0.15819307 -0.14069411 -0.2886623 -0.33609045 -0.021081805 0.15496722 -0.27290106 -0.08021234 -0.028250424 -0.1978736 -0.050331295 1.8027984E-4 0.19083814 0.2655723 0.29438904 0.13469835 0.17935836 0.14863814 0.03491854 -0.14494134 0.03881112 0.018657006 -0.021786546 -0.20365332 0.03326246 0.10427246 -0.17787594 0.09275806 -0.016043557 -0.26644507 -0.13728084 -0.22858758 -0.20359054 0.15433705 0.64275736 0.15599947 0.14970024 0.1403035 -0.0039045038 0.038954202 -0.040296663 0.19083288 0.035458762 0.022587225 0.09973803 0.13246375 0.091634415 0.120607406 -0.01735778 -0.26849812 -0.024024168 -0.06168071 0.2672786 0.6371565 0.518081 0.30382803 0.14588615 0.20869204 0.17778172 -0.07249285 0.04809101 0.026078468 -0.11897157 0.085563734 0.18869328 0.04626365 0.01700189 0.08881421 0.047702707 -0.20935479 0.067395486 0.04891967 0.16680656 0.1705305 0.46674585 0.29487938 -0.21925631 0.11715511 0.18505114 -0.109722584 -0.0804723 -0.0572533 0.005570852 -0.10931113 -0.14085422 -0.048782565 0.047829654 0.2633461 -0.080229856 -0.3649341 -0.055830233 -0.16825314 -0.16050325 0.053652763 0.526746 0.54612464 0.004236418 0.124785416 -0.017087566 -0.13134034 0.12632877 0.049810097 0.29227132 -0.054597616 -0.051057424 0.054414123 -0.10296259 0.1164217 0.051419497 -0.106360994 -0.04469404 -0.29739738 -0.23707454 -0.161033 0.27356488 0.23994344 0.30204487 0.3386061 0.18995129 0.24370755 0.523556 0.30689102 0.24470556 -0.051096037 -0.29186636 -0.06482758 -0.027603507 0.010147663 -0.09230655 -0.19162597 -0.087930486 -0.16710886 -0.10078972 -0.48767436 -0.36221096 0.24650215 0.56432724 0.17756593 0.16397677 0.18732376 0.267852 -0.034942523 -0.021023383 -0.2484426 -0.44182515 -0.030408869 -0.22370587 0.24363023 -0.12847443 0.04096981 -0.16026524 -0.04834515 -0.07277778 -0.3950699 -0.1408536 0.09847679 0.21096818 0.048365235 0.41220748 0.0585135 0.054486345 -0.08584913 -0.22741199 -0.29169717 -0.2695048 -0.21213289 -0.014243773 0.35835916 -0.04152716 0.029160807 -0.08834578 -0.026602853 -0.05808891 -0.14505781 -0.29925057 -0.16121174 -0.23651667 -0.07935805 0.10817875 0.083427414 -0.37063932 -0.1747547 -0.32492915 -0.34602574 -0.1454148 -0.14921217 -0.17294954 0.24246179 -0.009096784 -0.075813234 0.0065435846 -0.112619214 0.06496877 -0.0068105985 -0.23288861 -0.12544692 0.005059079 0.048633248 -0.013308332 0.16605924 -0.27145505 -0.19665918 -0.042151548 -0.048874594 -0.22089912 -0.09841682 0.1519268 0.06327266 -0.10052742 0.0016592869 0.15769435 0.19937249 0.07379929 0.03780405 -0.14719582 -0.30828884 0.01058671 0.11443774 -0.09522766 -0.06366479 -0.17485547 -0.33169368 -0.45787898 -0.039025992 -0.12757261 -0.16039066 0.15913112 0.06509475 0.05241863 0.21668069 0.15165906 0.1250272 0.032024883 -0.22493203 -0.14150965 -0.33962974 -0.052717716 -0.033496525 -0.094268575 -0.021126207 0.039030895 -0.11608146 -0.17969923 -0.26065403 -0.28466508 -0.24706934 -0.09705281 0.03907468 -0.038527127 0.23747978 0.18455166 0.16134362 0.17243153 0.052243277 -0.09514949 -0.29975376 -0.0059434823 0.15282279 -0.05223698 -0.07982722 -0.20341253 -0.2616944 -0.35003224 -0.3085452 -0.3360192 -0.13149612 -0.027266428 -0.029501623 0.032367434 0.33868518 0.058441643 0.06252106 0.09395209 0.14462672 -0.03029711 -0.082356684 0.030865317 -0.16415475 -0.15922338 -0.21261962 -0.3113769 -0.34093055 -0.33754453 -0.08794569 0.058262978 0.04869638 0.0015731357 0.061136056 0.08228924 0.10772947 0.24585517 0.23228143 0.3590449 0.38801843 0.11643384 0.008243097 -0.15107012 -0.2840744 -0.1708745 -0.049270857 -0.046076786 -0.15156701 -2.8274307E-4 0.2548394 0.2439282 0.15786767 0.014727117 -0.04640377 
0.13164848 0.035975635 -0.042403918 0.033454403 -0.025477694 -0.035094585 -0.01565776 -0.026475288 0.014134867 0.10079183 -0.03711261 0.03661803 0.06433028 -0.0685115 -0.07993994 -0.09870303 -0.027281528 0.007420408 -0.049422074 -0.15350384 0.021497915 -0.006774369 -0.011969459 -0.0066033904 0.02460836 0.042259306 0.13872123 0.17910199 0.15967964 0.058457088 0.13617285 0.11042116 0.23310116 0.095057 0.05457204 -0.05252521 -0.30993056 -0.21494119 -0.095610686 -0.054899756 -0.29439166 0.07814644 -0.0035377294 -0.13814306 0.06584076 0.19684151 0.07439591 0.0493985 0.17437723 0.11801879 0.039267886 0.22299922 0.3654531 0.27857512 0.24105482 0.12690902 0.098341934 -0.03993798 -0.15388942 -0.13721804 -0.27865726 -0.07617097 -0.051305242 0.07797293 0.16548465 0.2086777 0.061082687 0.04668914 0.009389493 -0.116023906 0.13354917 0.35307857 0.40652043 0.39466938 0.36105072 0.36600953 0.24050972 -0.19952829 -0.26900637 -0.041144386 -0.2427724 0.06615504 0.013437527 0.09315831 0.15286379 0.2216765 0.25034055 0.14911506 0.26436907 0.06958446 0.15115538 0.19715226 0.42776635 0.39572802 0.43458414 0.30645174 0.012463541 -0.05844014 -0.046376556 -0.1414753 -0.08760126 0.09600304 0.078141004 0.049124744 0.01634007 0.12592271 -0.046493806 0.0234694 0.058779195 0.033893988 0.17280108 0.023814717 0.06636986 0.2705669 0.5574321 0.47403914 0.24208851 0.030629415 0.013486256 -0.059975464 -0.1268251 0.12340945 0.15356699 0.059382387 0.21147156 0.085420825 0.05460976 0.30690995 0.17109098 0.19820355 0.050709363 -0.036742005 -0.06280455 0.17581469 0.65452063 0.49714443 0.09664954 0.15653777 -0.058545608 -0.06893164 -0.10566695 0.07019253 0.39898494 0.1347558 0.26219538 0.14244479 0.26566216 0.39917648 0.11241395 -0.061832774 0.07376823 -0.24369998 -0.08743165 0.07678411 0.6202927 0.39501217 0.17952283 0.0011238151 0.095039554 -0.16756663 0.061537918 -0.006923658 0.124111205 0.04513671 0.18901932 0.2379387 0.097431526 0.1334842 0.06560959 -0.24710025 -0.18718529 -0.14860152 -0.21798505 -0.01401599 0.40600878 0.51121014 0.1424212 0.037075024 0.25611225 0.10395184 0.102387995 0.049558636 0.056596685 -0.1024255 0.123764455 0.07407634 -0.16908476 -0.028529696 -0.019695945 -0.4740045 -0.3979734 -0.18293954 -0.2680486 0.0020044427 0.4087049 0.3615985 -0.022415278 -0.009818979 0.2869083 0.07540696 0.11101395 0.030924799 0.2306314 0.2968193 -0.15258059 -0.19786574 -0.23576635 -0.25982967 -0.43622994 -0.32922474 -0.30688748 -0.34239736 -0.37135074 -0.21669196 0.2139838 0.3640073 -0.08783232 -0.13884376 0.16521083 -0.013833887 0.045590997 -0.09740236 0.03782216 0.12980227 -0.10772129 -0.084115304 -0.20238608 -0.24788025 -0.050828483 -0.10835523 -0.25067183 -0.37801224 -0.344145 0.012573912 0.026497165 0.13982275 -0.25859404 0.007236223 -0.08622171 -0.17566437 0.14037473 0.06348384 0.13244799 0.1651048 -0.06557303 -0.2458625 -0.28785244 -0.07373312 0.16305703 0.08219634 -0.31043953 -0.14058745 -0.11229091 0.08706383 0.1881786 0.11090222 -0.068611115 -0.05034165 0.07095754 0.19903004 0.017377883 0.09444761 0.19931543 0.084428705 -0.093665205 -0.012612049 -0.009309378 0.12167245 -0.10245813 -0.2112652 -0.3167678 -0.10011957 0.036936652 0.10901744 0.14011513 -0.054275163 -0.089303695 0.06399902 0.16130413 -0.12825693 0.11946836 -0.05685642 0.09133278 0.030620258 -0.40770346 -0.20838027 0.036947533 -0.084827326 2.1695513E-4 -0.13047749 -0.03550349 -0.14206707 0.26337543 0.11978046 -0.005389371 -0.032509405 -0.12567171 -0.25403315 0.083893865 0.024603017 -0.09133161 -0.07154664 -0.11976013 -0.10869933 -0.20905286 -0.0542738 0.25572914 0.06829201 -0.10407458 0.16152659 0.17130564 -0.032229204 -0.06877547 -0.079892136 -0.06776954 -0.010472427 -0.22855943 0.014814796 0.27188078 0.05768203 0.006812676 -0.123868145 0.08348881 -0.055945504 -0.18888797 -0.1641193 0.035615005 0.26406968 0.0761746 0.2886115 0.03811413 -0.13451914 -0.06626552 0.0060956073 -0.014751556 0.03193442 -0.017795075 0.011827603 0.14862098 0.062183864 -0.023922505 -0.08658115 0.09539348 -0.1539291 -0.04764923 0.0034690078 0.12129247 0.18057044 0.1522978 0.20739011 0.16095501 0.10215358 -0.06686031 -0.08662274 -0.15639518 -0.030553736 0.09846815 0.018450284 0.17766446 -0.03255844 0.015415997 0.027364928 -0.017754033 -0.11478391 -0.16845825 0.10251517 0.108785056 0.23484688 0.08510533 0.08873705 0.25496835 0.20269302 -0.009305376 -0.050121084 0.02140054 0.078245476 0.16461208 0.16407986 0.023137411 0.08303291 0.03252723 0.011328497 0.015724665 -0.09609124 0.17213431 0.19225936 0.2899403 0.2488752 0.15014808 0.0998184 0.15179236 0.19572927 0.15389006 0.16613857 0.26885605 0.1485596 0.107240535 0.107658505 0.13026513 0.044371855 0.12131076 
-0.3100788 3.0216368E-4 0.017713185 0.07409039 -0.01319974 0.050833736 -0.06385467 0.013323991 0.013534988 -0.083414674 -0.053301543 -0.03794418 -0.080363475 0.059684332 -0.052677967 -0.06366804 0.075268544 -0.02015517 0.09608374 -0.011006891 0.025808055 -0.05243184 -0.013510892 -0.0034440404 0.042280883 0.08775027 -0.039779536 -0.252182 -0.19068831 -0.08881245 0.046273492 -0.03346993 -0.056291465 -0.13685843 -0.015334991 0.14677063 0.41137683 0.32146102 0.19326715 0.15487973 0.085203655 -0.00951715 0.13946423 0.09307227 0.207275 -0.0036244038 -0.04351373 -0.25769728 -0.35376444 -0.37676415 -0.24938172 0.11280535 -0.04948392 -0.09311199 -0.24540819 -0.013380556 0.23061927 0.26229984 0.13819292 -0.06144757 0.042705856 0.081287906 0.106374756 0.12704828 0.010215971 -0.10119417 0.027780663 -0.17963709 -0.22367641 -0.075181656 -0.09414266 0.061162036 0.015859023 0.027244484 -0.031768627 -0.13709147 -0.15562016 0.18275319 0.0014895704 -0.08409923 -0.11054595 -0.06105762 0.18859869 0.30326542 0.1352917 0.0047683017 0.013073745 -0.30973762 -0.19795224 -0.17823325 -0.026657093 0.03527738 0.075897485 0.1707819 0.063131176 -0.040879846 -0.002301997 0.11290799 0.09797837 0.15014178 -0.060106933 0.12159115 0.26490593 0.19639319 0.19085346 0.0012186415 -0.034723394 -0.014766972 -0.088085 0.038823374 0.022897184 -0.14825346 0.04183274 -0.0638076 0.022431154 0.10777662 -0.018110486 0.024803435 0.09393503 0.22595058 0.12508601 0.07366206 0.24974993 0.24214914 0.14099562 0.09744017 0.12224572 0.09652917 -0.046208024 0.098087266 0.14703618 0.06611588 0.091767214 -0.053891093 -0.040531524 -0.037837304 -0.028748514 -0.055525687 0.21909083 0.31120756 0.24813986 -0.014799227 0.15857702 0.09235657 0.026740417 0.083197996 -0.108401336 -0.13524619 0.044421207 0.26880077 0.36530405 0.16376601 0.31531382 0.18931098 -0.015462231 0.0213813 -0.082749225 0.03543376 0.07842089 0.20850877 0.16681318 0.04174595 0.08778332 -0.089771464 -0.13689168 -0.34353507 -0.16728643 0.0035159318 -0.08289271 0.3251755 0.39780453 0.3062756 0.2775821 -0.08128024 0.029713653 -0.04259268 0.08337471 0.07407412 -0.004060523 -0.13202716 0.12895319 -0.0039095557 0.14362448 -0.1150917 -0.23327188 -0.30274284 -0.06585886 -0.47567177 -0.33815894 0.1025767 -0.059244905 -0.045806013 0.031302724 -0.040673308 0.05574407 0.02065044 0.047127683 -0.103903644 0.12975442 0.040035073 0.21305925 0.038948245 0.34404862 -0.06257825 -0.031407893 -0.24522845 -0.54843074 -0.58326817 -0.40677673 -0.053721566 -0.036406077 0.031374075 0.114727415 0.2077215 0.042525068 -0.1848976 -0.039127838 0.24702354 0.17537417 0.06934494 0.29059187 0.015544542 0.30332077 -0.0045177876 -0.30179647 -0.2003508 -0.40684533 -0.35243872 -0.50475156 -0.27205333 -0.01418504 -0.025014758 0.23106012 0.16690688 -0.058242984 0.07339762 0.19786114 0.26806092 0.021348182 0.18416405 0.31475535 0.0047174986 0.5742913 0.098421484 -0.17498049 -0.01686368 -0.011164946 -0.33982456 -0.51204574 -0.13940568 0.079689376 -0.08980879 0.14004451 0.0646938 0.04549226 0.21660581 0.16561897 0.32300004 0.1870393 -0.0053553334 -0.09011892 0.088644035 0.5290813 0.039196216 -0.042086374 -0.30130535 -0.34681195 -0.20648466 -0.34823453 0.019982684 0.36699533 0.1197392 -0.3423866 -0.22310817 -0.031115433 -0.038348407 0.172496 0.4071176 0.47534892 0.25127098 0.15899116 0.05518366 0.4014032 0.10093538 0.1612202 -0.18669915 -0.4765184 -0.23224707 -0.23305899 0.12472272 0.3093644 0.11851899 -0.03914534 -0.0150887035 -0.12508276 -0.04529063 0.15499446 0.1114177 0.41287747 0.36381945 0.16863939 0.041450728 0.23390697 0.060370658 -0.027606102 -0.07615682 0.10597787 -0.180813 0.019719973 -0.16032307 0.09502568 0.31606603 0.1673612 0.18369962 0.26274267 0.35473254 0.2096086 0.29759958 0.18522756 0.2270346 0.0919157 0.07071739 0.144304 0.14417244 0.07799007 -0.16540413 -0.16427849 -0.15680689 -0.051232938 -0.17929345 0.18255548 0.109150365 -0.06932602 0.115582645 0.19371767 0.19366947 0.058446843 0.1503267 0.09751838 0.06593736 0.026667263 -0.0045373356 0.08773679 0.13203934 0.0029928477 -0.09760989 -0.04615084 -0.11158859 -0.009091173 -0.02503135 -0.020641098 -0.031837393 -0.06449791 0.08913478 0.2766959 0.19964261 0.2839612 0.11685478 0.08549983 0.102283336 0.08297602 0.036233447 0.060920104 0.14993185 0.13050225 0.12279839 0.06543762 -0.08623275 0.085552275 -0.12024062 -0.07156558 -0.0060622944 0.18668677 0.107487306 0.21142031 0.12656492 0.11906138 0.11691272 0.1389922 0.11674293 0.09134012 0.056570828 -0.031284433 0.13597572 0.21555795 6.1475504E-5 0.012789827 -0.10197085 -0.059050187 0.0771309 0.17841737 0.13346367 0.13097289 0.05953305 0.107269354 0.059329342 0.058839433 0.03230211 -0.0780585 0.13557099 0.15166241 
0.80112225 -0.028690271 0.05117912 0.0068487916 -0.06271658 0.002318336 -0.017584926 -0.024744606 -0.058981184 0.012330708 0.04743725 0.0363001 -0.00369933 -0.069744535 -0.03610807 0.07607317 0.058812343 0.0076047685 0.014072327 0.032895423 0.11063974 0.052360523 -0.07907553 -0.005203028 0.051657174 0.11560609 0.09778727 0.04536162 -0.014693268 -0.025934083 -0.09658557 -0.22176431 -0.14900705 -0.14630882 -0.032476656 -0.12484553 -0.10707552 -0.06403757 0.058417663 -0.03202652 3.3461376E-5 8.7711413E-4 -0.03847476 0.067166634 0.097595245 0.048668332 0.15246765 0.11527929 0.045875873 -0.0810194 -0.05252384 -0.071881965 -0.24225403 -0.28332803 -0.2598413 0.08975234 0.118742034 0.016572371 -0.101929694 -0.22426519 0.08339281 -0.005841064 0.060101252 0.10443624 0.14193143 0.19651498 0.16377935 0.16637154 0.13262357 0.14808331 0.12679993 -0.12668867 -0.26155576 -0.19905047 0.005823781 -0.12835133 0.037112042 0.18140392 -0.030827295 -0.0075866473 0.07056516 -0.08362923 -0.035048727 0.30664024 0.2867925 0.2290911 0.19784567 0.08839582 0.19538033 0.14704604 -0.03076047 -0.22956336 -0.25087753 -0.18059552 -0.22812074 -0.41651312 -0.14344421 0.05841429 -0.061545517 -0.17802069 0.16536151 0.015871195 0.034267776 0.36486134 0.2737083 0.23514529 0.17600106 -0.07366077 -0.10401794 0.15586866 0.22873275 0.13671646 -0.25283372 -0.47564927 -0.5595315 -0.4799562 -0.48878288 -0.17494267 -0.13824992 0.013323618 0.00470062 0.060008213 0.087769136 0.08456158 0.025486905 0.03390956 0.041633233 0.08972928 0.17803782 0.17582199 0.096453495 -0.053824957 -0.057802893 -0.2939524 -0.5140751 -0.62490773 -0.37882194 -0.32577243 -0.12607828 -0.10262843 -0.12688573 -0.050641503 0.04325776 0.116392896 0.06252709 0.177645 0.22489324 0.23094758 0.32408512 0.21382996 -0.04484434 -0.090858325 -0.0663434 -0.31555972 -0.5021157 -0.36885068 -0.24964048 -0.22218297 -0.031590145 -0.05143593 -0.12619302 -0.04540963 0.016310228 0.058038816 -0.0760409 0.06732726 -0.037591446 0.09217956 0.08363464 0.042374842 -0.11072443 0.07892217 -0.05575543 0.08001503 0.078027636 -0.09476111 -0.13235848 -0.10118318 -0.21096152 -0.11639108 -0.25087288 -0.0017102276 -0.10466165 -0.10992952 -0.035788853 -0.1235341 -0.18710503 -0.050381634 -0.17147559 0.12504745 0.1690152 0.22738992 0.10257667 0.40436083 0.35170323 0.42757148 0.33125538 0.10353047 -0.15708986 -0.16397338 -0.19701986 -8.58203E-4 -0.21272583 -0.0948007 -0.04588307 -0.08717115 -0.14072962 -0.0509936 0.06236182 0.12798108 0.2815604 -0.042867936 0.29981375 0.3036992 0.19244866 0.26900002 0.124390624 0.10932603 -0.103525564 -0.088503085 0.047488544 0.036859725 -0.073321596 -0.15584476 -0.060708072 0.09220011 -0.13064899 0.3128614 0.34431624 0.23044135 0.087717846 0.09818168 0.004036868 0.14555566 0.23281412 0.09300852 0.17308825 -0.16114365 -0.07332941 -0.0048871953 0.117061034 0.059299663 -0.026132187 -0.1596609 -0.10604883 -0.056040686 0.15257552 0.42198196 0.4271983 0.12360974 0.23265061 0.17784756 0.04103692 0.05160617 0.14389358 -0.06627709 0.010280005 0.06953196 0.03579384 0.13736945 0.21909475 -0.08266097 -8.590283E-4 -0.23891568 -0.1221089 0.017933447 0.21381801 0.17236462 0.13155055 0.0626099 0.21497369 0.027611969 0.04898114 0.15090732 -0.0387029 0.06991075 0.11489047 0.22119848 0.100691155 0.256886 0.17208123 0.041690923 -0.13335195 -0.02601201 0.0031270355 0.047455207 0.04810015 -0.11833042 -0.030250054 -0.120079264 0.12134576 0.16901301 -0.023342572 0.05212054 0.104482524 0.013384767 0.15930763 -0.0076148924 -0.013776389 0.073773436 -0.04656384 -0.009623375 -0.25241172 -0.015265941 0.036391135 -3.244585E-4 -0.06800788 -0.15417553 -0.26562613 -0.13961497 -0.04317137 0.050200798 0.22407767 0.10536503 -0.0027058332 -0.018907335 -0.033372693 -0.07058687 -0.087607704 0.12168007 0.010303745 0.104562365 -0.01537276 0.037221067 0.21625124 0.21899521 0.17120321 0.009447833 -0.28922284 -0.18027182 -0.12249524 -0.079220235 0.020205356 0.028383978 -0.1260917 0.009431963 0.043024536 -0.10211449 -0.051698912 0.038049802 0.18380675 -0.008651974 -0.04007976 0.062946744 0.07123901 0.13439313 0.09278486 -0.049602687 -0.31700084 -0.13964635 -0.121650174 -0.06816417 8.139123E-4 0.06689519 0.08370142 0.070393115 -0.06979545 -0.17026162 0.13760416 0.14429672 0.16701649 0.09226133 0.17313635 0.12063337 -0.023578826 -0.071433924 -0.121376134 -0.22102088 -0.24136733 -0.22208808 -0.23192881 -0.13453613 -0.15016663 -0.08883326 -0.15835206 -0.06032164 0.003686327 -0.028504677 0.15151174 0.0989276 -0.059257977 -0.0045715193 0.18149452 0.101894125 0.13442719 0.030921469 -0.07899797 -0.08001353 -0.32290554 -0.32783055 -0.37694648 -0.23915584 -0.20422614 -0.05292341 -0.18310486 -0.06804458 0.012333738 0.11769223 0.13138872 0.11978921 -0.098454945 
-0.38970172 0.02338754 -0.0051755854 0.022334706 0.08816478 0.08392615 -0.0533474 0.10327891 0.082677655 -0.012071062 -0.06406821 -0.02807319 -0.06662828 0.046528433 0.06810203 0.12734056 -0.041887183 -0.067635395 0.011888461 -0.086166784 0.066305876 -0.0761301 -0.04473584 -0.040657736 0.13576017 0.11392364 0.1068127 0.026057428 -0.13504891 -0.3237664 -0.12659854 -0.29240438 -0.22961122 0.08840702 0.4545164 0.4309015 0.36239064 0.2928894 0.10863832 0.09970983 -0.014924999 0.037390564 0.017541135 0.05960664 0.10811493 0.1661059 0.123497866 0.120754465 -0.1425336 -0.30008176 -0.25498125 -0.28003648 -0.3436205 -0.084997766 0.12347094 0.43329588 0.45195335 0.5100966 0.29068747 0.21016346 0.042780384 0.06336415 0.11410375 0.27628955 0.17590596 0.17875476 0.12101473 0.035353858 -0.017588116 -0.19352646 -0.31013793 -0.44697052 -0.12816301 -0.24091835 -0.21157967 0.08244411 0.68992466 0.53068686 0.49230933 0.26350927 0.11034802 0.10701307 0.19687404 0.24884532 0.22183083 0.35296637 0.2246087 0.06941367 0.043471985 -0.19933724 -0.31038928 -0.33578846 -0.3412324 -0.34987745 -0.52092564 -0.22413722 0.2961161 0.45167676 0.07106513 0.010435842 0.15358181 -0.027566273 0.1266627 0.20280951 0.19513258 0.18861794 0.3036215 0.008541447 -0.27545103 -0.24172153 -0.39581484 -0.20522624 -0.12805566 -0.22077248 -0.29243344 -0.4328588 -0.05696069 0.23653945 0.07116352 0.05536256 0.17365424 0.046314694 0.11843716 0.088303536 0.15940666 0.111139804 0.056522474 0.11799044 -0.04198753 -0.26402235 -0.38008893 -0.414122 -0.28725916 -0.19998483 -0.16200599 -0.36924535 -0.042411856 0.5599974 -0.07206916 -0.04492265 0.2196136 0.16645217 0.27520174 0.071928054 0.10797943 0.2862193 0.17731331 0.2004962 -0.046261746 -0.30070534 -0.47867313 -0.24674045 -0.046315484 -0.24368377 -0.23280753 -0.13987046 0.069043964 0.32825458 0.13459247 0.13591675 0.3118314 0.10220056 0.1916005 0.19057547 0.16175614 0.05611792 0.1329779 0.2899557 0.14555207 -0.34721053 -0.56018686 -0.2135264 -0.106115915 -0.053787354 -0.07208134 -0.09301413 -0.04602651 0.106543325 -0.06069747 0.21830106 0.68269956 0.06299442 0.49228764 0.26906118 0.1956035 -0.17642644 -0.13230124 0.3046409 0.03820865 -0.20499274 -0.1716537 -0.010942386 0.14044985 0.11853862 -0.22566217 -0.15973176 -0.073020704 0.051605176 -0.16646285 0.017871901 0.44156793 0.014807008 0.42390972 0.14876015 0.1636097 0.087834105 0.26405847 0.43937045 0.030511798 0.028008789 -0.09159671 -0.16875266 -0.061276022 0.1387438 -0.27615234 -0.18407384 0.019679239 0.0135344695 0.0039356775 0.26410046 0.6269357 -0.045198582 0.37814513 0.107720256 0.09081366 0.2686093 0.15150708 0.28309193 0.11339043 -0.046970673 -0.19671808 -0.38895646 -0.288445 -0.17600016 -0.0071453084 -0.01763699 -0.00869912 -0.10253157 0.05495317 0.023534464 0.5163484 0.050800785 0.41340494 0.11062853 -0.07787092 -0.0077857957 0.13265738 0.460496 -0.051442318 -0.15683573 -0.12857506 -0.072200336 -0.3857811 -0.34167606 -0.1714966 -0.24155106 0.08056089 -0.013234837 0.06823064 0.31615907 0.4932125 0.023911033 0.14353594 0.10012007 0.18168308 0.028453339 0.39975515 0.36930305 -0.14154845 -0.30813506 -0.24782771 -0.138399 -0.23867404 -0.2698984 -0.008535221 -0.051932897 0.04116178 0.094066344 -0.122692406 0.26252383 0.1221673 0.048894014 0.21915247 0.20880175 0.18468718 0.43110242 0.32229832 0.089264035 0.18227024 -0.017646821 -0.14818712 -0.13480873 -0.05270423 0.07357741 -0.06850627 -0.01023038 0.23643883 -0.025097601 -0.23532471 0.14489938 0.010333254 0.08357379 0.026225943 0.23980673 0.3530828 0.40414497 0.041303467 -0.0839246 0.026760934 0.17245063 0.04376227 -0.1447144 0.049867567 0.20564367 -0.07618978 -0.16065793 0.004101547 -0.15833598 -0.09377833 0.028951254 -0.11761715 -0.08598896 -0.106753 0.21525984 0.24880248 0.26723275 0.12053498 -0.042177975 0.080807164 0.17578824 -0.03178726 -0.21208286 0.0030114446 0.18070517 0.14915057 0.13380365 0.020985853 0.073042594 -0.06735343 -0.017686376 -0.21614276 -0.03419028 0.035055958 0.2704894 0.09324951 0.064985484 0.1930164 0.15041839 -0.116500326 -0.10677887 -0.22208129 -0.21303248 3.6680646E-4 0.0037914964 0.136067 0.19581862 0.0027903111 -0.13483027 0.019885028 0.09510023 -0.101558246 0.027834086 0.04176736 0.09706897 0.106008686 0.19309327 0.27686185 0.14459422 -0.03349388 -0.023910383 -0.16214088 -0.43444097 -0.15697029 -0.012132707 0.13153833 0.051552273 -0.021134537 0.039604925 0.0366708 0.07524489 -0.0145501895 -0.0020493385 0.0017729994 -0.10915716 0.11807192 0.3801414 0.23490804 0.21079227 0.01974815 -0.025167082 -0.109589204 -0.16640948 0.06723697 0.06350438 0.040995024 0.19105293 0.14378619 0.054738924 0.19295819 0.019184027 0.027188566 
0.69683176 -0.0689743 -0.046160977 -0.07352141 0.09502885 0.011165523 0.027434085 -0.0678819 -0.025910208 0.07465281 -0.012796055 -0.0052076 -0.04880459 -0.013993018 0.07257274 -0.0707708 0.06868785 -0.07213278 0.02670297 0.041387007 -0.054110624 -0.08137097 -0.03428141 -0.014155497 -0.02715385 -0.083377965 0.06257676 0.025551762 -0.093254656 0.13225766 0.28239703 0.35021308 0.27185234 -0.0049010366 0.03979708 -0.12247058 -0.23919691 -0.166431 -0.10248453 -0.16164662 -0.14816259 -0.03131371 -0.023230882 -0.10163288 -0.009273531 0.015180282 0.0353407 0.021664727 0.15625544 0.43963882 0.25418746 0.34793648 0.29009455 0.021137502 -0.032225717 -0.032438617 -0.075186506 -0.23465565 -0.24456407 -0.06555689 -0.12565848 0.028989892 -0.15416765 -0.2378654 -0.023854673 -0.024603715 -0.028421896 0.055678826 0.24090265 0.33340687 0.40802658 0.23281653 0.034967918 0.083093196 -0.015862042 -0.038620535 0.010571471 -0.109924 -0.34589714 -0.20485124 -0.08071582 -0.08066862 -0.08680841 0.019293321 -0.11768519 0.20659369 0.08108396 0.036129642 0.31087938 0.517355 0.14446975 -0.0027841886 0.15738982 0.2722069 0.104905985 -0.07605032 -0.12049166 -0.2747958 -0.19746223 -0.17567724 0.13569674 -0.08297759 0.058617204 0.053860396 -0.043472454 0.09944157 0.018425236 -0.039235093 0.2805977 0.1713886 0.26577795 0.021731008 -0.10532759 0.19193597 -0.04098201 -0.14819567 -0.24467462 -0.09560486 -0.13059197 -0.09932959 0.17045216 -0.13246565 0.012026868 -0.035553187 0.04464554 -0.13677482 0.16767773 0.10357416 0.51868695 0.32810235 0.38051227 0.21461047 0.053582758 0.12839082 -0.051168874 -0.16879243 -0.17755686 -0.14065705 -0.058127657 -0.06060208 -0.025240509 -0.022505356 -0.05225651 0.0037091698 0.075332925 0.031145131 0.19198559 0.39897522 0.8085394 0.42968076 0.15316415 -0.10446234 -0.29410514 0.08210318 -0.05338963 -0.08149486 -0.22078304 -0.23424473 -0.073919676 0.07677878 0.05483099 0.03900405 0.02302197 0.15356368 0.04023959 0.091125496 0.25432816 0.33174798 0.13610756 -0.006399622 -0.01771446 -0.19969839 -0.30756357 -0.1130887 -0.28640133 -0.45709044 -0.29430485 -0.13332014 -0.11248073 -0.014939587 -0.13522659 -0.071946725 0.06127723 -0.06163195 0.20222786 0.16918355 0.12846059 0.2075526 -0.25077856 -0.38036627 -0.29646346 -0.36435953 -0.5581951 -0.5227828 -0.4239404 -0.45738533 -0.23844314 0.022350319 0.023929024 0.10431949 -0.15977225 -0.04374026 -0.054006144 0.20338315 0.07318854 -0.05830766 -0.20987879 -0.27318758 -0.48980582 -0.5238227 -0.34775445 -0.3811083 -0.5947555 -0.5586251 -0.10613526 0.0784379 0.016446691 -0.046547264 0.10133799 0.120298885 0.13698642 -0.025131542 -0.12547827 -0.057308335 0.02201191 -0.13883188 -0.1469856 -0.44279158 -0.09967218 -0.046021577 -0.17100856 -0.32842484 -0.26247105 0.05546773 0.016258271 0.127912 -0.06784728 -0.052242648 0.21307081 -0.020988787 0.107062496 -0.02250965 -0.06835167 -0.06357257 0.06638187 -0.10637822 -0.30956355 -0.21119855 0.012338324 0.17961821 -0.074420474 -0.07201787 0.11373801 0.079210676 0.15909822 0.060680978 -0.007396575 0.17737368 0.05044837 0.013040471 -0.05938842 0.11572918 -0.063882664 -0.17499387 0.24874811 -0.07802391 -0.19936556 -0.092892796 0.14059916 0.4016893 0.25238234 0.14716206 0.2895536 0.14558478 0.062030625 -0.08986501 -0.014914283 0.17156287 -0.14289503 -0.060264323 0.12135015 0.07184524 -0.17456663 -0.14067367 -0.11381372 -0.042778187 -0.041569885 0.058796257 -0.14560603 -0.07704212 0.12757821 0.19015099 0.08674123 0.11200766 0.012727922 0.10849099 -0.061859917 -0.25124174 -0.14310996 -0.10758904 -0.034872383 1.2816581E-5 -0.19992152 -0.020245187 -0.12118809 0.0145185115 -0.20961975 -0.23262167 -0.09352618 -0.18267205 0.2673018 0.20607838 -0.050388154 -0.07448394 0.2746018 0.12827681 -0.09008663 -0.11511181 -0.009550362 0.11125372 -0.13174383 -0.02437477 0.1296876 -0.029780213 0.013702831 0.280551 0.05519245 -0.20752966 -0.14756083 -0.0347357 -0.08418726 0.06560865 0.1871455 0.19160496 0.1533731 0.1779086 -0.07218712 -0.09113935 -0.12622687 0.033723485 -0.03764459 -0.07067573 0.09247841 -0.022794018 0.15319288 0.07213307 -0.19988024 -0.3635437 0.05575547 -0.010751275 -0.04665301 0.122171484 0.25383046 0.08380289 0.021699436 0.040160775 -0.21998382 -0.17628047 -0.0813354 0.02818809 0.12562649 -0.01286124 0.14173657 0.12957709 0.015353792 -0.014056627 -0.14858371 -0.29695165 -0.088353336 0.03349849 -0.025201755 0.1854212 0.30100742 0.085596085 -0.047875118 -0.20627989 -0.32421458 -0.19562292 -0.14538819 0.074457936 0.0063959435 0.048275758 0.20252727 0.19771983 0.16299868 0.21349925 -0.18528292 -0.33506182 -0.18956144 -0.079815716 0.0559498 0.048979186 0.21296228 0.08118895 -0.0068856976 -0.070726916 -0.13104634 -0.17214577 -0.11452248 0.027730316 -0.052029382 
-0.51812494 -0.027326984 0.025833737 -0.017416136 -0.13479179 -0.12161517 -0.12408438 -0.12548164 -0.084070235 -0.09268053 -0.0025717004 -0.031146485 8.9155516E-4 -0.11088433 -0.03614132 -0.11726485 -0.09836885 -0.042721942 0.035973236 -0.11118071 -0.14236625 -0.0764194 0.0391407 -0.14164566 -0.25451487 -0.21763103 -0.30614498 -0.13376231 0.099664666 0.18816203 0.05055992 0.04857958 -0.16433823 -0.05579656 -0.19497478 -0.18946399 -0.104829915 -0.02536769 0.021339513 0.004113751 -0.11738149 0.062463343 -0.08224416 -0.30775866 -0.28364092 -0.16914347 -0.13912472 -0.09669587 0.04638908 0.33687344 0.10981874 -0.030356152 -0.11668542 0.18386512 0.1992853 -0.022392254 -0.07621732 -0.03796292 0.010963787 -0.0021906132 -0.37982374 -0.025740566 -0.06597967 -0.10796669 -0.17552108 -0.22757147 -0.11954418 -0.04527892 0.16539215 0.14414673 0.21647596 0.2448165 0.18212254 0.17263316 0.2741589 0.24027483 -0.11930106 -0.10242905 0.18313262 0.1478148 -0.3196425 -1.4119815E-4 -0.024976937 0.0426612 -0.18416952 -0.10610546 -0.12712577 0.047250036 0.12257901 0.07987362 0.21227665 0.17875119 0.09435926 0.0727981 0.38039717 0.40296626 0.017769868 -0.17968962 -0.13357702 -0.030887064 -0.20509322 -0.020879135 0.15370159 -0.19562544 -0.28202116 -0.17317604 0.115373075 0.27952182 0.14016518 0.1785139 0.03996161 -0.08859129 -0.023693841 0.10042391 0.45720705 0.8361246 0.27754328 0.0075716455 -0.08969131 -0.28544182 -0.22852127 0.0699152 -0.022735648 -0.08063023 -0.27539757 -0.21661466 0.044608273 0.2725876 -0.038676776 -0.13725568 -0.061490197 -0.17692551 0.05965754 0.019298453 0.37159905 0.7091745 0.116694406 -0.11578167 -0.13076554 -0.096822515 -0.17059517 0.011815422 0.09620787 -0.098361805 -0.11338392 -0.11636431 0.15099016 -0.07254233 -0.15736642 -0.04439869 0.041749053 0.09338083 0.16989519 0.27610323 0.42530903 0.40433818 0.30618986 -0.019518668 -0.30601314 -0.18929288 -0.28533962 -0.017522963 0.18600345 -0.040482372 -0.27746916 -0.3094368 0.11156256 -0.03497997 0.071516946 -0.06857389 0.30667117 0.22306608 -0.19156806 0.07866069 0.38976705 0.40268505 0.045666803 -0.27927637 -0.018191082 -0.046517607 0.0082278615 -0.017738568 0.1948066 0.016929686 -0.3863152 -0.121308744 0.15587588 -0.17138097 0.13395965 -0.010308325 0.18704577 -0.059824437 0.07759484 0.3843328 0.5869423 0.5216161 -0.20042023 -0.34844145 0.1475408 0.0369233 -0.12958305 -0.19009835 0.19755258 -0.02010467 -0.34786323 -0.26127008 -0.06405244 -0.12762879 -0.21282806 0.20684662 0.1606125 0.15986708 0.23648024 0.4681828 0.5183258 0.21073943 -0.2276388 -0.11448088 -0.100229874 -0.18795958 -0.17400517 -0.19374152 0.16498214 0.08102849 -0.19896072 -0.27520686 -0.3533379 -0.190692 -0.17994054 0.40892252 0.31173906 0.18456525 0.4161725 0.44803953 0.059464175 0.08664056 0.027924897 -0.20594715 -0.04619549 -0.17954604 -0.05947493 -0.16480716 0.007188645 -0.2265469 -0.06328269 -0.08915184 -0.25479785 -0.14962006 0.049130987 0.08091662 0.24785511 0.29747662 0.32678226 0.34112898 0.12676392 0.06932501 0.03834708 0.057991065 -0.15161546 -0.25281742 -0.13992997 -0.067245655 0.19341658 -0.050086197 -0.29996234 -0.15619195 -0.11433659 -0.095468216 -0.2969191 -0.18606654 0.26750848 0.4585343 0.05718122 0.032028746 0.03351966 -0.04694186 -0.021797348 -0.032220777 0.25037703 -0.05243361 0.12250938 -0.09931086 -0.015029844 8.3226484E-4 -0.101760425 -0.010390027 -0.13534987 -0.2703126 -0.28228885 -0.2456284 0.10391562 0.106805146 -0.06397328 -0.16868399 -0.13779359 -0.19605982 -0.17612253 0.13754003 0.41320366 0.1252275 0.30105135 -0.078120254 0.2082804 -0.11921256 -0.1072437 0.049099013 0.28872976 -0.08876012 -0.08360936 -0.11122672 0.07737133 -0.16001719 -0.28920776 -0.21220976 -0.26894376 -0.16676202 0.06555827 0.20723073 0.27808455 0.24305187 0.17038722 -0.015463701 0.23774035 0.030210853 -0.1966468 -0.22222616 -0.16468799 -0.050717123 -0.053659093 -0.05692809 -0.021935876 -0.29214448 -0.39450803 -0.2768272 -0.14775807 0.013637109 0.008528449 0.06320844 0.13113073 0.08922337 0.26350698 0.10485073 0.11709082 0.019216198 -0.015025076 0.067484856 0.008955389 -0.031479925 0.07126668 0.16612452 0.15921792 0.041589066 -0.25114268 -0.11518918 -0.2592906 -0.27905434 -0.038425755 0.06398685 0.04571826 -0.030120581 0.106741555 0.082328804 0.06395554 0.029827753 -0.12072912 -0.02292888 -0.0015362253 -0.037473284 0.08411419 -0.11755677 -0.015755555 0.15718526 0.0047805896 -0.045407407 -0.17357223 -0.049425803 0.0958397 0.21398368 0.12143685 0.0945145 0.048101638 -0.03623753 0.134164 0.21691681 -0.06578476 -0.0542165 0.032537524 -0.12205021 -0.007921269 0.078892946 0.028235752 0.0011095034 -0.01544765 -0.060119588 0.06004789 0.19311774 0.18483494 0.008882318 0.03630009 0.045480695 -0.054416906 
-0.29057914 0.031090064 0.06750008 -0.06257057 -0.050444555 -0.055086438 -0.10522859 -0.06865511 -0.10059617 -0.07921217 -0.078834325 0.013950026 -0.07885356 0.06261332 0.096979074 0.032152593 -0.015483979 0.030278977 0.070488185 -0.017543467 0.073297605 0.03614607 0.060514856 0.090848334 -0.014194741 0.11374715 0.028929802 0.024321862 -0.053441145 -0.14922723 -0.009852629 0.058594372 -0.032386366 -0.013764621 0.054929227 0.34318736 0.40682727 0.31174013 0.3383008 0.10909565 0.13364871 0.08616131 0.055961918 -0.052325964 0.003422516 0.010447845 0.023944616 0.018506626 -0.08634724 -0.027279655 -0.12670924 -0.109283276 -0.17699134 -0.07783295 0.15323962 0.42475373 0.5385111 0.2706521 0.13916053 0.17819566 0.027149824 -0.0014544202 -0.07900966 -0.015328727 -0.0893049 -0.004516545 -0.04963871 -0.031694353 -0.20775498 -0.15225591 -0.17459588 0.043696728 -0.02624293 -0.2526167 0.089931294 0.49613142 0.5484335 0.2034795 -0.0037421635 0.033760633 0.035763424 0.0586672 0.017525489 0.09005384 0.14247182 -0.007502686 0.08637812 -0.1358467 -0.2195656 -0.35378197 -0.15704072 -0.110871285 -0.05791689 -0.21383221 -0.069633536 0.22886485 0.65752786 0.39727858 0.1909855 0.06564513 0.034699358 0.061208867 0.015171815 0.08178532 0.10886633 0.06022868 -0.0855125 -0.1407984 -0.29205063 -0.28539792 -0.071554214 0.19870017 0.419224 0.04912919 -0.19445837 -0.08451142 0.3864557 0.36424726 0.13850805 0.004603981 0.016486783 0.106741734 0.16002548 0.22013985 0.14891893 0.09796073 -0.14932366 -0.20653224 -0.34963518 -0.14321594 0.18975343 0.4457412 0.40852028 0.023770403 0.036052305 -0.19068022 -0.019013867 0.22205158 0.11601672 0.20367195 0.100968264 -0.050516747 0.27207935 0.10999112 0.038579088 0.1096952 -0.17620364 -0.20122008 -0.02691769 -0.08535756 0.28551692 0.35722324 0.2798805 0.003274434 -0.033393655 0.046778895 0.20859754 0.27466673 0.2205094 0.21246922 0.16998631 -0.0023560298 0.15604231 0.013089699 0.13101353 0.06908096 -0.09309679 -0.12836297 -0.024815978 0.1542865 0.31555003 0.059367727 -0.05564492 -0.11205964 -0.34666488 -0.0027533637 0.22397818 0.24920501 0.30396172 -0.06921813 0.003334907 0.10168475 0.28214696 -0.055523563 9.2474715E-5 -0.014617244 0.051632427 -0.07375973 -0.14380825 0.0940333 -0.07419724 -0.24999706 -0.189244 -0.24781433 -0.3839773 -0.2402537 0.1828769 0.22531871 0.3327036 0.014176064 0.054425813 0.1349209 0.00345793 0.059005108 0.03575627 -0.050232485 -4.0009682E-4 -0.13079947 -0.0010817157 -0.07644393 -0.05455553 -0.24534974 -0.33942983 -0.16990264 -0.46413916 -0.13579343 0.2767589 0.21900283 0.17067498 0.011639711 0.017699765 -0.003369677 0.050453868 0.14928614 -0.007784072 0.13731556 0.021204533 -0.22927834 -0.34351155 -0.23119858 -0.1253469 -0.023536192 -0.17859069 -0.1848627 -0.19101855 0.11072937 -0.0014822901 0.3050663 0.117002584 -0.06149238 -0.058340326 0.030006632 0.045380004 0.05618385 0.026138945 0.21828416 -0.073185965 -0.25746387 -0.15778738 -0.2720767 -0.2589931 -0.34504062 -0.23893899 -0.10398326 0.07789431 0.15270875 -0.090567365 0.11357612 0.3340457 -0.043239355 -0.30565673 0.013029583 0.1506676 0.032305226 -0.015233622 -0.024025194 -0.057763666 -0.008201228 -0.27230483 -0.35087737 -0.19782165 -0.2714063 -0.12879129 -0.0769394 0.21075876 0.19335385 -0.040231016 0.16723114 0.21545315 0.024467034 -0.37864313 -0.03569157 0.1908913 0.1522843 0.0012668227 0.064100236 -0.129033 -0.06836801 -0.3138144 -0.18179913 -0.16179946 -0.14938912 -0.0028495945 0.024451312 0.18339239 0.2519901 0.17238632 0.13942426 0.19726498 0.039255526 0.07020363 -0.054792985 0.06198071 -0.025271071 0.030617258 0.071341656 0.09803321 -0.05250411 -0.12760912 -0.31996453 -0.40970552 -0.2558454 -0.10810448 0.17087314 0.28309557 0.16589682 0.23210809 0.35861617 0.28484938 0.05333486 -0.08523222 0.026157852 0.025577096 0.060683373 0.033374235 0.04039674 -0.07967219 -0.07806059 -0.2817287 -0.38622525 -0.2528308 -0.0037450863 0.105430044 0.26183462 0.3543606 0.18100283 0.10195671 0.31494105 0.14213482 0.007419809 -0.031662237 -0.07441539 -0.021863285 -0.046384763 -0.18001895 0.15814929 0.17046888 0.1271966 -0.17497754 -0.189473 -0.12024503 -0.11279155 0.05975034 0.36470503 0.3726535 0.34107903 0.29404232 0.21007553 0.06400748 0.06317496 4.469933E-4 -0.04926759 -0.16212694 -0.04466442 0.24296911 0.16258779 0.14821266 0.05721513 0.081002444 -0.150493 -0.088067666 -0.011255358 0.15577963 0.21435411 0.28391445 0.38950965 0.17983189 0.16563965 0.09576213 0.12976013 -0.0087812785 -0.09951363 -0.12801372 0.09543332 0.25332293 0.37542844 0.2621639 0.16104673 0.09617332 0.01381247 0.051682692 0.15858625 0.12132215 0.07027712 0.30294353 0.31845692 0.2096576 0.1280722 0.06976938 0.024800856 0.0010016975 
-0.12313163 0.07647582 0.04767046 0.0664261 -0.098172806 -0.07793659 -0.071735114 -0.046234082 0.053282276 0.021977236 -0.018135779 -0.03945423 0.026271338 0.017477797 0.06702353 0.04295061 0.03957249 -0.0764549 -0.04658972 -0.085420646 -0.08532584 -0.019953527 -0.10999523 -0.025862614 -0.03928437 0.01650844 -0.051896762 -0.07625509 -0.035273127 -0.028360758 -0.2525215 -0.12698556 -0.09171394 -0.030246302 0.10544616 0.12725374 0.007232474 0.13608697 0.17326446 0.11406893 0.0051940815 -0.073512204 -0.048759747 -0.17942269 -0.09665135 0.035266872 0.052258197 -0.055699125 -0.051546674 -0.12791497 -0.13123085 -0.16147293 -0.052531924 0.012566081 -0.02673568 0.29151326 0.21867232 0.14636807 0.0022093353 0.013899938 -0.10199895 0.022797914 -0.14306217 -0.08124278 0.08637873 0.27742454 0.06578554 0.01214459 -0.07659957 -0.08311887 -0.03795721 0.03283519 0.119947344 0.17704888 0.10088746 0.023080882 0.3219269 0.28380954 -0.0034679766 -0.07768405 -0.037693534 0.04372705 0.034091316 0.053387217 0.19927175 0.2658745 -0.014398389 -0.062057827 -0.026911745 -0.053284205 -0.04044662 -0.019695476 0.009642446 0.17696755 -0.122511886 -0.083388366 -0.011812645 0.06938861 -0.055667415 -0.23910505 0.13749027 0.096158154 0.033428017 0.07428028 0.12415933 0.15588382 0.09672709 -0.007945231 -0.20831476 -0.08869229 -0.076396205 -0.060876068 0.02296296 -0.09038777 0.014625741 -0.084672526 -0.025651194 -0.11929116 -0.12152277 -0.017134728 -3.3314887E-4 0.088728726 0.13688263 0.10130246 0.18082017 0.22145998 0.19285937 0.17199929 -0.10687159 -0.18825598 0.026666077 -0.09782842 0.048615366 0.12203324 0.018142708 -0.25745773 -0.37773678 -0.110679716 -0.12755431 -0.006270597 0.121246025 0.063909695 0.17439468 0.09109249 0.21052456 0.2748986 0.15803665 -0.00653497 -0.07516056 -0.17946357 -0.040760756 0.12145213 0.077219814 0.11381612 -0.07856716 -0.2170194 -0.15955475 0.04504676 -0.035439383 0.08674306 0.27136093 0.08556768 0.22671725 0.11848044 0.0143801 0.1554892 -0.079242535 -0.25347304 -0.20586972 -0.1635782 0.101645716 0.17633699 0.21441443 -0.030290574 -0.1774327 -0.03628526 -0.17737986 -0.23969471 -0.021120679 0.035694882 0.18929747 0.09801362 0.14766315 0.05795133 0.2584083 0.22054707 0.045895997 -0.10147127 -0.22897145 -0.29376853 -0.15870889 0.14100905 0.04027064 0.16853096 0.03474978 -0.14844286 -0.2218429 -0.07246492 0.12789218 0.07702184 0.14336325 -0.03609259 0.32434008 0.18464059 0.13150533 0.079888776 0.1542909 -0.13128643 -0.43019167 -0.18345115 -0.19234979 -0.19884036 -0.08527324 0.037375044 -0.072799966 -0.15442817 -0.20750675 -0.092734635 0.0044354447 -0.06451437 0.2997741 0.0041001597 -0.054892197 0.1886653 0.24297777 0.27193126 -3.0799364E-4 -0.18565227 -0.057041265 -0.27281478 -0.3102373 -0.15936854 -0.20570156 0.22472794 0.22575167 0.19851115 -0.07382339 -0.28335935 -0.22806884 -0.2198385 0.19926336 0.03238344 0.019942893 0.2759035 0.32173872 0.11080093 -0.032987498 -0.014535284 -0.11389737 -0.09616953 -0.055463567 0.22931722 -0.11230401 0.19321212 0.2605984 -0.03949201 -0.05577934 -0.11795986 -0.09106915 -0.06535785 -0.0110315895 0.053848248 0.13850504 0.30990756 0.2884304 0.2361361 0.26546797 0.039488822 -0.11020976 -0.1743695 0.12581193 0.10102022 -0.059084713 0.06532782 0.16295683 -0.055645656 -0.09730993 0.036779664 0.021779116 -0.031172644 -0.103406146 -0.028362168 0.043597996 0.12902145 0.0034523415 0.13178569 0.27283305 0.028048763 0.10340587 0.031105768 0.15805717 0.10307713 -0.047594134 -0.012174306 -0.06418261 -0.089489155 -0.12088995 -0.13479006 -0.083404206 -0.13813302 -0.101791665 -0.10318681 -0.09517066 0.087027915 0.11668806 0.28669497 0.33416355 0.21096864 0.035464533 0.1121199 -0.05091959 0.033196885 -0.10255412 -0.052820545 -0.06494919 -0.08246541 -0.065936655 -0.09574827 -0.009777875 -0.06379751 -0.17951955 -0.027209284 -0.029359877 0.24828777 0.25067 0.2655491 0.15254085 0.22967461 0.22045419 -0.05392109 -0.23102175 -0.24236093 -0.14560053 -0.051573973 -0.0054046893 -0.07301137 -0.073499165 0.12227343 0.033606626 0.010221654 -0.021992203 -0.06002518 -0.007830854 0.2217778 0.14481367 0.34833348 0.43097752 0.24798079 -0.05122433 0.07208017 0.025896955 -0.17781815 -0.09199483 -0.027700972 0.07495815 0.094861016 0.01930812 0.05795428 0.25122756 0.0839134 0.020159893 -0.0050724936 0.047026124 0.051754814 0.17767134 0.31168768 0.2730036 0.2970702 -0.037265964 0.026162056 -0.012353605 -0.16956244 -0.0860649 4.175289E-4 0.0986737 0.18602468 0.10663438 0.08392017 0.2515907 0.17962188 -0.025615849 0.01357988 -0.0458898 0.008245132 0.105727404 0.29100037 0.24848182 -0.035907682 -0.050422564 -0.061807673 -0.1554176 -0.22446068 -0.08715017 0.008731343 0.24153559 0.16846886 0.098729245 0.14505921 0.20014474 0.08447131 0.053138573 
0.066982776 0.08233636 0.07965309 0.067886 0.11021394 -0.037809752 0.018317105 0.04129901 -0.027401147 -0.05836896 0.0792767 0.117455184 -0.0055348235 0.018270602 0.12946022 -0.04263137 0.062257405 0.022881936 -0.01856618 -0.026570743 0.04283374 0.044063177 -0.106462695 -0.11364119 -0.07211488 -0.08621687 -0.10047129 -0.067668214 0.04221917 0.24336301 0.23440987 0.29911634 0.24818937 0.22175016 0.27086225 0.25246292 0.1713139 0.14638731 -0.05205162 0.052982833 0.050647035 0.042059492 -0.020374138 -0.08323438 -0.11246483 -0.20563383 -0.047582824 0.10972898 0.25012854 0.5094253 0.4445238 0.5554379 0.30858684 0.17060481 0.009232073 -0.07263827 -0.10553374 0.015663745 0.031821568 -0.053021487 -0.15268892 -0.035476666 -0.010991677 -0.19296868 -0.11379969 -0.30394772 -0.121180415 0.14011344 0.091204345 0.33232903 0.45793375 0.5168209 0.2580842 0.024317617 -0.0111142 -0.0605364 -0.3196721 -0.033433836 0.17429776 -0.2063306 -0.2788834 0.026069589 -0.13719055 -0.12526576 -0.13693233 -0.39076978 -0.2976999 -0.046005074 -0.03682179 0.31102148 0.4805865 0.36795968 0.028383467 0.0809062 -0.02876128 0.05068381 -0.072717555 -0.21419881 0.020875597 -0.12886803 -0.16839947 0.00815857 -0.20335212 -0.100206986 -0.20293088 -0.2781479 -0.15410493 -0.19962646 0.14472358 0.34506333 0.43041086 0.31119168 0.091059 0.047751512 -0.056658253 -0.0018729072 -0.08055586 -0.19052379 -0.22837383 -0.14239855 0.16706318 0.01951008 -0.23324674 -0.035841882 -0.26216856 -0.33552393 -0.053962473 -0.21043858 0.107202135 0.3209525 0.323163 0.21424173 -8.642225E-4 -0.08522481 0.18125127 0.04590116 -0.1433506 -0.21877874 -0.025495566 -0.06634276 0.11290219 -0.113255106 -0.24012654 -0.10635056 -0.3587676 -0.27955595 -0.26362082 -0.3822911 0.06787545 0.3004752 0.36372453 0.13991684 -0.18045573 -0.2198217 -0.16324043 -0.15622614 -0.19597505 -0.1311085 -0.118485466 -0.026479306 0.07834382 0.037764944 -0.1903136 -0.18442631 -0.3421488 -0.21527433 -0.1085661 -0.23032854 -0.06992542 0.42852148 0.3884335 0.22377194 -0.06932103 -0.10296365 -0.23201227 -0.35288823 -0.1241473 -0.10988527 -0.048985526 -0.19752197 -0.15519941 0.0045761997 -0.10547323 0.04296396 0.053777523 -0.013644958 -0.11700998 -0.14486635 0.17758669 0.4747637 0.5072331 0.2433074 -0.016717112 0.11311503 -0.17179644 -0.1917603 -0.09250497 0.012775192 -0.006979623 0.06707752 0.028907493 -0.0011778901 -0.006826251 -0.028740035 0.34292603 -0.069619425 -0.16513798 -0.049485385 0.32395524 0.44868958 0.5947692 0.18004638 0.14150451 0.05381186 -0.092914194 -0.3035892 -0.056497242 0.0080511905 0.018199995 0.06461493 -0.023064619 0.08637227 0.00637175 0.03583681 0.14904949 -0.31308597 -0.17542958 -0.2399484 -0.12533504 0.28689185 0.25451615 0.265421 0.18516527 -0.0089965 -0.16802369 -0.32728553 -0.24325359 -0.120254174 0.21651149 0.02993475 -0.0513858 0.005889886 0.23518206 -0.018057808 0.14422709 -0.010493698 -0.14377229 -0.16893455 -4.5415066E-4 0.17702217 0.12840019 0.14598851 0.14948545 0.11145522 -0.10412482 -0.13791767 0.058605522 0.022266801 0.05336188 -0.15544711 0.104403645 0.042413503 0.39240626 0.08391909 0.163105 -0.15138225 -0.25867686 -0.20272794 0.08200811 0.16228612 0.119400464 0.113232665 -0.053507205 0.06370299 0.038528968 0.13620903 0.017682696 -0.008877774 0.094109096 0.11092976 0.048904654 0.052297395 0.3894525 0.23973651 0.2627291 0.0016126593 -0.1971913 0.019843724 0.21278723 0.24477808 0.12796186 0.19643578 -0.08782014 -0.03007488 0.09012655 0.07152432 0.23939155 0.11245289 0.09188644 -0.006142072 0.03152547 0.16627306 0.48122463 0.244801 0.15184279 -0.2853313 -0.33494475 -0.08752077 0.18678303 0.36187795 0.28494963 0.19707364 0.06289052 -0.015125069 0.12451364 0.21450089 0.21898425 0.0055146664 0.032405674 0.23786877 0.12774856 0.10963822 0.3232347 0.21393201 -0.049445346 -0.3596381 -0.33839923 -0.13032234 0.15154462 0.23442987 0.23774114 0.1688595 0.02859207 -0.15261032 -0.042723462 0.19089517 0.15861563 0.085179 -0.044844866 0.11678171 0.11597166 0.019339876 0.26336542 0.13227043 -0.15213206 -0.2888946 -0.12660958 0.012983892 0.2784062 0.39176458 0.39778405 0.24783704 -0.11319998 -0.13799103 -0.19010374 0.059597135 0.13337648 0.2951583 0.02491678 -0.058799136 0.04170995 0.12748757 0.13590977 -0.009879224 -0.2318868 -0.27183643 -0.05814081 0.1473867 0.3118829 0.28777766 0.25842324 0.10148269 0.038794145 -0.025555456 -0.16901177 0.04664662 0.05229628 0.25981492 0.03991416 -0.040709946 0.08673284 0.050280165 0.0819015 -0.009805055 -0.0042884694 -0.038758878 -0.06914889 -0.011947175 0.17210056 0.21578184 0.040192213 0.086174935 0.008489484 0.020865753 -0.11795524 -0.19547436 -0.051547635 -0.084075294 -0.035114665 0.046330128 0.08066825 
-0.30487004 -0.07003142 -0.082787834 0.105753936 -0.026787888 0.061306667 -0.03686719 0.027990893 -0.0059479484 -0.065455586 0.054566104 0.029928591 -0.05628292 -0.08065286 0.052943785 0.060153235 0.11507588 -0.013964563 0.10242413 -0.04567854 -0.04096857 -0.07914226 -0.028697407 -0.04373193 0.07545403 0.07031328 -0.05747148 -0.11969883 -0.08480048 -0.059010662 -0.01671283 -0.1254801 -0.19403097 -0.013684443 -0.02801314 -0.07710142 0.16197379 0.23978864 0.14358297 -0.017254524 0.10044967 0.0042671985 0.07877621 0.13177966 0.030224515 -0.11702162 -0.115875825 0.002380797 -0.01666474 -0.018952098 -0.08298555 -0.008232453 -0.21567404 -0.20315161 -0.13104166 -0.14910075 0.039958242 0.19691917 0.14885668 0.070828855 0.105065726 -0.008471367 0.04843427 0.11758941 0.08892121 -0.17215241 -0.28380162 -0.20339745 -0.098089814 -0.0493957 -0.018586297 -0.08811216 -0.09117142 -0.26364058 -0.06480293 -0.028396627 0.07425933 0.05326775 0.20969157 0.036478072 -0.041205466 0.029097838 0.041877218 0.12780371 -0.042105764 -0.14057039 -0.060041565 -0.089163184 -0.1809888 -0.0766706 0.108483166 -0.024144981 -0.322615 -0.16105792 0.04494658 0.22961174 0.15998815 0.25447896 0.18933608 -0.008148204 -0.019896194 -0.02208008 0.15982342 0.12926556 0.06964672 0.0011480799 0.010837432 -0.10013928 -0.08345753 0.04859721 -0.112372324 0.04193409 -0.017795019 0.102672756 0.13532776 0.2735657 0.13730353 0.16928233 0.0347344 0.030560698 0.2355639 0.12597033 0.18186638 -0.0040004905 -0.16319284 -0.17884038 -0.11752393 -0.18438537 -0.11692607 -0.05265934 -0.26703283 -0.090071045 -0.0074723978 -0.01156513 0.23855263 0.29557937 0.090938844 0.0947079 0.01926617 0.16501305 0.29090384 -0.019265736 0.08328154 -0.005344106 -0.19186813 -0.14339758 -0.15295579 -0.1559451 -0.14667901 -0.13945408 -0.12047785 0.12910514 0.11504509 0.06755975 0.06077527 0.007943729 0.087173805 0.13946271 0.16992345 0.23119815 0.13175178 0.037080623 0.0482364 0.06574507 -0.04427983 -0.12088369 0.021048961 -0.011914951 -0.10597481 -0.0773532 -0.09037837 0.16397779 0.06582345 0.15007228 -0.087700024 -0.11811159 -0.0016158533 0.1707999 0.14706664 0.10707442 0.15817003 -0.008015274 0.020699764 0.021189474 -0.13874009 -0.10734596 -0.2306945 0.020983974 -0.14573295 0.04114268 0.31241214 0.32428372 0.32361057 0.1124452 -0.021291813 -0.04441147 0.0906658 0.24323896 0.15277423 0.1164488 0.09133392 0.10553984 -0.16244282 -0.18513541 0.091049805 -0.16704537 -0.18309991 0.09544248 0.2132476 0.31721184 0.5086384 0.52884066 0.41811532 0.33618098 -0.26170304 -0.038934737 0.12591374 0.31304982 0.24226241 0.07046025 -0.027596619 0.010526472 0.0267795 -0.058398847 -0.20294902 -0.25811848 -0.29197973 -0.22669464 -0.2188547 -0.09124765 0.2040177 0.1929455 0.030100884 -0.2456056 -0.2786205 0.018481549 0.17818806 0.30600044 0.26273826 0.17433041 -0.0841389 0.04034226 0.1591777 -0.24757127 -0.36793333 -0.20419948 -0.32961276 -0.055407893 -0.14363469 -0.09072802 -0.066685036 -0.17237103 -0.11022546 -0.19763912 -0.05417267 0.13337795 0.22188924 0.31654668 0.09315215 -0.11649634 -0.1232847 0.027687972 0.22491848 -0.14791809 -0.3210188 -0.25256518 -0.22438607 -0.25568846 -0.20442274 -0.0421945 -0.06310869 -0.326481 -0.1799286 -0.25875545 -0.06429832 0.25532565 0.3923622 0.18289532 0.08763676 -0.06961184 -0.0501876 0.16144523 0.31114438 0.19791172 -0.20589261 -0.2582309 -0.12847422 -0.2552187 -0.15788843 0.14220454 -0.07274435 -0.110405646 -0.06419671 -0.09671864 0.22156842 0.27981248 0.15241428 0.12090262 0.11263903 0.09471144 -0.08147424 0.023176858 0.22849247 0.106458336 0.07937439 -0.21923916 -0.30617994 -0.2360564 -0.16521417 -0.06420774 -0.19219565 -0.2139624 -0.030816443 0.10520703 0.053850807 -0.0247701 0.29192457 0.24467058 0.24512896 0.113256074 -0.02154742 -0.0036774671 0.10535346 0.07889757 0.04501723 -0.055773053 -0.20326588 -0.20154832 -0.26904783 -0.11011991 -0.07133682 0.004034655 -0.12387986 -0.1069088 0.10719608 -0.04698761 0.2320661 0.13266827 0.013574064 0.07391274 -0.07651288 0.034265418 0.05681433 0.0906092 -0.03957545 0.14328118 0.010638619 -0.16527294 -0.27344793 -0.14317018 -0.083063215 -0.10818165 0.13614716 0.17637518 0.10587423 0.03788555 0.17062896 0.11496536 -0.1121138 -0.14315934 -0.02513372 -0.010185477 0.021779021 0.015111165 0.032001436 0.1483218 0.12415089 -0.20749757 -0.2408394 -0.17014138 -0.179272 -0.0034815792 0.034098152 0.06429532 0.0393284 0.12023479 0.14284092 0.07663678 -0.1541717 -0.010183916 -0.15244147 -0.041517377 0.09550125 -0.026127065 0.09201454 0.2678882 0.07729385 -0.1482454 -0.09925404 0.014550057 0.010815879 0.10001254 0.12173161 0.0016111502 0.052772425 0.13789909 0.13830756 0.047102414 -0.122445345 0.019904252 -0.010853535 
0.26614538 -0.037657 -0.06233771 0.03909219 -0.048150133 -0.06935127 -0.11783139 -0.09618543 -0.008888675 -0.06465045 0.026227048 -0.022995062 0.08378182 0.08648007 0.010525791 0.015436641 -0.06827381 0.05057991 0.057388414 0.04587266 0.06264664 0.023804609 -0.12021451 -0.22321044 -0.19771358 -0.13204852 -0.104334325 -0.25039914 -0.26987845 -0.051407926 0.02916262 -0.025362587 -0.056706794 -0.023739992 -0.18322007 -6.324391E-4 -0.16029057 -0.17641445 0.006652764 0.149278 0.07547226 0.026919793 -0.22567621 -0.3284818 -0.28298777 -0.13529281 -0.23045209 -0.22182633 -0.096622884 0.19863395 0.12817554 0.014875825 0.051403746 -0.0117769465 0.045572545 0.08135513 0.1160623 -0.01734854 0.20647244 0.28290874 0.106747136 -0.009584799 -0.32976845 -0.21204798 -0.14187716 -0.23607895 -0.1260137 -0.0072858944 0.082645215 0.22922121 0.018138379 -0.10073963 0.019236542 -0.0031851616 -0.0273676 0.11645008 0.34235886 0.21965782 0.32506433 0.33036524 0.06335107 0.009847284 -0.20157222 -0.14891304 -0.18033388 0.006524274 0.11528653 0.13846065 0.16859286 0.07375621 -0.019831905 -0.081113346 0.18030721 -0.087285854 -0.12454157 -0.0028677015 0.09257488 0.3955167 0.31344557 0.26863718 0.13959715 -0.12526312 -0.097667046 0.016338756 0.0745616 0.18892379 0.07389243 0.12780932 -0.008667152 -0.092389576 -0.036848865 -0.04134787 0.061504606 0.17568837 0.0011837312 -0.12294778 0.2303961 0.23705013 0.32091781 0.17371002 0.20779547 -0.020393588 -0.15285411 -0.14087822 -0.042614184 -0.113942035 0.0030002515 0.1629678 -0.0023365852 -0.03191837 0.21631944 0.256102 0.25204945 0.27172515 0.28079632 0.16997786 0.35842323 0.3183959 0.33210316 0.11430788 0.02104957 0.006498776 -0.1110272 0.08257901 0.14298744 0.14389779 0.11691165 0.033928107 -0.008201055 -0.040211316 0.1949914 0.13663983 -0.023825996 0.18496847 0.34527656 0.3004657 0.4003598 0.28700113 0.17465745 0.15562966 -0.13086842 -0.07419086 -0.20888169 0.09703069 0.04987889 0.10344568 -0.07558429 0.07561417 -0.08162485 0.016503511 0.056780837 0.32600665 -0.13707732 -0.041295093 0.0064869216 -0.041619234 0.31866089 0.32203966 0.07032921 -0.039267942 -0.024861315 0.030346675 -0.043315463 -0.20876063 0.18449572 0.00615687 -0.053013515 0.19722162 -0.08791833 0.05445451 0.32406503 0.06973127 0.029977921 -0.09526359 -0.16157629 -0.09578384 0.20272742 0.19625746 0.07068315 0.015499317 -0.020107137 0.0791123 -0.13624977 -0.064444326 -0.0791392 0.09411617 0.18955055 0.16751312 -0.14789805 -0.118951306 -0.051094458 -0.004514661 0.0639982 -0.07386814 -0.042047184 0.12114041 0.30991882 0.056661744 0.10592295 0.11014987 0.02766038 -0.034720067 -0.11976691 -0.11215011 -0.13983148 -0.05713429 -0.1360602 -0.17854391 -0.4041322 -0.39610827 -0.17457777 -0.04639932 -0.13806005 -0.5013411 -0.39657733 0.08951029 0.06790424 0.13416843 0.23132181 0.15262578 0.17746109 0.044618 -0.12896548 -0.06467234 0.03178072 -0.2450494 -0.28696543 -0.31155196 -0.2935335 -0.58315253 -0.4960888 -0.47772893 -0.3846444 -0.75535595 -0.18807794 0.045947738 0.04016506 0.18896993 0.17113943 0.14722042 0.025975686 0.14616814 0.30080447 -0.11452383 -0.17857243 -0.0131234415 -0.1756882 -0.4194732 -0.36855057 -0.4724688 -0.31454375 -0.12677364 -0.26552844 -0.29435483 -0.09792047 0.112676814 0.17244707 0.12774476 0.032442573 0.037203986 0.031727646 -0.040282696 0.26747933 0.13502176 -0.10746075 0.074290514 0.07307794 -0.3336836 -0.53487337 -0.26345697 -0.08615176 -0.36688715 -0.0954647 -0.29389077 -0.11686788 0.14406393 0.18443654 -0.108596765 0.16010989 0.15103583 0.044523343 -0.039991587 0.054215018 0.019628363 -0.23554368 -0.14841397 -0.11268934 -0.5222104 -0.4696875 -0.43979692 -0.12842704 -0.25385812 -0.12514219 -0.0901992 -0.23470178 -0.015392131 -0.10858441 0.007497572 -0.03267478 0.15913922 -0.10395904 0.03958551 0.2450486 -0.13154331 -0.09983919 0.03746748 -0.11640998 -0.47414073 -0.5526989 -0.35278454 -0.22428314 -0.003017547 0.12878934 -0.0012332376 0.17152883 0.0516712 0.04031856 -0.13015862 -0.058129903 -0.13177472 0.044197828 0.0019805003 0.11637678 -0.04137536 -0.022101931 0.18126564 -0.15302251 -0.32086152 -0.07191468 -0.13171628 0.0025180494 -0.037364054 0.14644872 0.04897374 0.052451447 -0.077969685 -0.107197866 -0.20389889 -0.023693306 -0.036772378 -0.07531791 -0.018044382 0.13689901 0.013103862 0.13439308 0.16709736 -0.023478413 -0.25653517 -0.20964085 0.081538014 0.10337163 0.06203218 0.08187433 0.13692856 0.024495563 -0.01884417 0.044473514 0.057236347 0.15904298 0.14864017 -0.00994945 -0.050295763 0.07859335 0.031011317 0.21949075 0.24864544 0.0090938965 0.002790909 0.09732602 0.0017295763 0.29023784 0.16563256 0.17871858 0.032092288 0.16150455 0.16676718 0.22007355 0.12242608 0.14932005 -0.05394801 0.05883527 
1.0465162 -0.06343705 0.06953383 0.036989465 -0.071657375 -0.034072056 0.020658957 -0.04517356 0.11875509 -0.07436757 0.032685358 0.028090438 -0.087354414 -0.08995226 -0.013407129 -0.022380812 0.08208552 -0.05368452 -0.045252997 0.0034409594 -0.051225413 -0.057655204 -0.13353726 -0.09115972 0.113687105 0.07272023 0.1402071 0.018505678 -0.076590054 -0.17291377 -0.034229003 0.024963534 0.15924163 -0.11705955 -0.07761452 0.13118067 0.025411809 0.03483004 0.050901998 0.027470948 0.07124981 -0.0878843 -0.055295587 0.0611184 0.20324636 -0.017694278 0.16737874 0.02656699 -0.06626929 0.045269743 0.1096026 0.2314042 0.26523513 0.11815725 0.15360704 0.2484159 0.08160117 -0.0057188496 -0.0031561574 -0.07727795 0.08601206 0.016834022 -0.03964773 -0.03868035 -0.055469554 -0.14054063 -0.09342638 -0.11978554 0.017335868 0.017472802 0.12709199 0.09928622 0.23968387 0.27010077 0.15539609 0.18044987 0.49416113 0.17792176 -0.27214047 -0.1495795 0.19677995 -0.086677134 -0.07521539 0.09431531 -0.026394444 0.051441237 -0.0010819731 0.26893294 0.45415953 0.22173855 0.20846142 0.34719363 0.11914833 0.12317166 -0.0811231 0.016288059 0.2516794 0.5676132 0.050360013 -0.20993681 0.12341543 -0.050682135 -0.03383715 0.21964483 0.08153318 -0.24286842 -0.06283673 0.20031705 0.027404718 0.113657326 0.28818697 0.48553726 0.21837735 -0.19441055 -0.25005805 -0.08488976 0.049236044 0.26571378 0.15814045 -0.014113405 0.15505537 -0.084227555 0.049073882 -0.064251505 -0.11616888 -0.38654232 -0.2878987 0.168642 0.022861201 0.18296702 0.40898535 0.36530584 0.041391965 -0.32039475 -0.33210278 -0.2275742 -0.09391933 0.21928345 0.18960968 -0.18095867 0.35033146 0.05111862 -0.1453141 -0.11060566 -0.10297392 -0.15293063 0.094181195 0.261658 0.43053418 0.29915956 0.2064708 0.015201692 -0.38356182 -0.6042633 -0.14361073 -0.28029716 -0.0043927506 0.20977448 0.109738894 -0.023878561 0.20849983 0.071462266 -0.18661647 -0.13582082 -0.066088155 -0.026289413 -0.14901592 0.25639814 0.20865887 0.305963 0.013124194 0.10908633 -0.106048025 -0.3794222 -0.28951633 -0.25921714 -0.16542837 0.042111225 -0.08220698 -0.05131022 0.2059954 0.10471428 0.05560834 -0.1918701 -0.020058762 -0.088277526 0.041420657 0.6038349 0.1677364 0.23710872 -0.085034125 -0.281824 -0.38624802 -0.36711586 -0.3987163 -0.22752234 -0.052922398 0.019170515 0.018871585 -0.18630478 -0.1577378 0.09973056 0.15534015 -0.06824304 -0.22305912 -0.061781693 -0.045175266 0.26068735 0.102092884 -0.1615576 -0.3666823 -0.41894105 -0.31065226 -0.29262188 -0.28889027 -0.21673207 -0.050060607 -0.026895609 0.18330318 0.02467605 0.109042294 0.090777844 -0.15629661 0.014375338 -0.109370306 0.10928086 0.05377066 0.19583264 -0.1759213 -0.6101303 -0.6075908 -0.375637 -0.25545928 -0.18973288 0.01413376 0.21830496 0.04697455 0.19793743 0.12519234 0.068220526 0.06005003 0.0833006 -0.001249997 0.09684046 -0.04709425 0.00990014 -0.13964239 -0.14699888 -0.17548968 -0.523026 -0.51755625 -0.23990756 -0.16333507 -0.30559987 0.022987273 0.06392708 -0.09853116 -0.06297375 -0.09112877 -0.03574189 0.05229619 0.06369552 -0.025339048 -0.07402543 0.007934473 -0.032654684 -0.15063925 -0.09320691 -0.20758678 -0.14021903 -0.06910536 -0.1266048 -0.06719756 -0.1555017 -0.04094874 0.3234235 0.37670413 0.2903498 -0.20242538 -0.09517496 -0.07916665 0.07483471 0.20304124 0.13584201 -0.09208517 -0.008307246 0.14195016 0.09343629 0.03492811 -0.12780817 -0.03751242 -0.1657059 0.058305774 0.062580995 0.09865144 0.29240137 0.2952653 -0.040004756 -0.06887302 0.15245438 0.082467526 -0.015296586 -0.018254224 0.0038876706 -0.24626678 -0.25297162 -0.013513148 -0.11557936 -0.15805823 -0.39839426 -0.28738323 -0.35406 -0.0584882 0.17763066 0.18853474 0.14960428 0.010691247 -0.18100573 -0.0761716 0.13497747 -0.07204125 0.060054485 0.11370441 0.15926734 0.14173913 -0.012915332 -0.0102573065 -0.2058804 -0.3933388 -0.5027332 -0.35183936 -0.063154 0.03254115 0.16078813 0.013219125 0.041085374 -0.08428586 -0.10690226 -0.00571706 0.035704404 -0.038882647 -0.052712847 0.17575741 0.16312708 -0.051704917 0.18649434 0.14266822 -0.20966616 -0.29234204 -0.27044642 -0.15206906 0.098072946 0.14974421 0.21594666 0.264077 0.10327006 0.07906586 0.0050976514 0.07376269 0.029524863 -0.12784122 0.09083548 0.16742618 0.033803515 0.1917121 0.17557487 0.14405409 -0.02663856 -0.18475607 -0.02785323 -0.03709107 0.0452804 0.08141745 0.11123931 0.17356443 0.2340432 0.06801102 0.12096919 0.08049835 -0.06301042 -0.07722048 -0.007116604 0.14617968 0.21534093 0.34442484 0.5040435 0.27588916 0.17242217 0.07020333 -0.10717529 -0.12833427 -5.648591E-4 0.05867587 0.014775077 0.17073785 0.08610325 -0.076502755 0.17791213 0.14894192 0.06017409 -0.09902155 
