3
25 401 
-0.90753424 -0.09587796 -0.06573121 -0.060637552 -0.11070593 -0.014623729 -0.057778865 0.11520215 -0.100883335 0.014190886 -0.06912242 -0.10344078 -0.115761824 -0.0041759987 0.07224493 0.03344602 -0.047697484 0.007638738 -0.030071389 -0.03476076 -0.10584463 -0.10088586 -0.12512997 0.06797995 -0.0820481 -0.13290395 -0.040196404 0.18388483 0.24904451 0.25424212 0.06965483 -0.029105116 0.02552977 -0.3208901 -0.2733415 -0.1019198 0.04624767 0.1492068 0.17822783 0.24619061 0.23546281 -0.099877276 -0.058289178 -0.07682442 0.10437705 0.07145128 0.27536735 0.23478363 0.50385356 0.27112308 0.042186424 -0.07646494 -0.35428655 -0.19105728 -0.46799982 -0.28483385 -0.037439577 0.057811003 0.23783302 0.29531926 0.12672283 0.041195326 -0.028688991 -0.010248676 0.4035912 0.38304633 0.30672443 0.33908752 0.3635867 0.04132482 -0.31901392 -0.27883714 -0.2987714 -0.31412458 -0.41101262 -0.26096416 -0.09843093 0.05933205 0.35613665 0.172855 0.29275712 0.060432147 -0.25252515 -0.18927768 0.08196845 0.32927603 0.15894195 0.37283793 0.20561488 -0.09375505 -0.20001015 -0.17332086 -0.5120428 -0.46128047 -0.56708926 -0.2440651 0.055437695 -0.14230311 0.2956286 0.22689098 0.5022113 0.0429918 -0.23315984 -0.0714967 0.17657018 0.48221642 0.6400492 0.4675853 0.03006499 -0.29574275 -0.37056983 -0.30461946 -0.34848753 -0.14759544 0.05237916 -0.18298392 -0.179111 -0.09313929 0.16686195 0.3122715 0.22693054 -0.06726109 -0.20328695 0.014046521 0.47720996 0.45421377 0.2661971 0.23235552 0.04117506 -0.07110259 -0.4009494 0.029536992 -0.15875319 -0.032531068 0.22390659 0.1611447 -0.20061088 0.13387349 0.030251028 -0.046837278 0.39285082 0.090964764 -0.28458992 0.093398824 0.39586088 0.32745627 0.092888944 0.21109141 0.2969164 -0.26275125 -0.6305744 -0.49925965 -0.392382 -0.15592773 0.08644493 -0.07485389 -0.12523846 -0.26453656 -0.14213927 -0.10126763 0.6034406 -0.10213616 -0.20691523 0.32434332 0.8665785 0.6414267 0.53366405 0.21415588 0.11162101 -0.408614 -0.65390843 -0.4884739 -0.087620646 -0.33885816 -0.34875923 -0.40867883 -0.6079315 -0.2246007 0.20046876 0.2814329 0.229286 0.071951054 -0.09500198 0.31291658 0.8036787 0.6333729 0.46644995 0.59082675 0.21126321 -0.6714682 -0.5244524 -0.2917299 -0.3043737 -0.3317228 -0.29574883 -0.52724797 -0.5396925 -0.194834 -0.064293146 -0.12214317 0.25737768 0.018995874 -0.25067142 0.41342485 0.59178525 0.836559 0.89772654 0.6639832 -0.15967068 -0.35122454 -0.13335331 -0.16803256 -0.39394602 -0.8048888 -0.12676385 -0.5714098 -0.55917317 -0.13803956 0.10390047 -0.015457436 0.123611994 -0.06183489 0.001029892 0.3623216 0.87303156 0.67354816 0.67692286 0.15175636 0.0013905511 -0.03821356 0.15624012 -0.23945501 -0.4453271 -0.21405362 0.14464791 -0.16444117 -0.57827777 -0.2791278 0.3408742 -0.19994935 -0.2977297 0.0018080956 -0.17097402 0.4467415 0.7963268 0.6177581 -0.2186091 0.041984413 0.21974242 0.17492297 -0.064577274 -0.22955337 -0.10773471 -0.06895134 -0.5309063 -0.019668354 -0.21795338 -0.14663492 -0.1564645 -0.24979419 0.19688764 0.01148643 -0.21389332 0.34042624 0.37554228 0.5305989 0.051995263 0.06544455 0.40017706 0.43069872 -0.3433323 -0.05191308 0.35331067 -0.30870453 -0.34803477 0.12537791 0.07411044 -0.027484335 -0.0882573 -0.30941612 -0.119940795 -0.07265065 -0.20122951 0.11981588 0.2893214 0.52169925 -0.03208043 0.25241643 0.44591397 0.2767396 -0.08421656 -0.072675556 0.10129028 -0.21220443 0.02900993 0.11089802 -0.012933911 0.06535017 -0.2838605 -0.5848954 -0.1613327 0.07529138 -0.1962234 0.42189544 0.40410826 0.4392457 0.15714839 0.2408788 0.22551157 0.4378054 -0.061530568 -0.24722262 -0.13638851 -0.4017776 -0.13564377 0.01737565 0.42245394 0.13934618 -0.22287348 -0.28263986 -0.11416607 -0.033565246 -0.23467344 0.041945785 0.37231562 0.2173632 0.2864288 0.28587025 0.6665221 0.308229 -0.13455318 -0.37521026 -0.17541666 -0.37945336 -0.10780267 0.036568116 -0.13113435 -0.17290057 -0.29536456 -0.16544673 -0.11456329 0.0961518 -0.14027365 -0.19933037 0.17370814 0.01292235 0.09913713 0.13467546 0.29131564 0.13593005 0.074452214 -0.24982718 -0.10398168 -0.16515276 0.09328697 0.12689067 0.0059924335 -0.097131066 -0.2304129 -0.08944873 -0.04805754 -0.116739936 -0.29997045 -0.27967367 -0.22451183 -0.17288509 0.025796788 0.23043479 0.14310937 0.16925445 0.26035792 0.045040205 -0.18749684 -0.29993677 -0.083042786 0.0052165734 0.10668979 -0.08456902 -0.056722 0.06259281 0.09669987 0.013775419 -0.24256007 -0.16125041 -0.2481554 -0.10177096 0.21501455 0.29050767 0.3687856 0.42627916 0.31081587 0.0943067 0.013651044 -0.033553645 -0.13916768 -0.18570526 0.13597749 0.032281008 0.16142961 0.020467553 0.07019091 
-0.09403157 -0.09190861 0.034698468 -0.0990949 -0.12379523 -0.0769535 0.08953724 0.07326505 -0.09882137 -0.061394393 0.008789458 -0.015004752 -0.07382446 -0.011750196 0.04017003 0.12668692 0.06492268 0.070213184 -0.044650983 0.124586925 0.022945108 -0.10916512 -0.0100979265 0.027057497 -0.10411333 -0.10048322 -0.24867111 -0.21287873 -0.08516515 -0.13127704 -0.15326245 -0.28335473 -0.17456794 -0.13195463 -0.1315611 0.14304103 0.27642483 0.27285388 0.08973759 -0.057297565 0.053170763 -0.036054276 0.049534842 0.02557284 -0.06530298 -0.13716361 0.017142164 0.18577552 0.004358475 -0.09403473 -0.122098476 -0.27578887 -0.3575194 -0.43582696 -0.09714248 0.12540573 0.15933268 0.23867519 0.21383125 -0.13626184 -0.111256324 -0.08033352 0.076662645 -0.017674312 -0.053888977 -0.08348538 0.115304954 0.09543636 -0.018804714 -0.076342724 0.11328157 -0.03681718 -0.2311522 -0.5301766 -0.06514566 0.13596576 0.0453416 0.20511074 0.08572356 -0.068739034 0.09020971 0.037929937 -0.1098867 0.0040516034 0.07110814 -0.07109479 0.17066208 -0.15361507 -0.16788912 -0.21008539 0.22274913 -0.08817595 -0.09538751 -0.4746301 -0.098112 -0.2706127 0.005143095 0.26835495 0.25436804 -0.01817282 0.039903805 -0.091116704 0.013136592 -0.014666925 -0.09471762 0.091493756 0.0716621 -0.181852 -0.05839272 -0.097278446 -0.15456767 -0.0042226412 0.0026446017 -0.17725858 -0.4242935 -0.16482419 -0.10538308 0.028928906 -0.15404366 -0.19723713 -0.011059666 0.08986878 0.027449675 0.21909593 -0.104444005 0.13115992 0.167273 0.13315284 -0.063417874 0.08250129 -0.14748926 -0.033242516 0.157672 -0.12310473 -0.23983654 -0.19647083 -0.16798794 -0.17900708 -0.13678187 -0.031895086 -0.14716229 -0.057934538 0.07762292 0.13947049 0.0656055 0.23000288 0.11236142 -0.057687063 0.08102926 0.05605139 0.014540304 -0.0038595481 -0.048817456 -0.08356979 0.0068911547 0.08357668 -0.06563519 0.022111898 -0.19420291 0.059448607 -0.06799085 -0.058766246 0.19746079 0.13475443 0.11898149 0.2363562 0.027250709 -0.08567609 0.21317427 0.071033016 0.16307056 0.095474795 0.29972813 0.41721323 0.13982224 0.046256624 0.14740966 0.0964873 -0.07434762 -0.17026615 -0.15988982 0.15529959 0.14581192 0.042376094 -0.08041415 0.0058296113 0.10501867 0.007192911 0.1266637 0.4420991 0.4108289 0.27471533 0.726514 0.6336103 0.13768782 0.18355262 0.33648327 0.30973256 0.10085599 -0.042669356 0.03618255 0.10485473 0.21636473 0.05806834 0.025445102 0.31962085 0.15222526 0.26437995 0.2999914 0.52926224 0.7982584 0.68624806 0.5625098 0.3254574 -0.21833958 0.039293077 0.52604896 0.26703823 0.12858823 0.038251694 0.12732732 0.13148153 0.04409604 -0.0860312 0.21525966 0.3016072 0.24533354 0.17987795 0.5815085 0.5531522 0.7503181 0.37474036 0.033390667 -0.29579246 -0.20218432 0.08985263 0.33647802 0.053260807 0.12997496 0.1435549 -0.024526736 0.07893272 0.24554403 -0.12553552 0.24789998 0.18967038 0.12050472 -0.0032078547 0.226859 0.07431754 0.09083034 -0.0045574224 -0.04753033 -0.16755745 -0.0693377 0.18797405 0.20468757 0.15982704 0.18503246 0.0994823 0.06831899 -0.09297986 -0.031646874 -0.14987254 -0.0058878856 -0.17700262 -0.23830651 -0.5313088 -0.1896054 -0.2465596 -0.31797272 -0.22804351 -0.039495483 -0.34860027 -0.24549817 0.039012846 0.02410403 0.14078353 0.33972806 0.24969375 0.05054472 -0.0180156 -0.10416835 -0.12810507 -0.27179185 -0.45899555 -0.5142866 -0.396954 -0.38574415 -0.22522397 -0.0059089526 -0.08317414 -0.13613337 -0.383491 -0.29356518 -0.24610098 0.115575515 0.12065172 0.14240807 0.15462902 -0.020917207 0.099721044 -0.0560161 -0.26665044 -0.29179174 -0.18446206 -0.13099043 -0.039733987 -0.2866121 -0.004396005 0.05894688 -0.2587589 -0.04520255 -0.33180887 -0.32760733 -0.07512197 0.35105285 0.22611845 0.17760107 0.19973862 0.047970977 -0.060031064 -0.05618795 -0.037766833 -0.17302798 0.0043742177 -0.077019766 -0.06872552 -0.16210541 -0.015965335 0.053696632 -0.23755217 -0.20653546 -0.26840225 -0.13957335 -0.05290183 0.20412028 0.095380954 -0.0010256921 0.031702634 0.06166505 0.047180083 -0.10594536 -0.26854628 -0.0463037 -0.031840198 0.10562866 -0.22525968 -0.42151508 -0.19760604 -0.060693122 -0.11153914 -0.14106676 -0.12915674 -0.18303904 -0.0779082 0.05143923 0.04767039 -0.036713254 -0.020712314 0.03934394 0.10106152 -0.11002468 -0.015599133 0.2716296 -0.04011595 -0.12183041 -0.40330374 -0.40547252 -0.13777499 -0.28252804 -0.1766106 -0.17935495 -0.25355697 -0.2828824 -0.058408327 0.31474704 0.10476297 0.16831312 -0.042806786 0.036255382 0.0072168196 0.10497317 0.09352269 0.30460498 0.2637206 -0.11451457 -0.211281 -0.3051778 -0.36033556 -0.37772745 -0.19030024 -0.12173793 -0.06539779 -0.1134503 -0.061523218 0.17124625 0.124079436 0.15328549 -0.033380147 0.08039849 
-0.31133828 0.049099848 0.032463342 0.04109816 -0.02276899 0.10248969 0.13924213 0.03644589 -0.09756537 0.117608696 0.020418478 0.07281382 -0.11719244 0.014167394 0.06258296 0.04679576 -0.08119502 0.07696171 -0.082919836 -0.107107684 0.06455094 0.104501694 -0.07829859 0.0035102013 0.019342449 0.06054972 0.003802607 0.016693372 -0.03399475 -0.12919296 -0.0027689517 -0.023709664 0.042752307 8.0746086E-4 0.11983394 -0.035193764 0.1555411 0.04077239 -0.0028103834 0.09597084 0.3466405 0.095076375 0.044423796 0.13936481 0.09562466 0.15567568 0.049019083 -0.10206848 0.120180346 0.18940178 0.06795971 0.10826768 -0.14728566 -0.02422665 0.019146731 -0.03676878 -0.12486383 0.026865195 -0.03859851 0.08986516 0.27069446 -0.022489581 0.2235399 -0.015477462 0.20644611 0.18951035 -0.101804 -0.116161026 0.119260944 -0.08029755 0.063755296 -0.1537775 -0.26088238 -0.082954265 -0.10683357 -0.12975085 0.10646539 0.02274619 -0.23782267 -0.38236836 0.21127641 0.041340984 -0.035859708 0.090249024 0.027786732 0.06636681 -0.0347603 -0.060708895 0.08211659 0.1373971 -0.086832926 -0.19166669 -0.39803812 -0.15505202 -0.2717431 -0.29176992 -0.11136405 -0.17014973 0.05659481 -0.06308996 0.36287823 -0.08918017 -0.07019349 0.1315938 0.21498996 -0.06717852 0.07838586 -0.1620771 0.013038786 -0.14747165 0.17072013 -0.10232636 -0.15036859 0.08475915 -0.10059397 -0.14036778 -0.34900686 -0.17481586 -0.060858514 -0.011211435 -0.082398705 0.0034002883 0.16037084 0.3402547 0.25206128 -0.06253941 -0.07141115 -0.0050784065 0.06371498 -0.14063554 -0.006266151 -0.04595524 -0.063518785 -0.017866626 -0.08777734 -0.12626225 -0.22952932 -0.2319458 -0.1423483 -0.15360944 0.042207096 0.051412128 0.34915537 0.28493226 0.25040174 0.0046637193 -0.10853732 0.07984602 0.019379102 -0.33826408 -0.36718524 -0.16750151 -0.34741804 -0.48374665 -0.4717744 -0.19617397 -0.41413152 -0.31456524 -0.21873692 -0.14646924 0.034851115 0.0404578 0.4461276 0.28026742 0.441665 0.36346877 0.34149098 -0.12804699 0.087385975 -0.23771705 -0.41523862 -0.37563515 -0.11223447 -0.3453279 -0.3275929 -0.5617759 -0.41412163 -0.3359772 -0.12896968 0.006399355 -0.17789795 0.035114277 -0.02290324 0.14038593 0.596618 0.4694236 0.2368645 0.19171137 0.20828143 -0.32980913 -0.32911718 -0.2074948 -0.22766815 -0.40910944 -0.23728202 -0.3192929 -0.37762213 -0.3916984 -0.11942278 -0.094925255 0.006944596 6.602265E-4 -0.2122425 0.2363376 0.6891106 0.47827455 0.45018843 0.13787901 0.19136575 -0.22301841 -0.25360838 -0.27074957 -0.45963687 -0.75546247 -0.36956495 -0.25635055 -0.21826492 -0.11002886 -0.17971112 0.07658444 0.011545348 -0.02645023 -0.32950458 0.2673208 0.8751604 0.32155037 0.7622428 0.26072434 0.18695761 -0.102184005 -0.18472755 -0.22528146 -0.46555638 -0.24424513 0.07424988 -0.26592582 -0.57026565 -0.47043183 -0.07682744 0.05706417 -0.07973729 0.019978084 -0.44398746 0.21548618 0.4230971 0.55676043 0.5990301 0.28812185 0.1498628 0.102665365 -0.009918735 -0.17478602 0.2848362 0.07340669 -0.24356006 -0.18949413 -0.17593026 -0.37470207 -0.39772844 -0.05341242 0.032156292 0.02302128 -0.58380234 0.28627804 0.66345173 0.584918 0.47010243 0.35537055 0.4888393 0.5407985 -0.038021166 -0.31721953 0.074967034 0.06441427 0.033480287 0.107757024 -0.009547697 -0.23295382 -0.38725877 -0.079059586 -0.054532435 -0.09065509 -0.40298223 0.23273398 0.21991159 0.106687546 0.25811303 0.6443 0.38808438 0.13064966 -0.12443347 -0.062035725 -0.16456683 0.0023720416 0.23581673 0.22024435 -0.18527488 -0.300027 -0.36390263 -0.33293694 -0.14264193 0.07803874 -0.12671494 0.10998957 0.35679674 0.1393049 0.14569516 0.25745654 0.21494988 0.38082355 0.049386226 0.05628073 0.06966874 -0.28630295 0.13947748 0.24517721 0.06460159 -0.123615086 0.019924244 -0.020497397 -0.14731126 0.042965878 -0.3983658 -0.07544002 0.29538822 0.5554744 0.3594435 0.31861052 0.6951893 0.31987497 0.21593991 0.2737136 0.123703696 -0.05620174 0.09220944 0.04118026 -0.2012445 -0.17283915 -0.097315036 -0.05576954 -0.113559194 0.0059637823 -0.21233961 -0.2926623 -0.13255017 0.17029877 0.2586569 0.33946672 0.4755154 0.2847508 0.067733034 0.067607336 0.11432806 -0.05654591 -0.20747967 -0.05760805 -0.09494112 -0.23862924 -0.18271562 -0.122066334 -0.11900951 0.00925006 -0.20853697 -0.30388203 -0.02924394 -0.111912034 0.0026780348 0.31378427 0.2722481 0.17553426 -0.0039384803 -0.1705488 -0.017693555 -0.04008038 -0.25662583 -0.2594063 -0.2727126 -0.3286604 -0.122698 -0.1264768 0.02617132 -0.070150286 -0.16179387 -0.20458496 -0.15618724 -0.033475533 -0.089561746 0.104356416 0.26450244 0.13064514 -0.054779157 -0.1097187 -0.0048293364 -0.1960016 -0.38583866 -0.310833 -0.26430127 -0.28943208 -0.16700006 0.009047161 0.10866905 
0.06094218 0.0032605883 0.113300495 0.034236662 0.10303271 -0.05505697 -0.08622281 -0.042458825 -0.14302483 0.007468826 0.05988073 -0.056082964 0.07481615 -0.020779217 0.106132545 0.09714199 0.10577745 -0.038143605 0.04656161 0.08990618 0.038748946 0.04004902 0.15045448 -0.013963616 0.0026958163 0.12341248 -0.14787857 -0.094719134 -0.13433191 -0.13117312 0.012401295 0.010130774 0.1311761 0.29437408 0.30973688 0.049046773 0.089457154 -0.15133572 0.029637728 0.2030241 -0.06609892 -0.07658978 0.20226915 -0.016604876 -0.011744841 -0.038744666 -0.15963453 -0.18691356 -0.16821763 -0.13579261 -0.019248975 -0.026796991 0.2059746 0.43796307 0.3687458 -0.007551349 0.13295795 0.012387551 0.25691253 0.18324172 0.12372617 0.052016824 -0.07032834 -0.032858845 0.031821847 -0.30798945 -0.18008946 -0.29272127 -0.24563321 -0.27029163 -0.3023201 -0.26420882 0.19601876 0.20473136 0.17434427 0.3246565 0.20286371 0.025190765 0.35221475 0.44539315 -0.022934528 -0.1334536 -0.068883665 0.017294172 -0.19618234 -0.10527149 -0.0969944 -0.16014779 -0.12530112 -0.1927366 -0.46749687 -0.111670256 0.15106681 0.21274579 0.19771239 0.35918194 0.24805228 0.023773191 0.0925711 0.23437491 -0.13482098 0.092759535 0.14980102 -0.15019284 -0.21657144 -0.26214093 -0.22807397 -0.11771665 -0.3473968 -0.20319484 -0.39749917 -0.21800745 0.22358163 0.091157615 0.29820904 0.44904447 0.5347977 0.014429515 0.3155743 0.057549387 -0.025626943 0.057576675 -0.048381787 -0.24436387 -0.2578731 -0.12838992 -0.21688338 -0.50239813 -0.48020324 -0.27298254 -0.14073008 -0.08833763 -0.15670134 0.030171007 0.26407215 0.3111096 0.5706833 0.46333575 0.418241 0.2859315 -0.030451963 0.059698705 -0.16607283 -0.14289486 -0.02590422 -0.3606627 -0.43725923 -0.4873914 -0.31574896 -0.44670147 -0.30506274 -0.10609844 0.09011915 0.14234325 0.36552012 0.27142173 0.47992888 0.26038107 0.590382 0.0703763 -0.4787363 -0.13259344 0.21012236 -0.08448212 -0.0870799 -0.69538283 -0.35254925 -0.27505583 -0.485849 -0.597662 -0.37587386 -0.11688656 -0.13287315 0.34917033 0.48221102 0.40299726 0.32268482 0.4097512 0.24354477 -0.05031262 -0.42889878 -0.021441843 0.5014768 0.064868785 -0.09519255 0.062266547 0.08549952 -0.1127862 -0.46261248 -0.50618577 -0.22939229 0.008014229 0.1759263 -0.038434938 0.31047702 0.3651012 0.3388693 0.526893 -0.07680598 -0.21082446 0.0018962334 -0.031857334 0.19985221 0.15080087 0.1666768 0.3235439 0.27454633 0.25988412 -0.22846891 -0.3396236 -0.25079343 0.020334898 0.1947737 0.11099837 0.1635059 0.34653607 0.57744354 0.39093983 0.046871588 0.083142474 -0.12129791 0.12243864 0.3932092 -0.04781198 -0.012377502 0.066358596 0.20890686 0.12927945 -0.157901 -0.23656854 -0.16626292 0.13768357 0.21066259 -0.15912935 -0.32605654 0.094662756 0.15405564 0.41387424 0.10901447 0.28071776 -0.023233185 0.005338742 0.112408176 -0.018953504 -0.13590504 -0.21507333 -0.13277347 -0.26577526 -0.090310745 -0.3481995 -0.38624004 -0.4272994 -0.28607157 -0.49830127 -0.42413303 -0.16631104 -0.08440288 0.0256746 0.13067175 0.17612734 0.0986014 -0.10457562 0.32029772 -0.4075144 -0.45852262 -0.068341024 -0.25747105 -0.28789353 -0.40859246 -0.52794206 -0.2339233 -0.32855043 -0.3764809 -0.49008784 -0.41024762 0.042855747 0.2674551 0.024014955 -0.042548932 0.05975551 0.19372135 -0.06979143 0.34156862 0.0022015618 -0.15494514 0.016028412 -0.12763602 -0.3331865 -0.45849714 0.060821887 -0.03987395 -0.35924172 -0.22650641 -0.3152229 -0.014326861 0.26355422 0.29266882 0.30683348 0.1319844 0.09161031 0.301956 -0.08079265 0.24021079 0.1989877 -0.17956248 -0.19555187 -0.19110939 -0.38982993 -0.019874522 -0.17379661 -0.110705644 -0.023550015 -0.02232947 0.21482928 0.09527167 0.19929332 -0.02293025 0.16466291 -0.009158346 0.0010627476 0.047755122 0.052723687 0.30315554 0.11001823 -0.2432837 -0.40356347 -0.39934418 -0.19268018 -0.04645518 -0.0127704 -0.092261225 0.3194823 0.25810224 0.09837124 0.30668163 0.05588765 0.1281208 9.546519E-4 -0.14322063 -0.18179491 -0.08863109 0.07029272 0.01971895 9.684692E-4 0.30572063 -0.22276002 -0.45131102 -0.36607468 0.03938208 0.08989128 0.09391087 0.1667719 0.21931593 0.04486028 0.24696659 0.09093263 0.030931234 -0.15479621 -0.09300733 -0.17777182 -0.19038849 -0.06689767 0.057789326 -0.17337921 0.013923331 -0.13244733 -0.25277096 -0.20824966 -0.106845535 0.03745015 0.15977897 0.25006527 0.1581794 0.21681747 0.29352653 0.39398044 0.2386518 0.0069859284 -0.083093666 -0.18156822 0.0031750847 -0.03672086 -0.0564954 -0.15826747 -0.50684714 -0.44538116 -0.56852394 -0.066453464 -0.007841154 0.25415114 0.4386626 0.20132443 0.16162357 0.0033819622 0.4132421 0.43021294 0.14095147 0.015464845 -0.21178815 -0.0031004483 0.08379192 
-0.08225582 -0.047984704 -0.028455662 -0.048596427 0.007019491 0.11893576 -0.07814443 0.09497297 0.037183285 -0.08259403 0.0065936935 0.0013325224 -0.09638543 0.046036292 0.02573531 0.15439223 0.124508835 -0.040910248 0.00855509 0.018105205 0.0024598609 -0.10469038 0.09330387 0.17221032 0.2917366 0.10850107 -0.1490486 -0.32433674 -0.31678987 -0.46871307 -0.61482155 -0.36374825 -0.10442559 0.08513027 0.3087666 0.1995791 0.5266497 0.46988776 0.20499703 0.016702494 0.150281 0.120609574 0.24944426 0.36237136 0.33043697 0.048542026 0.021314923 -0.084558435 -0.42080465 -0.9065308 -0.7695832 -0.36763328 -0.12651753 -0.027334971 0.19518152 0.12483696 -0.04245933 0.10638569 -0.018175237 0.16425215 0.3528089 0.0878365 0.29464418 0.509763 0.17163162 0.117335 0.1683078 -0.1382762 -0.43606964 -0.65195245 -0.4131284 -0.23099777 0.06688605 -0.06260885 -0.114851326 -0.018117417 -0.073424846 -0.16977133 0.14435999 0.108789735 0.315953 0.1256007 0.34953347 0.15838999 -0.075137496 -0.06813154 0.058727093 -0.45239013 -0.9158408 -0.6853834 -0.4557865 -0.10030929 0.13904501 -0.07502407 -0.053014264 -0.035811022 0.100919254 -0.08532746 -0.21512009 0.06000154 0.0886299 -0.07574124 0.43529537 0.25900847 -0.018897593 7.2582904E-4 -0.18043444 -0.5700146 -0.57515866 -0.523345 -0.3675728 0.10484676 0.3042183 -0.23230149 -0.15083817 -0.28261125 0.08569796 0.110496536 0.04317473 0.22903174 -0.2534166 0.1607495 0.3367604 -0.008730962 0.027061032 0.4980405 0.07710801 -0.8226741 -0.73855 -0.44824004 -0.20649034 -0.14986028 -0.43080166 -0.07526798 -0.6243619 -0.47751778 -0.09558236 0.069021806 0.17257956 -0.011101362 -0.19896379 0.083281614 0.2511621 -0.015882486 0.28548938 0.24080843 0.1030736 -0.5864314 -0.7072879 -0.24964221 -0.565985 -0.28387403 0.13355069 -0.28225452 -0.42680052 -0.25234345 -0.20684572 -0.005057513 0.028925069 0.0021482585 -0.4224306 0.17490898 0.39982456 -0.3602445 0.2174438 0.3823204 0.22484732 -0.38765854 -0.6076893 -0.41660234 -0.46979618 -0.28656015 -0.08236188 0.31340924 -0.026079947 -0.027779588 -0.22300206 -0.2279586 -0.12644818 -0.39895514 -0.38300064 0.10279193 0.35591507 -0.18206796 0.2727178 0.33766904 0.141658 -0.4741492 -0.643496 -0.2236475 0.011407639 0.18756059 0.3274183 0.13031924 0.020043941 0.10433373 0.074343204 -0.20942041 -0.097098455 -0.33080214 -0.22837132 0.12578434 0.23243368 -0.36928228 0.29449576 0.37050226 0.060092665 -0.12382698 0.2786848 0.14260535 -0.012822919 0.20105606 0.15494929 0.38697663 0.1918828 -0.06399689 -0.10508063 0.21465178 -0.11847511 -0.156533 -0.06581169 0.12138265 0.22905716 0.068286605 0.06341337 0.16050203 0.21417126 0.47086424 0.60870194 0.08184483 -0.0651723 0.050027356 -0.0040230127 0.14978859 0.28515354 0.05099785 0.19961625 -0.08485006 -0.20899822 -0.081212096 -0.18709181 0.10729854 0.13923308 -0.10190936 -0.107599355 0.17137352 0.14979172 0.4724895 0.3721784 0.03662495 0.21622556 -0.07451982 -0.0650152 0.13664275 -0.089960195 -0.17528255 -0.022630783 -0.12050801 0.12911946 0.1469092 0.16074145 0.079874605 -0.020307112 -0.1858416 -0.036147546 0.17760159 -0.020476323 0.14452499 -0.02327342 -0.013613021 0.2670774 0.12012549 -0.0757798 0.3154991 -0.09873286 0.013272381 0.15859601 -0.1682826 0.031904366 0.16616358 0.08253821 0.042608276 0.068171255 0.21677047 0.11924327 0.02329881 0.17986447 -0.15497248 0.063972466 0.26831862 0.22187981 0.26693225 0.043994457 0.09635372 0.09007525 -0.032514624 0.16520506 0.34009913 0.087831244 -0.0147800455 0.14086306 0.06900546 -0.129774 0.29785022 0.31523052 0.18238331 -0.0044349493 -0.15450282 0.0017278752 -0.16963086 -0.19000828 0.016889572 0.23435837 -1.9194015E-4 0.051619243 -0.063592225 0.18276617 0.17965227 0.10911768 -0.14312899 0.19282009 -0.05060375 -0.38460892 0.12327687 0.32987309 0.22129895 0.17040099 0.06600628 0.052023448 -0.19109182 0.32577598 0.12924916 0.12165724 -0.21270965 -0.22724845 -0.24051422 0.218268 0.40310478 0.18836409 0.2162402 -0.011781788 0.08694395 -0.46150434 -0.10247318 0.00966381 -0.12603776 0.0043015787 0.13309044 -0.16109303 -0.15694351 -0.14035957 0.055852786 -0.044702586 0.23406185 0.26434186 0.15016313 0.3506305 0.38216588 0.28737214 0.21385467 -0.012637598 -0.13403167 -0.26794523 0.02064887 -0.024610264 -0.11451841 -0.2747285 -0.17331593 -0.06568098 -0.28592733 -0.22170979 -0.42130646 -0.32324865 -0.060870554 2.3857635E-4 0.42229736 0.40598 0.08034287 0.027846543 -0.1176568 -0.14579818 -0.045384794 -0.08119108 -0.22655478 -0.5951101 -0.56474954 -0.6510081 -0.31557474 -0.22461283 -0.42152256 -0.24841392 -0.27862635 -0.22098775 0.0850913 0.048279945 0.068451695 0.1838234 0.039302573 -0.09297022 -0.040134635 0.0042132623 
-0.77755576 -0.049658783 0.015016504 -0.061480436 -0.07764295 0.0587096 0.12159582 -0.09568395 -0.06941517 0.0044598253 -0.0095690945 -0.0021831272 -0.09280585 -0.12882578 -0.0040241173 -0.13531913 -0.06764367 -0.06343721 -0.047804087 -0.010463241 0.025491638 -0.081369385 0.08723657 0.13653514 0.27546147 0.15572983 0.12548389 0.10795423 0.1131043 -0.050120477 0.20714313 0.1530048 0.040100705 -0.0884378 0.055284522 -0.061565936 0.10148142 -0.026811853 -0.09335176 -0.05842507 0.014564191 -0.06501943 0.14481395 0.22669199 0.14345841 0.24458739 0.07887769 0.017562263 -0.031048678 -0.19566639 -0.038818497 0.21385115 0.08536824 0.121835746 -0.046926375 -0.24374576 -0.08635633 0.065432556 -0.12247992 0.0044671716 -0.077573605 0.07378914 0.16697058 0.038411777 0.12097618 0.27072117 0.1207401 0.002316477 -0.1472367 -0.026443167 0.1409912 0.24810593 0.40597275 0.2132543 -0.0062067606 -0.033720765 -0.20158759 -0.17122741 -0.047079477 -0.1507142 -0.3080327 -0.05576501 -0.120837234 -0.15293738 -0.12358552 -0.11642951 -0.12095194 -0.03930823 -0.025929697 0.091413826 0.046705 0.26176965 0.02735492 0.08297737 0.40318164 0.44175696 -0.039227758 -0.26100034 -0.11846031 0.10382557 -0.097681925 -0.093994275 0.10836852 -0.1606883 -0.15712662 -0.2813281 -0.19162185 -0.036553122 0.17175347 0.33134416 0.36618608 0.14554761 0.040577814 0.0973495 0.42172354 0.576388 0.1799385 -0.26874986 0.05443996 0.08481865 -0.032773286 0.15590703 0.10567969 -0.089912705 -0.2359927 0.13297985 -0.07196132 -0.19449192 -0.08699808 0.36204913 0.30498308 0.009106789 -0.0829999 -0.08259138 0.357994 0.61818945 -0.0045501045 -0.048016828 -0.14407799 0.030410966 0.18733135 -0.03682099 -0.03421217 -0.16819523 -0.06684644 -0.29247585 -0.39096448 -0.20693046 0.10619883 0.16801053 0.055580683 0.2731844 0.22010176 -0.06530764 0.29019076 0.46536294 -0.08466011 0.062383078 -0.07639679 -0.07420832 0.11899287 0.058990415 0.044684473 -0.33608413 -0.20034996 -0.2692783 0.08879824 0.065860674 0.34218347 0.21880877 0.22906868 -0.19882636 -0.027487788 -0.12026021 0.42032477 0.37410203 0.17163584 0.23328164 0.20129998 -0.04873234 0.08936627 -0.081727564 -0.034833495 0.06359894 -0.15838547 -0.08909582 0.13306023 0.02708224 0.22802486 0.11280638 0.13261233 0.15268913 0.039882325 0.035487194 0.3717934 0.16126324 0.04951984 0.005736337 -0.046869066 0.020971403 0.046282467 0.115010045 0.021788592 -0.06636443 -0.24411713 0.021541998 0.23545292 0.12992533 0.34599796 -0.052819096 0.36667818 0.23143612 -0.08946128 -0.0035871193 0.07137449 -0.085205674 -0.12166703 0.2078636 -0.026738083 0.026009075 0.08513021 -0.089224525 -0.0839825 -0.21250859 0.018466817 -0.039723553 0.20112416 0.17886084 -0.15613963 -0.14229798 0.2196649 0.11427658 0.17670499 0.002061517 -0.016061373 -0.109955736 -0.040727414 0.12189568 -0.057191867 0.05415256 -0.008364242 -0.06982172 -0.15929131 -0.35016534 -0.18108538 0.20876752 0.536919 0.4552385 -0.09630596 0.15184294 0.09306257 0.06166154 0.044434976 0.244681 -0.17298688 0.041266546 0.07028841 -0.06392847 0.19877514 0.15230733 -0.005050784 -0.06665488 -0.22469714 -0.07157844 -0.043793615 -0.026530426 0.47400925 0.37546748 0.0805369 0.025207665 0.14701954 -0.12609512 0.29032937 0.075085774 -0.2290116 -0.31039438 0.039486364 -0.12161915 0.15545835 -0.2594221 -0.2728164 -0.17820428 -0.003044778 -0.26321545 -0.19748634 0.017420428 0.34810543 0.21788926 0.12500584 0.00637729 -0.080003574 -0.021243935 -0.011924474 0.057295468 -0.12808454 -0.04778032 -0.19057284 0.13485615 0.13516626 -0.23060086 0.14511514 0.008250153 -0.06621236 -0.26280963 -0.4114888 0.07920027 0.5460181 0.34758398 0.11013734 0.044650927 -0.005536075 -0.10727989 -0.223779 0.010832291 -0.034938917 -0.0803577 -0.18336385 -0.09092541 0.07354348 -0.060196433 0.032554258 -0.03690078 -0.23300356 -0.14395219 -0.29417565 -0.12325365 0.41519803 0.34968364 0.46974543 -0.108577624 -0.1198724 -0.002927807 -0.13831359 0.0073494655 0.15813719 -0.09995049 -0.15578988 0.035569925 0.1014215 -0.14914346 -0.11639656 -0.006918346 -0.18940362 -0.038281467 -0.07862033 -0.14902738 0.34956354 0.55251366 0.5109389 0.2743043 -0.013678306 0.05577888 -0.23460042 -0.049208224 0.016251478 -0.16449158 -0.071822815 0.017736787 0.027657533 -0.16369683 -0.0022735065 0.048909307 -0.35790935 0.057452913 -0.022769095 0.1810382 0.46353957 0.50940293 0.62561816 0.52732325 0.42533267 0.27665642 0.27314842 -0.025917735 0.012327653 0.05819287 -0.16381001 -0.09546106 -0.09941792 -0.2787572 0.024010994 0.023919558 -0.027043145 -0.181531 -0.27156696 -0.1373789 0.33232725 0.40134436 0.6743812 0.5774602 0.58909774 0.50227475 0.222891 0.28338382 0.06775593 8.486473E-4 -0.09090753 -0.16393267 -0.26809138 -0.088221245 0.04693682 
0.4090728 0.0537065 -0.06855045 0.06727172 0.001185238 0.04113347 -0.06024662 -0.050615806 0.092254855 -0.07958261 -0.048590783 -0.07073515 -0.08316952 0.114983924 -0.08784011 -0.006446538 -0.021261277 0.06936191 -0.04919378 0.050701056 0.042360168 0.10830229 0.040820047 0.019843213 0.056117266 -0.005115133 0.179454 0.084302455 0.20206782 0.08327126 0.2574427 0.11411015 0.16148546 0.20044589 -0.10906216 -0.16859867 -0.266189 -0.33191234 -0.3639414 -0.011282652 -0.044761423 -0.022251558 -0.019178424 -0.13268109 0.10059855 0.20924746 -0.058680423 -0.061355706 0.106133744 0.12704726 0.17658249 0.21866043 0.19209242 0.054848656 -0.03215402 -0.17929006 -0.2793787 -0.37505257 -0.3892243 -0.2520795 0.062079858 -0.034120873 -0.15345055 0.040062007 -0.08101094 0.05239742 0.11668444 0.2282379 0.085140154 0.23894578 0.043018512 0.047649138 0.23614353 0.10579091 0.031974424 -0.32380146 -0.5475932 -0.39763147 -0.6255609 -0.2682059 0.15749998 -0.017994205 -0.057536762 0.079246014 -0.17808516 -0.3543865 -0.08632858 0.049344763 0.2288864 0.16944586 -0.14578746 0.16672662 0.23686278 0.42889827 0.088029474 -0.19071615 -0.5435316 -0.50789034 -0.41668132 -0.14446278 -0.001770933 0.06940647 -0.01963506 -0.07464737 -0.2892491 -0.10665293 -0.26863176 0.10779994 0.16042995 0.028488247 0.024582695 0.05003995 -0.0585985 0.10585633 0.037510302 -0.2479515 -0.53378344 -0.5785895 -0.27748707 -0.11913442 -0.088073604 -0.020955253 0.06884243 -0.14103118 -0.058192786 0.023749605 0.07135363 0.027849719 -0.08057181 0.102200046 0.13861439 -0.06409815 -0.064136766 0.017455526 -0.16030747 0.21286753 0.0049574855 -0.4942273 -0.15288632 -0.36094418 -0.32013217 -0.047707107 -0.022965772 -0.17352238 -0.12203826 -0.23297532 -0.020158302 0.107526824 -0.058356628 -0.13576351 0.13345836 0.037497282 -0.12998146 -0.0067078145 0.06192482 0.23395464 -0.06577474 -0.46691298 -0.23819992 -0.26301578 -0.2753245 -0.06735423 -0.246251 0.009942045 0.024877176 -0.008991251 0.07390542 -0.057652958 -0.0030392993 -0.086460195 -0.088095896 -0.20448484 -0.09372516 -0.02696762 0.15000886 0.34606192 -0.029448323 -0.24216524 -0.10913553 -0.5143388 -0.5785431 -0.030561253 -0.43084723 -0.32495436 0.12100137 0.0892487 -0.027280118 0.21649931 0.025357561 -0.16983218 -0.2592096 -0.33370978 -0.14409076 -0.0149420835 0.3252258 0.12676552 -0.17400177 -0.22095291 -0.05967006 -0.21216212 -0.5837969 -0.07869083 -0.53234106 -0.044665173 -0.079975426 0.040163685 -0.20277567 -0.20852825 0.006801194 -0.21769519 -0.2370192 0.023662431 -0.030423474 -0.037382215 0.29764122 0.42812678 0.068408005 -0.08515801 -0.16237561 -0.44496083 -0.6253496 0.047138043 -0.50474614 -0.16877815 0.23061383 -0.046001595 0.121763036 0.018409247 0.12371087 0.25640914 0.18094619 0.21469946 0.5362159 0.35753947 0.2756343 0.08195384 0.024320748 0.060651664 -0.38852897 -0.2593033 -0.423099 -0.106689304 -0.4473803 -0.178681 0.11509954 -0.22232974 -0.03786549 -0.16486433 0.1036939 0.5117811 0.46778262 0.25235325 0.304842 0.46115422 0.079840876 0.03816847 0.08144918 -0.096245736 -0.27538574 -0.4044161 -0.45046428 -0.02337073 -0.50326055 -0.06712827 -0.034585368 -0.060885366 -0.3115946 -0.259717 0.4244088 0.6172927 0.59840226 0.22256958 0.2983709 0.58256924 0.107476436 -0.06486874 -0.07749259 -0.050377376 -0.2861756 -0.46184522 -0.24058005 0.037167504 -0.3963916 -0.34226653 0.068892434 -0.32101458 -0.24758814 -0.041327808 0.26146528 0.18473318 0.3853652 0.27441093 0.19894183 0.29836133 0.4025445 0.21763618 -0.1896656 -0.06728903 -0.22928342 -0.55728364 -0.44362426 0.092808485 -0.25770265 -0.30931297 -0.23927517 -0.1180008 -0.31690526 -0.16859843 0.11772208 0.09804216 0.34436086 0.68288463 0.50516355 0.24542563 0.38244346 0.3727517 -0.010965382 -0.21038559 -0.3122442 -0.36937863 -0.19340141 0.02788999 -0.12503736 -0.21250299 -0.19721757 0.040258855 -0.057448357 -0.033600345 0.21802366 0.2819282 0.22634281 0.4815437 0.5079283 0.14131612 0.064532086 0.08961556 -0.15874214 -0.33707368 -0.24516015 -0.049279377 -0.037987284 -0.079830036 -0.067049086 -0.1072966 -0.07017049 0.010937375 -0.36519012 -0.052925076 0.3451561 0.12638731 0.42688325 0.5296922 0.32996956 0.090284236 -0.03835131 -0.24712351 -0.31276515 -0.26792416 -0.25987038 -0.18109256 -0.048366804 -0.050656945 0.04673882 -0.1588444 -0.35567465 -0.35466278 -0.32040256 -0.260339 0.0077248113 0.10819785 0.10837629 0.34105304 0.33806363 0.1052975 -0.18797238 -0.11136148 -0.17558983 -0.10508194 -0.035342347 -0.08069585 0.0016655363 0.0046659037 -0.0668998 -0.22880884 -0.3705517 -0.53895426 -0.5600327 -0.24296387 -0.1841776 -0.075617164 -0.09571904 -0.107948646 0.03654202 0.04603556 -0.0021514655 -0.08637064 -0.24821447 -0.27170822 -0.19782247 -0.11111143 0.081199065 
-0.03928561 0.04701432 -0.03203327 -0.047539175 0.0141210705 0.03521879 0.08852851 0.030349672 -0.042420637 -0.059328195 0.08379143 0.017346293 0.0074856393 0.0067108264 -0.105985835 0.051173154 -0.12588423 -0.13031504 -0.055735976 0.022718113 0.09473395 0.031303916 -0.12511906 -0.09816751 0.024527542 0.087726235 1.6775054E-4 -6.827121E-4 0.057041235 0.15963396 0.2045351 0.18734135 -0.09610341 0.0885247 -0.011498684 -0.20859179 -0.34258327 -0.36937404 -0.30905595 -0.029108299 -0.19010484 -0.031300116 0.00894996 -0.14049494 -0.018685354 0.11035021 0.07571317 -0.0012097976 -0.009599854 -0.081184596 0.060685333 0.16911085 0.2501449 0.21779163 -0.09928425 -0.51095355 -0.4228586 -0.48135945 -0.4373055 -0.30050668 -0.25535136 0.025270708 -0.11625823 -0.24504621 -0.10865381 -0.031046929 0.04187227 0.08106248 0.024159415 0.190472 0.07251847 -0.11508141 -0.03481736 0.027076436 0.080019586 -0.5183622 -0.6730405 -0.5033214 -0.34349194 -0.22593708 -0.27507263 -0.07783257 -0.026287233 0.005372357 -0.14788201 0.28717637 0.34599224 0.2934341 0.21874592 0.28677288 -0.021837693 -0.0026206244 -0.036512807 0.080772474 -0.020646077 -0.39385965 -0.6697171 -0.47924832 0.03088797 -0.07145377 -0.017284198 -0.119748995 0.057322033 -0.048792437 0.027779002 0.2554255 -0.07173951 0.074984774 0.18082492 0.14386995 -0.08965879 -0.08754462 -0.061513975 -4.566523E-4 -0.2639724 -0.3243529 -0.31930754 -0.21658438 0.25666156 0.06405402 -0.18969378 -0.12089928 0.06519585 -0.28622058 -0.13732469 0.08930733 -0.0059129097 -0.13726528 0.052646216 -0.10094724 -0.12785946 -0.09072921 0.07327337 -0.22403112 -0.19471145 -0.13281725 0.19737615 0.25326815 0.27350494 -0.13647696 -0.1415846 0.025774522 -0.25441495 -0.3583232 -0.08641648 -0.06315857 -0.11428227 -0.20271045 -0.33436403 -0.17322776 -0.11409998 -0.24310209 -0.13569087 -0.13610877 -0.057881873 -0.060750216 0.32114506 0.43639088 0.3615215 -0.1913669 -0.22690903 -0.13869092 -0.09937912 -0.33006752 -0.039575603 0.20134588 0.0948986 0.16805972 0.036816344 -0.30709374 -0.4957095 -0.49506113 -0.334133 -0.10289169 0.07622141 0.071679465 0.62653846 0.76969266 0.5909294 -0.14832892 -0.16886672 -0.059325993 -0.21306059 -0.14636141 -0.14738886 0.21010658 -0.04337539 0.20700821 -0.06521092 -0.2581068 -0.48016348 -0.31478155 -0.36147007 -0.1364576 0.12972015 0.23860677 0.13221508 0.42693844 0.34315646 -0.027189745 -0.17163785 0.041173324 0.056135815 -0.19739717 -0.20510182 0.20642509 0.08826896 -0.02627649 -0.023490248 -0.3609214 -0.32952777 0.21499625 0.0648157 0.25044855 0.35807887 0.37365845 0.16418679 0.23480748 0.32743433 -0.08031454 -0.21024822 0.012544531 -0.04383933 -0.18201976 -0.140284 0.43682516 0.12306706 0.12633342 0.058756065 -0.17823105 -0.2650246 -0.18535846 0.055906184 -0.09708497 -0.07975263 0.18408918 0.25385362 0.46182597 0.23291627 0.3465436 0.03545914 -0.04594395 -0.22877316 -0.09438437 -0.24902056 -0.0384555 0.11863842 -0.0023785776 0.28711325 0.051698644 -0.064063594 -0.16862473 -0.1445945 -0.06341815 0.0654451 -0.15929513 0.11689459 0.0281403 0.17567775 0.09633509 0.045040287 0.11697979 -0.07597017 -0.30585304 -0.13174284 -0.34351736 -0.2658931 0.04906691 0.15363662 0.0793726 -0.31998816 -0.1273221 0.3268002 0.18010502 -0.18531771 -0.10505742 0.13235098 0.091309935 0.15642007 -0.23546703 -0.30848056 0.11123931 0.105706595 -0.36656484 -0.22155726 -0.2761902 -0.41199315 -0.09627941 0.31747916 0.17953284 -0.17755778 -0.06443114 0.27248406 -0.01016972 -0.3275775 0.007756374 0.047725543 0.1528479 -0.031867154 -0.37781197 -0.51147604 -0.028165292 0.23977748 -0.4660465 -0.3476637 -0.39957905 -0.19950582 -0.02815097 0.07756419 -0.06858643 -0.02359611 -0.13564113 -0.13184373 0.20409092 0.08989932 -0.025531951 -0.002643934 -0.124517284 -0.40027648 -0.38045973 -0.3812692 -0.021271598 0.1799208 -0.26315808 -0.3262621 -0.4639838 -0.23459 0.012370469 0.006137816 0.03180458 0.09495164 0.2658423 0.25537857 0.2512123 0.05683535 -0.04664082 0.07160484 -0.21588299 -0.17896476 -0.25309625 -0.33943185 -0.023088524 -0.062211007 -0.21959132 -0.2418279 -0.1916835 -0.1420104 -0.0756929 0.04178512 0.25560877 0.45296183 0.24896285 0.23237956 -0.2272566 -0.33129597 -0.1847347 -0.037717324 -0.048928574 -0.26642546 -0.1502314 -0.12999998 0.067617886 0.059982825 -0.14465886 -0.34712723 0.02839075 -0.103776336 -0.12032963 0.3021887 0.30739298 0.30341962 0.15228501 0.19436836 0.16013774 -0.3004953 -0.28487602 -0.10062536 -0.19893607 -0.19572204 -0.23347455 -0.11775344 0.050271403 -0.04399654 -0.17517301 -0.22023171 -0.26200402 -0.08125802 -0.03364751 0.13937859 0.2056 0.20850077 0.38020584 0.28387982 -0.074834 -0.20693414 0.003186754 0.13120274 -0.017543197 -0.15214977 -0.23367348 -0.009306121 
-0.02090096 0.002019504 -0.13997893 0.047913153 -0.017617662 0.036248717 -0.038224284 0.12408077 0.058237817 0.07890098 0.034378473 -0.07266185 0.10027313 0.05901182 -0.13620171 0.07672438 -0.0076338137 -0.04673768 0.076012865 -0.04073612 -0.038162857 -0.072519906 -0.22397897 -0.3317501 -0.316077 -0.26671827 -0.09110386 0.119987845 0.13970362 0.2166189 0.1175961 -0.1363318 -0.23538513 -0.28345942 -0.27399233 -0.18788229 -0.23528813 -0.2624409 -0.14125529 -0.028558915 -0.2779022 -0.09000233 -0.26768902 -0.33111668 -0.36878532 -0.087834716 -0.029234912 0.08476566 0.24964209 0.40414646 0.066050865 -0.093470514 -0.15187144 -0.33790237 -0.14787261 0.20809087 0.3080221 -0.013991902 0.11411609 0.22497988 -0.37732896 0.063181765 -0.27264765 -0.44639996 -0.11498365 0.05556996 -0.04873243 0.2223082 0.4621321 0.26406762 0.1482557 3.1205156E-4 -0.09542074 -0.33760285 -0.015674993 -0.041010715 -0.011873576 0.01908915 0.04746359 0.22249055 -0.28434524 -0.053409915 -0.31527826 -0.15001169 0.2580031 0.45882115 0.33040392 0.26821634 0.4098742 0.06765164 0.16259122 -0.078323044 -0.20357369 -0.20376092 -0.19730149 -0.35293603 -0.41434506 -0.01619213 0.20761272 -0.30750093 -0.095410444 0.00963756 -0.24289355 -0.052949037 0.02536665 0.24276727 0.3189664 0.32880396 0.1404868 0.21120304 0.18509431 0.024476629 -0.19115457 0.056815557 0.01439248 -0.036669206 -0.2867538 0.028621746 0.1201199 -0.19613694 0.12974942 0.04039239 -0.32916692 -0.16512302 -0.28518406 -0.23650514 0.18362987 0.74604714 0.13749804 0.14469098 0.18109395 -0.039605964 0.04427305 -0.04811895 0.25303978 0.04935982 0.03516885 0.12923692 0.17946915 0.14876314 0.17731959 0.016648786 -0.40414834 -0.046334777 -0.10664325 0.29212904 0.7408557 0.61197746 0.30210868 0.1062747 0.2390883 0.22826771 -0.07094575 0.104519494 0.025868922 -0.15246971 0.11871498 0.2729514 0.057964835 0.037779603 0.15190926 0.06383153 -0.30540064 0.1248112 0.08052554 0.1708377 0.18423025 0.56932974 0.37999982 -0.26585224 0.15210332 0.20132694 -0.12740213 -0.051750124 -0.08452346 0.0231896 -0.09266552 -0.15893316 -0.09967527 0.016086755 0.3352582 -0.08549041 -0.44752672 0.037199326 -0.16728349 -0.2199801 0.0759609 0.6352179 0.66392016 0.016924176 0.17150918 -0.03710552 -0.17103884 0.16628361 0.05759223 0.3680255 -0.070087746 -0.10036867 8.242496E-4 -0.19199781 0.120706424 0.08576946 -0.16270499 -0.0031697094 -0.33279458 -0.28506473 -0.19082518 0.28061584 0.27105835 0.33406532 0.43275383 0.2029703 0.25057983 0.6304164 0.3696625 0.29457688 -0.040552076 -0.34391814 -0.1230923 -0.10697073 -0.026065871 -0.07057504 -0.2427071 -0.056334168 -0.18030033 -0.09029297 -0.5602176 -0.48154864 0.26621622 0.6546836 0.20050521 0.1954305 0.18481237 0.23945294 -0.11349924 -0.054918803 -0.29112214 -0.53333247 -0.060131304 -0.3128556 0.28713 -0.13658383 0.08707639 -0.15406199 -0.026133591 -0.07684844 -0.45065445 -0.16093811 0.11691382 0.20694198 0.0010344057 0.53389907 0.0509478 0.0029796173 -0.109957226 -0.2350332 -0.30453613 -0.28194958 -0.2441781 -0.037535958 0.47697031 -0.031551305 0.06335837 -0.043350976 -0.0018020549 -0.045523398 -0.1219787 -0.32576337 -0.22321224 -0.34022278 -0.13499163 0.16270217 0.14628676 -0.48431197 -0.17401896 -0.28768748 -0.3480789 -0.15837984 -0.20038201 -0.18820958 0.32602158 -0.010234859 -0.09636569 0.028322365 -0.18645287 0.07281097 0.0037989398 -0.2748762 -0.15336493 0.005752747 0.024160841 0.0023776118 0.24434534 -0.3298045 -0.2461204 -0.0061457613 -0.03813292 -0.28458 -0.10168721 0.21516044 0.08558225 -0.1238686 0.030238247 0.18308978 0.18756951 0.07159785 0.055804726 -0.1868146 -0.38140845 0.021494867 0.07566355 -0.1501899 -0.08591818 -0.21034777 -0.41899338 -0.5742691 -0.051001277 -0.14826101 -0.15665281 0.20802167 0.05540193 0.059992123 0.26438022 0.18333548 0.15293342 0.056844845 -0.24713363 -0.19557941 -0.42112383 -0.032896686 -0.054348305 -0.1402045 -0.036964614 0.033409446 -0.16302088 -0.2252808 -0.3025205 -0.3114929 -0.28225482 -0.14126602 0.0016483107 -0.06366489 0.25953004 0.23036855 0.20912625 0.22680949 0.06322051 -0.14345124 -0.37557214 0.007121586 0.1991485 -0.044626616 -0.07726429 -0.24487375 -0.30187884 -0.40489185 -0.3617113 -0.39678186 -0.20856734 -0.075148895 -0.06636818 0.02438761 0.3812347 0.03310491 0.07619077 0.11752957 0.19351113 -0.06230436 -0.11615336 0.033408567 -0.21072246 -0.19044542 -0.2310716 -0.37125129 -0.39964652 -0.38869718 -0.08941908 0.05447036 0.018403241 -0.02391553 0.07208776 0.09687776 0.11260575 0.26998875 0.26384464 0.4283536 0.46751407 0.10536058 -0.010399134 -0.2071263 -0.36729735 -0.21361639 -0.044267677 -0.037339695 -0.17597671 0.007067204 0.31380993 0.28094286 0.17395203 0.0044732178 -0.064998984 
0.115067266 0.05297204 -0.054039914 0.05469844 -0.010409022 -0.02561538 -0.009523814 -0.03603567 0.010644837 0.1257432 -0.04093018 0.045713577 0.08507017 -0.072546236 -0.073916785 -0.09487125 -0.009514012 0.02339832 -0.022066846 -0.15748759 0.056615967 -0.015970863 -0.028476171 -0.0074200043 0.044302613 0.050719585 0.14467311 0.2029496 0.179988 0.06987624 0.18049157 0.1284638 0.27268174 0.11090992 0.07382069 -0.05179733 -0.38073394 -0.25358117 -0.08421252 -0.030030338 -0.33681828 0.0874113 -0.014594387 -0.16944945 0.08709084 0.23131247 0.036565598 0.024503704 0.19856152 0.14274211 0.03627014 0.23866215 0.4009729 0.3069498 0.26700243 0.1562636 0.13506702 -0.055200428 -0.17509142 -0.14818594 -0.32135087 -0.10930237 -0.06311255 0.08787688 0.21903461 0.24253106 0.047310732 0.04776298 -0.004650342 -0.14921911 0.15550116 0.39867768 0.4572697 0.44516858 0.38632232 0.43075752 0.27681112 -0.26006022 -0.3320849 -0.035909582 -0.27939197 0.09388659 0.008138624 0.118386075 0.19180994 0.2643429 0.28739044 0.14703757 0.28453475 0.06956597 0.17821223 0.22725646 0.5131066 0.4277995 0.45627695 0.321727 -9.7503775E-4 -0.043532237 -0.036859896 -0.16648781 -0.085047774 0.11814429 0.097838044 0.06963338 0.026671898 0.14279173 -0.09785469 0.008227921 0.06694176 0.04654996 0.22241798 0.036715254 0.08616462 0.2898925 0.61216086 0.53227305 0.2761633 0.0360186 -0.015148424 -0.077716075 -0.117197596 0.14826751 0.17147307 0.059601903 0.25312904 0.0838124 0.06210539 0.3756273 0.21291749 0.28223258 0.11307182 -0.044359043 -0.09439105 0.18947875 0.73462117 0.5506545 0.055821765 0.18636082 -0.06285675 -0.06556411 -0.09235212 0.05441842 0.44946668 0.16620663 0.3274353 0.15729783 0.29739758 0.530662 0.15567952 -0.03433248 0.13714372 -0.31261367 -0.06253543 0.15064229 0.71961373 0.39572275 0.12895338 -0.031364553 0.10488852 -0.1810889 0.14420395 -0.031558257 0.1566386 0.084192194 0.20982316 0.25888887 0.12736432 0.19968471 0.123194985 -0.277122 -0.23666535 -0.18205246 -0.20011777 0.053584047 0.48235267 0.5818873 0.12508632 0.04277711 0.3269266 0.1551482 0.16324091 0.05140038 0.1034605 -0.06867648 0.09882477 0.058727253 -0.18726733 -0.003931882 9.958227E-4 -0.5607715 -0.46909165 -0.24282463 -0.2978722 0.037309937 0.46771505 0.3834767 -0.02424189 3.6636113E-5 0.35505873 0.08185293 0.13468285 0.04505224 0.30959132 0.3954053 -0.21011536 -0.244181 -0.2520027 -0.3078819 -0.51787704 -0.35441276 -0.30501223 -0.3846191 -0.3998222 -0.22883204 0.2482735 0.43212658 -0.13042831 -0.19079503 0.19153635 -0.041120566 0.036511917 -0.12125152 0.02909609 0.17536926 -0.15894769 -0.084876485 -0.24362333 -0.30627355 -0.007426402 -0.07081142 -0.27478164 -0.46340793 -0.4132689 0.009046664 0.015083989 0.16033207 -0.3416893 -0.02985886 -0.11075035 -0.25353503 0.1735717 0.028571809 0.121291235 0.20963539 -0.05988742 -0.30882758 -0.3457811 -0.07919101 0.20592824 0.07920256 -0.39662403 -0.16235486 -0.15898088 0.046967532 0.23218276 0.117103264 -0.08892958 -0.040195573 0.07833967 0.19029768 0.004225039 0.11132772 0.22435862 0.11463898 -0.08718332 0.014401245 0.0013508833 0.11473749 -0.16391519 -0.30566594 -0.38385886 -0.098401584 0.039771333 0.063081056 0.131085 -0.07408735 -0.12883763 0.059108805 0.16592118 -0.18644755 0.15612687 -0.043107275 0.09584002 0.043039337 -0.532175 -0.23629324 0.07053596 -0.11973382 -0.02964981 -0.17381698 -0.046191823 -0.14538616 0.36794555 0.15326798 -0.013419346 -0.050559364 -0.17376982 -0.32959276 0.10384338 0.029975012 -0.1111757 -0.04683042 -0.11406984 -0.13964678 -0.26868904 -0.069837645 0.30588296 0.047757473 -0.17929791 0.20080604 0.20067543 -0.051288206 -0.07127201 -0.064621694 -0.07264372 -0.036740154 -0.3418487 -0.015533996 0.333694 0.07039246 0.02781343 -0.120073095 0.15200266 -0.018645257 -0.18854615 -0.18097426 0.049193744 0.2736582 0.0494842 0.3425084 0.042780362 -0.19416274 -0.06601906 0.026215978 -0.019092798 0.019694977 -0.04921615 -0.0026512104 0.19346058 0.0836428 -0.029955182 -0.04648942 0.16672365 -0.13179588 -0.0062272893 0.035760112 0.13620393 0.1951442 0.17311998 0.23552726 0.17496663 0.11726788 -0.06170692 -0.078716114 -0.17714012 -0.019602908 0.12706144 0.025933467 0.22634985 -0.061722156 -0.0052320333 0.07816478 0.041058425 -0.099615164 -0.184472 0.12668158 0.1203274 0.27790508 0.089474045 0.08925693 0.28876516 0.22846882 -0.008380688 -0.0704736 0.034345873 0.105413035 0.19950281 0.20533171 0.01669586 0.08632167 0.021304745 0.025030505 0.045435213 -0.11856534 0.20231822 0.20770706 0.33682647 0.28602526 0.1634508 0.10529871 0.16957918 0.21950664 0.17932521 0.18812169 0.3249058 0.16364706 0.115726635 0.107883 0.14668368 0.04043129 0.14427891 
-0.28748623 -0.0010271536 0.021085206 0.08672226 -0.027468415 0.056709845 -0.073595606 0.033629913 0.034435533 -0.09970243 -0.07936117 -0.060733065 -0.11439806 0.0732579 -0.07016688 -0.08329269 0.078316785 -0.037675817 0.11787096 -0.013599037 0.029382259 -0.07022203 -0.024677178 -0.022607481 0.02712267 0.08783007 -0.047181096 -0.28414446 -0.2124026 -0.11067277 0.05860735 -0.048807602 -0.070267506 -0.18338448 -0.022201499 0.1808513 0.50743365 0.38704875 0.24153398 0.19840366 0.10860354 -0.015630683 0.16260852 0.09500874 0.23162174 -0.032939307 -0.040268924 -0.31005844 -0.43524405 -0.4646722 -0.3002624 0.1490727 -0.05653713 -0.119490266 -0.29821888 -0.007931187 0.29224792 0.31235406 0.1594604 -0.090812355 0.04749839 0.09849612 0.115427025 0.16066535 0.010829295 -0.1342639 0.04301082 -0.25533476 -0.28677145 -0.09388542 -0.13949907 0.053069644 0.0014470869 0.0124427015 -0.036580395 -0.13313776 -0.18845016 0.21155596 -0.029141497 -0.11854531 -0.14294237 -0.090793714 0.22747242 0.3923662 0.16283448 0.009926589 0.020922951 -0.39664114 -0.23708564 -0.21124879 -0.054416012 0.046500023 0.06577152 0.17649603 0.089426406 -0.028405331 0.012247128 0.115910806 0.104479805 0.18652461 -0.06729427 0.13872224 0.3405402 0.253349 0.22980028 0.018988112 -0.03213072 -0.010307955 -0.07024143 0.059222 0.046256814 -0.18863033 -0.006453759 -0.12549184 0.019814203 0.15006188 -0.017052697 0.011839378 0.11954657 0.29260352 0.16693479 0.08260741 0.31198946 0.29810438 0.21021868 0.14965846 0.1331043 0.097451575 -0.039232835 0.119655885 0.20639762 0.09502028 0.07370141 -0.09838605 -0.07633449 -0.028743165 -0.033337586 -0.055213124 0.31309208 0.4146559 0.35223728 -0.020713985 0.19745812 0.108775645 0.05776607 0.10079641 -0.16099358 -0.1835385 0.05327993 0.3225261 0.47067824 0.18686578 0.37461877 0.20344843 -0.05410059 0.059854012 -0.06766604 0.062818475 0.106795095 0.25176108 0.19531861 0.0483084 0.10825438 -0.122563854 -0.13741872 -0.40819943 -0.21730663 -0.030617539 -0.16137943 0.35496724 0.512 0.397772 0.35511875 -0.07903486 0.034501873 0.0019309125 0.14859504 0.075133465 -0.036788475 -0.20737725 0.13667795 -0.024605066 0.17651765 -0.1563306 -0.29077005 -0.33984938 -0.054385222 -0.58694047 -0.4265269 0.12940112 -0.03511632 -0.037468378 0.07593232 -0.010738166 0.065826386 0.010663555 0.049859498 -0.16788878 0.1223746 0.03924416 0.25540787 0.012944434 0.41348514 -0.10107025 -0.041777395 -0.25063717 -0.62447435 -0.69128335 -0.48763242 -0.004232026 -0.03804743 0.020526744 0.15197326 0.268159 0.012466639 -0.27161777 -0.09855719 0.27091128 0.21347256 0.123583525 0.344759 -0.0066886405 0.34213433 -0.010227057 -0.3395756 -0.2109729 -0.4883202 -0.44141802 -0.6152807 -0.31113392 -0.06734648 -0.08839504 0.29090396 0.25813574 -0.050694935 0.07401699 0.20558076 0.279723 0.0043253875 0.2377526 0.37445873 -0.041238524 0.64783186 0.110695116 -0.17008834 0.055394277 0.036250785 -0.39287713 -0.65418345 -0.1979215 0.077122524 -0.14599255 0.14583807 0.10502064 0.079912536 0.26425782 0.17478855 0.3751777 0.21746528 -0.0026127691 -0.12520665 0.06807199 0.5997703 0.047490183 -0.038255583 -0.35769165 -0.39860415 -0.2501594 -0.4644994 0.0065568686 0.4448782 0.120086156 -0.4389629 -0.28577438 -0.048133455 -0.08715902 0.19561252 0.5055072 0.6064878 0.33287865 0.2279946 0.054430827 0.4665987 0.08368222 0.15227552 -0.24857135 -0.5805265 -0.25511286 -0.28105205 0.10190153 0.32134953 0.13045864 -0.010909716 -0.02351405 -0.17913894 -0.08444982 0.19483297 0.1376556 0.50590634 0.4464537 0.22741888 0.03956008 0.28068593 0.04962053 -0.03128877 -0.070045255 0.15209256 -0.1591618 0.054509364 -0.22827373 0.09982782 0.39220983 0.19026926 0.20526989 0.31319484 0.45108336 0.28451455 0.39013645 0.23806593 0.26674703 0.111697435 0.063986674 0.16619505 0.17650937 0.12710518 -0.18957224 -0.19212693 -0.16261196 -0.062420547 -0.2463054 0.2124941 0.116191976 -0.123805426 0.106797196 0.22105566 0.24543191 0.07164591 0.18898599 0.11085848 0.07553351 0.03643471 -0.0022208814 0.10582414 0.16107042 0.024213893 -0.106833175 -0.0520431 -0.11437054 -0.012127319 -0.050571214 -0.03483563 -0.06971961 -0.10983474 0.06679799 0.32187632 0.23752902 0.34088445 0.13812926 0.10723265 0.14243627 0.11412952 0.05675063 0.092650004 0.18111184 0.15338236 0.14769812 0.080906905 -0.094289914 0.10832341 -0.15990299 -0.095051154 -0.010836907 0.2203734 0.11050974 0.25569004 0.14573872 0.14289731 0.13926244 0.17171776 0.14666566 0.11981093 0.074211255 -0.0346752 0.1598234 0.24874978 -0.012343845 0.025487693 -0.111623794 -0.07894536 0.08344615 0.209746 0.17474416 0.16028923 0.06529932 0.1348873 0.07343949 0.072819866 0.038066268 -0.09468788 0.17382614 0.18816891 
0.75875753 -0.037299898 0.06815949 0.0075301975 -0.09163028 -0.019076593 -0.042428665 -0.039243814 -0.07667785 0.017904593 0.05917705 0.04244087 -0.0019116267 -0.089669205 -0.054988734 0.092103526 0.088262945 0.011500286 0.006561982 0.038762216 0.12270448 0.06905782 -0.098037265 -0.021570403 0.041372005 0.11302547 0.100737825 0.051639136 -0.017585423 -0.024148494 -0.1163215 -0.25819275 -0.1654195 -0.16948532 -0.046044942 -0.15914139 -0.118352406 -0.079125606 0.057463173 -0.048924588 -0.01405036 0.0026201687 -0.04938723 0.06929953 0.09760162 0.0336037 0.18730468 0.13429573 0.051470138 -0.10206645 -0.06697198 -0.07682828 -0.28765061 -0.33445793 -0.31466198 0.09798383 0.15117651 0.051342737 -0.10954653 -0.26600623 0.10354616 -0.009294615 0.067887016 0.10851232 0.16065452 0.22989202 0.20097955 0.21417147 0.17539333 0.18279599 0.16171668 -0.14249057 -0.32617307 -0.23324358 0.03933664 -0.14804338 0.050219227 0.25562185 0.012842644 0.02106411 0.099628925 -0.10182271 -0.05313142 0.35105744 0.3289366 0.26729771 0.24065275 0.14092496 0.26584637 0.18045771 -0.0349217 -0.29393458 -0.3014904 -0.19837958 -0.2668569 -0.5146228 -0.18085241 0.07763554 -0.077313736 -0.19392686 0.23066385 0.033509452 0.025397137 0.42285287 0.317149 0.2712628 0.22217494 -0.06119092 -0.11684078 0.19637685 0.29369313 0.17230497 -0.2898023 -0.5652057 -0.6642414 -0.6000074 -0.6027817 -0.20054139 -0.19167049 0.041423943 0.034635037 0.08490188 0.09413183 0.11112123 0.03747397 0.036678992 0.0403779 0.13372102 0.23640986 0.21933965 0.10741064 -0.04423853 -0.023813331 -0.3338307 -0.5640981 -0.73481756 -0.42001352 -0.36053222 -0.1653132 -0.10930578 -0.14620069 -0.07410441 0.07005 0.15776867 0.06646672 0.21559508 0.303166 0.30764604 0.38132295 0.22403449 -0.10508686 -0.10988387 -0.0725538 -0.3912831 -0.5575541 -0.4157594 -0.27496985 -0.2668182 -0.029680789 -0.07696142 -0.18049797 -0.06519455 0.037862394 0.06746322 -0.085157506 0.08599945 -0.02349266 0.1217623 0.089229606 0.02632124 -0.13387561 0.109758765 -0.07023392 0.07533438 0.11112273 -0.14079762 -0.19665787 -0.12711053 -0.23411591 -0.13848494 -0.33635935 0.014754739 -0.11083848 -0.137379 -0.04754632 -0.15078096 -0.19956489 -0.06567614 -0.19978544 0.16785975 0.24322826 0.2790959 0.091944285 0.43561295 0.41512388 0.49009067 0.3671374 0.12726572 -0.17605028 -0.19104561 -0.2694252 0.011512286 -0.21917084 -0.12433702 -0.071128055 -0.08929563 -0.15213363 -0.05600315 0.09950262 0.18586689 0.36965677 -0.03851143 0.34936464 0.35449442 0.24646513 0.3263058 0.13165417 0.12988375 -0.13320874 -0.10462605 0.029623982 0.057861526 -0.04018197 -0.17712502 -0.075869545 0.10691841 -0.16066094 0.38014024 0.44771075 0.29296103 0.1321995 0.13428716 -0.015832128 0.18924546 0.29666182 0.1100902 0.20533349 -0.21439505 -0.09468544 0.008698355 0.14604208 0.09191015 -0.03185435 -0.20060575 -0.12613364 -0.07911982 0.18276192 0.51630914 0.5461111 0.1683575 0.33600312 0.2099693 0.06218709 0.06847487 0.14356534 -0.11542432 -0.03906924 0.03318465 0.038025387 0.18561856 0.30562192 -0.109223776 -0.02609822 -0.28492883 -0.14455158 0.0050800256 0.23400904 0.22397792 0.16633429 0.10442092 0.2626005 -5.464827E-4 0.061946925 0.1999566 -0.070222855 0.053089473 0.08736013 0.24792606 0.12853618 0.33514488 0.25297314 0.026388153 -0.19004202 -0.014407716 0.0035273307 0.03952362 0.039031923 -0.15809044 -0.039142817 -0.12239012 0.16666402 0.22327018 -0.022791889 0.08606462 0.11016713 -0.01013705 0.18209074 -0.0037381132 -0.016341278 0.08885095 -0.03741819 -0.027824583 -0.34044394 -0.027378669 0.0326226 0.0024652146 -0.062924325 -0.20331517 -0.31469047 -0.14738993 -0.022607058 0.09591971 0.30123347 0.14722992 -0.0020688148 -0.026781747 -0.040216092 -0.071589425 -0.13154514 0.12959178 -0.0048696124 0.107200034 -0.061008196 0.002703796 0.24886848 0.26280248 0.22356693 0.0068114675 -0.3402925 -0.2151988 -0.15271643 -0.095000714 0.013919568 0.031096727 -0.17747359 -0.039021105 0.026243597 -0.14049233 -0.09465642 0.028062034 0.21389598 -0.044854302 -0.076647386 0.06041196 0.06284879 0.12601551 0.08583455 -0.08107886 -0.36937106 -0.14276554 -0.15310563 -0.10593377 -0.021123827 0.05826395 0.07425428 0.047240462 -0.110742934 -0.21900481 0.1504074 0.16669829 0.20349291 0.09697496 0.20016532 0.1621617 -0.051181316 -0.12582329 -0.17362958 -0.29429364 -0.28612486 -0.2505676 -0.26187402 -0.16886157 -0.20942017 -0.13545874 -0.19691749 -0.0809894 -0.00885969 -0.049022216 0.176241 0.11477637 -0.074748926 -0.0183248 0.20932908 0.13841215 0.16834427 0.0214334 -0.121849015 -0.123898625 -0.3865012 -0.38029101 -0.4462663 -0.292079 -0.26869288 -0.0568053 -0.22451384 -0.0973086 -2.3026718E-4 0.14043844 0.15802136 0.14680351 -0.123584725 
-0.39781737 0.030550364 -0.0053611123 0.032540806 0.11434974 0.1048738 -0.08127319 0.12570788 0.09169161 -0.018923728 -0.07729508 -0.030155974 -0.08213403 0.050816223 0.06323376 0.1302238 -0.07430232 -0.09305927 0.009430325 -0.115166575 0.08387902 -0.099467285 -0.05835105 -0.053967975 0.17142746 0.14066496 0.123668596 0.029186444 -0.18764143 -0.40634766 -0.15390705 -0.35720617 -0.2821776 0.12753156 0.5637218 0.52503973 0.4477293 0.3670809 0.12599224 0.11447793 -0.020458458 0.042611163 0.015759235 0.07003296 0.14343567 0.21224527 0.16241054 0.17412369 -0.15684205 -0.33052224 -0.29941094 -0.32697725 -0.3946741 -0.06686433 0.17561203 0.54280657 0.56018984 0.62795496 0.33867028 0.23811696 0.030785182 0.07099593 0.13169602 0.35957566 0.2163981 0.23955551 0.19241145 0.10719766 0.013194302 -0.19307688 -0.3512769 -0.54017425 -0.13777037 -0.26163623 -0.20178583 0.13472305 0.8352027 0.61200434 0.5780228 0.29782727 0.1085376 0.13574015 0.25937086 0.32497755 0.2740265 0.4512211 0.2917602 0.08217769 0.026541919 -0.2606387 -0.40583932 -0.41781196 -0.4032681 -0.41660067 -0.6162173 -0.24957356 0.3518982 0.523143 0.056632742 0.0030683572 0.18563688 -0.052518986 0.1361599 0.22539191 0.19953442 0.21846114 0.35845178 -0.028712533 -0.40380552 -0.31496343 -0.473684 -0.21732257 -0.13462374 -0.28257278 -0.4029419 -0.53117317 -0.09203089 0.2769526 0.05044111 0.06448452 0.22745207 0.023463046 0.102160536 0.03359845 0.13903084 0.11967918 0.07478691 0.12796003 -0.053812087 -0.28800836 -0.4211971 -0.4909779 -0.3273407 -0.23192964 -0.21383178 -0.46775782 -0.09340769 0.67301726 -0.116541944 -0.082741655 0.2677988 0.15925677 0.3019954 0.036676925 0.11839824 0.35733292 0.22862273 0.24904165 -0.049295258 -0.33823687 -0.5616747 -0.27990097 -0.0026578386 -0.24766575 -0.2646368 -0.17929463 0.08401211 0.41363588 0.12208388 0.15516004 0.40101433 0.0664911 0.22734691 0.21164915 0.19496866 0.087851554 0.19516063 0.36968914 0.18724619 -0.41189495 -0.662398 -0.23429224 -0.06761063 -0.04567202 -0.108937636 -0.14049709 -0.061620973 0.15965496 -0.057226438 0.27136666 0.8548284 0.036597352 0.6158244 0.3599511 0.26087248 -0.22541365 -0.18028206 0.3158182 -0.0124989655 -0.27291912 -0.18488859 -0.033002388 0.16563039 0.116672635 -0.3063231 -0.22584346 -0.09937145 0.051150613 -0.22731014 -0.0131140305 0.5190364 -0.012596574 0.5222811 0.22400947 0.17969595 0.04818315 0.28769442 0.46831277 -0.011261461 0.022071112 -0.11227985 -0.20461072 -0.076975465 0.1757919 -0.33110332 -0.22887364 -0.0050931736 0.0069561787 -0.0086684255 0.29548776 0.76946634 -0.06333323 0.4765695 0.15093525 0.083645314 0.30095828 0.16402644 0.3128632 0.123711534 -0.054083444 -0.19977832 -0.41289634 -0.34179896 -0.20598553 0.021967862 2.0114258E-4 7.0143526E-4 -0.10816089 0.07446703 0.01362527 0.634567 0.052165955 0.51880336 0.15885623 -0.09538307 -0.026530193 0.11379564 0.53613436 -0.04296888 -0.16915008 -0.13667525 -0.046800993 -0.4801986 -0.44318154 -0.21790598 -0.3027 0.12296477 0.003155075 0.09779045 0.39459756 0.6272651 -0.0017158298 0.17082769 0.149794 0.24645868 0.0065911487 0.4585102 0.42469376 -0.17545082 -0.373787 -0.2984809 -0.14407212 -0.22646526 -0.3425671 -0.03517116 -0.0578365 0.04979596 0.11949965 -0.16135904 0.324005 0.14815368 0.020871373 0.25255305 0.29058686 0.21496136 0.47391456 0.39599195 0.10284382 0.19778748 -0.03962754 -0.21158445 -0.17740843 -0.046658546 0.11305484 -0.07078882 0.0024963638 0.29455248 -0.02645101 -0.29859746 0.1646011 0.0077265063 0.098306336 0.026977936 0.307873 0.42309153 0.4479841 0.047209267 -0.113879174 0.028195703 0.20709173 0.053486563 -0.19172089 0.09934326 0.3329532 -0.02949543 -0.17974946 0.03515742 -0.17260155 -0.12908489 0.0038421922 -0.15907657 -0.0754939 -0.11578164 0.25211748 0.31319827 0.3407231 0.16973777 -0.08149082 0.10761874 0.20273195 -0.046345584 -0.24903546 0.0668138 0.28589785 0.21818782 0.17309368 0.055869885 0.11568829 -0.083948635 -0.034129906 -0.25505885 -0.020094607 0.07491161 0.34410128 0.0871206 0.07539872 0.26813364 0.19831266 -0.148612 -0.1510612 -0.28271717 -0.26295322 0.034196883 0.021576367 0.17056811 0.24948916 0.043150306 -0.15370186 0.0037491599 0.11800032 -0.10784821 0.061698776 0.07754066 0.12623191 0.11146547 0.22265612 0.36722493 0.20163983 -0.05016428 -0.057662126 -0.22393811 -0.54164904 -0.17341152 -0.0012891586 0.17870295 0.08274166 -0.014114444 0.03803612 0.022944141 0.091120385 -0.003020912 0.01074913 0.021114701 -0.12501015 0.12658735 0.4367754 0.2825852 0.27753377 0.032549616 -0.040012825 -0.13033518 -0.19613597 0.09130652 0.07958296 0.04918468 0.24112599 0.16113992 0.040735498 0.23902422 0.03171864 0.041077767 
0.7135272 -0.088680096 -0.061892763 -0.10794411 0.10882901 0.0010343939 0.017744722 -0.09585045 -0.035479106 0.092135 -0.028298482 -0.028266296 -0.081647426 -0.03639185 0.079996824 -0.09755794 0.08265286 -0.10258566 0.03670646 0.06737111 -0.053727 -0.107217304 -0.050627254 -0.037599538 -0.060493838 -0.13467383 0.06216581 0.024821555 -0.1083115 0.16864358 0.3397024 0.42533457 0.3364722 -0.016031513 0.053054463 -0.16214056 -0.30849132 -0.2305569 -0.14361288 -0.20172122 -0.17139405 -0.03154645 -0.019020872 -0.13224494 -0.026686154 0.013945944 0.02189154 0.02197532 0.20130362 0.5433717 0.3017438 0.4139844 0.3409869 0.026617056 -0.023811148 -0.02860444 -0.12113262 -0.31268716 -0.32448944 -0.047674507 -0.115425676 0.06576688 -0.18071818 -0.3216861 -0.037350044 -0.033322163 -0.051783912 0.06410005 0.31677732 0.38704252 0.47507766 0.26427394 0.012790023 0.094801426 -0.0041041826 -0.028526597 0.036287915 -0.09753659 -0.40340436 -0.21756801 -0.04600131 -0.08251218 -0.12554702 0.0028567272 -0.14522582 0.23400219 0.10841524 0.11622941 0.42505378 0.6109917 0.16225289 -0.04978569 0.14965186 0.31349683 0.1388848 -0.092017345 -0.12888967 -0.27678725 -0.22503498 -0.18179773 0.19409707 -0.08352716 0.063699864 0.056281608 -0.055228982 0.1085641 0.064631134 0.0394672 0.41450652 0.24092497 0.31309557 0.013199589 -0.13615456 0.22820248 -0.03166923 -0.17451082 -0.3038684 -0.057197724 -0.14293972 -0.114226 0.23190472 -0.13844608 0.011272712 -0.01498578 0.05296439 -0.17749222 0.21676302 0.19461262 0.65601146 0.3786309 0.46311817 0.28246215 0.05537118 0.14511196 -0.062008716 -0.23018621 -0.19630395 -0.1223203 -0.043108217 -0.0586033 -0.028990932 -0.011226714 -0.029415142 0.03181329 0.05873814 0.019952599 0.20812133 0.48309425 0.9517653 0.45172974 0.1550825 -0.11346941 -0.36145264 0.079834856 -0.053676672 -0.080209285 -0.24713787 -0.25616223 -0.06910461 0.103427954 0.044862546 0.07604577 0.07459657 0.20402461 0.058903452 0.08627991 0.26269257 0.4068421 0.15578175 -0.023938788 -0.029227125 -0.22257036 -0.39452443 -0.13678867 -0.27523103 -0.50247467 -0.3245882 -0.16296571 -0.15121605 -0.025751716 -0.18797109 -0.042109724 0.11669472 -0.06814137 0.2655644 0.17100634 0.13785248 0.3042594 -0.22255667 -0.40456262 -0.34995866 -0.4450894 -0.69172245 -0.6065062 -0.43873712 -0.49328828 -0.24876739 0.037570976 0.025650669 0.11620846 -0.19890636 -0.045506977 -0.04256645 0.26891524 0.08882513 -0.1252857 -0.28183246 -0.26954338 -0.49684796 -0.6076708 -0.39081177 -0.42889956 -0.7095422 -0.6778969 -0.115954414 0.09272389 0.024932565 -0.08788032 0.11095787 0.17557222 0.16753083 -0.07094011 -0.17651926 -0.03188078 0.02404383 -0.22196566 -0.19441596 -0.49954334 -0.095015466 -0.034007452 -0.18934464 -0.40250316 -0.32605964 0.01492599 -0.024051178 0.14591049 -0.08531015 -0.0858526 0.2478909 -0.005074317 0.12692729 -0.048633907 -0.14911814 -0.066983886 0.09066493 -0.13842055 -0.37183267 -0.2537768 0.028198624 0.23132755 -0.10011189 -0.14936143 0.12218971 0.07575797 0.15847838 0.054103203 -0.019388268 0.17968859 0.029589249 0.006887139 -0.058782514 0.13695478 -0.11600206 -0.21897216 0.2628068 -0.107020035 -0.19644737 -0.09141161 0.1708893 0.48119295 0.27242914 0.11908637 0.3292528 0.23638539 0.112897135 -0.07958863 0.020438235 0.2192145 -0.2041904 -0.103219554 0.16516252 0.09690822 -0.2269287 -0.18167637 -0.16806422 -0.06753512 5.6215556E-4 0.119070895 -0.19787517 -0.09537327 0.17501369 0.2627481 0.085426584 0.13623285 0.02210988 0.14796677 -0.08168279 -0.3311142 -0.20906326 -0.15937416 -0.027281767 0.013840084 -0.22886552 -0.0014385206 -0.15125449 -0.016220942 -0.26309037 -0.27339932 -0.1565819 -0.2466521 0.37912568 0.3354584 -0.03423739 -0.09562541 0.33291838 0.1300237 -0.1572786 -0.18849127 -0.043723702 0.15485625 -0.12958266 -0.0316948 0.16836457 0.014476245 0.030652575 0.33416888 0.04024282 -0.26901212 -0.21718544 -0.05184101 -0.056853447 0.14140028 0.21878456 0.22812383 0.17539902 0.18821733 -0.13613129 -0.1452072 -0.17946395 0.06485391 -0.044184018 -0.10395576 0.117486544 -0.017083751 0.19184417 0.05787321 -0.28748807 -0.48531282 0.052941263 0.008297505 -0.011672476 0.1984161 0.30751026 0.10514237 0.03515959 0.017568612 -0.32285774 -0.2583662 -0.11732938 0.028622972 0.13802777 -0.021165628 0.16692695 0.15295172 0.025655612 -0.02231758 -0.18719596 -0.3787555 -0.10386046 0.0763482 -0.0067844205 0.23038769 0.3434456 0.10162869 -0.034798343 -0.25768033 -0.4322132 -0.28401607 -0.20897613 0.084431104 -0.005468537 0.057504337 0.24017093 0.22039786 0.17101242 0.25751927 -0.22198415 -0.39549163 -0.20793162 -0.065618224 0.09949119 0.067076206 0.26731378 0.1436931 0.011775951 -0.062617876 -0.1615625 -0.23203261 -0.15637109 0.026703497 -0.07139607 
-0.48352066 -0.030474667 0.03315224 -0.01902719 -0.15862143 -0.14117366 -0.14083531 -0.14186113 -0.080310605 -0.10558141 0.008858302 -0.049217734 -0.0013641621 -0.13237602 -0.024062011 -0.12059071 -0.10912117 -0.043855853 0.072021395 -0.12800758 -0.14691651 -0.0993387 0.046954222 -0.17737113 -0.32079637 -0.27422038 -0.3720686 -0.1321493 0.15709962 0.24619508 0.08604425 0.06469262 -0.20076108 -0.06844086 -0.25156096 -0.24622394 -0.14537454 -0.030944893 0.0434172 0.03367038 -0.107656844 0.07334845 -0.11326494 -0.39840692 -0.38320905 -0.22397374 -0.1685644 -0.09296021 0.07103747 0.43076855 0.15556973 -0.01892601 -0.12552935 0.22089559 0.21691604 -0.059684902 -0.11184735 -0.08086298 0.0162051 0.015018338 -0.4317359 -0.04644797 -0.081874155 -0.15189268 -0.2184686 -0.28078866 -0.16546653 -0.073581226 0.19715475 0.20056139 0.30293187 0.3550754 0.27780947 0.20940846 0.29072186 0.25954977 -0.17493376 -0.16748695 0.1923784 0.16848283 -0.3786378 -0.0023296408 -0.024619747 0.06606921 -0.20456806 -0.116204 -0.15903471 0.023796389 0.14852941 0.12324133 0.28307188 0.27438435 0.12831691 0.054033596 0.42548838 0.46302438 0.012641498 -0.22321366 -0.1771176 -0.06350605 -0.2701444 -0.024062185 0.19359444 -0.23531586 -0.31137705 -0.18320417 0.14928663 0.35102925 0.20247364 0.21412049 0.043206483 -0.120265625 -0.06916028 0.086459994 0.5182269 0.98887974 0.31696 0.014634277 -0.08860726 -0.35449383 -0.28153753 0.103088446 -0.045874648 -0.11194479 -0.31047425 -0.21229264 0.0835498 0.34627005 -0.057593077 -0.18579525 -0.06728936 -0.26831883 0.03650452 0.005771803 0.42331898 0.8531635 0.10345739 -0.16503966 -0.116355374 -0.11617162 -0.20547177 0.040801853 0.045436606 -0.13944355 -0.09969217 -0.0933188 0.1644415 -0.107239686 -0.22463487 -0.054664813 0.083759226 0.0802095 0.20168829 0.3508261 0.456893 0.42141637 0.33787596 -0.052362856 -0.345931 -0.23351976 -0.3557764 0.011238417 0.18937638 -0.019787863 -0.3134488 -0.37108043 0.100873776 -0.07142667 0.077855654 -0.082393326 0.3947687 0.25173396 -0.2326702 0.12802199 0.42217487 0.46093127 0.060159743 -0.37381417 -0.028713092 -0.06417948 -0.012538297 0.03104202 0.27780914 0.050812416 -0.51524955 -0.15650159 0.21042007 -0.17121369 0.17329879 -0.041909236 0.20730546 -0.08662691 0.08379452 0.47577775 0.63392013 0.5653977 -0.2642581 -0.43622935 0.19771418 0.063080974 -0.20221332 -0.1711703 0.26943836 -0.049850408 -0.4441131 -0.2924064 -0.035165846 -0.16388361 -0.31294033 0.1729294 0.1570029 0.16465393 0.26838702 0.5469248 0.5705313 0.22563931 -0.23996173 -0.08744338 -0.065547675 -0.24429071 -0.25969452 -0.14847933 0.20280972 0.063931786 -0.27970976 -0.33888113 -0.4065021 -0.2643087 -0.2811495 0.4617973 0.35235268 0.21477516 0.5056348 0.51946026 0.03481207 0.078746684 0.059716556 -0.24382806 -0.03767746 -0.21221708 -0.09337725 -0.15896685 0.06448295 -0.26366448 -0.08502267 -0.09291694 -0.26571518 -0.18714443 0.025218552 0.09163884 0.27247488 0.38832095 0.41465783 0.3901302 0.19059485 0.13095173 0.069183655 0.09986869 -0.16603744 -0.33296794 -0.19837448 -0.028470015 0.29797634 -0.042644165 -0.36195424 -0.17577955 -0.13440946 -0.10544272 -0.36497116 -0.23141472 0.330085 0.5930269 0.060933888 -0.019770438 0.06271697 -0.0043914663 -0.012050116 -0.049941164 0.3027547 -0.053877372 0.15678935 -0.08857081 -0.0143960845 -0.034980692 -0.16699316 -0.011619934 -0.15256737 -0.30645314 -0.3176546 -0.32356542 0.11254827 0.117936105 -0.07709009 -0.22767429 -0.1765862 -0.23260368 -0.23323005 0.14041114 0.527967 0.15328154 0.34972367 -0.104540065 0.23931493 -0.20318365 -0.16376548 0.07428882 0.41030905 -0.055002294 -0.07677534 -0.13706124 0.08030963 -0.19026482 -0.33699894 -0.2462832 -0.34487897 -0.22440362 0.053246237 0.24699809 0.35207406 0.2775185 0.1639311 -0.035909377 0.2888341 0.030306617 -0.2338887 -0.25757304 -0.12503582 0.024646116 -0.046782196 -0.04230563 -0.009770617 -0.3422932 -0.44301492 -0.30096635 -0.15754506 0.045291025 0.021584913 0.1116458 0.18525204 0.09717626 0.29511803 0.13272767 0.113684006 0.022176567 -0.007167693 0.08581686 0.041523054 0.005254445 0.10996492 0.20082763 0.19005075 0.079617135 -0.28301492 -0.11678127 -0.29281408 -0.32441008 -0.02828644 0.09836467 0.051924575 -0.06102158 0.10960894 0.09724246 0.047432046 -0.017721603 -0.1924378 -0.04133293 0.0077839615 -0.030356118 0.095473714 -0.18343063 -0.042507496 0.20307428 0.02939859 -0.04948211 -0.22189988 -0.05943669 0.12210678 0.2686632 0.134712 0.09904817 0.049895618 -0.057504345 0.14023688 0.2291878 -0.09881786 -0.061961718 0.052559916 -0.13775434 -0.020008733 0.07164905 0.007344014 0.010388695 -0.0027691913 -0.050126977 0.094463825 0.23347081 0.22614945 -4.4593512E-4 0.026291914 0.044322357 -0.07592137 
-0.30248314 0.03956866 0.087086506 -0.080476746 -0.06117857 -0.06419785 -0.12239537 -0.072777085 -0.11961907 -0.09242152 -0.09053785 0.028707819 -0.10116041 0.07547505 0.10956285 0.008572149 -0.05712532 0.01001638 0.067496724 -0.03118944 0.09155714 0.04668302 0.07746299 0.119028114 -0.012464556 0.14151104 0.023084844 0.034750946 -0.056904674 -0.17476916 0.0059880014 0.074098565 -0.056391466 -0.044977136 0.015866963 0.39172277 0.47727722 0.36866558 0.4064661 0.13050471 0.1684144 0.10687427 0.06807811 -0.06656235 0.0069647473 0.012221763 0.02600553 0.031435233 -0.08959815 -0.01475819 -0.16268426 -0.15418163 -0.2318973 -0.13639145 0.124398276 0.473246 0.65327096 0.33211437 0.16748264 0.2153315 0.008571805 -0.009576133 -0.108851984 -0.020289741 -0.091246136 -0.007955244 -0.051572226 -0.0398304 -0.25153026 -0.17939508 -0.22475672 0.05036656 -0.028087918 -0.30135837 0.072423235 0.5607984 0.6527374 0.2450575 -0.020305814 0.02714174 0.006496442 0.073168635 -0.0068369443 0.11757332 0.18638234 -0.005157652 0.12345811 -0.1793853 -0.28226343 -0.43887445 -0.18962246 -0.09690281 -0.03278997 -0.22650363 -0.094281554 0.25238678 0.7958712 0.46066102 0.22941789 0.06535365 0.012565414 0.06926177 -0.002992665 0.09773188 0.124341376 0.053085346 -0.10771203 -0.19286391 -0.38079268 -0.37404016 -0.0897362 0.2841494 0.5838625 0.105054855 -0.24294399 -0.1052253 0.46670985 0.4347361 0.16634825 -0.01948584 -0.0129856495 0.11969187 0.17062743 0.28273976 0.20355205 0.11783244 -0.19438921 -0.29291275 -0.4422329 -0.20130666 0.2139099 0.5403697 0.51378226 0.03623488 0.05256251 -0.21509443 -0.01718729 0.29085013 0.16800867 0.26443115 0.123819314 -0.09369301 0.32614496 0.15465844 0.086313754 0.15587935 -0.20786619 -0.24304424 -0.033826455 -0.12013651 0.31247464 0.40033135 0.34726834 0.021582562 -0.019880574 0.10923538 0.24829142 0.33809876 0.2776763 0.2819907 0.19958507 -0.03252463 0.18355852 0.018724797 0.17621596 0.09921836 -0.087840416 -0.1473184 -0.03107023 0.14537476 0.31043398 0.04998114 -0.06941218 -0.11325634 -0.38099056 0.05048832 0.26700255 0.29199797 0.3658482 -0.09550342 0.0060237185 0.08769609 0.29716927 -0.08904321 0.0030033998 -0.015325129 0.082129546 -0.06657692 -0.17025734 0.1018342 -0.13997503 -0.32436004 -0.21931674 -0.27636945 -0.44609115 -0.26779246 0.22276756 0.2680054 0.42023036 0.009275586 0.06320756 0.1196123 -0.022933934 0.056984436 0.050210327 -0.066027455 0.022968046 -0.14411746 0.029698776 -0.059103545 -0.05499004 -0.25348035 -0.39270586 -0.1778082 -0.55959916 -0.15796079 0.33479944 0.25002447 0.20133 0.0133422 -0.0031980923 -0.06773289 0.043321013 0.14759226 -0.024882507 0.15861467 0.00385385 -0.28981188 -0.39147094 -0.2623863 -0.14750709 9.4188174E-4 -0.19437554 -0.20753247 -0.21909042 0.16951086 -0.013008634 0.3319871 0.13298894 -0.08186254 -0.07648272 -0.023617009 0.027959332 0.06348131 0.0362576 0.28280348 -0.08838211 -0.33566454 -0.21372785 -0.35992774 -0.34555262 -0.41609114 -0.2846326 -0.13753676 0.08797578 0.17806631 -0.13038047 0.11998099 0.3930148 -0.061284076 -0.36231667 0.0038871919 0.20166758 0.061831273 -0.005039494 -0.015237552 -0.061166324 -0.031508364 -0.3585548 -0.4284992 -0.23477004 -0.3346041 -0.16396175 -0.12948927 0.22014068 0.21262948 -0.054115172 0.19189636 0.23854397 0.041195743 -0.42918283 -0.03582486 0.25909936 0.20640375 0.011652514 0.10105261 -0.18264334 -0.12577097 -0.39327416 -0.20173511 -0.16639236 -0.1491715 0.014816427 0.0030937567 0.20471191 0.2930635 0.186924 0.1244651 0.21933107 0.057233956 0.12079249 -0.055181634 0.09293987 -0.025469624 0.06013009 0.116974056 0.092845604 -0.11197522 -0.17204143 -0.35809836 -0.45109758 -0.27188668 -0.13822733 0.1685375 0.31878644 0.1738204 0.2545802 0.41382837 0.34131408 0.07977174 -0.07655799 0.051542845 0.021050682 0.06940425 0.036257878 0.054008693 -0.13010016 -0.16016456 -0.3397559 -0.43887964 -0.2949474 0.0058614654 0.12041894 0.30061853 0.4171724 0.21067365 0.11160365 0.37897053 0.17658845 0.0044360105 -0.031409238 -0.06448292 -0.013268975 -0.058508553 -0.22164667 0.2028636 0.18745793 0.120853886 -0.2311917 -0.22205536 -0.1434548 -0.1512621 0.06206719 0.44132352 0.43585968 0.4056987 0.35411578 0.25623068 0.085207626 0.06394242 -0.0057302737 -0.030973263 -0.17785548 -0.044704895 0.3124582 0.2069012 0.17894046 0.0309228 0.08748968 -0.1882873 -0.10513503 -0.021009732 0.19023156 0.22700642 0.30292916 0.44765934 0.1945196 0.19498849 0.11113151 0.13842237 -0.021705125 -0.11789491 -0.1479955 0.13222905 0.30823994 0.45385444 0.2938798 0.1504348 0.10377869 0.025337987 0.065407455 0.19796076 0.12864298 0.030956948 0.339639 0.35400918 0.2365187 0.15109164 0.08632838 0.026156044 -0.0041782553 
-0.14915927 0.10029703 0.066285275 0.087538995 -0.117520966 -0.08407575 -0.07414441 -0.04960672 0.072888955 0.03191496 -0.015288879 -0.051386397 0.026747303 0.012694414 0.08460023 0.0634005 0.06346806 -0.09569019 -0.059104826 -0.109675996 -0.1090391 -0.029500829 -0.14231572 -0.03683909 -0.046850905 0.01297038 -0.07206574 -0.08760184 -0.043423 -0.026011972 -0.30690265 -0.15239406 -0.1141791 -0.035755977 0.1508185 0.17807038 0.02531708 0.18923664 0.22776116 0.14484902 0.0010700533 -0.10433389 -0.07034972 -0.22948974 -0.14068577 0.029717818 0.047298815 -0.07174026 -0.06048189 -0.15210348 -0.15441212 -0.18486111 -0.05526512 0.027951745 -0.016826464 0.37963885 0.29231486 0.18611197 0.0064057955 0.014649253 -0.14099386 0.010817597 -0.1962615 -0.10506951 0.12322792 0.35041717 0.08547356 0.025520096 -0.09930471 -0.09673295 -0.05025118 0.041769303 0.15061137 0.21058342 0.1308708 0.032667853 0.38210717 0.3287798 -8.9660974E-4 -0.08273782 -0.050209764 0.0505373 0.046629287 0.07900458 0.24923867 0.3283993 -0.03570824 -0.11031338 -0.056093786 -0.07448084 -0.067612365 -0.012368293 0.011253588 0.19777767 -0.1910494 -0.12899452 -0.046473242 0.079362966 -0.059467692 -0.27704126 0.18098015 0.11748139 0.043563507 0.11263773 0.14465089 0.16032527 0.077348255 -0.054917138 -0.2842246 -0.11984768 -0.10279314 -0.055675216 0.020778649 -0.15188128 -0.009760384 -0.10201801 -0.049645796 -0.16278811 -0.18737967 -0.03000688 0.0049952045 0.108311 0.15369134 0.14165662 0.22042584 0.2581342 0.19402522 0.15978478 -0.15440731 -0.21921682 0.05949367 -0.11460817 0.04262665 0.1440869 0.036448304 -0.3013557 -0.48033002 -0.12850627 -0.17387985 -0.03201365 0.1390596 0.056253325 0.18445578 0.1237342 0.25655586 0.31960744 0.1460516 -0.021194438 -0.099123895 -0.21909742 -0.057607483 0.12738863 0.10133876 0.1852716 -0.08414886 -0.2627087 -0.18647982 0.07539135 -0.058472715 0.08089142 0.32880002 0.06652665 0.26126742 0.15578453 -0.005844947 0.1808945 -0.10696447 -0.31111938 -0.22656158 -0.20990133 0.098595574 0.18200348 0.2865074 -0.03969716 -0.2218997 -0.013245746 -0.17925419 -0.25477836 -0.012402942 0.03478369 0.2297012 0.10193828 0.19846705 0.081832744 0.28269652 0.2591562 0.045168158 -0.075479396 -0.2296471 -0.37114826 -0.21866158 0.109570004 0.027838102 0.19605125 0.0438464 -0.14319837 -0.21839935 -0.030809384 0.18204306 0.07132618 0.16659851 -0.030942684 0.41710946 0.20414749 0.1137181 0.06325547 0.22308126 -0.119033925 -0.5020918 -0.2229361 -0.23371832 -0.25543824 -0.07036414 0.0867491 -0.066619135 -0.14798802 -0.21440111 -0.06901825 0.003275315 -0.11806191 0.3556057 0.04543713 -0.06994785 0.22563307 0.25967747 0.30954278 0.02860536 -0.21121237 -0.07174115 -0.3426249 -0.38186732 -0.1898497 -0.24224061 0.30315596 0.28977415 0.27956778 -0.06146561 -0.32070807 -0.28722537 -0.30027518 0.23740384 0.05591789 0.01382177 0.3244388 0.37284306 0.13565214 -0.025644692 0.0019758937 -0.15894803 -0.12089827 -0.061569598 0.29863074 -0.1728861 0.19658709 0.31869206 -0.040906046 -0.05220119 -0.12494321 -0.12372117 -0.1280761 -0.03153299 0.08476869 0.17356437 0.40090308 0.3657378 0.30871946 0.33364028 0.054216694 -0.13834763 -0.21619804 0.12555738 0.07574608 -0.10165193 0.02095751 0.18490915 -0.07182542 -0.1322375 0.029333143 0.026409596 -0.037186127 -0.12737882 -0.01141615 0.041915394 0.15555653 -0.004234229 0.1525143 0.34189534 0.03040277 0.11507045 0.020256145 0.15586229 0.12536716 0.010814207 0.031930473 -0.07896774 -0.12664409 -0.16505302 -0.16057985 -0.07711972 -0.16036801 -0.1284943 -0.09872614 -0.11465714 0.07180647 0.114648804 0.33186328 0.38547045 0.22342984 0.0050285608 0.1364803 -0.07354503 0.06928797 -0.07112687 -0.011711195 -0.05031498 -0.100724526 -0.06453952 -0.08410232 0.0017202465 -0.08240601 -0.22164409 0.011846647 -0.027396413 0.29198146 0.2899332 0.30503038 0.18037045 0.24642967 0.25050038 -0.09845809 -0.3051921 -0.29988095 -0.1625447 -0.052739203 0.007881839 -0.0812891 -0.06360053 0.17144565 0.026377661 -0.0111253485 -0.038960434 -0.033764385 0.007628942 0.27627274 0.15647835 0.3929554 0.51508445 0.2852639 -0.07811185 0.046469364 0.003836386 -0.24592948 -0.104442336 -0.028740985 0.08938457 0.13275957 0.04402628 0.07366052 0.2787862 0.070591815 0.0026639032 0.023728784 0.07840219 0.0650798 0.2039664 0.3530774 0.32482752 0.37133422 -0.056815147 -0.0034726667 -0.046159055 -0.21338579 -0.091239825 -0.006409498 0.13377613 0.24519868 0.13340695 0.084549 0.28912047 0.20331943 -0.04939154 0.03318296 -0.04068806 -0.0027919512 0.103623465 0.32556263 0.2892127 -0.050431844 -0.05925129 -0.08679127 -0.19737229 -0.2692015 -0.09104291 0.011037502 0.2987617 0.19798858 0.10897755 0.16102715 0.23993646 0.09550272 0.057937123 
0.0865908 0.10210626 0.10198296 0.085105136 0.13400303 -0.059366275 0.034229767 0.067644775 -0.027210947 -0.08880447 0.07718851 0.120327204 -0.037030272 -0.0070650075 0.14352283 -0.07157631 0.08078904 0.040626302 -0.020578807 -0.035828535 0.045304324 0.054885525 -0.13865145 -0.14147653 -0.09333441 -0.115315996 -0.114086054 -0.070775844 0.06879386 0.28694853 0.2441224 0.3286065 0.26955298 0.24728802 0.33874798 0.31218594 0.20905323 0.18069094 -0.0422345 0.088768855 0.06730555 0.051748183 -0.022298884 -0.0971577 -0.15100758 -0.25934842 -0.06520376 0.12900253 0.30703077 0.61794144 0.5039785 0.64814675 0.343842 0.21138333 0.04546061 -0.06874878 -0.1288526 0.037132986 0.06533045 -0.029013108 -0.15231144 -0.04520311 -0.0041122837 -0.2173906 -0.12601453 -0.3744999 -0.1776256 0.15001482 0.10939401 0.38860822 0.5215825 0.6114416 0.31680107 0.050926946 0.022893108 -0.0367046 -0.37209082 -0.027738223 0.23680562 -0.213512 -0.33118865 0.03734761 -0.14565763 -0.12500374 -0.13345528 -0.4774453 -0.3975616 -0.051979806 -0.027750816 0.36301154 0.5339109 0.40071803 0.006105774 0.08901541 -0.020730726 0.07022652 -0.08619607 -0.25375122 0.026594091 -0.16341068 -0.23088248 0.040837795 -0.21595098 -0.08991427 -0.2399367 -0.34853405 -0.20943183 -0.23347938 0.16178325 0.38103566 0.49120408 0.34146106 0.07943432 0.018255962 -0.06236913 2.0811982E-4 -0.0858307 -0.2155594 -0.25946328 -0.17763487 0.18699636 0.07202744 -0.24938202 -0.02151517 -0.30614674 -0.43744117 -0.10628463 -0.24442844 0.14280021 0.38469318 0.39962068 0.29215628 -3.5597044E-5 -0.12607701 0.23494722 0.06944218 -0.1636519 -0.2967702 -0.077133834 -0.082492575 0.14272349 -0.09235848 -0.27274102 -0.13144022 -0.427011 -0.34561217 -0.3242437 -0.43067783 0.12800416 0.3488013 0.44395068 0.17290442 -0.24908967 -0.33077493 -0.23117334 -0.19195436 -0.22212692 -0.15016262 -0.15731552 -0.021645313 0.09616658 0.09116565 -0.24488387 -0.23263596 -0.40305486 -0.29631796 -0.15283906 -0.2515458 -0.07657156 0.4911228 0.4315829 0.26058972 -0.11768403 -0.16030972 -0.29229894 -0.3813544 -0.13486627 -0.13751844 -0.09551366 -0.26904342 -0.20248945 0.024091605 -0.13258976 0.023693034 0.082378246 -0.013775033 -0.16533458 -0.14787999 0.20654385 0.5397332 0.5848374 0.297711 -0.018145401 0.11913322 -0.18878828 -0.2050943 -0.11643328 -0.008077305 -0.0107803 0.1002217 0.036648005 -0.012334647 -0.00506237 -0.057531405 0.43952084 -0.08587815 -0.22842014 -0.026077563 0.36937726 0.49584964 0.70067346 0.20013498 0.15408006 0.036647893 -0.12714598 -0.35337344 -0.032110743 0.027766496 0.0331509 0.08845965 -0.046432108 0.10180594 -0.007318855 0.042432144 0.22646855 -0.39987004 -0.22859435 -0.25853407 -0.18009701 0.31799793 0.28262222 0.3000817 0.20806311 0.005843435 -0.2108693 -0.4190037 -0.28024498 -0.11767735 0.26527253 0.04653753 -0.08969137 0.019497102 0.28075168 -0.010062982 0.17831245 0.007551871 -0.14679472 -0.17026927 0.025510034 0.2155503 0.15729311 0.16079181 0.18923956 0.14727952 -0.13311619 -0.16855462 0.0539589 0.016608955 0.06476623 -0.19899634 0.10158931 0.027662242 0.47027272 0.09987169 0.19495486 -0.16636464 -0.30118296 -0.19922811 0.118399546 0.17380044 0.12102222 0.11515242 -0.051435385 0.09810453 0.06628038 0.19600901 0.036775358 0.008769111 0.12266999 0.13031231 0.02668259 0.010872502 0.45541424 0.29424 0.33413273 8.873141E-4 -0.26710188 0.019890672 0.23336953 0.26853955 0.12210197 0.25649115 -0.099147715 -0.03992603 0.12349911 0.12714629 0.32577696 0.16764505 0.12368932 -0.0027355407 0.0048105693 0.1486968 0.56794083 0.2985786 0.19959034 -0.33039442 -0.421575 -0.07846549 0.24054885 0.42806488 0.34748337 0.2368676 0.0214389 -0.032177806 0.1412854 0.28376612 0.28528205 0.022465317 0.05121906 0.30264604 0.13038945 0.08864111 0.37631783 0.25393698 -0.070080444 -0.41581526 -0.42396495 -0.12346811 0.18919167 0.28074107 0.27718052 0.19307277 0.0032077017 -0.1810512 -0.0314858 0.26948535 0.20244837 0.12317307 -0.04582726 0.15704632 0.12819421 -0.023105517 0.29159573 0.1657741 -0.13861556 -0.31807247 -0.1328211 0.029024737 0.32612604 0.4651526 0.4651376 0.28370857 -0.16526596 -0.17071833 -0.2145052 0.09853157 0.14965117 0.36606872 0.031018551 -0.07456587 0.035628043 0.13568859 0.14409229 -0.02133162 -0.24686225 -0.30621594 -0.068913035 0.17330419 0.3560614 0.31280452 0.29487622 0.1081478 0.02649845 -0.02075994 -0.19219887 0.0787712 0.07890519 0.3292334 0.052315306 -0.051064085 0.09703349 0.053858545 0.08844718 -0.022259649 0.021091612 -0.01089839 -0.0767589 -0.023666628 0.17759714 0.2225894 0.035963576 0.10155149 0.012313244 0.05206074 -0.11453143 -0.19578888 -0.017672487 -0.08498097 -0.03537872 0.06037864 0.09743207 
-0.25766364 -0.091098815 -0.10820813 0.12888025 -0.046196043 0.07376679 -0.037716985 0.05159653 0.010101066 -0.06628673 0.08643403 0.049415097 -0.06494661 -0.10048108 0.06458944 0.07014304 0.13740514 -0.026370514 0.119826086 -0.068023756 -0.063241504 -0.103845716 -0.043466467 -0.06731297 0.08538361 0.09039729 -0.06045494 -0.13659844 -0.086753756 -0.05864358 -0.011080005 -0.1509197 -0.23391658 -0.006053506 -0.02899441 -0.09796145 0.19305632 0.28746244 0.17237127 -0.032169465 0.120954715 -9.991036E-4 0.08358089 0.14446253 0.017350111 -0.14437732 -0.12872842 0.015077653 -0.003861936 -0.00395101 -0.10320007 -0.009919381 -0.26725873 -0.2443639 -0.15139718 -0.18132117 0.043664396 0.24325164 0.17335705 0.07206181 0.11600981 -0.02330506 0.039363343 0.13719733 0.108775735 -0.20163012 -0.3406934 -0.25853065 -0.11811156 -0.074354485 -0.015717726 -0.087803796 -0.0896852 -0.29823014 -0.07615516 -0.04373297 0.08428673 0.05076216 0.23163529 0.0150307035 -0.07314308 0.018081585 0.04101414 0.16500889 -0.045092326 -0.16957262 -0.08754935 -0.13586219 -0.2461043 -0.09938183 0.15638565 0.006419925 -0.37804678 -0.17397718 0.059003755 0.26216456 0.18716146 0.28324428 0.1993089 -0.039257992 -0.04505508 -0.054441538 0.19196618 0.162859 0.09867833 -0.007669066 -0.0055313236 -0.15764974 -0.13576591 0.042457886 -0.11192519 0.07727817 0.0075900224 0.14453591 0.16022298 0.31705227 0.16226496 0.18591422 0.020894011 0.021787878 0.27347985 0.13634896 0.22401449 -0.008861081 -0.20043224 -0.23109674 -0.150307 -0.24048291 -0.14397307 -0.0664407 -0.3072805 -0.10659114 -0.0013372572 -0.011383671 0.27629915 0.34166685 0.108294584 0.10092825 -4.489253E-4 0.20164646 0.33831462 -0.04255685 0.10943492 -0.009070271 -0.21522711 -0.17858794 -0.19551364 -0.1931255 -0.15142308 -0.14441168 -0.12122716 0.17462018 0.12254157 0.059026573 0.060488198 -0.011922571 0.11967506 0.17575052 0.19465679 0.2920655 0.14255817 0.03388122 0.06490308 0.090724416 -0.026152108 -0.18335721 -0.0016867879 -0.026951708 -0.11665482 -0.07101542 -0.09040204 0.21825671 0.05384555 0.16603903 -0.12167679 -0.15042861 0.026021075 0.21352562 0.16836707 0.11538546 0.18032193 -0.039411772 0.0047712675 0.02784233 -0.16431661 -0.1673933 -0.304767 0.004513051 -0.21145347 0.032706022 0.3826085 0.4021505 0.37259105 0.1269665 -0.018049564 -0.05156701 0.10246765 0.26217157 0.16425225 0.14882733 0.10101756 0.106202036 -0.2049665 -0.22787136 0.11911 -0.22159563 -0.2503762 0.08739404 0.22658043 0.38663724 0.59888375 0.6300234 0.48433706 0.43594632 -0.30654055 -0.05441136 0.12237681 0.35326147 0.29729575 0.10164361 -0.03122781 -0.02610315 -6.798712E-4 -0.06832861 -0.23026468 -0.32360992 -0.40203363 -0.2978624 -0.2715301 -0.12390564 0.23431751 0.23233807 0.048967026 -0.26762974 -0.32017043 0.041679442 0.21848916 0.38584426 0.34635264 0.24144055 -0.09901394 -0.0014838558 0.17003927 -0.28818798 -0.443011 -0.23893525 -0.40919167 -0.08405329 -0.17622691 -0.12172385 -0.09918545 -0.21839559 -0.11920553 -0.22545551 -0.05545285 0.16785745 0.2800981 0.394894 0.119836725 -0.13326415 -0.15832743 0.0026975824 0.27742612 -0.1787223 -0.38371187 -0.30592242 -0.268964 -0.32418987 -0.25167078 -0.073291995 -0.07951106 -0.39918312 -0.17807697 -0.2745291 -0.06212029 0.33037233 0.4832399 0.22664808 0.09410504 -0.09019735 -0.064535566 0.17513235 0.395714 0.24550153 -0.2603613 -0.31240073 -0.14262076 -0.309287 -0.20490211 0.14894633 -0.09835122 -0.1333401 -0.072583616 -0.1183538 0.27978078 0.3469377 0.16288458 0.12471249 0.10611668 0.111681275 -0.11645736 0.0030097293 0.2925051 0.15277314 0.10468435 -0.24970601 -0.35265264 -0.26278988 -0.20502749 -0.076997794 -0.22338672 -0.2636512 -0.061894674 0.10517875 0.037729513 -0.04512559 0.33085418 0.26131916 0.27257508 0.11607238 -0.036257718 -0.0040121786 0.13917108 0.09936066 0.06985249 -0.049521726 -0.23429424 -0.24101396 -0.32357207 -0.1259809 -0.08018189 0.010690976 -0.16398066 -0.13273875 0.12924995 -0.066361286 0.26103127 0.12369196 -0.015304433 0.08323209 -0.099897735 0.045324862 0.07882261 0.1255752 -0.03226735 0.19536516 0.017842932 -0.19984855 -0.34835032 -0.18074578 -0.101240635 -0.14408033 0.16506767 0.21672285 0.119211264 0.023836762 0.17239176 0.11571286 -0.1488206 -0.17140394 -0.015219121 -0.012581615 0.03873913 0.033586748 0.052128743 0.18798658 0.14522381 -0.2759477 -0.3195646 -0.238947 -0.24137864 -0.012792727 0.03547941 0.065777615 0.028130496 0.12899412 0.15906861 0.0938369 -0.18756558 0.0025426825 -0.17749694 -0.055615406 0.12848422 -0.009234248 0.12610681 0.33050236 0.07769314 -0.20667616 -0.14894685 -0.007013673 -0.01866154 0.09756279 0.12333029 -0.028021403 0.053812914 0.16103539 0.17032826 0.06245049 -0.15353636 0.034899935 -0.0032828914 
0.2833083 -0.045109294 -0.07727677 0.05292395 -0.050878543 -0.065851815 -0.12852134 -0.10858904 0.006320937 -0.054315988 0.060930252 -0.022427307 0.10483386 0.09987015 0.012987204 0.013659308 -0.096064724 0.049338944 0.0643562 0.042838227 0.07420221 0.030531392 -0.14857212 -0.28262517 -0.24809986 -0.16138752 -0.10706598 -0.29295334 -0.31693757 -0.031135764 0.07059762 -0.023522777 -0.07996253 -0.053242832 -0.26395437 -0.031826057 -0.25360498 -0.27145076 -0.033373203 0.16402341 0.0820734 0.04389833 -0.26689968 -0.4017681 -0.346395 -0.14108087 -0.26413518 -0.24713033 -0.09014183 0.2797168 0.17503297 0.021779673 0.053386383 -0.01598241 0.036360636 0.09522017 0.12685603 -0.05689964 0.20506296 0.3543006 0.12828504 0.01807255 -0.38632685 -0.27438816 -0.17252919 -0.26704508 -0.113708094 0.019673767 0.13409194 0.28544477 0.035787586 -0.09973093 0.031170178 0.028310187 -0.01775815 0.1649311 0.460541 0.26113963 0.38230377 0.4139311 0.10453202 0.048452515 -0.2380844 -0.19350399 -0.22174199 0.027628994 0.1784707 0.17565727 0.2019389 0.0866682 0.009847228 -0.07374564 0.22633854 -0.10325574 -0.15161307 0.0019450685 0.12530752 0.46708986 0.34614772 0.3239321 0.18007427 -0.11936567 -0.11702894 0.023704508 0.10980951 0.24151835 0.09896616 0.15530662 -0.00883691 -0.10294974 -0.008221652 -0.015005536 0.109926365 0.23022348 -0.009209947 -0.15180536 0.25097772 0.23936093 0.3520157 0.20675588 0.24818352 0.030331163 -0.18795899 -0.1524188 -0.04986366 -0.15002553 -0.010024414 0.18526867 0.0097129205 -0.035662297 0.2915359 0.29116282 0.30606502 0.3298719 0.3138845 0.18776876 0.4338511 0.37414142 0.40934342 0.1742442 0.012553186 0.05429282 -0.12591133 0.11408109 0.1677534 0.15569681 0.11914141 0.017053926 -0.029979376 -0.08261063 0.19273968 0.13874753 -0.03989534 0.20155697 0.39334446 0.34465003 0.46279642 0.32938695 0.22539113 0.22060515 -0.17733882 -0.06675613 -0.24421081 0.1263058 0.04926892 0.094640076 -0.11103898 0.084230945 -0.11474332 -0.0028972721 0.0051289564 0.38564265 -0.18014047 -0.045655273 0.014290076 -0.09615144 0.34795672 0.40552962 0.074191034 -0.051320408 -0.04609658 0.05537402 -0.039608225 -0.23103815 0.22053716 0.0031487956 -0.050603345 0.27554843 -0.11502013 0.04286855 0.3750454 0.08898624 0.051773686 -0.11775383 -0.21297237 -0.14465041 0.24271698 0.2592616 0.111936696 0.024052849 -0.04557083 0.103543095 -0.17653526 -0.08073622 -0.10547881 0.11095315 0.23378521 0.21002989 -0.16373914 -0.16993572 -0.051927242 0.062119264 0.12322476 -0.054049633 -0.036215764 0.15203102 0.37836343 0.0627748 0.121347524 0.13731818 -0.011204642 -0.07876501 -0.17469399 -0.14155313 -0.19361442 -0.08132541 -0.20019807 -0.2405747 -0.49347234 -0.54002255 -0.18828662 0.021813108 -0.1004691 -0.59448165 -0.46982622 0.11496942 0.053958863 0.12810594 0.28454417 0.18131824 0.2105 0.035462733 -0.19428691 -0.08385035 0.028973995 -0.33152404 -0.40718216 -0.40888375 -0.35498056 -0.7284097 -0.5728702 -0.55258065 -0.43280745 -0.9241389 -0.2396419 0.038359407 0.021543184 0.23663905 0.23575972 0.19748369 0.050994508 0.17987265 0.3509328 -0.14053641 -0.24817966 -0.038286243 -0.21872056 -0.5171781 -0.41224512 -0.5700394 -0.3641368 -0.1481046 -0.32178375 -0.36033162 -0.11128263 0.17875437 0.272605 0.19205284 0.035641868 0.041906297 0.066240706 -0.042020053 0.34000212 0.16685209 -0.16053683 0.09883447 0.11281343 -0.38034558 -0.61583924 -0.3143182 -0.0971984 -0.41632324 -0.12408197 -0.38926867 -0.12989956 0.20691487 0.24221674 -0.14609624 0.17955713 0.17500672 0.07888539 -0.036239274 0.1011724 0.02708631 -0.30389017 -0.19942346 -0.14092079 -0.655343 -0.60468554 -0.54686284 -0.1736213 -0.3001401 -0.15084021 -0.13278285 -0.33423525 -0.026289286 -0.1504402 -0.028361179 -0.06331417 0.18175055 -0.11276556 0.05315395 0.31417236 -0.15350243 -0.118958965 0.05263062 -0.1489667 -0.63278943 -0.716967 -0.4454841 -0.28093243 -0.01386336 0.1403738 -0.027614677 0.188132 0.06761377 0.05839884 -0.19261481 -0.10307457 -0.16537984 0.05426668 -0.02348306 0.12834215 -0.06757404 -0.022352586 0.24541675 -0.18065695 -0.413752 -0.08954757 -0.16447504 -0.002992663 -0.057865255 0.1703825 0.0755054 0.08791153 -0.065068096 -0.12963632 -0.2709526 -0.05168409 -0.059343956 -0.10180836 -0.04276516 0.14273395 -0.023169318 0.15810001 0.207024 -0.02080487 -0.32797295 -0.2551713 0.10575151 0.12602279 0.064140834 0.112235345 0.17772213 0.054101527 0.012246628 0.051920153 0.04700136 0.17087379 0.16773647 -0.019596983 -0.08357333 0.08209105 0.027400058 0.2589681 0.28564075 -0.019997763 -0.037367634 0.09845868 0.003953463 0.35850278 0.1967286 0.22386831 0.03625649 0.2037974 0.19359256 0.25199085 0.12583087 0.17129515 -0.07762047 0.0769321 
0.99820095 -0.08167915 0.093698576 0.049692936 -0.0941789 -0.04741942 0.014361882 -0.06146842 0.14089233 -0.08666721 0.054646537 0.046774246 -0.107426405 -0.11123713 -0.029321779 -0.04986467 0.10558248 -0.06897074 -0.062863424 0.005820972 -0.07093635 -0.07476003 -0.16684192 -0.1221208 0.12697361 0.101590514 0.19412114 0.020481016 -0.10579206 -0.22182544 -0.052245278 0.020966258 0.19943766 -0.1406554 -0.11336363 0.1565719 0.025230186 0.020222312 0.040330276 0.028035725 0.08306223 -0.11568145 -0.06856363 0.0792978 0.26783383 0.0053682993 0.22268014 0.025386048 -0.090009086 0.040465362 0.09774425 0.25702712 0.3228788 0.1444619 0.18587919 0.30950108 0.117123604 -9.42734E-4 -0.014065337 -0.08486091 0.11801319 0.023773877 -0.054044414 -0.05649288 -0.050252285 -0.14363462 -0.07186766 -0.12655973 0.043434706 0.0029210676 0.12750323 0.07887353 0.23763399 0.31995118 0.19820581 0.23788677 0.62945193 0.24581675 -0.31708747 -0.16428553 0.2732807 -0.10481657 -0.11086956 0.12052534 -0.006833641 0.10309379 0.01132019 0.3469875 0.5636012 0.27374977 0.22807807 0.36735287 0.09550306 0.13836437 -0.102153555 0.025739243 0.32116723 0.71514225 0.07239129 -0.22798474 0.16519777 -0.054714613 -0.054978885 0.3048292 0.1151771 -0.28666487 -0.061945982 0.24561061 0.029025028 0.14334373 0.3430525 0.58009464 0.284976 -0.24156256 -0.3208789 -0.10194761 0.0726745 0.33419552 0.1704182 -0.004165297 0.18501598 -0.10055839 0.052398846 -0.039573375 -0.14572191 -0.46825477 -0.38977435 0.1978313 0.012363655 0.18908606 0.4863656 0.4804864 0.062112443 -0.42799425 -0.44348806 -0.30208805 -0.11852136 0.2850974 0.26268864 -0.18820557 0.45777583 0.06681614 -0.14825961 -0.10946119 -0.1335409 -0.20406221 0.12199786 0.33813754 0.4971292 0.27266407 0.16274644 0.024413597 -0.4547239 -0.7723726 -0.17167011 -0.33939865 0.0017318856 0.27140236 0.17386349 -0.020690136 0.2545908 0.100410506 -0.22592299 -0.15931527 -0.062045775 -0.026455553 -0.15175053 0.3229749 0.21557742 0.30019563 -0.027394902 0.14604616 -0.12045882 -0.4791549 -0.3304404 -0.30021733 -0.18901886 0.08249792 -0.09358919 -0.07915594 0.2529495 0.13517116 0.041704055 -0.21480688 0.015976418 -0.101163864 0.066811614 0.7129548 0.17071626 0.29129636 -0.06310268 -0.34064156 -0.4751977 -0.46265203 -0.4716613 -0.2482326 -0.040766377 0.02848128 0.021787308 -0.24482344 -0.20286037 0.11066186 0.18314348 -0.05698202 -0.27313468 -0.09897838 -0.08769321 0.31035283 0.16065195 -0.13425738 -0.37571162 -0.4605244 -0.36651903 -0.3386513 -0.3585398 -0.26615098 -0.045586385 -0.01889269 0.21634044 0.055637196 0.10137478 0.059382457 -0.19819324 0.043155696 -0.11776496 0.12246639 0.078905195 0.26446646 -0.16227153 -0.70397085 -0.725206 -0.45276728 -0.29937077 -0.21514045 0.05046716 0.30202362 0.09741309 0.25445557 0.15889895 0.07929912 0.03599918 0.07748003 -0.08966951 0.13600682 -0.0363028 0.033201188 -0.13568245 -0.16336347 -0.15964767 -0.59551656 -0.63181156 -0.30103192 -0.1601801 -0.31945145 0.027605634 0.066882886 -0.13023567 -0.08805888 -0.106013015 -0.049832106 0.056007713 0.04851076 -0.13301001 -0.08495022 0.032397985 -0.025818776 -0.13404894 -0.0853352 -0.19583796 -0.0860117 -0.034064822 -0.15899123 -0.062331047 -0.17541492 -0.082064405 0.38747576 0.47802195 0.36163378 -0.26584497 -0.13375846 -0.07961996 0.075904705 0.19682804 0.18142113 -0.110515125 0.015707918 0.19742857 0.12202971 0.07844185 -0.08659801 0.025775934 -0.16198172 0.050605625 0.040269535 0.105498254 0.36407995 0.36529672 -0.063001126 -0.13464127 0.16183896 0.14761463 -0.016751768 -0.0261073 0.010432104 -0.30743605 -0.30410635 -0.012541008 -0.16279697 -0.20335674 -0.4528315 -0.2950214 -0.41254696 -0.09742699 0.1613904 0.20501867 0.1647551 -0.0056934576 -0.25540796 -0.12573747 0.15071622 -0.04419729 0.06615445 0.13974 0.20161599 0.17757283 -0.00523787 -0.034506816 -0.33876637 -0.51169467 -0.60991526 -0.42317295 -0.07606863 0.0059859175 0.15365998 -0.028968507 0.022296455 -0.11086052 -0.13700561 -0.027978335 0.054608632 -0.013483042 -0.08832253 0.22186598 0.21800646 -0.053470723 0.24483229 0.15343234 -0.32470652 -0.389864 -0.30425087 -0.14584613 0.13130735 0.18401784 0.26599413 0.32150197 0.099964306 0.075352505 -0.009267196 0.07724896 0.04524723 -0.140031 0.110477746 0.20590593 0.06593007 0.25695947 0.21518098 0.16821915 -0.06421791 -0.24355564 -0.011354618 -0.013874102 0.06324568 0.08943802 0.13564838 0.22067761 0.2856224 0.057571348 0.12217567 0.07951691 -0.07706703 -0.086528726 -0.014147887 0.18174265 0.2732211 0.42157492 0.6032266 0.3153139 0.16690138 0.07721016 -0.11011534 -0.13796844 -0.013725789 0.04669325 0.00876791 0.20068873 0.10116961 -0.10440663 0.21601465 0.18810193 0.082186 -0.12100955 
